|--- cellular_process <= 0.78
|   |--- cellular_process <= 0.70
|   |   |--- metabolic_process <= 0.80
|   |   |   |--- cellular_anatomical_entity <= 0.88
|   |   |   |   |--- phosphorus_utilization <= 0.98
|   |   |   |   |   |--- translation_regulator_activity <= 0.96
|   |   |   |   |   |   |--- class: 1
|   |   |   |   |   |--- translation_regulator_activity >  0.96
|   |   |   |   |   |   |--- class: 0
|   |   |   |   |--- phosphorus_utilization >  0.98
|   |   |   |   |   |--- class: 0
|   |   |   |--- cellular_anatomical_entity >  0.88
|   |   |   |   |--- class: 0
|   |   |--- metabolic_process >  0.80
|   |   |   |--- cellular_anatomical_entity <= 0.86
|   |   |   |   |--- nutrient_reservoir_activity <= 0.98
|   |   |   |   |   |--- structural_molecule_activity <= 0.99
|   |   |   |   |   |   |--- class: 0
|   |   |   |   |   |--- structural_molecule_activity >  0.99
|   |   |   |   |   |   |--- class: 1
|   |   |   |   |--- nutrient_reservoir_activity >  0.98
|   |   |   |   |   |--- class: 0
|   |   |   |--- cellular_anatomical_entity >  0.86
|   |   |   |   |--- cargo_receptor_activity <= 1.00
|   |   |   |   |   |--- toxin_activity <= 1.00
|   |   |   |   |   |   |--- class: 0
|   |   |   |   |   |--- toxin_activity >  1.00
|   |   |   |   |   |   |--- class: 1
|   |   |   |   |--- cargo_receptor_activity >  1.00
|   |   |   |   |   |--- biological_regulation <= 0.70
|   |   |   |   |   |   |--- class: 0
|   |   |   |   |   |--- biological_regulation >  0.70
|   |   |   |   |   |   |--- class: 1
|   |--- cellular_process >  0.70
|   |   |--- cellular_anatomical_entity <= 0.86
|   |   |   |--- response_to_stimulus <= 0.99
|   |   |   |   |--- biological_regulation <= 0.73
|   |   |   |   |   |--- class: 0
|   |   |   |   |--- biological_regulation >  0.73
|   |   |   |   |   |--- signaling <= 1.00
|   |   |   |   |   |   |--- class: 0
|   |   |   |   |   |--- signaling >  1.00
|   |   |   |   |   |   |--- class: 1
|   |   |   |--- response_to_stimulus >  0.99
|   |   |   |   |--- pigmentation <= 1.00
|   |   |   |   |   |--- class: 0
|   |   |   |   |--- pigmentation >  1.00
|   |   |   |   |   |--- binding <= 0.89
|   |   |   |   |   |   |--- class: 0
|   |   |   |   |   |--- binding >  0.89
|   |   |   |   |   |   |--- class: 1
|   |   |--- cellular_anatomical_entity >  0.86
|   |   |   |--- metabolic_process <= 0.84
|   |   |   |   |--- pigmentation <= 1.00
|   |   |   |   |   |--- sulfur_utilization <= 1.00
|   |   |   |   |   |   |--- class: 0
|   |   |   |   |   |--- sulfur_utilization >  1.00
|   |   |   |   |   |   |--- class: 1
|   |   |   |   |--- pigmentation >  1.00
|   |   |   |   |   |--- biological_regulation <= 0.72
|   |   |   |   |   |   |--- class: 0
|   |   |   |   |   |--- biological_regulation >  0.72
|   |   |   |   |   |   |--- class: 1
|   |   |   |--- metabolic_process >  0.84
|   |   |   |   |--- carbohydrate_utilization <= 1.00
|   |   |   |   |   |--- binding <= 0.89
|   |   |   |   |   |   |--- class: 0
|   |   |   |   |   |--- binding >  0.89
|   |   |   |   |   |   |--- class: 1
|   |   |   |   |--- carbohydrate_utilization >  1.00
|   |   |   |   |   |--- class: 1
|--- cellular_process >  0.78
|   |--- cellular_process <= 0.86
|   |   |--- cellular_anatomical_entity <= 0.84
|   |   |   |--- multi-organism_process <= 1.00
|   |   |   |   |--- biological_regulation <= 0.76
|   |   |   |   |   |--- sulfur_utilization <= 1.00
|   |   |   |   |   |   |--- class: 0
|   |   |   |   |   |--- sulfur_utilization >  1.00
|   |   |   |   |   |   |--- class: 1
|   |   |   |   |--- biological_regulation >  0.76
|   |   |   |   |   |--- biological_regulation <= 0.98
|   |   |   |   |   |   |--- class: 1
|   |   |   |   |   |--- biological_regulation >  0.98
|   |   |   |   |   |   |--- class: 0
|   |   |   |--- multi-organism_process >  1.00
|   |   |   |   |--- metabolic_process <= 0.99
|   |   |   |   |   |--- class: 1
|   |   |   |   |--- metabolic_process >  0.99
|   |   |   |   |   |--- other_organism_part <= 1.00
|   |   |   |   |   |   |--- class: 0
|   |   |   |   |   |--- other_organism_part >  1.00
|   |   |   |   |   |   |--- class: 1
|   |   |--- cellular_anatomical_entity >  0.84
|   |   |   |--- molecular_transducer_activity <= 1.00
|   |   |   |   |--- biological_regulation <= 0.74
|   |   |   |   |   |--- localization <= 0.99
|   |   |   |   |   |   |--- class: 1
|   |   |   |   |   |--- localization >  0.99
|   |   |   |   |   |   |--- class: 0
|   |   |   |   |--- biological_regulation >  0.74
|   |   |   |   |   |--- class: 1
|   |   |   |--- molecular_transducer_activity >  1.00
|   |   |   |   |--- cellular_process <= 0.82
|   |   |   |   |   |--- multicellular_organismal_process <= 0.96
|   |   |   |   |   |   |--- class: 0
|   |   |   |   |   |--- multicellular_organismal_process >  0.96
|   |   |   |   |   |   |--- class: 1
|   |   |   |   |--- cellular_process >  0.82
|   |   |   |   |   |--- class: 1
|   |--- cellular_process >  0.86
|   |   |--- cellular_anatomical_entity <= 0.85
|   |   |   |--- biological_regulation <= 0.71
|   |   |   |   |--- metabolic_process <= 0.99
|   |   |   |   |   |--- cargo_receptor_activity <= 1.00
|   |   |   |   |   |   |--- class: 0
|   |   |   |   |   |--- cargo_receptor_activity >  1.00
|   |   |   |   |   |   |--- class: 1
|   |   |   |   |--- metabolic_process >  0.99
|   |   |   |   |   |--- antioxidant_activity <= 1.00
|   |   |   |   |   |   |--- class: 0
|   |   |   |   |   |--- antioxidant_activity >  1.00
|   |   |   |   |   |   |--- class: 1
|   |   |   |--- biological_regulation >  0.71
|   |   |   |   |--- binding <= 0.85
|   |   |   |   |   |--- multicellular_organismal_process <= 0.94
|   |   |   |   |   |   |--- class: 0
|   |   |   |   |   |--- multicellular_organismal_process >  0.94
|   |   |   |   |   |   |--- class: 1
|   |   |   |   |--- binding >  0.85
|   |   |   |   |   |--- class: 1
|   |   |--- cellular_anatomical_entity >  0.85
|   |   |   |--- cellular_process <= 0.91
|   |   |   |   |--- molecular_transducer_activity <= 0.97
|   |   |   |   |   |--- metabolic_process <= 0.98
|   |   |   |   |   |   |--- class: 1
|   |   |   |   |   |--- metabolic_process >  0.98
|   |   |   |   |   |   |--- class: 0
|   |   |   |   |--- molecular_transducer_activity >  0.97
|   |   |   |   |   |--- class: 1
|   |   |   |--- cellular_process >  0.91
|   |   |   |   |--- molecular_function_regulator <= 0.89
|   |   |   |   |   |--- cellular_anatomical_entity <= 0.86
|   |   |   |   |   |   |--- class: 0
|   |   |   |   |   |--- cellular_anatomical_entity >  0.86
|   |   |   |   |   |   |--- class: 1
|   |   |   |   |--- molecular_function_regulator >  0.89
|   |   |   |   |   |--- class: 1

