|--- cellular_process <= 0.08
|   |--- cellular_anatomical_entity <= 0.21
|   |   |--- cellular_anatomical_entity <= 0.00
|   |   |   |--- cellular_process <= 0.00
|   |   |   |   |--- binding <= 0.28
|   |   |   |   |   |--- binding <= 0.01
|   |   |   |   |   |   |--- biological_regulation <= 0.01
|   |   |   |   |   |   |   |--- multicellular_organismal_process <= 0.55
|   |   |   |   |   |   |   |   |--- multicellular_organismal_process <= 0.05
|   |   |   |   |   |   |   |   |   |--- class: 1
|   |   |   |   |   |   |   |   |--- multicellular_organismal_process >  0.05
|   |   |   |   |   |   |   |   |   |--- class: 0
|   |   |   |   |   |   |   |--- multicellular_organismal_process >  0.55
|   |   |   |   |   |   |   |   |--- class: 1
|   |   |   |   |   |   |--- biological_regulation >  0.01
|   |   |   |   |   |   |   |--- molecular_function_regulator <= 0.38
|   |   |   |   |   |   |   |   |--- class: 0
|   |   |   |   |   |   |   |--- molecular_function_regulator >  0.38
|   |   |   |   |   |   |   |   |--- class: 1
|   |   |   |   |   |--- binding >  0.01
|   |   |   |   |   |   |--- binding <= 0.08
|   |   |   |   |   |   |   |--- binding <= 0.08
|   |   |   |   |   |   |   |   |--- binding <= 0.08
|   |   |   |   |   |   |   |   |   |--- multicellular_organismal_process <= 0.00
|   |   |   |   |   |   |   |   |   |   |--- biological_regulation <= 0.02
|   |   |   |   |   |   |   |   |   |   |   |--- truncated branch of depth 14
|   |   |   |   |   |   |   |   |   |   |--- biological_regulation >  0.02
|   |   |   |   |   |   |   |   |   |   |   |--- class: 0
|   |   |   |   |   |   |   |   |   |--- multicellular_organismal_process >  0.00
|   |   |   |   |   |   |   |   |   |   |--- class: 0
|   |   |   |   |   |   |   |   |--- binding >  0.08
|   |   |   |   |   |   |   |   |   |--- class: 1
|   |   |   |   |   |   |   |--- binding >  0.08
|   |   |   |   |   |   |   |   |--- class: 0
|   |   |   |   |   |   |--- binding >  0.08
|   |   |   |   |   |   |   |--- biological_regulation <= 0.00
|   |   |   |   |   |   |   |   |--- multicellular_organismal_process <= 0.01
|   |   |   |   |   |   |   |   |   |--- binding <= 0.11
|   |   |   |   |   |   |   |   |   |   |--- binding <= 0.10
|   |   |   |   |   |   |   |   |   |   |   |--- truncated branch of depth 8
|   |   |   |   |   |   |   |   |   |   |--- binding >  0.10
|   |   |   |   |   |   |   |   |   |   |   |--- truncated branch of depth 2
|   |   |   |   |   |   |   |   |   |--- binding >  0.11
|   |   |   |   |   |   |   |   |   |   |--- binding <= 0.18
|   |   |   |   |   |   |   |   |   |   |   |--- truncated branch of depth 7
|   |   |   |   |   |   |   |   |   |   |--- binding >  0.18
|   |   |   |   |   |   |   |   |   |   |   |--- truncated branch of depth 8
|   |   |   |   |   |   |   |   |--- multicellular_organismal_process >  0.01
|   |   |   |   |   |   |   |   |   |--- class: 0
|   |   |   |   |   |   |   |--- biological_regulation >  0.00
|   |   |   |   |   |   |   |   |--- class: 0
|   |   |   |   |--- binding >  0.28
|   |   |   |   |   |--- multicellular_organismal_process <= 0.25
|   |   |   |   |   |   |--- binding <= 0.93
|   |   |   |   |   |   |   |--- biological_regulation <= 0.00
|   |   |   |   |   |   |   |   |--- developmental_process <= 0.03
|   |   |   |   |   |   |   |   |   |--- multicellular_organismal_process <= 0.02
|   |   |   |   |   |   |   |   |   |   |--- binding <= 0.48
|   |   |   |   |   |   |   |   |   |   |   |--- truncated branch of depth 7
|   |   |   |   |   |   |   |   |   |   |--- binding >  0.48
|   |   |   |   |   |   |   |   |   |   |   |--- truncated branch of depth 3
|   |   |   |   |   |   |   |   |   |--- multicellular_organismal_process >  0.02
|   |   |   |   |   |   |   |   |   |   |--- class: 0
|   |   |   |   |   |   |   |   |--- developmental_process >  0.03
|   |   |   |   |   |   |   |   |   |--- class: 0
|   |   |   |   |   |   |   |--- biological_regulation >  0.00
|   |   |   |   |   |   |   |   |--- molecular_function_regulator <= 0.33
|   |   |   |   |   |   |   |   |   |--- class: 0
|   |   |   |   |   |   |   |   |--- molecular_function_regulator >  0.33
|   |   |   |   |   |   |   |   |   |--- class: 1
|   |   |   |   |   |   |--- binding >  0.93
|   |   |   |   |   |   |   |--- molecular_function_regulator <= 0.30
|   |   |   |   |   |   |   |   |--- biological_regulation <= 0.01
|   |   |   |   |   |   |   |   |   |--- class: 1
|   |   |   |   |   |   |   |   |--- biological_regulation >  0.01
|   |   |   |   |   |   |   |   |   |--- class: 0
|   |   |   |   |   |   |   |--- molecular_function_regulator >  0.30
|   |   |   |   |   |   |   |   |--- class: 1
|   |   |   |   |   |--- multicellular_organismal_process >  0.25
|   |   |   |   |   |   |--- class: 1
|   |   |   |--- cellular_process >  0.00
|   |   |   |   |--- binding <= 0.34
|   |   |   |   |   |--- translation_regulator_activity <= 0.50
|   |   |   |   |   |   |--- molecular_function_regulator <= 0.83
|   |   |   |   |   |   |   |--- localization <= 0.08
|   |   |   |   |   |   |   |   |--- binding <= 0.03
|   |   |   |   |   |   |   |   |   |--- binding <= 0.03
|   |   |   |   |   |   |   |   |   |   |--- cellular_process <= 0.01
|   |   |   |   |   |   |   |   |   |   |   |--- class: 0
|   |   |   |   |   |   |   |   |   |   |--- cellular_process >  0.01
|   |   |   |   |   |   |   |   |   |   |   |--- truncated branch of depth 8
|   |   |   |   |   |   |   |   |   |--- binding >  0.03
|   |   |   |   |   |   |   |   |   |   |--- class: 1
|   |   |   |   |   |   |   |   |--- binding >  0.03
|   |   |   |   |   |   |   |   |   |--- metabolic_process <= 0.09
|   |   |   |   |   |   |   |   |   |   |--- binding <= 0.04
|   |   |   |   |   |   |   |   |   |   |   |--- truncated branch of depth 2
|   |   |   |   |   |   |   |   |   |   |--- binding >  0.04
|   |   |   |   |   |   |   |   |   |   |   |--- class: 0
|   |   |   |   |   |   |   |   |   |--- metabolic_process >  0.09
|   |   |   |   |   |   |   |   |   |   |--- metabolic_process <= 0.11
|   |   |   |   |   |   |   |   |   |   |   |--- truncated branch of depth 2
|   |   |   |   |   |   |   |   |   |   |--- metabolic_process >  0.11
|   |   |   |   |   |   |   |   |   |   |   |--- class: 0
|   |   |   |   |   |   |   |--- localization >  0.08
|   |   |   |   |   |   |   |   |--- cellular_process <= 0.04
|   |   |   |   |   |   |   |   |   |--- class: 1
|   |   |   |   |   |   |   |   |--- cellular_process >  0.04
|   |   |   |   |   |   |   |   |   |--- class: 0
|   |   |   |   |   |   |--- molecular_function_regulator >  0.83
|   |   |   |   |   |   |   |--- class: 1
|   |   |   |   |   |--- translation_regulator_activity >  0.50
|   |   |   |   |   |   |--- class: 1
|   |   |   |   |--- binding >  0.34
|   |   |   |   |   |--- response_to_stimulus <= 0.01
|   |   |   |   |   |   |--- cellular_process <= 0.02
|   |   |   |   |   |   |   |--- cellular_process <= 0.01
|   |   |   |   |   |   |   |   |--- cellular_process <= 0.01
|   |   |   |   |   |   |   |   |   |--- cellular_process <= 0.01
|   |   |   |   |   |   |   |   |   |   |--- class: 0
|   |   |   |   |   |   |   |   |   |--- cellular_process >  0.01
|   |   |   |   |   |   |   |   |   |   |--- cellular_process <= 0.01
|   |   |   |   |   |   |   |   |   |   |   |--- class: 1
|   |   |   |   |   |   |   |   |   |   |--- cellular_process >  0.01
|   |   |   |   |   |   |   |   |   |   |   |--- class: 0
|   |   |   |   |   |   |   |   |--- cellular_process >  0.01
|   |   |   |   |   |   |   |   |   |--- class: 1
|   |   |   |   |   |   |   |--- cellular_process >  0.01
|   |   |   |   |   |   |   |   |--- class: 0
|   |   |   |   |   |   |--- cellular_process >  0.02
|   |   |   |   |   |   |   |--- cellular_process <= 0.03
|   |   |   |   |   |   |   |   |--- class: 1
|   |   |   |   |   |   |   |--- cellular_process >  0.03
|   |   |   |   |   |   |   |   |--- class: 0
|   |   |   |   |   |--- response_to_stimulus >  0.01
|   |   |   |   |   |   |--- class: 1
|   |   |--- cellular_anatomical_entity >  0.00
|   |   |   |--- cellular_process <= 0.03
|   |   |   |   |--- biological_regulation <= 0.07
|   |   |   |   |   |--- multicellular_organismal_process <= 0.26
|   |   |   |   |   |   |--- cellular_anatomical_entity <= 0.08
|   |   |   |   |   |   |   |--- metabolic_process <= 0.23
|   |   |   |   |   |   |   |   |--- biological_adhesion <= 0.31
|   |   |   |   |   |   |   |   |   |--- localization <= 0.11
|   |   |   |   |   |   |   |   |   |   |--- response_to_stimulus <= 0.12
|   |   |   |   |   |   |   |   |   |   |   |--- truncated branch of depth 32
|   |   |   |   |   |   |   |   |   |   |--- response_to_stimulus >  0.12
|   |   |   |   |   |   |   |   |   |   |   |--- truncated branch of depth 7
|   |   |   |   |   |   |   |   |   |--- localization >  0.11
|   |   |   |   |   |   |   |   |   |   |--- localization <= 0.14
|   |   |   |   |   |   |   |   |   |   |   |--- truncated branch of depth 5
|   |   |   |   |   |   |   |   |   |   |--- localization >  0.14
|   |   |   |   |   |   |   |   |   |   |   |--- truncated branch of depth 5
|   |   |   |   |   |   |   |   |--- biological_adhesion >  0.31
|   |   |   |   |   |   |   |   |   |--- cellular_process <= 0.02
|   |   |   |   |   |   |   |   |   |   |--- class: 0
|   |   |   |   |   |   |   |   |   |--- cellular_process >  0.02
|   |   |   |   |   |   |   |   |   |   |--- class: 1
|   |   |   |   |   |   |   |--- metabolic_process >  0.23
|   |   |   |   |   |   |   |   |--- cellular_process <= 0.01
|   |   |   |   |   |   |   |   |   |--- class: 1
|   |   |   |   |   |   |   |   |--- cellular_process >  0.01
|   |   |   |   |   |   |   |   |   |--- cellular_process <= 0.02
|   |   |   |   |   |   |   |   |   |   |--- cellular_anatomical_entity <= 0.03
|   |   |   |   |   |   |   |   |   |   |   |--- class: 0
|   |   |   |   |   |   |   |   |   |   |--- cellular_anatomical_entity >  0.03
|   |   |   |   |   |   |   |   |   |   |   |--- truncated branch of depth 2
|   |   |   |   |   |   |   |   |   |--- cellular_process >  0.02
|   |   |   |   |   |   |   |   |   |   |--- class: 0
|   |   |   |   |   |   |--- cellular_anatomical_entity >  0.08
|   |   |   |   |   |   |   |--- interspecies_interaction_between_organisms <= 0.26
|   |   |   |   |   |   |   |   |--- cellular_process <= 0.00
|   |   |   |   |   |   |   |   |   |--- catalytic_activity <= 0.13
|   |   |   |   |   |   |   |   |   |   |--- binding <= 0.32
|   |   |   |   |   |   |   |   |   |   |   |--- truncated branch of depth 25
|   |   |   |   |   |   |   |   |   |   |--- binding >  0.32
|   |   |   |   |   |   |   |   |   |   |   |--- truncated branch of depth 17
|   |   |   |   |   |   |   |   |   |--- catalytic_activity >  0.13
|   |   |   |   |   |   |   |   |   |   |--- metabolic_process <= 0.01
|   |   |   |   |   |   |   |   |   |   |   |--- class: 0
|   |   |   |   |   |   |   |   |   |   |--- metabolic_process >  0.01
|   |   |   |   |   |   |   |   |   |   |   |--- class: 1
|   |   |   |   |   |   |   |   |--- cellular_process >  0.00
|   |   |   |   |   |   |   |   |   |--- biological_regulation <= 0.03
|   |   |   |   |   |   |   |   |   |   |--- localization <= 0.41
|   |   |   |   |   |   |   |   |   |   |   |--- truncated branch of depth 39
|   |   |   |   |   |   |   |   |   |   |--- localization >  0.41
|   |   |   |   |   |   |   |   |   |   |   |--- class: 1
|   |   |   |   |   |   |   |   |   |--- biological_regulation >  0.03
|   |   |   |   |   |   |   |   |   |   |--- localization <= 0.19
|   |   |   |   |   |   |   |   |   |   |   |--- truncated branch of depth 25
|   |   |   |   |   |   |   |   |   |   |--- localization >  0.19
|   |   |   |   |   |   |   |   |   |   |   |--- truncated branch of depth 3
|   |   |   |   |   |   |   |--- interspecies_interaction_between_organisms >  0.26
|   |   |   |   |   |   |   |   |--- cellular_process <= 0.02
|   |   |   |   |   |   |   |   |   |--- metabolic_process <= 0.02
|   |   |   |   |   |   |   |   |   |   |--- class: 0
|   |   |   |   |   |   |   |   |   |--- metabolic_process >  0.02
|   |   |   |   |   |   |   |   |   |   |--- biological_regulation <= 0.00
|   |   |   |   |   |   |   |   |   |   |   |--- class: 1
|   |   |   |   |   |   |   |   |   |   |--- biological_regulation >  0.00
|   |   |   |   |   |   |   |   |   |   |   |--- truncated branch of depth 2
|   |   |   |   |   |   |   |   |--- cellular_process >  0.02
|   |   |   |   |   |   |   |   |   |--- interspecies_interaction_between_organisms <= 0.73
|   |   |   |   |   |   |   |   |   |   |--- cellular_anatomical_entity <= 0.10
|   |   |   |   |   |   |   |   |   |   |   |--- truncated branch of depth 2
|   |   |   |   |   |   |   |   |   |   |--- cellular_anatomical_entity >  0.10
|   |   |   |   |   |   |   |   |   |   |   |--- class: 1
|   |   |   |   |   |   |   |   |   |--- interspecies_interaction_between_organisms >  0.73
|   |   |   |   |   |   |   |   |   |   |--- class: 0
|   |   |   |   |   |--- multicellular_organismal_process >  0.26
|   |   |   |   |   |   |--- cellular_process <= 0.00
|   |   |   |   |   |   |   |--- biological_regulation <= 0.04
|   |   |   |   |   |   |   |   |--- class: 1
|   |   |   |   |   |   |   |--- biological_regulation >  0.04
|   |   |   |   |   |   |   |   |--- biological_regulation <= 0.05
|   |   |   |   |   |   |   |   |   |--- class: 0
|   |   |   |   |   |   |   |   |--- biological_regulation >  0.05
|   |   |   |   |   |   |   |   |   |--- class: 1
|   |   |   |   |   |   |--- cellular_process >  0.00
|   |   |   |   |   |   |   |--- binding <= 0.04
|   |   |   |   |   |   |   |   |--- class: 0
|   |   |   |   |   |   |   |--- binding >  0.04
|   |   |   |   |   |   |   |   |--- metabolic_process <= 0.01
|   |   |   |   |   |   |   |   |   |--- developmental_process <= 0.18
|   |   |   |   |   |   |   |   |   |   |--- immune_system_process <= 0.01
|   |   |   |   |   |   |   |   |   |   |   |--- class: 1
|   |   |   |   |   |   |   |   |   |   |--- immune_system_process >  0.01
|   |   |   |   |   |   |   |   |   |   |   |--- class: 0
|   |   |   |   |   |   |   |   |   |--- developmental_process >  0.18
|   |   |   |   |   |   |   |   |   |   |--- cellular_anatomical_entity <= 0.05
|   |   |   |   |   |   |   |   |   |   |   |--- class: 0
|   |   |   |   |   |   |   |   |   |   |--- cellular_anatomical_entity >  0.05
|   |   |   |   |   |   |   |   |   |   |   |--- class: 1
|   |   |   |   |   |   |   |   |--- metabolic_process >  0.01
|   |   |   |   |   |   |   |   |   |--- class: 0
|   |   |   |   |--- biological_regulation >  0.07
|   |   |   |   |   |--- biological_regulation <= 0.24
|   |   |   |   |   |   |--- cellular_anatomical_entity <= 0.10
|   |   |   |   |   |   |   |--- multicellular_organismal_process <= 0.20
|   |   |   |   |   |   |   |   |--- immune_system_process <= 0.07
|   |   |   |   |   |   |   |   |   |--- metabolic_process <= 0.08
|   |   |   |   |   |   |   |   |   |   |--- cellular_anatomical_entity <= 0.03
|   |   |   |   |   |   |   |   |   |   |   |--- truncated branch of depth 5
|   |   |   |   |   |   |   |   |   |   |--- cellular_anatomical_entity >  0.03
|   |   |   |   |   |   |   |   |   |   |   |--- truncated branch of depth 16
|   |   |   |   |   |   |   |   |   |--- metabolic_process >  0.08
|   |   |   |   |   |   |   |   |   |   |--- response_to_stimulus <= 0.07
|   |   |   |   |   |   |   |   |   |   |   |--- truncated branch of depth 4
|   |   |   |   |   |   |   |   |   |   |--- response_to_stimulus >  0.07
|   |   |   |   |   |   |   |   |   |   |   |--- truncated branch of depth 2
|   |   |   |   |   |   |   |   |--- immune_system_process >  0.07
|   |   |   |   |   |   |   |   |   |--- cellular_process <= 0.01
|   |   |   |   |   |   |   |   |   |   |--- class: 0
|   |   |   |   |   |   |   |   |   |--- cellular_process >  0.01
|   |   |   |   |   |   |   |   |   |   |--- response_to_stimulus <= 0.16
|   |   |   |   |   |   |   |   |   |   |   |--- truncated branch of depth 3
|   |   |   |   |   |   |   |   |   |   |--- response_to_stimulus >  0.16
|   |   |   |   |   |   |   |   |   |   |   |--- class: 1
|   |   |   |   |   |   |   |--- multicellular_organismal_process >  0.20
|   |   |   |   |   |   |   |   |--- cellular_anatomical_entity <= 0.08
|   |   |   |   |   |   |   |   |   |--- class: 1
|   |   |   |   |   |   |   |   |--- cellular_anatomical_entity >  0.08
|   |   |   |   |   |   |   |   |   |--- class: 0
|   |   |   |   |   |   |--- cellular_anatomical_entity >  0.10
|   |   |   |   |   |   |   |--- binding <= 0.26
|   |   |   |   |   |   |   |   |--- multicellular_organismal_process <= 0.10
|   |   |   |   |   |   |   |   |   |--- molecular_adaptor_activity <= 0.04
|   |   |   |   |   |   |   |   |   |   |--- signaling <= 0.03
|   |   |   |   |   |   |   |   |   |   |   |--- truncated branch of depth 21
|   |   |   |   |   |   |   |   |   |   |--- signaling >  0.03
|   |   |   |   |   |   |   |   |   |   |   |--- class: 1
|   |   |   |   |   |   |   |   |   |--- molecular_adaptor_activity >  0.04
|   |   |   |   |   |   |   |   |   |   |--- class: 1
|   |   |   |   |   |   |   |   |--- multicellular_organismal_process >  0.10
|   |   |   |   |   |   |   |   |   |--- molecular_function_regulator <= 0.08
|   |   |   |   |   |   |   |   |   |   |--- biological_regulation <= 0.14
|   |   |   |   |   |   |   |   |   |   |   |--- class: 1
|   |   |   |   |   |   |   |   |   |   |--- biological_regulation >  0.14
|   |   |   |   |   |   |   |   |   |   |   |--- truncated branch of depth 2
|   |   |   |   |   |   |   |   |   |--- molecular_function_regulator >  0.08
|   |   |   |   |   |   |   |   |   |   |--- class: 0
|   |   |   |   |   |   |   |--- binding >  0.26
|   |   |   |   |   |   |   |   |--- binding <= 0.67
|   |   |   |   |   |   |   |   |   |--- biological_regulation <= 0.08
|   |   |   |   |   |   |   |   |   |   |--- class: 0
|   |   |   |   |   |   |   |   |   |--- biological_regulation >  0.08
|   |   |   |   |   |   |   |   |   |   |--- metabolic_process <= 0.05
|   |   |   |   |   |   |   |   |   |   |   |--- truncated branch of depth 6
|   |   |   |   |   |   |   |   |   |   |--- metabolic_process >  0.05
|   |   |   |   |   |   |   |   |   |   |   |--- class: 0
|   |   |   |   |   |   |   |   |--- binding >  0.67
|   |   |   |   |   |   |   |   |   |--- biological_regulation <= 0.18
|   |   |   |   |   |   |   |   |   |   |--- cellular_process <= 0.00
|   |   |   |   |   |   |   |   |   |   |   |--- truncated branch of depth 2
|   |   |   |   |   |   |   |   |   |   |--- cellular_process >  0.00
|   |   |   |   |   |   |   |   |   |   |   |--- class: 0
|   |   |   |   |   |   |   |   |   |--- biological_regulation >  0.18
|   |   |   |   |   |   |   |   |   |   |--- class: 1
|   |   |   |   |   |--- biological_regulation >  0.24
|   |   |   |   |   |   |--- molecular_function_regulator <= 0.37
|   |   |   |   |   |   |   |--- response_to_stimulus <= 0.00
|   |   |   |   |   |   |   |   |--- cellular_anatomical_entity <= 0.19
|   |   |   |   |   |   |   |   |   |--- translation_regulator_activity <= 0.09
|   |   |   |   |   |   |   |   |   |   |--- cellular_process <= 0.00
|   |   |   |   |   |   |   |   |   |   |   |--- truncated branch of depth 5
|   |   |   |   |   |   |   |   |   |   |--- cellular_process >  0.00
|   |   |   |   |   |   |   |   |   |   |   |--- truncated branch of depth 5
|   |   |   |   |   |   |   |   |   |--- translation_regulator_activity >  0.09
|   |   |   |   |   |   |   |   |   |   |--- class: 1
|   |   |   |   |   |   |   |   |--- cellular_anatomical_entity >  0.19
|   |   |   |   |   |   |   |   |   |--- cellular_anatomical_entity <= 0.20
|   |   |   |   |   |   |   |   |   |   |--- class: 1
|   |   |   |   |   |   |   |   |   |--- cellular_anatomical_entity >  0.20
|   |   |   |   |   |   |   |   |   |   |--- class: 0
|   |   |   |   |   |   |   |--- response_to_stimulus >  0.00
|   |   |   |   |   |   |   |   |--- binding <= 0.18
|   |   |   |   |   |   |   |   |   |--- biological_regulation <= 0.27
|   |   |   |   |   |   |   |   |   |   |--- class: 1
|   |   |   |   |   |   |   |   |   |--- biological_regulation >  0.27
|   |   |   |   |   |   |   |   |   |   |--- biological_regulation <= 0.28
|   |   |   |   |   |   |   |   |   |   |   |--- class: 0
|   |   |   |   |   |   |   |   |   |   |--- biological_regulation >  0.28
|   |   |   |   |   |   |   |   |   |   |   |--- truncated branch of depth 3
|   |   |   |   |   |   |   |   |--- binding >  0.18
|   |   |   |   |   |   |   |   |   |--- class: 0
|   |   |   |   |   |   |--- molecular_function_regulator >  0.37
|   |   |   |   |   |   |   |--- class: 1
|   |   |   |--- cellular_process >  0.03
|   |   |   |   |--- biological_regulation <= 0.06
|   |   |   |   |   |--- interspecies_interaction_between_organisms <= 0.25
|   |   |   |   |   |   |--- cellular_anatomical_entity <= 0.15
|   |   |   |   |   |   |   |--- localization <= 0.26
|   |   |   |   |   |   |   |   |--- cellular_anatomical_entity <= 0.06
|   |   |   |   |   |   |   |   |   |--- catalytic_activity <= 0.54
|   |   |   |   |   |   |   |   |   |   |--- multicellular_organismal_process <= 0.12
|   |   |   |   |   |   |   |   |   |   |   |--- truncated branch of depth 23
|   |   |   |   |   |   |   |   |   |   |--- multicellular_organismal_process >  0.12
|   |   |   |   |   |   |   |   |   |   |   |--- truncated branch of depth 2
|   |   |   |   |   |   |   |   |   |--- catalytic_activity >  0.54
|   |   |   |   |   |   |   |   |   |   |--- developmental_process <= 0.01
|   |   |   |   |   |   |   |   |   |   |   |--- class: 0
|   |   |   |   |   |   |   |   |   |   |--- developmental_process >  0.01
|   |   |   |   |   |   |   |   |   |   |   |--- class: 1
|   |   |   |   |   |   |   |   |--- cellular_anatomical_entity >  0.06
|   |   |   |   |   |   |   |   |   |--- cellular_process <= 0.05
|   |   |   |   |   |   |   |   |   |   |--- interspecies_interaction_between_organisms <= 0.07
|   |   |   |   |   |   |   |   |   |   |   |--- truncated branch of depth 27
|   |   |   |   |   |   |   |   |   |   |--- interspecies_interaction_between_organisms >  0.07
|   |   |   |   |   |   |   |   |   |   |   |--- truncated branch of depth 4
|   |   |   |   |   |   |   |   |   |--- cellular_process >  0.05
|   |   |   |   |   |   |   |   |   |   |--- locomotion <= 0.10
|   |   |   |   |   |   |   |   |   |   |   |--- truncated branch of depth 18
|   |   |   |   |   |   |   |   |   |   |--- locomotion >  0.10
|   |   |   |   |   |   |   |   |   |   |   |--- truncated branch of depth 3
|   |   |   |   |   |   |   |--- localization >  0.26
|   |   |   |   |   |   |   |   |--- localization <= 0.27
|   |   |   |   |   |   |   |   |   |--- binding <= 0.06
|   |   |   |   |   |   |   |   |   |   |--- class: 1
|   |   |   |   |   |   |   |   |   |--- binding >  0.06
|   |   |   |   |   |   |   |   |   |   |--- class: 0
|   |   |   |   |   |   |   |   |--- localization >  0.27
|   |   |   |   |   |   |   |   |   |--- molecular_adaptor_activity <= 0.22
|   |   |   |   |   |   |   |   |   |   |--- localization <= 0.33
|   |   |   |   |   |   |   |   |   |   |   |--- truncated branch of depth 3
|   |   |   |   |   |   |   |   |   |   |--- localization >  0.33
|   |   |   |   |   |   |   |   |   |   |   |--- truncated branch of depth 8
|   |   |   |   |   |   |   |   |   |--- molecular_adaptor_activity >  0.22
|   |   |   |   |   |   |   |   |   |   |--- class: 1
|   |   |   |   |   |   |--- cellular_anatomical_entity >  0.15
|   |   |   |   |   |   |   |--- cellular_process <= 0.06
|   |   |   |   |   |   |   |   |--- localization <= 0.25
|   |   |   |   |   |   |   |   |   |--- structural_molecule_activity <= 0.68
|   |   |   |   |   |   |   |   |   |   |--- multicellular_organismal_process <= 0.05
|   |   |   |   |   |   |   |   |   |   |   |--- truncated branch of depth 17
|   |   |   |   |   |   |   |   |   |   |--- multicellular_organismal_process >  0.05
|   |   |   |   |   |   |   |   |   |   |   |--- truncated branch of depth 3
|   |   |   |   |   |   |   |   |   |--- structural_molecule_activity >  0.68
|   |   |   |   |   |   |   |   |   |   |--- class: 1
|   |   |   |   |   |   |   |   |--- localization >  0.25
|   |   |   |   |   |   |   |   |   |--- cellular_process <= 0.05
|   |   |   |   |   |   |   |   |   |   |--- binding <= 0.02
|   |   |   |   |   |   |   |   |   |   |   |--- class: 0
|   |   |   |   |   |   |   |   |   |   |--- binding >  0.02
|   |   |   |   |   |   |   |   |   |   |   |--- class: 1
|   |   |   |   |   |   |   |   |   |--- cellular_process >  0.05
|   |   |   |   |   |   |   |   |   |   |--- binding <= 0.07
|   |   |   |   |   |   |   |   |   |   |   |--- truncated branch of depth 2
|   |   |   |   |   |   |   |   |   |   |--- binding >  0.07
|   |   |   |   |   |   |   |   |   |   |   |--- class: 0
|   |   |   |   |   |   |   |--- cellular_process >  0.06
|   |   |   |   |   |   |   |   |--- binding <= 0.19
|   |   |   |   |   |   |   |   |   |--- molecular_function_regulator <= 0.05
|   |   |   |   |   |   |   |   |   |   |--- catalytic_activity <= 0.20
|   |   |   |   |   |   |   |   |   |   |   |--- truncated branch of depth 14
|   |   |   |   |   |   |   |   |   |   |--- catalytic_activity >  0.20
|   |   |   |   |   |   |   |   |   |   |   |--- class: 1
|   |   |   |   |   |   |   |   |   |--- molecular_function_regulator >  0.05
|   |   |   |   |   |   |   |   |   |   |--- molecular_function_regulator <= 0.28
|   |   |   |   |   |   |   |   |   |   |   |--- truncated branch of depth 2
|   |   |   |   |   |   |   |   |   |   |--- molecular_function_regulator >  0.28
|   |   |   |   |   |   |   |   |   |   |   |--- class: 0
|   |   |   |   |   |   |   |   |--- binding >  0.19
|   |   |   |   |   |   |   |   |   |--- binding <= 0.30
|   |   |   |   |   |   |   |   |   |   |--- cellular_anatomical_entity <= 0.15
|   |   |   |   |   |   |   |   |   |   |   |--- class: 0
|   |   |   |   |   |   |   |   |   |   |--- cellular_anatomical_entity >  0.15
|   |   |   |   |   |   |   |   |   |   |   |--- truncated branch of depth 6
|   |   |   |   |   |   |   |   |   |--- binding >  0.30
|   |   |   |   |   |   |   |   |   |   |--- cellular_process <= 0.07
|   |   |   |   |   |   |   |   |   |   |   |--- truncated branch of depth 7
|   |   |   |   |   |   |   |   |   |   |--- cellular_process >  0.07
|   |   |   |   |   |   |   |   |   |   |   |--- truncated branch of depth 4
|   |   |   |   |   |--- interspecies_interaction_between_organisms >  0.25
|   |   |   |   |   |   |--- metabolic_process <= 0.04
|   |   |   |   |   |   |   |--- immune_system_process <= 0.02
|   |   |   |   |   |   |   |   |--- class: 0
|   |   |   |   |   |   |   |--- immune_system_process >  0.02
|   |   |   |   |   |   |   |   |--- binding <= 0.09
|   |   |   |   |   |   |   |   |   |--- class: 1
|   |   |   |   |   |   |   |   |--- binding >  0.09
|   |   |   |   |   |   |   |   |   |--- class: 0
|   |   |   |   |   |   |--- metabolic_process >  0.04
|   |   |   |   |   |   |   |--- biological_regulation <= 0.06
|   |   |   |   |   |   |   |   |--- localization <= 0.22
|   |   |   |   |   |   |   |   |   |--- metabolic_process <= 0.20
|   |   |   |   |   |   |   |   |   |   |--- class: 1
|   |   |   |   |   |   |   |   |   |--- metabolic_process >  0.20
|   |   |   |   |   |   |   |   |   |   |--- response_to_stimulus <= 0.06
|   |   |   |   |   |   |   |   |   |   |   |--- class: 0
|   |   |   |   |   |   |   |   |   |   |--- response_to_stimulus >  0.06
|   |   |   |   |   |   |   |   |   |   |   |--- class: 1
|   |   |   |   |   |   |   |   |--- localization >  0.22
|   |   |   |   |   |   |   |   |   |--- class: 0
|   |   |   |   |   |   |   |--- biological_regulation >  0.06
|   |   |   |   |   |   |   |   |--- class: 0
|   |   |   |   |--- biological_regulation >  0.06
|   |   |   |   |   |--- cellular_anatomical_entity <= 0.07
|   |   |   |   |   |   |--- immune_system_process <= 0.03
|   |   |   |   |   |   |   |--- cellular_anatomical_entity <= 0.04
|   |   |   |   |   |   |   |   |--- locomotion <= 0.08
|   |   |   |   |   |   |   |   |   |--- multicellular_organismal_process <= 0.04
|   |   |   |   |   |   |   |   |   |   |--- metabolic_process <= 0.33
|   |   |   |   |   |   |   |   |   |   |   |--- truncated branch of depth 14
|   |   |   |   |   |   |   |   |   |   |--- metabolic_process >  0.33
|   |   |   |   |   |   |   |   |   |   |   |--- class: 1
|   |   |   |   |   |   |   |   |   |--- multicellular_organismal_process >  0.04
|   |   |   |   |   |   |   |   |   |   |--- biological_regulation <= 0.13
|   |   |   |   |   |   |   |   |   |   |   |--- truncated branch of depth 4
|   |   |   |   |   |   |   |   |   |   |--- biological_regulation >  0.13
|   |   |   |   |   |   |   |   |   |   |   |--- class: 1
|   |   |   |   |   |   |   |   |--- locomotion >  0.08
|   |   |   |   |   |   |   |   |   |--- molecular_function_regulator <= 0.04
|   |   |   |   |   |   |   |   |   |   |--- class: 1
|   |   |   |   |   |   |   |   |   |--- molecular_function_regulator >  0.04
|   |   |   |   |   |   |   |   |   |   |--- class: 0
|   |   |   |   |   |   |   |--- cellular_anatomical_entity >  0.04
|   |   |   |   |   |   |   |   |--- binding <= 0.08
|   |   |   |   |   |   |   |   |   |--- cellular_process <= 0.07
|   |   |   |   |   |   |   |   |   |   |--- multicellular_organismal_process <= 0.00
|   |   |   |   |   |   |   |   |   |   |   |--- truncated branch of depth 10
|   |   |   |   |   |   |   |   |   |   |--- multicellular_organismal_process >  0.00
|   |   |   |   |   |   |   |   |   |   |   |--- truncated branch of depth 3
|   |   |   |   |   |   |   |   |   |--- cellular_process >  0.07
|   |   |   |   |   |   |   |   |   |   |--- cellular_anatomical_entity <= 0.05
|   |   |   |   |   |   |   |   |   |   |   |--- class: 1
|   |   |   |   |   |   |   |   |   |   |--- cellular_anatomical_entity >  0.05
|   |   |   |   |   |   |   |   |   |   |   |--- class: 0
|   |   |   |   |   |   |   |   |--- binding >  0.08
|   |   |   |   |   |   |   |   |   |--- cellular_process <= 0.05
|   |   |   |   |   |   |   |   |   |   |--- catalytic_activity <= 0.02
|   |   |   |   |   |   |   |   |   |   |   |--- truncated branch of depth 6
|   |   |   |   |   |   |   |   |   |   |--- catalytic_activity >  0.02
|   |   |   |   |   |   |   |   |   |   |   |--- truncated branch of depth 2
|   |   |   |   |   |   |   |   |   |--- cellular_process >  0.05
|   |   |   |   |   |   |   |   |   |   |--- catalytic_activity <= 0.06
|   |   |   |   |   |   |   |   |   |   |   |--- truncated branch of depth 5
|   |   |   |   |   |   |   |   |   |   |--- catalytic_activity >  0.06
|   |   |   |   |   |   |   |   |   |   |   |--- truncated branch of depth 2
|   |   |   |   |   |   |--- immune_system_process >  0.03
|   |   |   |   |   |   |   |--- binding <= 0.04
|   |   |   |   |   |   |   |   |--- locomotion <= 0.15
|   |   |   |   |   |   |   |   |   |--- immune_system_process <= 0.30
|   |   |   |   |   |   |   |   |   |   |--- class: 0
|   |   |   |   |   |   |   |   |   |--- immune_system_process >  0.30
|   |   |   |   |   |   |   |   |   |   |--- class: 1
|   |   |   |   |   |   |   |   |--- locomotion >  0.15
|   |   |   |   |   |   |   |   |   |--- class: 1
|   |   |   |   |   |   |   |--- binding >  0.04
|   |   |   |   |   |   |   |   |--- cellular_anatomical_entity <= 0.01
|   |   |   |   |   |   |   |   |   |--- class: 0
|   |   |   |   |   |   |   |   |--- cellular_anatomical_entity >  0.01
|   |   |   |   |   |   |   |   |   |--- metabolic_process <= 0.06
|   |   |   |   |   |   |   |   |   |   |--- class: 1
|   |   |   |   |   |   |   |   |   |--- metabolic_process >  0.06
|   |   |   |   |   |   |   |   |   |   |--- biological_regulation <= 0.09
|   |   |   |   |   |   |   |   |   |   |   |--- class: 0
|   |   |   |   |   |   |   |   |   |   |--- biological_regulation >  0.09
|   |   |   |   |   |   |   |   |   |   |   |--- class: 1
|   |   |   |   |   |--- cellular_anatomical_entity >  0.07
|   |   |   |   |   |   |--- interspecies_interaction_between_organisms <= 0.14
|   |   |   |   |   |   |   |--- biological_regulation <= 0.11
|   |   |   |   |   |   |   |   |--- cellular_anatomical_entity <= 0.15
|   |   |   |   |   |   |   |   |   |--- locomotion <= 0.07
|   |   |   |   |   |   |   |   |   |   |--- binding <= 0.08
|   |   |   |   |   |   |   |   |   |   |   |--- truncated branch of depth 15
|   |   |   |   |   |   |   |   |   |   |--- binding >  0.08
|   |   |   |   |   |   |   |   |   |   |   |--- truncated branch of depth 14
|   |   |   |   |   |   |   |   |   |--- locomotion >  0.07
|   |   |   |   |   |   |   |   |   |   |--- class: 1
|   |   |   |   |   |   |   |   |--- cellular_anatomical_entity >  0.15
|   |   |   |   |   |   |   |   |   |--- cellular_process <= 0.07
|   |   |   |   |   |   |   |   |   |   |--- binding <= 0.11
|   |   |   |   |   |   |   |   |   |   |   |--- truncated branch of depth 10
|   |   |   |   |   |   |   |   |   |   |--- binding >  0.11
|   |   |   |   |   |   |   |   |   |   |   |--- truncated branch of depth 7
|   |   |   |   |   |   |   |   |   |--- cellular_process >  0.07
|   |   |   |   |   |   |   |   |   |   |--- developmental_process <= 0.10
|   |   |   |   |   |   |   |   |   |   |   |--- truncated branch of depth 5
|   |   |   |   |   |   |   |   |   |   |--- developmental_process >  0.10
|   |   |   |   |   |   |   |   |   |   |   |--- class: 0
|   |   |   |   |   |   |   |--- biological_regulation >  0.11
|   |   |   |   |   |   |   |   |--- cellular_process <= 0.05
|   |   |   |   |   |   |   |   |   |--- response_to_stimulus <= 0.00
|   |   |   |   |   |   |   |   |   |   |--- cellular_anatomical_entity <= 0.07
|   |   |   |   |   |   |   |   |   |   |   |--- class: 1
|   |   |   |   |   |   |   |   |   |   |--- cellular_anatomical_entity >  0.07
|   |   |   |   |   |   |   |   |   |   |   |--- truncated branch of depth 11
|   |   |   |   |   |   |   |   |   |--- response_to_stimulus >  0.00
|   |   |   |   |   |   |   |   |   |   |--- response_to_stimulus <= 0.02
|   |   |   |   |   |   |   |   |   |   |   |--- truncated branch of depth 2
|   |   |   |   |   |   |   |   |   |   |--- response_to_stimulus >  0.02
|   |   |   |   |   |   |   |   |   |   |   |--- truncated branch of depth 11
|   |   |   |   |   |   |   |   |--- cellular_process >  0.05
|   |   |   |   |   |   |   |   |   |--- binding <= 0.08
|   |   |   |   |   |   |   |   |   |   |--- cellular_process <= 0.07
|   |   |   |   |   |   |   |   |   |   |   |--- truncated branch of depth 8
|   |   |   |   |   |   |   |   |   |   |--- cellular_process >  0.07
|   |   |   |   |   |   |   |   |   |   |   |--- truncated branch of depth 5
|   |   |   |   |   |   |   |   |   |--- binding >  0.08
|   |   |   |   |   |   |   |   |   |   |--- cellular_anatomical_entity <= 0.20
|   |   |   |   |   |   |   |   |   |   |   |--- truncated branch of depth 12
|   |   |   |   |   |   |   |   |   |   |--- cellular_anatomical_entity >  0.20
|   |   |   |   |   |   |   |   |   |   |   |--- truncated branch of depth 4
|   |   |   |   |   |   |--- interspecies_interaction_between_organisms >  0.14
|   |   |   |   |   |   |   |--- biological_regulation <= 0.07
|   |   |   |   |   |   |   |   |--- class: 0
|   |   |   |   |   |   |   |--- biological_regulation >  0.07
|   |   |   |   |   |   |   |   |--- catalytic_activity <= 0.03
|   |   |   |   |   |   |   |   |   |--- cellular_anatomical_entity <= 0.09
|   |   |   |   |   |   |   |   |   |   |--- biological_regulation <= 0.15
|   |   |   |   |   |   |   |   |   |   |   |--- class: 0
|   |   |   |   |   |   |   |   |   |   |--- biological_regulation >  0.15
|   |   |   |   |   |   |   |   |   |   |   |--- class: 1
|   |   |   |   |   |   |   |   |   |--- cellular_anatomical_entity >  0.09
|   |   |   |   |   |   |   |   |   |   |--- binding <= 0.04
|   |   |   |   |   |   |   |   |   |   |   |--- truncated branch of depth 2
|   |   |   |   |   |   |   |   |   |   |--- binding >  0.04
|   |   |   |   |   |   |   |   |   |   |   |--- truncated branch of depth 3
|   |   |   |   |   |   |   |   |--- catalytic_activity >  0.03
|   |   |   |   |   |   |   |   |   |--- cellular_process <= 0.06
|   |   |   |   |   |   |   |   |   |   |--- class: 0
|   |   |   |   |   |   |   |   |   |--- cellular_process >  0.06
|   |   |   |   |   |   |   |   |   |   |--- class: 1
|   |--- cellular_anatomical_entity >  0.21
|   |   |--- biological_regulation <= 0.09
|   |   |   |--- cellular_process <= 0.03
|   |   |   |   |--- binding <= 0.18
|   |   |   |   |   |--- cellular_process <= 0.00
|   |   |   |   |   |   |--- multicellular_organismal_process <= 0.15
|   |   |   |   |   |   |   |--- cellular_anatomical_entity <= 0.28
|   |   |   |   |   |   |   |   |--- biological_regulation <= 0.09
|   |   |   |   |   |   |   |   |   |--- cellular_anatomical_entity <= 0.21
|   |   |   |   |   |   |   |   |   |   |--- binding <= 0.12
|   |   |   |   |   |   |   |   |   |   |   |--- truncated branch of depth 3
|   |   |   |   |   |   |   |   |   |   |--- binding >  0.12
|   |   |   |   |   |   |   |   |   |   |   |--- class: 0
|   |   |   |   |   |   |   |   |   |--- cellular_anatomical_entity >  0.21
|   |   |   |   |   |   |   |   |   |   |--- molecular_function_regulator <= 0.04
|   |   |   |   |   |   |   |   |   |   |   |--- truncated branch of depth 9
|   |   |   |   |   |   |   |   |   |   |--- molecular_function_regulator >  0.04
|   |   |   |   |   |   |   |   |   |   |   |--- class: 1
|   |   |   |   |   |   |   |   |--- biological_regulation >  0.09
|   |   |   |   |   |   |   |   |   |--- class: 1
|   |   |   |   |   |   |   |--- cellular_anatomical_entity >  0.28
|   |   |   |   |   |   |   |   |--- biological_regulation <= 0.07
|   |   |   |   |   |   |   |   |   |--- binding <= 0.01
|   |   |   |   |   |   |   |   |   |   |--- cellular_anatomical_entity <= 0.37
|   |   |   |   |   |   |   |   |   |   |   |--- truncated branch of depth 8
|   |   |   |   |   |   |   |   |   |   |--- cellular_anatomical_entity >  0.37
|   |   |   |   |   |   |   |   |   |   |   |--- truncated branch of depth 2
|   |   |   |   |   |   |   |   |   |--- binding >  0.01
|   |   |   |   |   |   |   |   |   |   |--- binding <= 0.14
|   |   |   |   |   |   |   |   |   |   |   |--- truncated branch of depth 17
|   |   |   |   |   |   |   |   |   |   |--- binding >  0.14
|   |   |   |   |   |   |   |   |   |   |   |--- truncated branch of depth 7
|   |   |   |   |   |   |   |   |--- biological_regulation >  0.07
|   |   |   |   |   |   |   |   |   |--- class: 0
|   |   |   |   |   |   |--- multicellular_organismal_process >  0.15
|   |   |   |   |   |   |   |--- cellular_anatomical_entity <= 0.23
|   |   |   |   |   |   |   |   |--- cellular_anatomical_entity <= 0.23
|   |   |   |   |   |   |   |   |   |--- class: 1
|   |   |   |   |   |   |   |   |--- cellular_anatomical_entity >  0.23
|   |   |   |   |   |   |   |   |   |--- class: 0
|   |   |   |   |   |   |   |--- cellular_anatomical_entity >  0.23
|   |   |   |   |   |   |   |   |--- class: 1
|   |   |   |   |   |--- cellular_process >  0.00
|   |   |   |   |   |   |--- cellular_anatomical_entity <= 0.68
|   |   |   |   |   |   |   |--- metabolic_process <= 0.27
|   |   |   |   |   |   |   |   |--- multicellular_organismal_process <= 0.20
|   |   |   |   |   |   |   |   |   |--- cellular_process <= 0.02
|   |   |   |   |   |   |   |   |   |   |--- molecular_function_regulator <= 0.06
|   |   |   |   |   |   |   |   |   |   |   |--- truncated branch of depth 24
|   |   |   |   |   |   |   |   |   |   |--- molecular_function_regulator >  0.06
|   |   |   |   |   |   |   |   |   |   |   |--- truncated branch of depth 4
|   |   |   |   |   |   |   |   |   |--- cellular_process >  0.02
|   |   |   |   |   |   |   |   |   |   |--- localization <= 0.04
|   |   |   |   |   |   |   |   |   |   |   |--- truncated branch of depth 16
|   |   |   |   |   |   |   |   |   |   |--- localization >  0.04
|   |   |   |   |   |   |   |   |   |   |   |--- truncated branch of depth 4
|   |   |   |   |   |   |   |   |--- multicellular_organismal_process >  0.20
|   |   |   |   |   |   |   |   |   |--- developmental_process <= 0.03
|   |   |   |   |   |   |   |   |   |   |--- class: 1
|   |   |   |   |   |   |   |   |   |--- developmental_process >  0.03
|   |   |   |   |   |   |   |   |   |   |--- cellular_anatomical_entity <= 0.34
|   |   |   |   |   |   |   |   |   |   |   |--- class: 0
|   |   |   |   |   |   |   |   |   |   |--- cellular_anatomical_entity >  0.34
|   |   |   |   |   |   |   |   |   |   |   |--- class: 1
|   |   |   |   |   |   |   |--- metabolic_process >  0.27
|   |   |   |   |   |   |   |   |--- class: 1
|   |   |   |   |   |   |--- cellular_anatomical_entity >  0.68
|   |   |   |   |   |   |   |--- binding <= 0.02
|   |   |   |   |   |   |   |   |--- cellular_anatomical_entity <= 0.70
|   |   |   |   |   |   |   |   |   |--- class: 0
|   |   |   |   |   |   |   |   |--- cellular_anatomical_entity >  0.70
|   |   |   |   |   |   |   |   |   |--- cellular_process <= 0.01
|   |   |   |   |   |   |   |   |   |   |--- cellular_anatomical_entity <= 0.80
|   |   |   |   |   |   |   |   |   |   |   |--- class: 1
|   |   |   |   |   |   |   |   |   |   |--- cellular_anatomical_entity >  0.80
|   |   |   |   |   |   |   |   |   |   |   |--- class: 0
|   |   |   |   |   |   |   |   |   |--- cellular_process >  0.01
|   |   |   |   |   |   |   |   |   |   |--- class: 1
|   |   |   |   |   |   |   |--- binding >  0.02
|   |   |   |   |   |   |   |   |--- binding <= 0.11
|   |   |   |   |   |   |   |   |   |--- response_to_stimulus <= 0.03
|   |   |   |   |   |   |   |   |   |   |--- cellular_process <= 0.02
|   |   |   |   |   |   |   |   |   |   |   |--- class: 0
|   |   |   |   |   |   |   |   |   |   |--- cellular_process >  0.02
|   |   |   |   |   |   |   |   |   |   |   |--- truncated branch of depth 2
|   |   |   |   |   |   |   |   |   |--- response_to_stimulus >  0.03
|   |   |   |   |   |   |   |   |   |   |--- class: 1
|   |   |   |   |   |   |   |   |--- binding >  0.11
|   |   |   |   |   |   |   |   |   |--- cellular_anatomical_entity <= 0.82
|   |   |   |   |   |   |   |   |   |   |--- class: 1
|   |   |   |   |   |   |   |   |   |--- cellular_anatomical_entity >  0.82
|   |   |   |   |   |   |   |   |   |   |--- cellular_anatomical_entity <= 0.93
|   |   |   |   |   |   |   |   |   |   |   |--- class: 0
|   |   |   |   |   |   |   |   |   |   |--- cellular_anatomical_entity >  0.93
|   |   |   |   |   |   |   |   |   |   |   |--- class: 1
|   |   |   |   |--- binding >  0.18
|   |   |   |   |   |--- cellular_anatomical_entity <= 0.39
|   |   |   |   |   |   |--- cellular_process <= 0.00
|   |   |   |   |   |   |   |--- binding <= 0.18
|   |   |   |   |   |   |   |   |--- class: 1
|   |   |   |   |   |   |   |--- binding >  0.18
|   |   |   |   |   |   |   |   |--- binding <= 0.27
|   |   |   |   |   |   |   |   |   |--- biological_regulation <= 0.06
|   |   |   |   |   |   |   |   |   |   |--- localization <= 0.10
|   |   |   |   |   |   |   |   |   |   |   |--- truncated branch of depth 6
|   |   |   |   |   |   |   |   |   |   |--- localization >  0.10
|   |   |   |   |   |   |   |   |   |   |   |--- class: 1
|   |   |   |   |   |   |   |   |   |--- biological_regulation >  0.06
|   |   |   |   |   |   |   |   |   |   |--- class: 1
|   |   |   |   |   |   |   |   |--- binding >  0.27
|   |   |   |   |   |   |   |   |   |--- cellular_anatomical_entity <= 0.30
|   |   |   |   |   |   |   |   |   |   |--- cellular_anatomical_entity <= 0.23
|   |   |   |   |   |   |   |   |   |   |   |--- class: 1
|   |   |   |   |   |   |   |   |   |   |--- cellular_anatomical_entity >  0.23
|   |   |   |   |   |   |   |   |   |   |   |--- truncated branch of depth 4
|   |   |   |   |   |   |   |   |   |--- cellular_anatomical_entity >  0.30
|   |   |   |   |   |   |   |   |   |   |--- cellular_anatomical_entity <= 0.34
|   |   |   |   |   |   |   |   |   |   |   |--- truncated branch of depth 4
|   |   |   |   |   |   |   |   |   |   |--- cellular_anatomical_entity >  0.34
|   |   |   |   |   |   |   |   |   |   |   |--- truncated branch of depth 4
|   |   |   |   |   |   |--- cellular_process >  0.00
|   |   |   |   |   |   |   |--- biological_regulation <= 0.07
|   |   |   |   |   |   |   |   |--- metabolic_process <= 0.12
|   |   |   |   |   |   |   |   |   |--- multicellular_organismal_process <= 0.15
|   |   |   |   |   |   |   |   |   |   |--- metabolic_process <= 0.01
|   |   |   |   |   |   |   |   |   |   |   |--- truncated branch of depth 15
|   |   |   |   |   |   |   |   |   |   |--- metabolic_process >  0.01
|   |   |   |   |   |   |   |   |   |   |   |--- truncated branch of depth 6
|   |   |   |   |   |   |   |   |   |--- multicellular_organismal_process >  0.15
|   |   |   |   |   |   |   |   |   |   |--- class: 1
|   |   |   |   |   |   |   |   |--- metabolic_process >  0.12
|   |   |   |   |   |   |   |   |   |--- class: 1
|   |   |   |   |   |   |   |--- biological_regulation >  0.07
|   |   |   |   |   |   |   |   |--- binding <= 0.54
|   |   |   |   |   |   |   |   |   |--- cellular_anatomical_entity <= 0.28
|   |   |   |   |   |   |   |   |   |   |--- cellular_process <= 0.01
|   |   |   |   |   |   |   |   |   |   |   |--- truncated branch of depth 2
|   |   |   |   |   |   |   |   |   |   |--- cellular_process >  0.01
|   |   |   |   |   |   |   |   |   |   |   |--- truncated branch of depth 3
|   |   |   |   |   |   |   |   |   |--- cellular_anatomical_entity >  0.28
|   |   |   |   |   |   |   |   |   |   |--- class: 1
|   |   |   |   |   |   |   |   |--- binding >  0.54
|   |   |   |   |   |   |   |   |   |--- class: 0
|   |   |   |   |   |--- cellular_anatomical_entity >  0.39
|   |   |   |   |   |   |--- metabolic_process <= 0.01
|   |   |   |   |   |   |   |--- cellular_anatomical_entity <= 0.54
|   |   |   |   |   |   |   |   |--- molecular_function_regulator <= 0.02
|   |   |   |   |   |   |   |   |   |--- biological_regulation <= 0.00
|   |   |   |   |   |   |   |   |   |   |--- cellular_anatomical_entity <= 0.47
|   |   |   |   |   |   |   |   |   |   |   |--- truncated branch of depth 11
|   |   |   |   |   |   |   |   |   |   |--- cellular_anatomical_entity >  0.47
|   |   |   |   |   |   |   |   |   |   |   |--- truncated branch of depth 3
|   |   |   |   |   |   |   |   |   |--- biological_regulation >  0.00
|   |   |   |   |   |   |   |   |   |   |--- biological_regulation <= 0.07
|   |   |   |   |   |   |   |   |   |   |   |--- truncated branch of depth 7
|   |   |   |   |   |   |   |   |   |   |--- biological_regulation >  0.07
|   |   |   |   |   |   |   |   |   |   |   |--- truncated branch of depth 2
|   |   |   |   |   |   |   |   |--- molecular_function_regulator >  0.02
|   |   |   |   |   |   |   |   |   |--- class: 0
|   |   |   |   |   |   |   |--- cellular_anatomical_entity >  0.54
|   |   |   |   |   |   |   |   |--- developmental_process <= 0.07
|   |   |   |   |   |   |   |   |   |--- binding <= 0.60
|   |   |   |   |   |   |   |   |   |   |--- binding <= 0.58
|   |   |   |   |   |   |   |   |   |   |   |--- truncated branch of depth 8
|   |   |   |   |   |   |   |   |   |   |--- binding >  0.58
|   |   |   |   |   |   |   |   |   |   |   |--- class: 0
|   |   |   |   |   |   |   |   |   |--- binding >  0.60
|   |   |   |   |   |   |   |   |   |   |--- cellular_anatomical_entity <= 0.69
|   |   |   |   |   |   |   |   |   |   |   |--- truncated branch of depth 2
|   |   |   |   |   |   |   |   |   |   |--- cellular_anatomical_entity >  0.69
|   |   |   |   |   |   |   |   |   |   |   |--- class: 1
|   |   |   |   |   |   |   |   |--- developmental_process >  0.07
|   |   |   |   |   |   |   |   |   |--- class: 0
|   |   |   |   |   |   |--- metabolic_process >  0.01
|   |   |   |   |   |   |   |--- metabolic_process <= 0.11
|   |   |   |   |   |   |   |   |--- catalytic_activity <= 0.05
|   |   |   |   |   |   |   |   |   |--- biological_regulation <= 0.03
|   |   |   |   |   |   |   |   |   |   |--- metabolic_process <= 0.04
|   |   |   |   |   |   |   |   |   |   |   |--- truncated branch of depth 3
|   |   |   |   |   |   |   |   |   |   |--- metabolic_process >  0.04
|   |   |   |   |   |   |   |   |   |   |   |--- truncated branch of depth 3
|   |   |   |   |   |   |   |   |   |--- biological_regulation >  0.03
|   |   |   |   |   |   |   |   |   |   |--- cellular_process <= 0.02
|   |   |   |   |   |   |   |   |   |   |   |--- class: 1
|   |   |   |   |   |   |   |   |   |   |--- cellular_process >  0.02
|   |   |   |   |   |   |   |   |   |   |   |--- truncated branch of depth 2
|   |   |   |   |   |   |   |   |--- catalytic_activity >  0.05
|   |   |   |   |   |   |   |   |   |--- cellular_anatomical_entity <= 0.95
|   |   |   |   |   |   |   |   |   |   |--- class: 1
|   |   |   |   |   |   |   |   |   |--- cellular_anatomical_entity >  0.95
|   |   |   |   |   |   |   |   |   |   |--- class: 0
|   |   |   |   |   |   |   |--- metabolic_process >  0.11
|   |   |   |   |   |   |   |   |--- class: 1
|   |   |   |--- cellular_process >  0.03
|   |   |   |   |--- binding <= 0.26
|   |   |   |   |   |--- localization <= 0.00
|   |   |   |   |   |   |--- interspecies_interaction_between_organisms <= 0.07
|   |   |   |   |   |   |   |--- catalytic_activity <= 0.09
|   |   |   |   |   |   |   |   |--- cellular_process <= 0.05
|   |   |   |   |   |   |   |   |   |--- molecular_function_regulator <= 0.10
|   |   |   |   |   |   |   |   |   |   |--- cellular_anatomical_entity <= 0.54
|   |   |   |   |   |   |   |   |   |   |   |--- truncated branch of depth 17
|   |   |   |   |   |   |   |   |   |   |--- cellular_anatomical_entity >  0.54
|   |   |   |   |   |   |   |   |   |   |   |--- truncated branch of depth 8
|   |   |   |   |   |   |   |   |   |--- molecular_function_regulator >  0.10
|   |   |   |   |   |   |   |   |   |   |--- cellular_anatomical_entity <= 0.48
|   |   |   |   |   |   |   |   |   |   |   |--- truncated branch of depth 3
|   |   |   |   |   |   |   |   |   |   |--- cellular_anatomical_entity >  0.48
|   |   |   |   |   |   |   |   |   |   |   |--- class: 0
|   |   |   |   |   |   |   |   |--- cellular_process >  0.05
|   |   |   |   |   |   |   |   |   |--- metabolic_process <= 0.18
|   |   |   |   |   |   |   |   |   |   |--- metabolic_process <= 0.00
|   |   |   |   |   |   |   |   |   |   |   |--- truncated branch of depth 15
|   |   |   |   |   |   |   |   |   |   |--- metabolic_process >  0.00
|   |   |   |   |   |   |   |   |   |   |   |--- truncated branch of depth 16
|   |   |   |   |   |   |   |   |   |--- metabolic_process >  0.18
|   |   |   |   |   |   |   |   |   |   |--- biological_regulation <= 0.02
|   |   |   |   |   |   |   |   |   |   |   |--- truncated branch of depth 10
|   |   |   |   |   |   |   |   |   |   |--- biological_regulation >  0.02
|   |   |   |   |   |   |   |   |   |   |   |--- truncated branch of depth 8
|   |   |   |   |   |   |   |--- catalytic_activity >  0.09
|   |   |   |   |   |   |   |   |--- cellular_process <= 0.07
|   |   |   |   |   |   |   |   |   |--- response_to_stimulus <= 0.10
|   |   |   |   |   |   |   |   |   |   |--- class: 1
|   |   |   |   |   |   |   |   |   |--- response_to_stimulus >  0.10
|   |   |   |   |   |   |   |   |   |   |--- class: 0
|   |   |   |   |   |   |   |   |--- cellular_process >  0.07
|   |   |   |   |   |   |   |   |   |--- class: 0
|   |   |   |   |   |   |--- interspecies_interaction_between_organisms >  0.07
|   |   |   |   |   |   |   |--- catalytic_activity <= 0.00
|   |   |   |   |   |   |   |   |--- biological_regulation <= 0.03
|   |   |   |   |   |   |   |   |   |--- class: 1
|   |   |   |   |   |   |   |   |--- biological_regulation >  0.03
|   |   |   |   |   |   |   |   |   |--- developmental_process <= 0.00
|   |   |   |   |   |   |   |   |   |   |--- interspecies_interaction_between_organisms <= 0.13
|   |   |   |   |   |   |   |   |   |   |   |--- class: 1
|   |   |   |   |   |   |   |   |   |   |--- interspecies_interaction_between_organisms >  0.13
|   |   |   |   |   |   |   |   |   |   |   |--- truncated branch of depth 4
|   |   |   |   |   |   |   |   |   |--- developmental_process >  0.00
|   |   |   |   |   |   |   |   |   |   |--- class: 1
|   |   |   |   |   |   |   |--- catalytic_activity >  0.00
|   |   |   |   |   |   |   |   |--- cellular_process <= 0.06
|   |   |   |   |   |   |   |   |   |--- class: 0
|   |   |   |   |   |   |   |   |--- cellular_process >  0.06
|   |   |   |   |   |   |   |   |   |--- class: 1
|   |   |   |   |   |--- localization >  0.00
|   |   |   |   |   |   |--- biological_regulation <= 0.02
|   |   |   |   |   |   |   |--- cellular_process <= 0.05
|   |   |   |   |   |   |   |   |--- multicellular_organismal_process <= 0.00
|   |   |   |   |   |   |   |   |   |--- metabolic_process <= 0.01
|   |   |   |   |   |   |   |   |   |   |--- cellular_process <= 0.05
|   |   |   |   |   |   |   |   |   |   |   |--- truncated branch of depth 8
|   |   |   |   |   |   |   |   |   |   |--- cellular_process >  0.05
|   |   |   |   |   |   |   |   |   |   |   |--- truncated branch of depth 2
|   |   |   |   |   |   |   |   |   |--- metabolic_process >  0.01
|   |   |   |   |   |   |   |   |   |   |--- biological_regulation <= 0.02
|   |   |   |   |   |   |   |   |   |   |   |--- truncated branch of depth 4
|   |   |   |   |   |   |   |   |   |   |--- biological_regulation >  0.02
|   |   |   |   |   |   |   |   |   |   |   |--- class: 1
|   |   |   |   |   |   |   |   |--- multicellular_organismal_process >  0.00
|   |   |   |   |   |   |   |   |   |--- class: 1
|   |   |   |   |   |   |   |--- cellular_process >  0.05
|   |   |   |   |   |   |   |   |--- biological_regulation <= 0.01
|   |   |   |   |   |   |   |   |   |--- binding <= 0.02
|   |   |   |   |   |   |   |   |   |   |--- structural_molecule_activity <= 0.50
|   |   |   |   |   |   |   |   |   |   |   |--- class: 0
|   |   |   |   |   |   |   |   |   |   |--- structural_molecule_activity >  0.50
|   |   |   |   |   |   |   |   |   |   |   |--- class: 1
|   |   |   |   |   |   |   |   |   |--- binding >  0.02
|   |   |   |   |   |   |   |   |   |   |--- localization <= 0.03
|   |   |   |   |   |   |   |   |   |   |   |--- class: 0
|   |   |   |   |   |   |   |   |   |   |--- localization >  0.03
|   |   |   |   |   |   |   |   |   |   |   |--- truncated branch of depth 5
|   |   |   |   |   |   |   |   |--- biological_regulation >  0.01
|   |   |   |   |   |   |   |   |   |--- cellular_anatomical_entity <= 0.34
|   |   |   |   |   |   |   |   |   |   |--- binding <= 0.06
|   |   |   |   |   |   |   |   |   |   |   |--- truncated branch of depth 2
|   |   |   |   |   |   |   |   |   |   |--- binding >  0.06
|   |   |   |   |   |   |   |   |   |   |   |--- class: 0
|   |   |   |   |   |   |   |   |   |--- cellular_anatomical_entity >  0.34
|   |   |   |   |   |   |   |   |   |   |--- class: 1
|   |   |   |   |   |   |--- biological_regulation >  0.02
|   |   |   |   |   |   |   |--- catalytic_activity <= 0.03
|   |   |   |   |   |   |   |   |--- localization <= 0.08
|   |   |   |   |   |   |   |   |   |--- binding <= 0.03
|   |   |   |   |   |   |   |   |   |   |--- developmental_process <= 0.04
|   |   |   |   |   |   |   |   |   |   |   |--- truncated branch of depth 3
|   |   |   |   |   |   |   |   |   |   |--- developmental_process >  0.04
|   |   |   |   |   |   |   |   |   |   |   |--- class: 1
|   |   |   |   |   |   |   |   |   |--- binding >  0.03
|   |   |   |   |   |   |   |   |   |   |--- biological_regulation <= 0.04
|   |   |   |   |   |   |   |   |   |   |   |--- truncated branch of depth 4
|   |   |   |   |   |   |   |   |   |   |--- biological_regulation >  0.04
|   |   |   |   |   |   |   |   |   |   |   |--- truncated branch of depth 6
|   |   |   |   |   |   |   |   |--- localization >  0.08
|   |   |   |   |   |   |   |   |   |--- localization <= 0.11
|   |   |   |   |   |   |   |   |   |   |--- immune_system_process <= 0.01
|   |   |   |   |   |   |   |   |   |   |   |--- truncated branch of depth 4
|   |   |   |   |   |   |   |   |   |   |--- immune_system_process >  0.01
|   |   |   |   |   |   |   |   |   |   |   |--- class: 1
|   |   |   |   |   |   |   |   |   |--- localization >  0.11
|   |   |   |   |   |   |   |   |   |   |--- interspecies_interaction_between_organisms <= 0.13
|   |   |   |   |   |   |   |   |   |   |   |--- truncated branch of depth 7
|   |   |   |   |   |   |   |   |   |   |--- interspecies_interaction_between_organisms >  0.13
|   |   |   |   |   |   |   |   |   |   |   |--- class: 1
|   |   |   |   |   |   |   |--- catalytic_activity >  0.03
|   |   |   |   |   |   |   |   |--- class: 0
|   |   |   |   |--- binding >  0.26
|   |   |   |   |   |--- catalytic_activity <= 0.01
|   |   |   |   |   |   |--- cellular_process <= 0.07
|   |   |   |   |   |   |   |--- molecular_transducer_activity <= 0.04
|   |   |   |   |   |   |   |   |--- biological_adhesion <= 0.12
|   |   |   |   |   |   |   |   |   |--- metabolic_process <= 0.16
|   |   |   |   |   |   |   |   |   |   |--- cellular_process <= 0.06
|   |   |   |   |   |   |   |   |   |   |   |--- truncated branch of depth 12
|   |   |   |   |   |   |   |   |   |   |--- cellular_process >  0.06
|   |   |   |   |   |   |   |   |   |   |   |--- truncated branch of depth 5
|   |   |   |   |   |   |   |   |   |--- metabolic_process >  0.16
|   |   |   |   |   |   |   |   |   |   |--- cellular_anatomical_entity <= 0.26
|   |   |   |   |   |   |   |   |   |   |   |--- class: 0
|   |   |   |   |   |   |   |   |   |   |--- cellular_anatomical_entity >  0.26
|   |   |   |   |   |   |   |   |   |   |   |--- truncated branch of depth 2
|   |   |   |   |   |   |   |   |--- biological_adhesion >  0.12
|   |   |   |   |   |   |   |   |   |--- class: 0
|   |   |   |   |   |   |   |--- molecular_transducer_activity >  0.04
|   |   |   |   |   |   |   |   |--- class: 0
|   |   |   |   |   |   |--- cellular_process >  0.07
|   |   |   |   |   |   |   |--- binding <= 0.31
|   |   |   |   |   |   |   |   |--- class: 0
|   |   |   |   |   |   |   |--- binding >  0.31
|   |   |   |   |   |   |   |   |--- cellular_process <= 0.08
|   |   |   |   |   |   |   |   |   |--- metabolic_process <= 0.11
|   |   |   |   |   |   |   |   |   |   |--- class: 1
|   |   |   |   |   |   |   |   |   |--- metabolic_process >  0.11
|   |   |   |   |   |   |   |   |   |   |--- class: 0
|   |   |   |   |   |   |   |   |--- cellular_process >  0.08
|   |   |   |   |   |   |   |   |   |--- class: 0
|   |   |   |   |   |--- catalytic_activity >  0.01
|   |   |   |   |   |   |--- catalytic_activity <= 0.80
|   |   |   |   |   |   |   |--- multicellular_organismal_process <= 0.03
|   |   |   |   |   |   |   |   |--- metabolic_process <= 0.25
|   |   |   |   |   |   |   |   |   |--- interspecies_interaction_between_organisms <= 0.02
|   |   |   |   |   |   |   |   |   |   |--- binding <= 0.56
|   |   |   |   |   |   |   |   |   |   |   |--- truncated branch of depth 5
|   |   |   |   |   |   |   |   |   |   |--- binding >  0.56
|   |   |   |   |   |   |   |   |   |   |   |--- truncated branch of depth 4
|   |   |   |   |   |   |   |   |   |--- interspecies_interaction_between_organisms >  0.02
|   |   |   |   |   |   |   |   |   |   |--- class: 1
|   |   |   |   |   |   |   |   |--- metabolic_process >  0.25
|   |   |   |   |   |   |   |   |   |--- class: 1
|   |   |   |   |   |   |   |--- multicellular_organismal_process >  0.03
|   |   |   |   |   |   |   |   |--- class: 1
|   |   |   |   |   |   |--- catalytic_activity >  0.80
|   |   |   |   |   |   |   |--- class: 1
|   |   |--- biological_regulation >  0.09
|   |   |   |--- binding <= 0.12
|   |   |   |   |--- cellular_process <= 0.03
|   |   |   |   |   |--- biological_regulation <= 0.28
|   |   |   |   |   |   |--- multicellular_organismal_process <= 0.06
|   |   |   |   |   |   |   |--- cellular_process <= 0.00
|   |   |   |   |   |   |   |   |--- cellular_anatomical_entity <= 0.63
|   |   |   |   |   |   |   |   |   |--- cellular_anatomical_entity <= 0.39
|   |   |   |   |   |   |   |   |   |   |--- cellular_anatomical_entity <= 0.26
|   |   |   |   |   |   |   |   |   |   |   |--- truncated branch of depth 5
|   |   |   |   |   |   |   |   |   |   |--- cellular_anatomical_entity >  0.26
|   |   |   |   |   |   |   |   |   |   |   |--- truncated branch of depth 7
|   |   |   |   |   |   |   |   |   |--- cellular_anatomical_entity >  0.39
|   |   |   |   |   |   |   |   |   |   |--- molecular_function_regulator <= 0.70
|   |   |   |   |   |   |   |   |   |   |   |--- truncated branch of depth 3
|   |   |   |   |   |   |   |   |   |   |--- molecular_function_regulator >  0.70
|   |   |   |   |   |   |   |   |   |   |   |--- class: 1
|   |   |   |   |   |   |   |   |--- cellular_anatomical_entity >  0.63
|   |   |   |   |   |   |   |   |   |--- class: 1
|   |   |   |   |   |   |   |--- cellular_process >  0.00
|   |   |   |   |   |   |   |   |--- binding <= 0.10
|   |   |   |   |   |   |   |   |   |--- developmental_process <= 0.10
|   |   |   |   |   |   |   |   |   |   |--- metabolic_process <= 0.23
|   |   |   |   |   |   |   |   |   |   |   |--- truncated branch of depth 11
|   |   |   |   |   |   |   |   |   |   |--- metabolic_process >  0.23
|   |   |   |   |   |   |   |   |   |   |   |--- class: 1
|   |   |   |   |   |   |   |   |   |--- developmental_process >  0.10
|   |   |   |   |   |   |   |   |   |   |--- class: 1
|   |   |   |   |   |   |   |   |--- binding >  0.10
|   |   |   |   |   |   |   |   |   |--- cellular_process <= 0.01
|   |   |   |   |   |   |   |   |   |   |--- binding <= 0.10
|   |   |   |   |   |   |   |   |   |   |   |--- truncated branch of depth 2
|   |   |   |   |   |   |   |   |   |   |--- binding >  0.10
|   |   |   |   |   |   |   |   |   |   |   |--- class: 0
|   |   |   |   |   |   |   |   |   |--- cellular_process >  0.01
|   |   |   |   |   |   |   |   |   |   |--- cellular_anatomical_entity <= 0.27
|   |   |   |   |   |   |   |   |   |   |   |--- class: 0
|   |   |   |   |   |   |   |   |   |   |--- cellular_anatomical_entity >  0.27
|   |   |   |   |   |   |   |   |   |   |   |--- truncated branch of depth 4
|   |   |   |   |   |   |--- multicellular_organismal_process >  0.06
|   |   |   |   |   |   |   |--- biological_regulation <= 0.22
|   |   |   |   |   |   |   |   |--- cellular_anatomical_entity <= 0.29
|   |   |   |   |   |   |   |   |   |--- binding <= 0.05
|   |   |   |   |   |   |   |   |   |   |--- class: 1
|   |   |   |   |   |   |   |   |   |--- binding >  0.05
|   |   |   |   |   |   |   |   |   |   |--- class: 0
|   |   |   |   |   |   |   |   |--- cellular_anatomical_entity >  0.29
|   |   |   |   |   |   |   |   |   |--- class: 1
|   |   |   |   |   |   |   |--- biological_regulation >  0.22
|   |   |   |   |   |   |   |   |--- class: 0
|   |   |   |   |   |--- biological_regulation >  0.28
|   |   |   |   |   |   |--- cellular_process <= 0.00
|   |   |   |   |   |   |   |--- cellular_anatomical_entity <= 0.22
|   |   |   |   |   |   |   |   |--- class: 0
|   |   |   |   |   |   |   |--- cellular_anatomical_entity >  0.22
|   |   |   |   |   |   |   |   |--- developmental_process <= 0.08
|   |   |   |   |   |   |   |   |   |--- class: 1
|   |   |   |   |   |   |   |   |--- developmental_process >  0.08
|   |   |   |   |   |   |   |   |   |--- molecular_function_regulator <= 0.34
|   |   |   |   |   |   |   |   |   |   |--- class: 0
|   |   |   |   |   |   |   |   |   |--- molecular_function_regulator >  0.34
|   |   |   |   |   |   |   |   |   |   |--- class: 1
|   |   |   |   |   |   |--- cellular_process >  0.00
|   |   |   |   |   |   |   |--- response_to_stimulus <= 0.01
|   |   |   |   |   |   |   |   |--- biological_regulation <= 0.29
|   |   |   |   |   |   |   |   |   |--- class: 1
|   |   |   |   |   |   |   |   |--- biological_regulation >  0.29
|   |   |   |   |   |   |   |   |   |--- biological_regulation <= 0.42
|   |   |   |   |   |   |   |   |   |   |--- developmental_process <= 0.06
|   |   |   |   |   |   |   |   |   |   |   |--- class: 0
|   |   |   |   |   |   |   |   |   |   |--- developmental_process >  0.06
|   |   |   |   |   |   |   |   |   |   |   |--- class: 1
|   |   |   |   |   |   |   |   |   |--- biological_regulation >  0.42
|   |   |   |   |   |   |   |   |   |   |--- cellular_process <= 0.00
|   |   |   |   |   |   |   |   |   |   |   |--- truncated branch of depth 2
|   |   |   |   |   |   |   |   |   |   |--- cellular_process >  0.00
|   |   |   |   |   |   |   |   |   |   |   |--- class: 1
|   |   |   |   |   |   |   |--- response_to_stimulus >  0.01
|   |   |   |   |   |   |   |   |--- class: 1
|   |   |   |   |--- cellular_process >  0.03
|   |   |   |   |   |--- cellular_process <= 0.06
|   |   |   |   |   |   |--- localization <= 0.02
|   |   |   |   |   |   |   |--- interspecies_interaction_between_organisms <= 0.20
|   |   |   |   |   |   |   |   |--- cellular_process <= 0.03
|   |   |   |   |   |   |   |   |   |--- class: 1
|   |   |   |   |   |   |   |   |--- cellular_process >  0.03
|   |   |   |   |   |   |   |   |   |--- metabolic_process <= 0.13
|   |   |   |   |   |   |   |   |   |   |--- metabolic_process <= 0.10
|   |   |   |   |   |   |   |   |   |   |   |--- truncated branch of depth 14
|   |   |   |   |   |   |   |   |   |   |--- metabolic_process >  0.10
|   |   |   |   |   |   |   |   |   |   |   |--- truncated branch of depth 3
|   |   |   |   |   |   |   |   |   |--- metabolic_process >  0.13
|   |   |   |   |   |   |   |   |   |   |--- binding <= 0.11
|   |   |   |   |   |   |   |   |   |   |   |--- truncated branch of depth 6
|   |   |   |   |   |   |   |   |   |   |--- binding >  0.11
|   |   |   |   |   |   |   |   |   |   |   |--- class: 0
|   |   |   |   |   |   |   |--- interspecies_interaction_between_organisms >  0.20
|   |   |   |   |   |   |   |   |--- class: 1
|   |   |   |   |   |   |--- localization >  0.02
|   |   |   |   |   |   |   |--- biological_regulation <= 0.15
|   |   |   |   |   |   |   |   |--- localization <= 0.05
|   |   |   |   |   |   |   |   |   |--- metabolic_process <= 0.03
|   |   |   |   |   |   |   |   |   |   |--- biological_regulation <= 0.11
|   |   |   |   |   |   |   |   |   |   |   |--- class: 1
|   |   |   |   |   |   |   |   |   |   |--- biological_regulation >  0.11
|   |   |   |   |   |   |   |   |   |   |   |--- class: 0
|   |   |   |   |   |   |   |   |   |--- metabolic_process >  0.03
|   |   |   |   |   |   |   |   |   |   |--- class: 1
|   |   |   |   |   |   |   |   |--- localization >  0.05
|   |   |   |   |   |   |   |   |   |--- immune_system_process <= 0.01
|   |   |   |   |   |   |   |   |   |   |--- localization <= 0.10
|   |   |   |   |   |   |   |   |   |   |   |--- class: 0
|   |   |   |   |   |   |   |   |   |   |--- localization >  0.10
|   |   |   |   |   |   |   |   |   |   |   |--- truncated branch of depth 3
|   |   |   |   |   |   |   |   |   |--- immune_system_process >  0.01
|   |   |   |   |   |   |   |   |   |   |--- catalytic_activity <= 0.03
|   |   |   |   |   |   |   |   |   |   |   |--- class: 1
|   |   |   |   |   |   |   |   |   |   |--- catalytic_activity >  0.03
|   |   |   |   |   |   |   |   |   |   |   |--- class: 0
|   |   |   |   |   |   |   |--- biological_regulation >  0.15
|   |   |   |   |   |   |   |   |--- cellular_process <= 0.03
|   |   |   |   |   |   |   |   |   |--- cellular_process <= 0.03
|   |   |   |   |   |   |   |   |   |   |--- class: 1
|   |   |   |   |   |   |   |   |   |--- cellular_process >  0.03
|   |   |   |   |   |   |   |   |   |   |--- class: 0
|   |   |   |   |   |   |   |   |--- cellular_process >  0.03
|   |   |   |   |   |   |   |   |   |--- class: 1
|   |   |   |   |   |--- cellular_process >  0.06
|   |   |   |   |   |   |--- cellular_anatomical_entity <= 0.37
|   |   |   |   |   |   |   |--- binding <= 0.12
|   |   |   |   |   |   |   |   |--- metabolic_process <= 0.22
|   |   |   |   |   |   |   |   |   |--- cellular_anatomical_entity <= 0.22
|   |   |   |   |   |   |   |   |   |   |--- cellular_anatomical_entity <= 0.22
|   |   |   |   |   |   |   |   |   |   |   |--- class: 1
|   |   |   |   |   |   |   |   |   |   |--- cellular_anatomical_entity >  0.22
|   |   |   |   |   |   |   |   |   |   |   |--- class: 0
|   |   |   |   |   |   |   |   |   |--- cellular_anatomical_entity >  0.22
|   |   |   |   |   |   |   |   |   |   |--- class: 1
|   |   |   |   |   |   |   |   |--- metabolic_process >  0.22
|   |   |   |   |   |   |   |   |   |--- biological_regulation <= 0.11
|   |   |   |   |   |   |   |   |   |   |--- class: 0
|   |   |   |   |   |   |   |   |   |--- biological_regulation >  0.11
|   |   |   |   |   |   |   |   |   |   |--- class: 1
|   |   |   |   |   |   |   |--- binding >  0.12
|   |   |   |   |   |   |   |   |--- class: 0
|   |   |   |   |   |   |--- cellular_anatomical_entity >  0.37
|   |   |   |   |   |   |   |--- binding <= 0.09
|   |   |   |   |   |   |   |   |--- cellular_anatomical_entity <= 0.40
|   |   |   |   |   |   |   |   |   |--- cellular_process <= 0.07
|   |   |   |   |   |   |   |   |   |   |--- binding <= 0.07
|   |   |   |   |   |   |   |   |   |   |   |--- class: 1
|   |   |   |   |   |   |   |   |   |   |--- binding >  0.07
|   |   |   |   |   |   |   |   |   |   |   |--- class: 0
|   |   |   |   |   |   |   |   |   |--- cellular_process >  0.07
|   |   |   |   |   |   |   |   |   |   |--- class: 0
|   |   |   |   |   |   |   |   |--- cellular_anatomical_entity >  0.40
|   |   |   |   |   |   |   |   |   |--- response_to_stimulus <= 0.29
|   |   |   |   |   |   |   |   |   |   |--- catalytic_activity <= 0.04
|   |   |   |   |   |   |   |   |   |   |   |--- class: 1
|   |   |   |   |   |   |   |   |   |   |--- catalytic_activity >  0.04
|   |   |   |   |   |   |   |   |   |   |   |--- truncated branch of depth 2
|   |   |   |   |   |   |   |   |   |--- response_to_stimulus >  0.29
|   |   |   |   |   |   |   |   |   |   |--- cellular_anatomical_entity <= 0.43
|   |   |   |   |   |   |   |   |   |   |   |--- class: 0
|   |   |   |   |   |   |   |   |   |   |--- cellular_anatomical_entity >  0.43
|   |   |   |   |   |   |   |   |   |   |   |--- class: 1
|   |   |   |   |   |   |   |--- binding >  0.09
|   |   |   |   |   |   |   |   |--- metabolic_process <= 0.15
|   |   |   |   |   |   |   |   |   |--- class: 0
|   |   |   |   |   |   |   |   |--- metabolic_process >  0.15
|   |   |   |   |   |   |   |   |   |--- class: 1
|   |   |   |--- binding >  0.12
|   |   |   |   |--- molecular_function_regulator <= 0.05
|   |   |   |   |   |--- response_to_stimulus <= 0.16
|   |   |   |   |   |   |--- cellular_process <= 0.04
|   |   |   |   |   |   |   |--- biological_regulation <= 0.43
|   |   |   |   |   |   |   |   |--- multicellular_organismal_process <= 0.08
|   |   |   |   |   |   |   |   |   |--- cellular_anatomical_entity <= 0.66
|   |   |   |   |   |   |   |   |   |   |--- biological_regulation <= 0.10
|   |   |   |   |   |   |   |   |   |   |   |--- truncated branch of depth 3
|   |   |   |   |   |   |   |   |   |   |--- biological_regulation >  0.10
|   |   |   |   |   |   |   |   |   |   |   |--- truncated branch of depth 14
|   |   |   |   |   |   |   |   |   |--- cellular_anatomical_entity >  0.66
|   |   |   |   |   |   |   |   |   |   |--- binding <= 0.15
|   |   |   |   |   |   |   |   |   |   |   |--- class: 0
|   |   |   |   |   |   |   |   |   |   |--- binding >  0.15
|   |   |   |   |   |   |   |   |   |   |   |--- class: 1
|   |   |   |   |   |   |   |   |--- multicellular_organismal_process >  0.08
|   |   |   |   |   |   |   |   |   |--- class: 1
|   |   |   |   |   |   |   |--- biological_regulation >  0.43
|   |   |   |   |   |   |   |   |--- cellular_process <= 0.03
|   |   |   |   |   |   |   |   |   |--- cellular_anatomical_entity <= 0.27
|   |   |   |   |   |   |   |   |   |   |--- binding <= 0.22
|   |   |   |   |   |   |   |   |   |   |   |--- class: 1
|   |   |   |   |   |   |   |   |   |   |--- binding >  0.22
|   |   |   |   |   |   |   |   |   |   |   |--- class: 0
|   |   |   |   |   |   |   |   |   |--- cellular_anatomical_entity >  0.27
|   |   |   |   |   |   |   |   |   |   |--- class: 1
|   |   |   |   |   |   |   |   |--- cellular_process >  0.03
|   |   |   |   |   |   |   |   |   |--- class: 0
|   |   |   |   |   |   |--- cellular_process >  0.04
|   |   |   |   |   |   |   |--- cellular_anatomical_entity <= 0.40
|   |   |   |   |   |   |   |   |--- cellular_anatomical_entity <= 0.33
|   |   |   |   |   |   |   |   |   |--- response_to_stimulus <= 0.04
|   |   |   |   |   |   |   |   |   |   |--- response_to_stimulus <= 0.02
|   |   |   |   |   |   |   |   |   |   |   |--- truncated branch of depth 9
|   |   |   |   |   |   |   |   |   |   |--- response_to_stimulus >  0.02
|   |   |   |   |   |   |   |   |   |   |   |--- truncated branch of depth 3
|   |   |   |   |   |   |   |   |   |--- response_to_stimulus >  0.04
|   |   |   |   |   |   |   |   |   |   |--- molecular_function_regulator <= 0.03
|   |   |   |   |   |   |   |   |   |   |   |--- truncated branch of depth 3
|   |   |   |   |   |   |   |   |   |   |--- molecular_function_regulator >  0.03
|   |   |   |   |   |   |   |   |   |   |   |--- class: 0
|   |   |   |   |   |   |   |   |--- cellular_anatomical_entity >  0.33
|   |   |   |   |   |   |   |   |   |--- binding <= 0.14
|   |   |   |   |   |   |   |   |   |   |--- developmental_process <= 0.10
|   |   |   |   |   |   |   |   |   |   |   |--- class: 1
|   |   |   |   |   |   |   |   |   |   |--- developmental_process >  0.10
|   |   |   |   |   |   |   |   |   |   |   |--- class: 0
|   |   |   |   |   |   |   |   |   |--- binding >  0.14
|   |   |   |   |   |   |   |   |   |   |--- interspecies_interaction_between_organisms <= 0.47
|   |   |   |   |   |   |   |   |   |   |   |--- truncated branch of depth 5
|   |   |   |   |   |   |   |   |   |   |--- interspecies_interaction_between_organisms >  0.47
|   |   |   |   |   |   |   |   |   |   |   |--- class: 1
|   |   |   |   |   |   |   |--- cellular_anatomical_entity >  0.40
|   |   |   |   |   |   |   |   |--- biological_regulation <= 0.17
|   |   |   |   |   |   |   |   |   |--- class: 1
|   |   |   |   |   |   |   |   |--- biological_regulation >  0.17
|   |   |   |   |   |   |   |   |   |--- biological_regulation <= 0.18
|   |   |   |   |   |   |   |   |   |   |--- cellular_process <= 0.05
|   |   |   |   |   |   |   |   |   |   |   |--- class: 1
|   |   |   |   |   |   |   |   |   |   |--- cellular_process >  0.05
|   |   |   |   |   |   |   |   |   |   |   |--- class: 0
|   |   |   |   |   |   |   |   |   |--- biological_regulation >  0.18
|   |   |   |   |   |   |   |   |   |   |--- metabolic_process <= 0.18
|   |   |   |   |   |   |   |   |   |   |   |--- truncated branch of depth 3
|   |   |   |   |   |   |   |   |   |   |--- metabolic_process >  0.18
|   |   |   |   |   |   |   |   |   |   |   |--- class: 0
|   |   |   |   |   |--- response_to_stimulus >  0.16
|   |   |   |   |   |   |--- class: 1
|   |   |   |   |--- molecular_function_regulator >  0.05
|   |   |   |   |   |--- multicellular_organismal_process <= 0.05
|   |   |   |   |   |   |--- cellular_process <= 0.03
|   |   |   |   |   |   |   |--- cellular_process <= 0.02
|   |   |   |   |   |   |   |   |--- cellular_anatomical_entity <= 0.22
|   |   |   |   |   |   |   |   |   |--- class: 0
|   |   |   |   |   |   |   |   |--- cellular_anatomical_entity >  0.22
|   |   |   |   |   |   |   |   |   |--- molecular_function_regulator <= 0.52
|   |   |   |   |   |   |   |   |   |   |--- reproductive_process <= 0.01
|   |   |   |   |   |   |   |   |   |   |   |--- truncated branch of depth 8
|   |   |   |   |   |   |   |   |   |   |--- reproductive_process >  0.01
|   |   |   |   |   |   |   |   |   |   |   |--- class: 1
|   |   |   |   |   |   |   |   |   |--- molecular_function_regulator >  0.52
|   |   |   |   |   |   |   |   |   |   |--- cellular_process <= 0.00
|   |   |   |   |   |   |   |   |   |   |   |--- class: 1
|   |   |   |   |   |   |   |   |   |   |--- cellular_process >  0.00
|   |   |   |   |   |   |   |   |   |   |   |--- truncated branch of depth 4
|   |   |   |   |   |   |   |--- cellular_process >  0.02
|   |   |   |   |   |   |   |   |--- cellular_process <= 0.02
|   |   |   |   |   |   |   |   |   |--- class: 0
|   |   |   |   |   |   |   |   |--- cellular_process >  0.02
|   |   |   |   |   |   |   |   |   |--- binding <= 0.32
|   |   |   |   |   |   |   |   |   |   |--- response_to_stimulus <= 0.01
|   |   |   |   |   |   |   |   |   |   |   |--- truncated branch of depth 3
|   |   |   |   |   |   |   |   |   |   |--- response_to_stimulus >  0.01
|   |   |   |   |   |   |   |   |   |   |   |--- class: 0
|   |   |   |   |   |   |   |   |   |--- binding >  0.32
|   |   |   |   |   |   |   |   |   |   |--- binding <= 0.83
|   |   |   |   |   |   |   |   |   |   |   |--- class: 1
|   |   |   |   |   |   |   |   |   |   |--- binding >  0.83
|   |   |   |   |   |   |   |   |   |   |   |--- class: 0
|   |   |   |   |   |   |--- cellular_process >  0.03
|   |   |   |   |   |   |   |--- multicellular_organismal_process <= 0.05
|   |   |   |   |   |   |   |   |--- catalytic_activity <= 0.86
|   |   |   |   |   |   |   |   |   |--- binding <= 0.69
|   |   |   |   |   |   |   |   |   |   |--- developmental_process <= 0.00
|   |   |   |   |   |   |   |   |   |   |   |--- truncated branch of depth 6
|   |   |   |   |   |   |   |   |   |   |--- developmental_process >  0.00
|   |   |   |   |   |   |   |   |   |   |   |--- class: 1
|   |   |   |   |   |   |   |   |   |--- binding >  0.69
|   |   |   |   |   |   |   |   |   |   |--- cellular_anatomical_entity <= 0.50
|   |   |   |   |   |   |   |   |   |   |   |--- class: 0
|   |   |   |   |   |   |   |   |   |   |--- cellular_anatomical_entity >  0.50
|   |   |   |   |   |   |   |   |   |   |   |--- class: 1
|   |   |   |   |   |   |   |   |--- catalytic_activity >  0.86
|   |   |   |   |   |   |   |   |   |--- class: 0
|   |   |   |   |   |   |   |--- multicellular_organismal_process >  0.05
|   |   |   |   |   |   |   |   |--- class: 0
|   |   |   |   |   |--- multicellular_organismal_process >  0.05
|   |   |   |   |   |   |--- biological_regulation <= 0.11
|   |   |   |   |   |   |   |--- metabolic_process <= 0.13
|   |   |   |   |   |   |   |   |--- class: 0
|   |   |   |   |   |   |   |--- metabolic_process >  0.13
|   |   |   |   |   |   |   |   |--- class: 1
|   |   |   |   |   |   |--- biological_regulation >  0.11
|   |   |   |   |   |   |   |--- cellular_anatomical_entity <= 0.95
|   |   |   |   |   |   |   |   |--- class: 1
|   |   |   |   |   |   |   |--- cellular_anatomical_entity >  0.95
|   |   |   |   |   |   |   |   |--- cellular_process <= 0.06
|   |   |   |   |   |   |   |   |   |--- class: 1
|   |   |   |   |   |   |   |   |--- cellular_process >  0.06
|   |   |   |   |   |   |   |   |   |--- class: 0
|--- cellular_process >  0.08
|   |--- cellular_process <= 0.15
|   |   |--- biological_regulation <= 0.10
|   |   |   |--- cellular_anatomical_entity <= 0.18
|   |   |   |   |--- cellular_anatomical_entity <= 0.08
|   |   |   |   |   |--- cellular_process <= 0.10
|   |   |   |   |   |   |--- catalytic_activity <= 0.12
|   |   |   |   |   |   |   |--- biological_adhesion <= 0.03
|   |   |   |   |   |   |   |   |--- biological_regulation <= 0.03
|   |   |   |   |   |   |   |   |   |--- metabolic_process <= 0.24
|   |   |   |   |   |   |   |   |   |   |--- metabolic_process <= 0.05
|   |   |   |   |   |   |   |   |   |   |   |--- truncated branch of depth 10
|   |   |   |   |   |   |   |   |   |   |--- metabolic_process >  0.05
|   |   |   |   |   |   |   |   |   |   |   |--- truncated branch of depth 3
|   |   |   |   |   |   |   |   |   |--- metabolic_process >  0.24
|   |   |   |   |   |   |   |   |   |   |--- metabolic_process <= 0.26
|   |   |   |   |   |   |   |   |   |   |   |--- class: 1
|   |   |   |   |   |   |   |   |   |   |--- metabolic_process >  0.26
|   |   |   |   |   |   |   |   |   |   |   |--- truncated branch of depth 4
|   |   |   |   |   |   |   |   |--- biological_regulation >  0.03
|   |   |   |   |   |   |   |   |   |--- binding <= 0.12
|   |   |   |   |   |   |   |   |   |   |--- cellular_anatomical_entity <= 0.06
|   |   |   |   |   |   |   |   |   |   |   |--- truncated branch of depth 8
|   |   |   |   |   |   |   |   |   |   |--- cellular_anatomical_entity >  0.06
|   |   |   |   |   |   |   |   |   |   |   |--- class: 0
|   |   |   |   |   |   |   |   |   |--- binding >  0.12
|   |   |   |   |   |   |   |   |   |   |--- metabolic_process <= 0.39
|   |   |   |   |   |   |   |   |   |   |   |--- truncated branch of depth 4
|   |   |   |   |   |   |   |   |   |   |--- metabolic_process >  0.39
|   |   |   |   |   |   |   |   |   |   |   |--- class: 1
|   |   |   |   |   |   |   |--- biological_adhesion >  0.03
|   |   |   |   |   |   |   |   |--- binding <= 0.47
|   |   |   |   |   |   |   |   |   |--- class: 1
|   |   |   |   |   |   |   |   |--- binding >  0.47
|   |   |   |   |   |   |   |   |   |--- class: 0
|   |   |   |   |   |   |--- catalytic_activity >  0.12
|   |   |   |   |   |   |   |--- metabolic_process <= 0.24
|   |   |   |   |   |   |   |   |--- catalytic_activity <= 0.37
|   |   |   |   |   |   |   |   |   |--- class: 1
|   |   |   |   |   |   |   |   |--- catalytic_activity >  0.37
|   |   |   |   |   |   |   |   |   |--- class: 0
|   |   |   |   |   |   |   |--- metabolic_process >  0.24
|   |   |   |   |   |   |   |   |--- class: 0
|   |   |   |   |   |--- cellular_process >  0.10
|   |   |   |   |   |   |--- binding <= 0.08
|   |   |   |   |   |   |   |--- biological_regulation <= 0.06
|   |   |   |   |   |   |   |   |--- localization <= 0.21
|   |   |   |   |   |   |   |   |   |--- response_to_stimulus <= 0.07
|   |   |   |   |   |   |   |   |   |   |--- signaling <= 0.50
|   |   |   |   |   |   |   |   |   |   |   |--- truncated branch of depth 8
|   |   |   |   |   |   |   |   |   |   |--- signaling >  0.50
|   |   |   |   |   |   |   |   |   |   |   |--- class: 1
|   |   |   |   |   |   |   |   |   |--- response_to_stimulus >  0.07
|   |   |   |   |   |   |   |   |   |   |--- cellular_anatomical_entity <= 0.04
|   |   |   |   |   |   |   |   |   |   |   |--- truncated branch of depth 2
|   |   |   |   |   |   |   |   |   |   |--- cellular_anatomical_entity >  0.04
|   |   |   |   |   |   |   |   |   |   |   |--- class: 0
|   |   |   |   |   |   |   |   |--- localization >  0.21
|   |   |   |   |   |   |   |   |   |--- binding <= 0.05
|   |   |   |   |   |   |   |   |   |   |--- class: 1
|   |   |   |   |   |   |   |   |   |--- binding >  0.05
|   |   |   |   |   |   |   |   |   |   |--- localization <= 0.22
|   |   |   |   |   |   |   |   |   |   |   |--- class: 1
|   |   |   |   |   |   |   |   |   |   |--- localization >  0.22
|   |   |   |   |   |   |   |   |   |   |   |--- class: 0
|   |   |   |   |   |   |   |--- biological_regulation >  0.06
|   |   |   |   |   |   |   |   |--- binding <= 0.01
|   |   |   |   |   |   |   |   |   |--- class: 0
|   |   |   |   |   |   |   |   |--- binding >  0.01
|   |   |   |   |   |   |   |   |   |--- binding <= 0.06
|   |   |   |   |   |   |   |   |   |   |--- interspecies_interaction_between_organisms <= 0.06
|   |   |   |   |   |   |   |   |   |   |   |--- truncated branch of depth 4
|   |   |   |   |   |   |   |   |   |   |--- interspecies_interaction_between_organisms >  0.06
|   |   |   |   |   |   |   |   |   |   |   |--- class: 0
|   |   |   |   |   |   |   |   |   |--- binding >  0.06
|   |   |   |   |   |   |   |   |   |   |--- class: 0
|   |   |   |   |   |   |--- binding >  0.08
|   |   |   |   |   |   |   |--- cellular_anatomical_entity <= 0.05
|   |   |   |   |   |   |   |   |--- multicellular_organismal_process <= 0.01
|   |   |   |   |   |   |   |   |   |--- cellular_anatomical_entity <= 0.00
|   |   |   |   |   |   |   |   |   |   |--- binding <= 0.09
|   |   |   |   |   |   |   |   |   |   |   |--- class: 0
|   |   |   |   |   |   |   |   |   |   |--- binding >  0.09
|   |   |   |   |   |   |   |   |   |   |   |--- class: 1
|   |   |   |   |   |   |   |   |   |--- cellular_anatomical_entity >  0.00
|   |   |   |   |   |   |   |   |   |   |--- metabolic_process <= 0.04
|   |   |   |   |   |   |   |   |   |   |   |--- truncated branch of depth 6
|   |   |   |   |   |   |   |   |   |   |--- metabolic_process >  0.04
|   |   |   |   |   |   |   |   |   |   |   |--- truncated branch of depth 6
|   |   |   |   |   |   |   |   |--- multicellular_organismal_process >  0.01
|   |   |   |   |   |   |   |   |   |--- class: 1
|   |   |   |   |   |   |   |--- cellular_anatomical_entity >  0.05
|   |   |   |   |   |   |   |   |--- molecular_function_regulator <= 0.05
|   |   |   |   |   |   |   |   |   |--- cellular_process <= 0.14
|   |   |   |   |   |   |   |   |   |   |--- cellular_anatomical_entity <= 0.07
|   |   |   |   |   |   |   |   |   |   |   |--- truncated branch of depth 4
|   |   |   |   |   |   |   |   |   |   |--- cellular_anatomical_entity >  0.07
|   |   |   |   |   |   |   |   |   |   |   |--- truncated branch of depth 3
|   |   |   |   |   |   |   |   |   |--- cellular_process >  0.14
|   |   |   |   |   |   |   |   |   |   |--- metabolic_process <= 0.05
|   |   |   |   |   |   |   |   |   |   |   |--- truncated branch of depth 2
|   |   |   |   |   |   |   |   |   |   |--- metabolic_process >  0.05
|   |   |   |   |   |   |   |   |   |   |   |--- truncated branch of depth 3
|   |   |   |   |   |   |   |   |--- molecular_function_regulator >  0.05
|   |   |   |   |   |   |   |   |   |--- class: 0
|   |   |   |   |--- cellular_anatomical_entity >  0.08
|   |   |   |   |   |--- biological_regulation <= 0.02
|   |   |   |   |   |   |--- binding <= 0.07
|   |   |   |   |   |   |   |--- metabolic_process <= 0.52
|   |   |   |   |   |   |   |   |--- catalytic_activity <= 0.13
|   |   |   |   |   |   |   |   |   |--- cellular_anatomical_entity <= 0.10
|   |   |   |   |   |   |   |   |   |   |--- metabolic_process <= 0.19
|   |   |   |   |   |   |   |   |   |   |   |--- truncated branch of depth 3
|   |   |   |   |   |   |   |   |   |   |--- metabolic_process >  0.19
|   |   |   |   |   |   |   |   |   |   |   |--- truncated branch of depth 4
|   |   |   |   |   |   |   |   |   |--- cellular_anatomical_entity >  0.10
|   |   |   |   |   |   |   |   |   |   |--- cellular_process <= 0.13
|   |   |   |   |   |   |   |   |   |   |   |--- truncated branch of depth 11
|   |   |   |   |   |   |   |   |   |   |--- cellular_process >  0.13
|   |   |   |   |   |   |   |   |   |   |   |--- truncated branch of depth 6
|   |   |   |   |   |   |   |   |--- catalytic_activity >  0.13
|   |   |   |   |   |   |   |   |   |--- class: 1
|   |   |   |   |   |   |   |--- metabolic_process >  0.52
|   |   |   |   |   |   |   |   |--- class: 1
|   |   |   |   |   |   |--- binding >  0.07
|   |   |   |   |   |   |   |--- interspecies_interaction_between_organisms <= 0.06
|   |   |   |   |   |   |   |   |--- cellular_process <= 0.13
|   |   |   |   |   |   |   |   |   |--- localization <= 0.42
|   |   |   |   |   |   |   |   |   |   |--- localization <= 0.04
|   |   |   |   |   |   |   |   |   |   |   |--- truncated branch of depth 17
|   |   |   |   |   |   |   |   |   |   |--- localization >  0.04
|   |   |   |   |   |   |   |   |   |   |   |--- truncated branch of depth 6
|   |   |   |   |   |   |   |   |   |--- localization >  0.42
|   |   |   |   |   |   |   |   |   |   |--- response_to_stimulus <= 0.03
|   |   |   |   |   |   |   |   |   |   |   |--- truncated branch of depth 3
|   |   |   |   |   |   |   |   |   |   |--- response_to_stimulus >  0.03
|   |   |   |   |   |   |   |   |   |   |   |--- class: 0
|   |   |   |   |   |   |   |   |--- cellular_process >  0.13
|   |   |   |   |   |   |   |   |   |--- biological_regulation <= 0.02
|   |   |   |   |   |   |   |   |   |   |--- metabolic_process <= 0.19
|   |   |   |   |   |   |   |   |   |   |   |--- truncated branch of depth 6
|   |   |   |   |   |   |   |   |   |   |--- metabolic_process >  0.19
|   |   |   |   |   |   |   |   |   |   |   |--- class: 1
|   |   |   |   |   |   |   |   |   |--- biological_regulation >  0.02
|   |   |   |   |   |   |   |   |   |   |--- class: 0
|   |   |   |   |   |   |   |--- interspecies_interaction_between_organisms >  0.06
|   |   |   |   |   |   |   |   |--- localization <= 0.34
|   |   |   |   |   |   |   |   |   |--- class: 1
|   |   |   |   |   |   |   |   |--- localization >  0.34
|   |   |   |   |   |   |   |   |   |--- class: 0
|   |   |   |   |   |--- biological_regulation >  0.02
|   |   |   |   |   |   |--- cellular_process <= 0.10
|   |   |   |   |   |   |   |--- binding <= 0.19
|   |   |   |   |   |   |   |   |--- interspecies_interaction_between_organisms <= 0.05
|   |   |   |   |   |   |   |   |   |--- cellular_anatomical_entity <= 0.11
|   |   |   |   |   |   |   |   |   |   |--- catalytic_activity <= 0.04
|   |   |   |   |   |   |   |   |   |   |   |--- truncated branch of depth 6
|   |   |   |   |   |   |   |   |   |   |--- catalytic_activity >  0.04
|   |   |   |   |   |   |   |   |   |   |   |--- class: 1
|   |   |   |   |   |   |   |   |   |--- cellular_anatomical_entity >  0.11
|   |   |   |   |   |   |   |   |   |   |--- multicellular_organismal_process <= 0.05
|   |   |   |   |   |   |   |   |   |   |   |--- truncated branch of depth 11
|   |   |   |   |   |   |   |   |   |   |--- multicellular_organismal_process >  0.05
|   |   |   |   |   |   |   |   |   |   |   |--- class: 1
|   |   |   |   |   |   |   |   |--- interspecies_interaction_between_organisms >  0.05
|   |   |   |   |   |   |   |   |   |--- biological_regulation <= 0.03
|   |   |   |   |   |   |   |   |   |   |--- class: 0
|   |   |   |   |   |   |   |   |   |--- biological_regulation >  0.03
|   |   |   |   |   |   |   |   |   |   |--- class: 1
|   |   |   |   |   |   |   |--- binding >  0.19
|   |   |   |   |   |   |   |   |--- binding <= 0.38
|   |   |   |   |   |   |   |   |   |--- class: 1
|   |   |   |   |   |   |   |   |--- binding >  0.38
|   |   |   |   |   |   |   |   |   |--- cellular_anatomical_entity <= 0.17
|   |   |   |   |   |   |   |   |   |   |--- catalytic_activity <= 0.00
|   |   |   |   |   |   |   |   |   |   |   |--- truncated branch of depth 3
|   |   |   |   |   |   |   |   |   |   |--- catalytic_activity >  0.00
|   |   |   |   |   |   |   |   |   |   |   |--- truncated branch of depth 2
|   |   |   |   |   |   |   |   |   |--- cellular_anatomical_entity >  0.17
|   |   |   |   |   |   |   |   |   |   |--- class: 0
|   |   |   |   |   |   |--- cellular_process >  0.10
|   |   |   |   |   |   |   |--- binding <= 0.09
|   |   |   |   |   |   |   |   |--- cellular_anatomical_entity <= 0.10
|   |   |   |   |   |   |   |   |   |--- cellular_anatomical_entity <= 0.09
|   |   |   |   |   |   |   |   |   |   |--- response_to_stimulus <= 0.12
|   |   |   |   |   |   |   |   |   |   |   |--- truncated branch of depth 2
|   |   |   |   |   |   |   |   |   |   |--- response_to_stimulus >  0.12
|   |   |   |   |   |   |   |   |   |   |   |--- class: 0
|   |   |   |   |   |   |   |   |   |--- cellular_anatomical_entity >  0.09
|   |   |   |   |   |   |   |   |   |   |--- biological_regulation <= 0.09
|   |   |   |   |   |   |   |   |   |   |   |--- class: 0
|   |   |   |   |   |   |   |   |   |   |--- biological_regulation >  0.09
|   |   |   |   |   |   |   |   |   |   |   |--- class: 1
|   |   |   |   |   |   |   |   |--- cellular_anatomical_entity >  0.10
|   |   |   |   |   |   |   |   |   |--- developmental_process <= 0.02
|   |   |   |   |   |   |   |   |   |   |--- cellular_process <= 0.12
|   |   |   |   |   |   |   |   |   |   |   |--- truncated branch of depth 4
|   |   |   |   |   |   |   |   |   |   |--- cellular_process >  0.12
|   |   |   |   |   |   |   |   |   |   |   |--- truncated branch of depth 8
|   |   |   |   |   |   |   |   |   |--- developmental_process >  0.02
|   |   |   |   |   |   |   |   |   |   |--- cellular_process <= 0.13
|   |   |   |   |   |   |   |   |   |   |   |--- truncated branch of depth 6
|   |   |   |   |   |   |   |   |   |   |--- cellular_process >  0.13
|   |   |   |   |   |   |   |   |   |   |   |--- class: 1
|   |   |   |   |   |   |   |--- binding >  0.09
|   |   |   |   |   |   |   |   |--- metabolic_process <= 0.66
|   |   |   |   |   |   |   |   |   |--- metabolic_process <= 0.32
|   |   |   |   |   |   |   |   |   |   |--- binding <= 0.71
|   |   |   |   |   |   |   |   |   |   |   |--- truncated branch of depth 9
|   |   |   |   |   |   |   |   |   |   |--- binding >  0.71
|   |   |   |   |   |   |   |   |   |   |   |--- class: 0
|   |   |   |   |   |   |   |   |   |--- metabolic_process >  0.32
|   |   |   |   |   |   |   |   |   |   |--- catalytic_activity <= 0.64
|   |   |   |   |   |   |   |   |   |   |   |--- class: 1
|   |   |   |   |   |   |   |   |   |   |--- catalytic_activity >  0.64
|   |   |   |   |   |   |   |   |   |   |   |--- class: 0
|   |   |   |   |   |   |   |   |--- metabolic_process >  0.66
|   |   |   |   |   |   |   |   |   |--- class: 0
|   |   |   |--- cellular_anatomical_entity >  0.18
|   |   |   |   |--- metabolic_process <= 0.31
|   |   |   |   |   |--- metabolic_process <= 0.01
|   |   |   |   |   |   |--- binding <= 0.46
|   |   |   |   |   |   |   |--- cellular_process <= 0.13
|   |   |   |   |   |   |   |   |--- biological_adhesion <= 0.05
|   |   |   |   |   |   |   |   |   |--- localization <= 0.40
|   |   |   |   |   |   |   |   |   |   |--- cellular_process <= 0.12
|   |   |   |   |   |   |   |   |   |   |   |--- truncated branch of depth 18
|   |   |   |   |   |   |   |   |   |   |--- cellular_process >  0.12
|   |   |   |   |   |   |   |   |   |   |   |--- truncated branch of depth 9
|   |   |   |   |   |   |   |   |   |--- localization >  0.40
|   |   |   |   |   |   |   |   |   |   |--- biological_regulation <= 0.06
|   |   |   |   |   |   |   |   |   |   |   |--- class: 1
|   |   |   |   |   |   |   |   |   |   |--- biological_regulation >  0.06
|   |   |   |   |   |   |   |   |   |   |   |--- truncated branch of depth 2
|   |   |   |   |   |   |   |   |--- biological_adhesion >  0.05
|   |   |   |   |   |   |   |   |   |--- biological_regulation <= 0.00
|   |   |   |   |   |   |   |   |   |   |--- cellular_process <= 0.11
|   |   |   |   |   |   |   |   |   |   |   |--- class: 1
|   |   |   |   |   |   |   |   |   |   |--- cellular_process >  0.11
|   |   |   |   |   |   |   |   |   |   |   |--- class: 0
|   |   |   |   |   |   |   |   |   |--- biological_regulation >  0.00
|   |   |   |   |   |   |   |   |   |   |--- class: 1
|   |   |   |   |   |   |   |--- cellular_process >  0.13
|   |   |   |   |   |   |   |   |--- signaling <= 0.29
|   |   |   |   |   |   |   |   |   |--- biological_adhesion <= 0.69
|   |   |   |   |   |   |   |   |   |   |--- structural_molecule_activity <= 0.68
|   |   |   |   |   |   |   |   |   |   |   |--- truncated branch of depth 7
|   |   |   |   |   |   |   |   |   |   |--- structural_molecule_activity >  0.68
|   |   |   |   |   |   |   |   |   |   |   |--- class: 0
|   |   |   |   |   |   |   |   |   |--- biological_adhesion >  0.69
|   |   |   |   |   |   |   |   |   |   |--- class: 0
|   |   |   |   |   |   |   |   |--- signaling >  0.29
|   |   |   |   |   |   |   |   |   |--- molecular_transducer_activity <= 0.04
|   |   |   |   |   |   |   |   |   |   |--- class: 0
|   |   |   |   |   |   |   |   |   |--- molecular_transducer_activity >  0.04
|   |   |   |   |   |   |   |   |   |   |--- class: 1
|   |   |   |   |   |   |--- binding >  0.46
|   |   |   |   |   |   |   |--- molecular_transducer_activity <= 0.11
|   |   |   |   |   |   |   |   |--- locomotion <= 0.20
|   |   |   |   |   |   |   |   |   |--- cellular_anatomical_entity <= 0.21
|   |   |   |   |   |   |   |   |   |   |--- binding <= 0.81
|   |   |   |   |   |   |   |   |   |   |   |--- class: 1
|   |   |   |   |   |   |   |   |   |   |--- binding >  0.81
|   |   |   |   |   |   |   |   |   |   |   |--- class: 0
|   |   |   |   |   |   |   |   |   |--- cellular_anatomical_entity >  0.21
|   |   |   |   |   |   |   |   |   |   |--- interspecies_interaction_between_organisms <= 0.09
|   |   |   |   |   |   |   |   |   |   |   |--- truncated branch of depth 5
|   |   |   |   |   |   |   |   |   |   |--- interspecies_interaction_between_organisms >  0.09
|   |   |   |   |   |   |   |   |   |   |   |--- truncated branch of depth 2
|   |   |   |   |   |   |   |   |--- locomotion >  0.20
|   |   |   |   |   |   |   |   |   |--- class: 0
|   |   |   |   |   |   |   |--- molecular_transducer_activity >  0.11
|   |   |   |   |   |   |   |   |--- class: 0
|   |   |   |   |   |--- metabolic_process >  0.01
|   |   |   |   |   |   |--- binding <= 0.15
|   |   |   |   |   |   |   |--- response_to_stimulus <= 0.04
|   |   |   |   |   |   |   |   |--- localization <= 0.01
|   |   |   |   |   |   |   |   |   |--- catalytic_activity <= 0.08
|   |   |   |   |   |   |   |   |   |   |--- metabolic_process <= 0.17
|   |   |   |   |   |   |   |   |   |   |   |--- truncated branch of depth 13
|   |   |   |   |   |   |   |   |   |   |--- metabolic_process >  0.17
|   |   |   |   |   |   |   |   |   |   |   |--- truncated branch of depth 16
|   |   |   |   |   |   |   |   |   |--- catalytic_activity >  0.08
|   |   |   |   |   |   |   |   |   |   |--- cellular_anatomical_entity <= 0.28
|   |   |   |   |   |   |   |   |   |   |   |--- truncated branch of depth 4
|   |   |   |   |   |   |   |   |   |   |--- cellular_anatomical_entity >  0.28
|   |   |   |   |   |   |   |   |   |   |   |--- truncated branch of depth 3
|   |   |   |   |   |   |   |   |--- localization >  0.01
|   |   |   |   |   |   |   |   |   |--- cellular_process <= 0.12
|   |   |   |   |   |   |   |   |   |   |--- localization <= 0.10
|   |   |   |   |   |   |   |   |   |   |   |--- truncated branch of depth 2
|   |   |   |   |   |   |   |   |   |   |--- localization >  0.10
