|--- cellular_process <= 0.78
|   |--- cellular_process <= 0.70
|   |   |--- metabolic_process <= 0.84
|   |   |   |--- cargo_receptor_activity <= 0.98
|   |   |   |   |--- localization <= 0.91
|   |   |   |   |   |--- behavior <= 0.98
|   |   |   |   |   |   |--- class: 1
|   |   |   |   |   |--- behavior >  0.98
|   |   |   |   |   |   |--- class: 0
|   |   |   |   |--- localization >  0.91
|   |   |   |   |   |--- rhythmic_process <= 0.95
|   |   |   |   |   |   |--- class: 1
|   |   |   |   |   |--- rhythmic_process >  0.95
|   |   |   |   |   |   |--- class: 0
|   |   |   |--- cargo_receptor_activity >  0.98
|   |   |   |   |--- cellular_anatomical_entity <= 0.86
|   |   |   |   |   |--- other_organism_part <= 1.00
|   |   |   |   |   |   |--- small_molecule_sensor_activity <= 1.00
|   |   |   |   |   |   |   |--- biological_phase <= 1.00
|   |   |   |   |   |   |   |   |--- molecular_template_activity <= 1.00
|   |   |   |   |   |   |   |   |   |--- cellular_process <= 0.67
|   |   |   |   |   |   |   |   |   |   |--- detoxification <= 1.00
|   |   |   |   |   |   |   |   |   |   |   |--- truncated branch of depth 40
|   |   |   |   |   |   |   |   |   |   |--- detoxification >  1.00
|   |   |   |   |   |   |   |   |   |   |   |--- truncated branch of depth 2
|   |   |   |   |   |   |   |   |   |--- cellular_process >  0.67
|   |   |   |   |   |   |   |   |   |   |--- virion_part <= 1.00
|   |   |   |   |   |   |   |   |   |   |   |--- truncated branch of depth 29
|   |   |   |   |   |   |   |   |   |   |--- virion_part >  1.00
|   |   |   |   |   |   |   |   |   |   |   |--- truncated branch of depth 4
|   |   |   |   |   |   |   |   |--- molecular_template_activity >  1.00
|   |   |   |   |   |   |   |   |   |--- locomotion <= 1.00
|   |   |   |   |   |   |   |   |   |   |--- behavior <= 1.00
|   |   |   |   |   |   |   |   |   |   |   |--- truncated branch of depth 6
|   |   |   |   |   |   |   |   |   |   |--- behavior >  1.00
|   |   |   |   |   |   |   |   |   |   |   |--- truncated branch of depth 6
|   |   |   |   |   |   |   |   |   |--- locomotion >  1.00
|   |   |   |   |   |   |   |   |   |   |--- class: 1
|   |   |   |   |   |   |   |--- biological_phase >  1.00
|   |   |   |   |   |   |   |   |--- molecular_transducer_activity <= 1.00
|   |   |   |   |   |   |   |   |   |--- biomineralization <= 1.00
|   |   |   |   |   |   |   |   |   |   |--- small_molecule_sensor_activity <= 1.00
|   |   |   |   |   |   |   |   |   |   |   |--- class: 1
|   |   |   |   |   |   |   |   |   |   |--- small_molecule_sensor_activity >  1.00
|   |   |   |   |   |   |   |   |   |   |   |--- class: 0
|   |   |   |   |   |   |   |   |   |--- biomineralization >  1.00
|   |   |   |   |   |   |   |   |   |   |--- class: 0
|   |   |   |   |   |   |   |   |--- molecular_transducer_activity >  1.00
|   |   |   |   |   |   |   |   |   |--- signaling <= 1.00
|   |   |   |   |   |   |   |   |   |   |--- class: 0
|   |   |   |   |   |   |   |   |   |--- signaling >  1.00
|   |   |   |   |   |   |   |   |   |   |--- interspecies_interaction_between_organisms <= 0.95
|   |   |   |   |   |   |   |   |   |   |   |--- class: 0
|   |   |   |   |   |   |   |   |   |   |--- interspecies_interaction_between_organisms >  0.95
|   |   |   |   |   |   |   |   |   |   |   |--- class: 1
|   |   |   |   |   |   |--- small_molecule_sensor_activity >  1.00
|   |   |   |   |   |   |   |--- biological_regulation <= 0.77
|   |   |   |   |   |   |   |   |--- growth <= 0.98
|   |   |   |   |   |   |   |   |   |--- translation_regulator_activity <= 1.00
|   |   |   |   |   |   |   |   |   |   |--- class: 0
|   |   |   |   |   |   |   |   |   |--- translation_regulator_activity >  1.00
|   |   |   |   |   |   |   |   |   |   |--- class: 1
|   |   |   |   |   |   |   |   |--- growth >  0.98
|   |   |   |   |   |   |   |   |   |--- reproduction <= 1.00
|   |   |   |   |   |   |   |   |   |   |--- biomineralization <= 1.00
|   |   |   |   |   |   |   |   |   |   |   |--- class: 1
|   |   |   |   |   |   |   |   |   |   |--- biomineralization >  1.00
|   |   |   |   |   |   |   |   |   |   |   |--- truncated branch of depth 12
|   |   |   |   |   |   |   |   |   |--- reproduction >  1.00
|   |   |   |   |   |   |   |   |   |   |--- multi-organism_process <= 1.00
|   |   |   |   |   |   |   |   |   |   |   |--- class: 1
|   |   |   |   |   |   |   |   |   |   |--- multi-organism_process >  1.00
|   |   |   |   |   |   |   |   |   |   |   |--- class: 0
|   |   |   |   |   |   |   |--- biological_regulation >  0.77
|   |   |   |   |   |   |   |   |--- intraspecies_interaction_between_organisms <= 1.00
|   |   |   |   |   |   |   |   |   |--- virion_part <= 1.00
|   |   |   |   |   |   |   |   |   |   |--- class: 0
|   |   |   |   |   |   |   |   |   |--- virion_part >  1.00
|   |   |   |   |   |   |   |   |   |   |--- class: 1
|   |   |   |   |   |   |   |   |--- intraspecies_interaction_between_organisms >  1.00
|   |   |   |   |   |   |   |   |   |--- molecular_function_regulator <= 0.95
|   |   |   |   |   |   |   |   |   |   |--- class: 1
|   |   |   |   |   |   |   |   |   |--- molecular_function_regulator >  0.95
|   |   |   |   |   |   |   |   |   |   |--- class: 0
|   |   |   |   |   |--- other_organism_part >  1.00
|   |   |   |   |   |   |--- biological_regulation <= 0.73
|   |   |   |   |   |   |   |--- cellular_process <= 0.67
|   |   |   |   |   |   |   |   |--- other_organism_part <= 1.00
|   |   |   |   |   |   |   |   |   |--- developmental_process <= 1.00
|   |   |   |   |   |   |   |   |   |   |--- other_organism_part <= 1.00
|   |   |   |   |   |   |   |   |   |   |   |--- truncated branch of depth 2
|   |   |   |   |   |   |   |   |   |   |--- other_organism_part >  1.00
|   |   |   |   |   |   |   |   |   |   |   |--- class: 0
|   |   |   |   |   |   |   |   |   |--- developmental_process >  1.00
|   |   |   |   |   |   |   |   |   |   |--- class: 1
|   |   |   |   |   |   |   |   |--- other_organism_part >  1.00
|   |   |   |   |   |   |   |   |   |--- reproduction <= 1.00
|   |   |   |   |   |   |   |   |   |   |--- interspecies_interaction_between_organisms <= 1.00
|   |   |   |   |   |   |   |   |   |   |   |--- class: 0
|   |   |   |   |   |   |   |   |   |   |--- interspecies_interaction_between_organisms >  1.00
|   |   |   |   |   |   |   |   |   |   |   |--- class: 1
|   |   |   |   |   |   |   |   |   |--- reproduction >  1.00
|   |   |   |   |   |   |   |   |   |   |--- binding <= 0.76
|   |   |   |   |   |   |   |   |   |   |   |--- class: 1
|   |   |   |   |   |   |   |   |   |   |--- binding >  0.76
|   |   |   |   |   |   |   |   |   |   |   |--- class: 0
|   |   |   |   |   |   |   |--- cellular_process >  0.67
|   |   |   |   |   |   |   |   |--- interspecies_interaction_between_organisms <= 0.96
|   |   |   |   |   |   |   |   |   |--- class: 0
|   |   |   |   |   |   |   |   |--- interspecies_interaction_between_organisms >  0.96
|   |   |   |   |   |   |   |   |   |--- cellular_anatomical_entity <= 0.85
|   |   |   |   |   |   |   |   |   |   |--- class: 1
|   |   |   |   |   |   |   |   |   |--- cellular_anatomical_entity >  0.85
|   |   |   |   |   |   |   |   |   |   |--- class: 0
|   |   |   |   |   |   |--- biological_regulation >  0.73
|   |   |   |   |   |   |   |--- small_molecule_sensor_activity <= 1.00
|   |   |   |   |   |   |   |   |--- class: 0
|   |   |   |   |   |   |   |--- small_molecule_sensor_activity >  1.00
|   |   |   |   |   |   |   |   |--- transporter_activity <= 0.95
|   |   |   |   |   |   |   |   |   |--- class: 0
|   |   |   |   |   |   |   |   |--- transporter_activity >  0.95
|   |   |   |   |   |   |   |   |   |--- class: 1
|   |   |   |   |--- cellular_anatomical_entity >  0.86
|   |   |   |   |   |--- intraspecies_interaction_between_organisms <= 1.00
|   |   |   |   |   |   |--- biological_phase <= 1.00
|   |   |   |   |   |   |   |--- molecular_carrier_activity <= 1.00
|   |   |   |   |   |   |   |   |--- virion_part <= 1.00
|   |   |   |   |   |   |   |   |   |--- binding <= 0.92
|   |   |   |   |   |   |   |   |   |   |--- reproduction <= 1.00
|   |   |   |   |   |   |   |   |   |   |   |--- truncated branch of depth 32
|   |   |   |   |   |   |   |   |   |   |--- reproduction >  1.00
|   |   |   |   |   |   |   |   |   |   |   |--- truncated branch of depth 4
|   |   |   |   |   |   |   |   |   |--- binding >  0.92
|   |   |   |   |   |   |   |   |   |   |--- catalytic_activity <= 0.92
|   |   |   |   |   |   |   |   |   |   |   |--- truncated branch of depth 7
|   |   |   |   |   |   |   |   |   |   |--- catalytic_activity >  0.92
|   |   |   |   |   |   |   |   |   |   |   |--- truncated branch of depth 10
|   |   |   |   |   |   |   |   |--- virion_part >  1.00
|   |   |   |   |   |   |   |   |   |--- biological_regulation <= 0.75
|   |   |   |   |   |   |   |   |   |   |--- molecular_template_activity <= 1.00
|   |   |   |   |   |   |   |   |   |   |   |--- truncated branch of depth 6
|   |   |   |   |   |   |   |   |   |   |--- molecular_template_activity >  1.00
|   |   |   |   |   |   |   |   |   |   |   |--- truncated branch of depth 2
|   |   |   |   |   |   |   |   |   |--- biological_regulation >  0.75
|   |   |   |   |   |   |   |   |   |   |--- metabolic_process <= 0.71
|   |   |   |   |   |   |   |   |   |   |   |--- class: 0
|   |   |   |   |   |   |   |   |   |   |--- metabolic_process >  0.71
|   |   |   |   |   |   |   |   |   |   |   |--- truncated branch of depth 2
|   |   |   |   |   |   |   |--- molecular_carrier_activity >  1.00
|   |   |   |   |   |   |   |   |--- binding <= 0.80
|   |   |   |   |   |   |   |   |   |--- class: 0
|   |   |   |   |   |   |   |   |--- binding >  0.80
|   |   |   |   |   |   |   |   |   |--- response_to_stimulus <= 0.99
|   |   |   |   |   |   |   |   |   |   |--- immune_system_process <= 0.91
|   |   |   |   |   |   |   |   |   |   |   |--- class: 0
|   |   |   |   |   |   |   |   |   |   |--- immune_system_process >  0.91
|   |   |   |   |   |   |   |   |   |   |   |--- class: 1
|   |   |   |   |   |   |   |   |   |--- response_to_stimulus >  0.99
|   |   |   |   |   |   |   |   |   |   |--- class: 0
|   |   |   |   |   |   |--- biological_phase >  1.00
|   |   |   |   |   |   |   |--- biological_regulation <= 0.69
|   |   |   |   |   |   |   |   |--- biological_phase <= 1.00
|   |   |   |   |   |   |   |   |   |--- transporter_activity <= 1.00
|   |   |   |   |   |   |   |   |   |   |--- biomineralization <= 1.00
|   |   |   |   |   |   |   |   |   |   |   |--- truncated branch of depth 2
|   |   |   |   |   |   |   |   |   |   |--- biomineralization >  1.00
|   |   |   |   |   |   |   |   |   |   |   |--- truncated branch of depth 6
|   |   |   |   |   |   |   |   |   |--- transporter_activity >  1.00
|   |   |   |   |   |   |   |   |   |   |--- class: 1
|   |   |   |   |   |   |   |   |--- biological_phase >  1.00
|   |   |   |   |   |   |   |   |   |--- class: 1
|   |   |   |   |   |   |   |--- biological_regulation >  0.69
|   |   |   |   |   |   |   |   |--- binding <= 0.87
|   |   |   |   |   |   |   |   |   |--- multicellular_organismal_process <= 1.00
|   |   |   |   |   |   |   |   |   |   |--- cellular_anatomical_entity <= 0.93
|   |   |   |   |   |   |   |   |   |   |   |--- class: 0
|   |   |   |   |   |   |   |   |   |   |--- cellular_anatomical_entity >  0.93
|   |   |   |   |   |   |   |   |   |   |   |--- class: 1
|   |   |   |   |   |   |   |   |   |--- multicellular_organismal_process >  1.00
|   |   |   |   |   |   |   |   |   |   |--- class: 1
|   |   |   |   |   |   |   |   |--- binding >  0.87
|   |   |   |   |   |   |   |   |   |--- molecular_carrier_activity <= 1.00
|   |   |   |   |   |   |   |   |   |   |--- other_organism_part <= 1.00
|   |   |   |   |   |   |   |   |   |   |   |--- class: 0
|   |   |   |   |   |   |   |   |   |   |--- other_organism_part >  1.00
|   |   |   |   |   |   |   |   |   |   |   |--- class: 1
|   |   |   |   |   |   |   |   |   |--- molecular_carrier_activity >  1.00
|   |   |   |   |   |   |   |   |   |   |--- catalytic_activity <= 1.00
|   |   |   |   |   |   |   |   |   |   |   |--- truncated branch of depth 3
|   |   |   |   |   |   |   |   |   |   |--- catalytic_activity >  1.00
|   |   |   |   |   |   |   |   |   |   |   |--- class: 0
|   |   |   |   |   |--- intraspecies_interaction_between_organisms >  1.00
|   |   |   |   |   |   |--- cargo_receptor_activity <= 1.00
|   |   |   |   |   |   |   |--- molecular_sequestering_activity <= 1.00
|   |   |   |   |   |   |   |   |--- binding <= 0.81
|   |   |   |   |   |   |   |   |   |--- class: 0
|   |   |   |   |   |   |   |   |--- binding >  0.81
|   |   |   |   |   |   |   |   |   |--- response_to_stimulus <= 0.82
|   |   |   |   |   |   |   |   |   |   |--- class: 0
|   |   |   |   |   |   |   |   |   |--- response_to_stimulus >  0.82
|   |   |   |   |   |   |   |   |   |   |--- cargo_receptor_activity <= 1.00
|   |   |   |   |   |   |   |   |   |   |   |--- class: 0
|   |   |   |   |   |   |   |   |   |   |--- cargo_receptor_activity >  1.00
|   |   |   |   |   |   |   |   |   |   |   |--- class: 1
|   |   |   |   |   |   |   |--- molecular_sequestering_activity >  1.00
|   |   |   |   |   |   |   |   |--- class: 0
|   |   |   |   |   |   |--- cargo_receptor_activity >  1.00
|   |   |   |   |   |   |   |--- class: 1
|   |   |--- metabolic_process >  0.84
|   |   |   |--- cellular_anatomical_entity <= 0.86
|   |   |   |   |--- pigmentation <= 1.00
|   |   |   |   |   |--- virion_part <= 0.96
|   |   |   |   |   |   |--- localization <= 0.96
|   |   |   |   |   |   |   |--- class: 1
|   |   |   |   |   |   |--- localization >  0.96
|   |   |   |   |   |   |   |--- class: 0
|   |   |   |   |   |--- virion_part >  0.96
|   |   |   |   |   |   |--- biological_phase <= 1.00
|   |   |   |   |   |   |   |--- molecular_sequestering_activity <= 1.00
|   |   |   |   |   |   |   |   |--- biological_regulation <= 0.72
|   |   |   |   |   |   |   |   |   |--- multicellular_organismal_process <= 1.00
|   |   |   |   |   |   |   |   |   |   |--- detoxification <= 1.00
|   |   |   |   |   |   |   |   |   |   |   |--- truncated branch of depth 21
|   |   |   |   |   |   |   |   |   |   |--- detoxification >  1.00
|   |   |   |   |   |   |   |   |   |   |   |--- truncated branch of depth 2
|   |   |   |   |   |   |   |   |   |--- multicellular_organismal_process >  1.00
|   |   |   |   |   |   |   |   |   |   |--- translation_regulator_activity <= 0.98
|   |   |   |   |   |   |   |   |   |   |   |--- truncated branch of depth 2
|   |   |   |   |   |   |   |   |   |   |--- translation_regulator_activity >  0.98
|   |   |   |   |   |   |   |   |   |   |   |--- truncated branch of depth 17
|   |   |   |   |   |   |   |   |--- biological_regulation >  0.72
|   |   |   |   |   |   |   |   |   |--- response_to_stimulus <= 0.97
|   |   |   |   |   |   |   |   |   |   |--- molecular_template_activity <= 1.00
|   |   |   |   |   |   |   |   |   |   |   |--- truncated branch of depth 12
|   |   |   |   |   |   |   |   |   |   |--- molecular_template_activity >  1.00
|   |   |   |   |   |   |   |   |   |   |   |--- truncated branch of depth 5
|   |   |   |   |   |   |   |   |   |--- response_to_stimulus >  0.97
|   |   |   |   |   |   |   |   |   |   |--- molecular_transducer_activity <= 1.00
|   |   |   |   |   |   |   |   |   |   |   |--- truncated branch of depth 10
|   |   |   |   |   |   |   |   |   |   |--- molecular_transducer_activity >  1.00
|   |   |   |   |   |   |   |   |   |   |   |--- truncated branch of depth 2
|   |   |   |   |   |   |   |--- molecular_sequestering_activity >  1.00
|   |   |   |   |   |   |   |   |--- small_molecule_sensor_activity <= 1.00
|   |   |   |   |   |   |   |   |   |--- developmental_process <= 0.92
|   |   |   |   |   |   |   |   |   |   |--- pigmentation <= 1.00
|   |   |   |   |   |   |   |   |   |   |   |--- class: 0
|   |   |   |   |   |   |   |   |   |   |--- pigmentation >  1.00
|   |   |   |   |   |   |   |   |   |   |   |--- class: 1
|   |   |   |   |   |   |   |   |   |--- developmental_process >  0.92
|   |   |   |   |   |   |   |   |   |   |--- antioxidant_activity <= 1.00
|   |   |   |   |   |   |   |   |   |   |   |--- class: 0
|   |   |   |   |   |   |   |   |   |   |--- antioxidant_activity >  1.00
|   |   |   |   |   |   |   |   |   |   |   |--- truncated branch of depth 2
|   |   |   |   |   |   |   |   |--- small_molecule_sensor_activity >  1.00
|   |   |   |   |   |   |   |   |   |--- nitrogen_utilization <= 1.00
|   |   |   |   |   |   |   |   |   |   |--- class: 0
|   |   |   |   |   |   |   |   |   |--- nitrogen_utilization >  1.00
|   |   |   |   |   |   |   |   |   |   |--- class: 1
|   |   |   |   |   |   |--- biological_phase >  1.00
|   |   |   |   |   |   |   |--- metabolic_process <= 0.99
|   |   |   |   |   |   |   |   |--- multicellular_organismal_process <= 0.97
|   |   |   |   |   |   |   |   |   |--- catalytic_activity <= 0.88
|   |   |   |   |   |   |   |   |   |   |--- translation_regulator_activity <= 0.97
|   |   |   |   |   |   |   |   |   |   |   |--- class: 0
|   |   |   |   |   |   |   |   |   |   |--- translation_regulator_activity >  0.97
|   |   |   |   |   |   |   |   |   |   |   |--- class: 1
|   |   |   |   |   |   |   |   |   |--- catalytic_activity >  0.88
|   |   |   |   |   |   |   |   |   |   |--- biological_adhesion <= 1.00
|   |   |   |   |   |   |   |   |   |   |   |--- truncated branch of depth 6
|   |   |   |   |   |   |   |   |   |   |--- biological_adhesion >  1.00
|   |   |   |   |   |   |   |   |   |   |   |--- truncated branch of depth 2
|   |   |   |   |   |   |   |   |--- multicellular_organismal_process >  0.97
|   |   |   |   |   |   |   |   |   |--- cargo_receptor_activity <= 1.00
|   |   |   |   |   |   |   |   |   |   |--- molecular_template_activity <= 1.00
|   |   |   |   |   |   |   |   |   |   |   |--- truncated branch of depth 8
|   |   |   |   |   |   |   |   |   |   |--- molecular_template_activity >  1.00
|   |   |   |   |   |   |   |   |   |   |   |--- class: 1
|   |   |   |   |   |   |   |   |   |--- cargo_receptor_activity >  1.00
|   |   |   |   |   |   |   |   |   |   |--- signaling <= 1.00
|   |   |   |   |   |   |   |   |   |   |   |--- truncated branch of depth 6
|   |   |   |   |   |   |   |   |   |   |--- signaling >  1.00
|   |   |   |   |   |   |   |   |   |   |   |--- truncated branch of depth 4
|   |   |   |   |   |   |   |--- metabolic_process >  0.99
|   |   |   |   |   |   |   |   |--- reproduction <= 1.00
|   |   |   |   |   |   |   |   |   |--- detoxification <= 1.00
|   |   |   |   |   |   |   |   |   |   |--- class: 0
|   |   |   |   |   |   |   |   |   |--- detoxification >  1.00
|   |   |   |   |   |   |   |   |   |   |--- class: 1
|   |   |   |   |   |   |   |   |--- reproduction >  1.00
|   |   |   |   |   |   |   |   |   |--- class: 1
|   |   |   |   |--- pigmentation >  1.00
|   |   |   |   |   |--- catalytic_activity <= 0.97
|   |   |   |   |   |   |--- cellular_anatomical_entity <= 0.82
|   |   |   |   |   |   |   |--- multicellular_organismal_process <= 0.96
|   |   |   |   |   |   |   |   |--- reproduction <= 1.00
|   |   |   |   |   |   |   |   |   |--- class: 1
|   |   |   |   |   |   |   |   |--- reproduction >  1.00
|   |   |   |   |   |   |   |   |   |--- class: 0
|   |   |   |   |   |   |   |--- multicellular_organismal_process >  0.96
|   |   |   |   |   |   |   |   |--- fusogenic_activity <= 1.00
|   |   |   |   |   |   |   |   |   |--- growth <= 1.00
|   |   |   |   |   |   |   |   |   |   |--- nitrogen_utilization <= 1.00
|   |   |   |   |   |   |   |   |   |   |   |--- truncated branch of depth 4
|   |   |   |   |   |   |   |   |   |   |--- nitrogen_utilization >  1.00
|   |   |   |   |   |   |   |   |   |   |   |--- truncated branch of depth 2
|   |   |   |   |   |   |   |   |   |--- growth >  1.00
|   |   |   |   |   |   |   |   |   |   |--- class: 1
|   |   |   |   |   |   |   |   |--- fusogenic_activity >  1.00
|   |   |   |   |   |   |   |   |   |--- molecular_carrier_activity <= 1.00
|   |   |   |   |   |   |   |   |   |   |--- class: 0
|   |   |   |   |   |   |   |   |   |--- molecular_carrier_activity >  1.00
|   |   |   |   |   |   |   |   |   |   |--- class: 1
|   |   |   |   |   |   |--- cellular_anatomical_entity >  0.82
|   |   |   |   |   |   |   |--- metabolic_process <= 0.94
|   |   |   |   |   |   |   |   |--- signaling <= 1.00
|   |   |   |   |   |   |   |   |   |--- other_organism_part <= 1.00
|   |   |   |   |   |   |   |   |   |   |--- class: 1
|   |   |   |   |   |   |   |   |   |--- other_organism_part >  1.00
|   |   |   |   |   |   |   |   |   |   |--- class: 0
|   |   |   |   |   |   |   |   |--- signaling >  1.00
|   |   |   |   |   |   |   |   |   |--- response_to_stimulus <= 0.82
|   |   |   |   |   |   |   |   |   |   |--- class: 0
|   |   |   |   |   |   |   |   |   |--- response_to_stimulus >  0.82
|   |   |   |   |   |   |   |   |   |   |--- fusogenic_activity <= 1.00
|   |   |   |   |   |   |   |   |   |   |   |--- class: 0
|   |   |   |   |   |   |   |   |   |   |--- fusogenic_activity >  1.00
|   |   |   |   |   |   |   |   |   |   |   |--- class: 1
|   |   |   |   |   |   |   |--- metabolic_process >  0.94
|   |   |   |   |   |   |   |   |--- class: 0
|   |   |   |   |   |--- catalytic_activity >  0.97
|   |   |   |   |   |   |--- intraspecies_interaction_between_organisms <= 1.00
|   |   |   |   |   |   |   |--- biological_regulation <= 0.62
|   |   |   |   |   |   |   |   |--- nitrogen_utilization <= 1.00
|   |   |   |   |   |   |   |   |   |--- structural_molecule_activity <= 1.00
|   |   |   |   |   |   |   |   |   |   |--- multi-organism_process <= 0.96
|   |   |   |   |   |   |   |   |   |   |   |--- class: 1
|   |   |   |   |   |   |   |   |   |   |--- multi-organism_process >  0.96
|   |   |   |   |   |   |   |   |   |   |   |--- truncated branch of depth 3
|   |   |   |   |   |   |   |   |   |--- structural_molecule_activity >  1.00
|   |   |   |   |   |   |   |   |   |   |--- class: 1
|   |   |   |   |   |   |   |   |--- nitrogen_utilization >  1.00
|   |   |   |   |   |   |   |   |   |--- molecular_carrier_activity <= 1.00
|   |   |   |   |   |   |   |   |   |   |--- class: 1
|   |   |   |   |   |   |   |   |   |--- molecular_carrier_activity >  1.00
|   |   |   |   |   |   |   |   |   |   |--- class: 0
|   |   |   |   |   |   |   |--- biological_regulation >  0.62
|   |   |   |   |   |   |   |   |--- biological_regulation <= 0.63
|   |   |   |   |   |   |   |   |   |--- fusogenic_activity <= 1.00
|   |   |   |   |   |   |   |   |   |   |--- class: 0
|   |   |   |   |   |   |   |   |   |--- fusogenic_activity >  1.00
|   |   |   |   |   |   |   |   |   |   |--- class: 1
|   |   |   |   |   |   |   |   |--- biological_regulation >  0.63
|   |   |   |   |   |   |   |   |   |--- immune_system_process <= 1.00
|   |   |   |   |   |   |   |   |   |   |--- biological_adhesion <= 0.95
|   |   |   |   |   |   |   |   |   |   |   |--- truncated branch of depth 2
|   |   |   |   |   |   |   |   |   |   |--- biological_adhesion >  0.95
|   |   |   |   |   |   |   |   |   |   |   |--- truncated branch of depth 5
|   |   |   |   |   |   |   |   |   |--- immune_system_process >  1.00
|   |   |   |   |   |   |   |   |   |   |--- class: 1
|   |   |   |   |   |   |--- intraspecies_interaction_between_organisms >  1.00
|   |   |   |   |   |   |   |--- class: 1
|   |   |   |--- cellular_anatomical_entity >  0.86
|   |   |   |   |--- transporter_activity <= 1.00
|   |   |   |   |   |--- biological_phase <= 1.00
|   |   |   |   |   |   |--- biological_regulation <= 0.75
|   |   |   |   |   |   |   |--- cargo_receptor_activity <= 1.00
|   |   |   |   |   |   |   |   |--- molecular_function_regulator <= 1.00
|   |   |   |   |   |   |   |   |   |--- pigmentation <= 0.99
|   |   |   |   |   |   |   |   |   |   |--- multi-organism_process <= 1.00
|   |   |   |   |   |   |   |   |   |   |   |--- truncated branch of depth 3
|   |   |   |   |   |   |   |   |   |   |--- multi-organism_process >  1.00
|   |   |   |   |   |   |   |   |   |   |   |--- class: 0
|   |   |   |   |   |   |   |   |   |--- pigmentation >  0.99
|   |   |   |   |   |   |   |   |   |   |--- small_molecule_sensor_activity <= 1.00
|   |   |   |   |   |   |   |   |   |   |   |--- truncated branch of depth 12
|   |   |   |   |   |   |   |   |   |   |--- small_molecule_sensor_activity >  1.00
|   |   |   |   |   |   |   |   |   |   |   |--- class: 1
|   |   |   |   |   |   |   |   |--- molecular_function_regulator >  1.00
|   |   |   |   |   |   |   |   |   |--- class: 1
|   |   |   |   |   |   |   |--- cargo_receptor_activity >  1.00
|   |   |   |   |   |   |   |   |--- nitrogen_utilization <= 1.00
|   |   |   |   |   |   |   |   |   |--- class: 0
|   |   |   |   |   |   |   |   |--- nitrogen_utilization >  1.00
|   |   |   |   |   |   |   |   |   |--- binding <= 0.93
|   |   |   |   |   |   |   |   |   |   |--- interspecies_interaction_between_organisms <= 1.00
|   |   |   |   |   |   |   |   |   |   |   |--- class: 1
|   |   |   |   |   |   |   |   |   |   |--- interspecies_interaction_between_organisms >  1.00
|   |   |   |   |   |   |   |   |   |   |   |--- class: 0
|   |   |   |   |   |   |   |   |   |--- binding >  0.93
|   |   |   |   |   |   |   |   |   |   |--- pigmentation <= 1.00
|   |   |   |   |   |   |   |   |   |   |   |--- class: 0
|   |   |   |   |   |   |   |   |   |   |--- pigmentation >  1.00
|   |   |   |   |   |   |   |   |   |   |   |--- class: 1
|   |   |   |   |   |   |--- biological_regulation >  0.75
|   |   |   |   |   |   |   |--- immune_system_process <= 1.00
|   |   |   |   |   |   |   |   |--- localization <= 0.80
|   |   |   |   |   |   |   |   |   |--- catalytic_activity <= 0.97
|   |   |   |   |   |   |   |   |   |   |--- class: 0
|   |   |   |   |   |   |   |   |   |--- catalytic_activity >  0.97
|   |   |   |   |   |   |   |   |   |   |--- detoxification <= 0.99
|   |   |   |   |   |   |   |   |   |   |   |--- class: 0
|   |   |   |   |   |   |   |   |   |   |--- detoxification >  0.99
|   |   |   |   |   |   |   |   |   |   |   |--- class: 1
|   |   |   |   |   |   |   |   |--- localization >  0.80
|   |   |   |   |   |   |   |   |   |--- molecular_function_regulator <= 0.95
|   |   |   |   |   |   |   |   |   |   |--- locomotion <= 1.00
|   |   |   |   |   |   |   |   |   |   |   |--- truncated branch of depth 3
|   |   |   |   |   |   |   |   |   |   |--- locomotion >  1.00
|   |   |   |   |   |   |   |   |   |   |   |--- class: 0
|   |   |   |   |   |   |   |   |   |--- molecular_function_regulator >  0.95
|   |   |   |   |   |   |   |   |   |   |--- reproduction <= 0.99
|   |   |   |   |   |   |   |   |   |   |   |--- class: 1
|   |   |   |   |   |   |   |   |   |   |--- reproduction >  0.99
|   |   |   |   |   |   |   |   |   |   |   |--- truncated branch of depth 8
|   |   |   |   |   |   |   |--- immune_system_process >  1.00
|   |   |   |   |   |   |   |   |--- biological_adhesion <= 1.00
|   |   |   |   |   |   |   |   |   |--- molecular_function_regulator <= 1.00
|   |   |   |   |   |   |   |   |   |   |--- molecular_sequestering_activity <= 1.00
|   |   |   |   |   |   |   |   |   |   |   |--- class: 1
|   |   |   |   |   |   |   |   |   |   |--- molecular_sequestering_activity >  1.00
|   |   |   |   |   |   |   |   |   |   |   |--- truncated branch of depth 2
|   |   |   |   |   |   |   |   |   |--- molecular_function_regulator >  1.00
|   |   |   |   |   |   |   |   |   |   |--- class: 0
|   |   |   |   |   |   |   |   |--- biological_adhesion >  1.00
|   |   |   |   |   |   |   |   |   |--- class: 1
|   |   |   |   |   |--- biological_phase >  1.00
|   |   |   |   |   |   |--- metabolic_process <= 0.99
|   |   |   |   |   |   |   |--- class: 1
|   |   |   |   |   |   |--- metabolic_process >  0.99
|   |   |   |   |   |   |   |--- class: 0
|   |   |   |   |--- transporter_activity >  1.00
|   |   |   |   |   |--- binding <= 0.86
|   |   |   |   |   |   |--- multicellular_organismal_process <= 1.00
|   |   |   |   |   |   |   |--- molecular_function_regulator <= 0.98
|   |   |   |   |   |   |   |   |--- locomotion <= 1.00
|   |   |   |   |   |   |   |   |   |--- molecular_template_activity <= 1.00
|   |   |   |   |   |   |   |   |   |   |--- molecular_sequestering_activity <= 1.00
|   |   |   |   |   |   |   |   |   |   |   |--- truncated branch of depth 4
|   |   |   |   |   |   |   |   |   |   |--- molecular_sequestering_activity >  1.00
|   |   |   |   |   |   |   |   |   |   |   |--- class: 1
|   |   |   |   |   |   |   |   |   |--- molecular_template_activity >  1.00
|   |   |   |   |   |   |   |   |   |   |--- class: 1
|   |   |   |   |   |   |   |   |--- locomotion >  1.00
|   |   |   |   |   |   |   |   |   |--- biomineralization <= 1.00
|   |   |   |   |   |   |   |   |   |   |--- class: 0
|   |   |   |   |   |   |   |   |   |--- biomineralization >  1.00
|   |   |   |   |   |   |   |   |   |   |--- class: 1
|   |   |   |   |   |   |   |--- molecular_function_regulator >  0.98
|   |   |   |   |   |   |   |   |--- cargo_receptor_activity <= 1.00
|   |   |   |   |   |   |   |   |   |--- immune_system_process <= 0.90
|   |   |   |   |   |   |   |   |   |   |--- class: 1
|   |   |   |   |   |   |   |   |   |--- immune_system_process >  0.90
|   |   |   |   |   |   |   |   |   |   |--- class: 0
|   |   |   |   |   |   |   |   |--- cargo_receptor_activity >  1.00
|   |   |   |   |   |   |   |   |   |--- cellular_anatomical_entity <= 0.87
|   |   |   |   |   |   |   |   |   |   |--- cargo_receptor_activity <= 1.00
|   |   |   |   |   |   |   |   |   |   |   |--- truncated branch of depth 2
|   |   |   |   |   |   |   |   |   |   |--- cargo_receptor_activity >  1.00
|   |   |   |   |   |   |   |   |   |   |   |--- class: 0
|   |   |   |   |   |   |   |   |   |--- cellular_anatomical_entity >  0.87
|   |   |   |   |   |   |   |   |   |   |--- structural_molecule_activity <= 1.00
|   |   |   |   |   |   |   |   |   |   |   |--- truncated branch of depth 2
|   |   |   |   |   |   |   |   |   |   |--- structural_molecule_activity >  1.00
|   |   |   |   |   |   |   |   |   |   |   |--- truncated branch of depth 4
|   |   |   |   |   |   |--- multicellular_organismal_process >  1.00
|   |   |   |   |   |   |   |--- multi-organism_process <= 1.00
|   |   |   |   |   |   |   |   |--- molecular_sequestering_activity <= 1.00
|   |   |   |   |   |   |   |   |   |--- signaling <= 1.00
|   |   |   |   |   |   |   |   |   |   |--- class: 1
|   |   |   |   |   |   |   |   |   |--- signaling >  1.00
|   |   |   |   |   |   |   |   |   |   |--- fusogenic_activity <= 1.00
|   |   |   |   |   |   |   |   |   |   |   |--- truncated branch of depth 2
|   |   |   |   |   |   |   |   |   |   |--- fusogenic_activity >  1.00
|   |   |   |   |   |   |   |   |   |   |   |--- truncated branch of depth 2
|   |   |   |   |   |   |   |   |--- molecular_sequestering_activity >  1.00
|   |   |   |   |   |   |   |   |   |--- class: 1
|   |   |   |   |   |   |   |--- multi-organism_process >  1.00
|   |   |   |   |   |   |   |   |--- interspecies_interaction_between_organisms <= 0.96
|   |   |   |   |   |   |   |   |   |--- class: 0
|   |   |   |   |   |   |   |   |--- interspecies_interaction_between_organisms >  0.96
|   |   |   |   |   |   |   |   |   |--- cargo_receptor_activity <= 1.00
|   |   |   |   |   |   |   |   |   |   |--- class: 0
|   |   |   |   |   |   |   |   |   |--- cargo_receptor_activity >  1.00
|   |   |   |   |   |   |   |   |   |   |--- class: 1
|   |   |   |   |   |--- binding >  0.86
|   |   |   |   |   |   |--- nitrogen_utilization <= 1.00
|   |   |   |   |   |   |   |--- signaling <= 1.00
|   |   |   |   |   |   |   |   |--- developmental_process <= 1.00
|   |   |   |   |   |   |   |   |   |--- multi-organism_process <= 0.99
|   |   |   |   |   |   |   |   |   |   |--- class: 1
|   |   |   |   |   |   |   |   |   |--- multi-organism_process >  0.99
|   |   |   |   |   |   |   |   |   |   |--- class: 0
|   |   |   |   |   |   |   |   |--- developmental_process >  1.00
|   |   |   |   |   |   |   |   |   |--- multicellular_organismal_process <= 0.94
|   |   |   |   |   |   |   |   |   |   |--- class: 0
|   |   |   |   |   |   |   |   |   |--- multicellular_organismal_process >  0.94
|   |   |   |   |   |   |   |   |   |   |--- class: 1
|   |   |   |   |   |   |   |--- signaling >  1.00
|   |   |   |   |   |   |   |   |--- multi-organism_process <= 1.00
|   |   |   |   |   |   |   |   |   |--- class: 0
|   |   |   |   |   |   |   |   |--- multi-organism_process >  1.00
|   |   |   |   |   |   |   |   |   |--- other_organism_part <= 1.00
|   |   |   |   |   |   |   |   |   |   |--- other_organism_part <= 1.00
|   |   |   |   |   |   |   |   |   |   |   |--- class: 1
|   |   |   |   |   |   |   |   |   |   |--- other_organism_part >  1.00
|   |   |   |   |   |   |   |   |   |   |   |--- class: 0
|   |   |   |   |   |   |   |   |   |--- other_organism_part >  1.00
|   |   |   |   |   |   |   |   |   |   |--- transporter_activity <= 1.00
|   |   |   |   |   |   |   |   |   |   |   |--- class: 0
|   |   |   |   |   |   |   |   |   |   |--- transporter_activity >  1.00
|   |   |   |   |   |   |   |   |   |   |   |--- class: 1
|   |   |   |   |   |   |--- nitrogen_utilization >  1.00
|   |   |   |   |   |   |   |--- signaling <= 1.00
|   |   |   |   |   |   |   |   |--- cellular_process <= 0.67
|   |   |   |   |   |   |   |   |   |--- molecular_carrier_activity <= 1.00
|   |   |   |   |   |   |   |   |   |   |--- molecular_transducer_activity <= 1.00
|   |   |   |   |   |   |   |   |   |   |   |--- class: 0
|   |   |   |   |   |   |   |   |   |   |--- molecular_transducer_activity >  1.00
|   |   |   |   |   |   |   |   |   |   |   |--- class: 1
|   |   |   |   |   |   |   |   |   |--- molecular_carrier_activity >  1.00
|   |   |   |   |   |   |   |   |   |   |--- class: 1
|   |   |   |   |   |   |   |   |--- cellular_process >  0.67
|   |   |   |   |   |   |   |   |   |--- molecular_template_activity <= 1.00
|   |   |   |   |   |   |   |   |   |   |--- detoxification <= 0.99
|   |   |   |   |   |   |   |   |   |   |   |--- class: 0
|   |   |   |   |   |   |   |   |   |   |--- detoxification >  0.99
|   |   |   |   |   |   |   |   |   |   |   |--- class: 1
|   |   |   |   |   |   |   |   |   |--- molecular_template_activity >  1.00
|   |   |   |   |   |   |   |   |   |   |--- class: 0
|   |   |   |   |   |   |   |--- signaling >  1.00
|   |   |   |   |   |   |   |   |--- fusogenic_activity <= 1.00
|   |   |   |   |   |   |   |   |   |--- class: 0
|   |   |   |   |   |   |   |   |--- fusogenic_activity >  1.00
|   |   |   |   |   |   |   |   |   |--- other_organism_part <= 1.00
|   |   |   |   |   |   |   |   |   |   |--- signaling <= 1.00
|   |   |   |   |   |   |   |   |   |   |   |--- truncated branch of depth 3
|   |   |   |   |   |   |   |   |   |   |--- signaling >  1.00
|   |   |   |   |   |   |   |   |   |   |   |--- class: 0
|   |   |   |   |   |   |   |   |   |--- other_organism_part >  1.00
|   |   |   |   |   |   |   |   |   |   |--- antioxidant_activity <= 1.00
|   |   |   |   |   |   |   |   |   |   |   |--- class: 0
|   |   |   |   |   |   |   |   |   |   |--- antioxidant_activity >  1.00
|   |   |   |   |   |   |   |   |   |   |   |--- truncated branch of depth 8
|   |--- cellular_process >  0.70
|   |   |--- cellular_anatomical_entity <= 0.87
|   |   |   |--- response_to_stimulus <= 0.99
|   |   |   |   |--- biological_regulation <= 0.73
|   |   |   |   |   |--- transporter_activity <= 1.00
|   |   |   |   |   |   |--- translation_regulator_activity <= 0.96
|   |   |   |   |   |   |   |--- localization <= 0.98
|   |   |   |   |   |   |   |   |--- structural_molecule_activity <= 0.99
|   |   |   |   |   |   |   |   |   |--- class: 1
|   |   |   |   |   |   |   |   |--- structural_molecule_activity >  0.99
|   |   |   |   |   |   |   |   |   |--- biological_phase <= 1.00
|   |   |   |   |   |   |   |   |   |   |--- class: 1
|   |   |   |   |   |   |   |   |   |--- biological_phase >  1.00
|   |   |   |   |   |   |   |   |   |   |--- class: 0
|   |   |   |   |   |   |   |--- localization >  0.98
|   |   |   |   |   |   |   |   |--- virion_part <= 1.00
|   |   |   |   |   |   |   |   |   |--- class: 0
|   |   |   |   |   |   |   |   |--- virion_part >  1.00
|   |   |   |   |   |   |   |   |   |--- class: 1
|   |   |   |   |   |   |--- translation_regulator_activity >  0.96
|   |   |   |   |   |   |   |--- multicellular_organismal_process <= 1.00
|   |   |   |   |   |   |   |   |--- response_to_stimulus <= 0.90
|   |   |   |   |   |   |   |   |   |--- nitrogen_utilization <= 1.00
|   |   |   |   |   |   |   |   |   |   |--- cellular_anatomical_entity <= 0.84
|   |   |   |   |   |   |   |   |   |   |   |--- truncated branch of depth 15
|   |   |   |   |   |   |   |   |   |   |--- cellular_anatomical_entity >  0.84
|   |   |   |   |   |   |   |   |   |   |   |--- truncated branch of depth 7
|   |   |   |   |   |   |   |   |   |--- nitrogen_utilization >  1.00
|   |   |   |   |   |   |   |   |   |   |--- catalytic_activity <= 1.00
|   |   |   |   |   |   |   |   |   |   |   |--- truncated branch of depth 3
|   |   |   |   |   |   |   |   |   |   |--- catalytic_activity >  1.00
|   |   |   |   |   |   |   |   |   |   |   |--- truncated branch of depth 2
|   |   |   |   |   |   |   |   |--- response_to_stimulus >  0.90
|   |   |   |   |   |   |   |   |   |--- fusogenic_activity <= 1.00
|   |   |   |   |   |   |   |   |   |   |--- antioxidant_activity <= 0.98
|   |   |   |   |   |   |   |   |   |   |   |--- truncated branch of depth 3
|   |   |   |   |   |   |   |   |   |   |--- antioxidant_activity >  0.98
|   |   |   |   |   |   |   |   |   |   |   |--- truncated branch of depth 20
|   |   |   |   |   |   |   |   |   |--- fusogenic_activity >  1.00
|   |   |   |   |   |   |   |   |   |   |--- cellular_anatomical_entity <= 0.83
|   |   |   |   |   |   |   |   |   |   |   |--- truncated branch of depth 8
|   |   |   |   |   |   |   |   |   |   |--- cellular_anatomical_entity >  0.83
|   |   |   |   |   |   |   |   |   |   |   |--- truncated branch of depth 3
|   |   |   |   |   |   |   |--- multicellular_organismal_process >  1.00
|   |   |   |   |   |   |   |   |--- metabolic_process <= 0.87
|   |   |   |   |   |   |   |   |   |--- molecular_sequestering_activity <= 1.00
|   |   |   |   |   |   |   |   |   |   |--- cargo_receptor_activity <= 1.00
|   |   |   |   |   |   |   |   |   |   |   |--- truncated branch of depth 11
|   |   |   |   |   |   |   |   |   |   |--- cargo_receptor_activity >  1.00
|   |   |   |   |   |   |   |   |   |   |   |--- class: 1
|   |   |   |   |   |   |   |   |   |--- molecular_sequestering_activity >  1.00
|   |   |   |   |   |   |   |   |   |   |--- biological_phase <= 1.00
|   |   |   |   |   |   |   |   |   |   |   |--- truncated branch of depth 2
|   |   |   |   |   |   |   |   |   |   |--- biological_phase >  1.00
|   |   |   |   |   |   |   |   |   |   |   |--- class: 0
|   |   |   |   |   |   |   |   |--- metabolic_process >  0.87
|   |   |   |   |   |   |   |   |   |--- metabolic_process <= 0.95
|   |   |   |   |   |   |   |   |   |   |--- cellular_anatomical_entity <= 0.79
|   |   |   |   |   |   |   |   |   |   |   |--- truncated branch of depth 4
|   |   |   |   |   |   |   |   |   |   |--- cellular_anatomical_entity >  0.79
|   |   |   |   |   |   |   |   |   |   |   |--- truncated branch of depth 10
|   |   |   |   |   |   |   |   |   |--- metabolic_process >  0.95
|   |   |   |   |   |   |   |   |   |   |--- growth <= 1.00
|   |   |   |   |   |   |   |   |   |   |   |--- truncated branch of depth 9
|   |   |   |   |   |   |   |   |   |   |--- growth >  1.00
|   |   |   |   |   |   |   |   |   |   |   |--- truncated branch of depth 2
|   |   |   |   |   |--- transporter_activity >  1.00
|   |   |   |   |   |   |--- behavior <= 1.00
|   |   |   |   |   |   |   |--- molecular_sequestering_activity <= 1.00
|   |   |   |   |   |   |   |   |--- signaling <= 1.00
|   |   |   |   |   |   |   |   |   |--- nitrogen_utilization <= 1.00
|   |   |   |   |   |   |   |   |   |   |--- cellular_anatomical_entity <= 0.82
|   |   |   |   |   |   |   |   |   |   |   |--- class: 0
|   |   |   |   |   |   |   |   |   |   |--- cellular_anatomical_entity >  0.82
|   |   |   |   |   |   |   |   |   |   |   |--- class: 1
|   |   |   |   |   |   |   |   |   |--- nitrogen_utilization >  1.00
|   |   |   |   |   |   |   |   |   |   |--- biomineralization <= 1.00
|   |   |   |   |   |   |   |   |   |   |   |--- truncated branch of depth 6
|   |   |   |   |   |   |   |   |   |   |--- biomineralization >  1.00
|   |   |   |   |   |   |   |   |   |   |   |--- class: 1
|   |   |   |   |   |   |   |   |--- signaling >  1.00
|   |   |   |   |   |   |   |   |   |--- molecular_sequestering_activity <= 1.00
|   |   |   |   |   |   |   |   |   |   |--- class: 1
|   |   |   |   |   |   |   |   |   |--- molecular_sequestering_activity >  1.00
|   |   |   |   |   |   |   |   |   |   |--- class: 0
|   |   |   |   |   |   |   |--- molecular_sequestering_activity >  1.00
|   |   |   |   |   |   |   |   |--- molecular_transducer_activity <= 1.00
|   |   |   |   |   |   |   |   |   |--- growth <= 1.00
|   |   |   |   |   |   |   |   |   |   |--- molecular_template_activity <= 1.00
|   |   |   |   |   |   |   |   |   |   |   |--- truncated branch of depth 6
|   |   |   |   |   |   |   |   |   |   |--- molecular_template_activity >  1.00
|   |   |   |   |   |   |   |   |   |   |   |--- class: 1
|   |   |   |   |   |   |   |   |   |--- growth >  1.00
|   |   |   |   |   |   |   |   |   |   |--- molecular_adaptor_activity <= 1.00
|   |   |   |   |   |   |   |   |   |   |   |--- class: 1
|   |   |   |   |   |   |   |   |   |   |--- molecular_adaptor_activity >  1.00
|   |   |   |   |   |   |   |   |   |   |   |--- class: 0
|   |   |   |   |   |   |   |   |--- molecular_transducer_activity >  1.00
|   |   |   |   |   |   |   |   |   |--- binding <= 0.86
|   |   |   |   |   |   |   |   |   |   |--- small_molecule_sensor_activity <= 1.00
|   |   |   |   |   |   |   |   |   |   |   |--- truncated branch of depth 6
|   |   |   |   |   |   |   |   |   |   |--- small_molecule_sensor_activity >  1.00
|   |   |   |   |   |   |   |   |   |   |   |--- truncated branch of depth 3
|   |   |   |   |   |   |   |   |   |--- binding >  0.86
|   |   |   |   |   |   |   |   |   |   |--- intraspecies_interaction_between_organisms <= 1.00
|   |   |   |   |   |   |   |   |   |   |   |--- truncated branch of depth 4
|   |   |   |   |   |   |   |   |   |   |--- intraspecies_interaction_between_organisms >  1.00
|   |   |   |   |   |   |   |   |   |   |   |--- truncated branch of depth 3
|   |   |   |   |   |   |--- behavior >  1.00
|   |   |   |   |   |   |   |--- response_to_stimulus <= 0.90
|   |   |   |   |   |   |   |   |--- cellular_anatomical_entity <= 0.81
|   |   |   |   |   |   |   |   |   |--- intraspecies_interaction_between_organisms <= 1.00
|   |   |   |   |   |   |   |   |   |   |--- multicellular_organismal_process <= 1.00
|   |   |   |   |   |   |   |   |   |   |   |--- truncated branch of depth 5
|   |   |   |   |   |   |   |   |   |   |--- multicellular_organismal_process >  1.00
|   |   |   |   |   |   |   |   |   |   |   |--- truncated branch of depth 2
|   |   |   |   |   |   |   |   |   |--- intraspecies_interaction_between_organisms >  1.00
|   |   |   |   |   |   |   |   |   |   |--- class: 1
|   |   |   |   |   |   |   |   |--- cellular_anatomical_entity >  0.81
|   |   |   |   |   |   |   |   |   |--- localization <= 0.86
|   |   |   |   |   |   |   |   |   |   |--- translation_regulator_activity <= 0.98
|   |   |   |   |   |   |   |   |   |   |   |--- class: 1
|   |   |   |   |   |   |   |   |   |   |--- translation_regulator_activity >  0.98
|   |   |   |   |   |   |   |   |   |   |   |--- class: 0
|   |   |   |   |   |   |   |   |   |--- localization >  0.86
|   |   |   |   |   |   |   |   |   |   |--- localization <= 0.99
|   |   |   |   |   |   |   |   |   |   |   |--- truncated branch of depth 4
|   |   |   |   |   |   |   |   |   |   |--- localization >  0.99
|   |   |   |   |   |   |   |   |   |   |   |--- truncated branch of depth 4
|   |   |   |   |   |   |   |--- response_to_stimulus >  0.90
|   |   |   |   |   |   |   |   |--- structural_molecule_activity <= 0.97
|   |   |   |   |   |   |   |   |   |--- class: 0
|   |   |   |   |   |   |   |   |--- structural_molecule_activity >  0.97
|   |   |   |   |   |   |   |   |   |--- biological_regulation <= 0.56
|   |   |   |   |   |   |   |   |   |   |--- biological_regulation <= 0.53
|   |   |   |   |   |   |   |   |   |   |   |--- truncated branch of depth 2
|   |   |   |   |   |   |   |   |   |   |--- biological_regulation >  0.53
|   |   |   |   |   |   |   |   |   |   |   |--- class: 0
|   |   |   |   |   |   |   |   |   |--- biological_regulation >  0.56
|   |   |   |   |   |   |   |   |   |   |--- multicellular_organismal_process <= 0.98
|   |   |   |   |   |   |   |   |   |   |   |--- truncated branch of depth 5
|   |   |   |   |   |   |   |   |   |   |--- multicellular_organismal_process >  0.98
|   |   |   |   |   |   |   |   |   |   |   |--- truncated branch of depth 10
|   |   |   |   |--- biological_regulation >  0.73
|   |   |   |   |   |--- signaling <= 1.00
|   |   |   |   |   |   |--- small_molecule_sensor_activity <= 0.99
|   |   |   |   |   |   |   |--- molecular_transducer_activity <= 0.99
|   |   |   |   |   |   |   |   |--- metabolic_process <= 0.91
|   |   |   |   |   |   |   |   |   |--- locomotion <= 0.97
|   |   |   |   |   |   |   |   |   |   |--- multicellular_organismal_process <= 0.97
|   |   |   |   |   |   |   |   |   |   |   |--- class: 0
|   |   |   |   |   |   |   |   |   |   |--- multicellular_organismal_process >  0.97
|   |   |   |   |   |   |   |   |   |   |   |--- truncated branch of depth 2
|   |   |   |   |   |   |   |   |   |--- locomotion >  0.97
|   |   |   |   |   |   |   |   |   |   |--- developmental_process <= 0.99
|   |   |   |   |   |   |   |   |   |   |   |--- class: 1
|   |   |   |   |   |   |   |   |   |   |--- developmental_process >  0.99
|   |   |   |   |   |   |   |   |   |   |   |--- truncated branch of depth 2
|   |   |   |   |   |   |   |   |--- metabolic_process >  0.91
|   |   |   |   |   |   |   |   |   |--- localization <= 0.84
|   |   |   |   |   |   |   |   |   |   |--- class: 1
|   |   |   |   |   |   |   |   |   |--- localization >  0.84
|   |   |   |   |   |   |   |   |   |   |--- immune_system_process <= 0.97
|   |   |   |   |   |   |   |   |   |   |   |--- truncated branch of depth 2
|   |   |   |   |   |   |   |   |   |   |--- immune_system_process >  0.97
|   |   |   |   |   |   |   |   |   |   |   |--- class: 0
|   |   |   |   |   |   |   |--- molecular_transducer_activity >  0.99
|   |   |   |   |   |   |   |   |--- biological_adhesion <= 0.96
|   |   |   |   |   |   |   |   |   |--- class: 1
|   |   |   |   |   |   |   |   |--- biological_adhesion >  0.96
|   |   |   |   |   |   |   |   |   |--- molecular_sequestering_activity <= 1.00
|   |   |   |   |   |   |   |   |   |   |--- class: 0
|   |   |   |   |   |   |   |   |   |--- molecular_sequestering_activity >  1.00
|   |   |   |   |   |   |   |   |   |   |--- class: 1
|   |   |   |   |   |   |--- small_molecule_sensor_activity >  0.99
|   |   |   |   |   |   |   |--- transporter_activity <= 1.00
|   |   |   |   |   |   |   |   |--- virion_part <= 1.00
|   |   |   |   |   |   |   |   |   |--- other_organism_part <= 1.00
|   |   |   |   |   |   |   |   |   |   |--- cellular_process <= 0.75
|   |   |   |   |   |   |   |   |   |   |   |--- truncated branch of depth 14
|   |   |   |   |   |   |   |   |   |   |--- cellular_process >  0.75
|   |   |   |   |   |   |   |   |   |   |   |--- truncated branch of depth 12
|   |   |   |   |   |   |   |   |   |--- other_organism_part >  1.00
|   |   |   |   |   |   |   |   |   |   |--- fusogenic_activity <= 1.00
|   |   |   |   |   |   |   |   |   |   |   |--- truncated branch of depth 4
|   |   |   |   |   |   |   |   |   |   |--- fusogenic_activity >  1.00
|   |   |   |   |   |   |   |   |   |   |   |--- truncated branch of depth 2
|   |   |   |   |   |   |   |   |--- virion_part >  1.00
|   |   |   |   |   |   |   |   |   |--- catalytic_activity <= 0.92
|   |   |   |   |   |   |   |   |   |   |--- small_molecule_sensor_activity <= 1.00
|   |   |   |   |   |   |   |   |   |   |   |--- truncated branch of depth 10
|   |   |   |   |   |   |   |   |   |   |--- small_molecule_sensor_activity >  1.00
|   |   |   |   |   |   |   |   |   |   |   |--- truncated branch of depth 3
|   |   |   |   |   |   |   |   |   |--- catalytic_activity >  0.92
|   |   |   |   |   |   |   |   |   |   |--- pigmentation <= 1.00
|   |   |   |   |   |   |   |   |   |   |   |--- truncated branch of depth 12
|   |   |   |   |   |   |   |   |   |   |--- pigmentation >  1.00
|   |   |   |   |   |   |   |   |   |   |   |--- truncated branch of depth 5
|   |   |   |   |   |   |   |--- transporter_activity >  1.00
|   |   |   |   |   |   |   |   |--- biological_adhesion <= 1.00
|   |   |   |   |   |   |   |   |   |--- localization <= 0.89
|   |   |   |   |   |   |   |   |   |   |--- class: 0
|   |   |   |   |   |   |   |   |   |--- localization >  0.89
|   |   |   |   |   |   |   |   |   |   |--- pigmentation <= 1.00
|   |   |   |   |   |   |   |   |   |   |   |--- class: 0
|   |   |   |   |   |   |   |   |   |   |--- pigmentation >  1.00
|   |   |   |   |   |   |   |   |   |   |   |--- truncated branch of depth 3
|   |   |   |   |   |   |   |   |--- biological_adhesion >  1.00
|   |   |   |   |   |   |   |   |   |--- cellular_process <= 0.78
|   |   |   |   |   |   |   |   |   |   |--- catalytic_activity <= 0.85
|   |   |   |   |   |   |   |   |   |   |   |--- class: 0
|   |   |   |   |   |   |   |   |   |   |--- catalytic_activity >  0.85
|   |   |   |   |   |   |   |   |   |   |   |--- truncated branch of depth 2
|   |   |   |   |   |   |   |   |   |--- cellular_process >  0.78
|   |   |   |   |   |   |   |   |   |   |--- transporter_activity <= 1.00
|   |   |   |   |   |   |   |   |   |   |   |--- class: 0
|   |   |   |   |   |   |   |   |   |   |--- transporter_activity >  1.00
|   |   |   |   |   |   |   |   |   |   |   |--- class: 1
|   |   |   |   |   |--- signaling >  1.00
|   |   |   |   |   |   |--- metabolic_process <= 0.83
|   |   |   |   |   |   |   |--- multi-organism_process <= 1.00
|   |   |   |   |   |   |   |   |--- cargo_receptor_activity <= 1.00
|   |   |   |   |   |   |   |   |   |--- molecular_function_regulator <= 0.93
|   |   |   |   |   |   |   |   |   |   |--- class: 1
|   |   |   |   |   |   |   |   |   |--- molecular_function_regulator >  0.93
|   |   |   |   |   |   |   |   |   |   |--- immune_system_process <= 1.00
|   |   |   |   |   |   |   |   |   |   |   |--- class: 0
|   |   |   |   |   |   |   |   |   |   |--- immune_system_process >  1.00
|   |   |   |   |   |   |   |   |   |   |   |--- class: 1
|   |   |   |   |   |   |   |   |--- cargo_receptor_activity >  1.00
|   |   |   |   |   |   |   |   |   |--- molecular_transducer_activity <= 1.00
|   |   |   |   |   |   |   |   |   |   |--- class: 1
|   |   |   |   |   |   |   |   |   |--- molecular_transducer_activity >  1.00
|   |   |   |   |   |   |   |   |   |   |--- class: 0
|   |   |   |   |   |   |   |--- multi-organism_process >  1.00
|   |   |   |   |   |   |   |   |--- intraspecies_interaction_between_organisms <= 1.00
|   |   |   |   |   |   |   |   |   |--- fusogenic_activity <= 1.00
|   |   |   |   |   |   |   |   |   |   |--- molecular_function_regulator <= 1.00
|   |   |   |   |   |   |   |   |   |   |   |--- truncated branch of depth 3
|   |   |   |   |   |   |   |   |   |   |--- molecular_function_regulator >  1.00
|   |   |   |   |   |   |   |   |   |   |   |--- class: 0
|   |   |   |   |   |   |   |   |   |--- fusogenic_activity >  1.00
|   |   |   |   |   |   |   |   |   |   |--- cellular_process <= 0.74
|   |   |   |   |   |   |   |   |   |   |   |--- truncated branch of depth 3
|   |   |   |   |   |   |   |   |   |   |--- cellular_process >  0.74
|   |   |   |   |   |   |   |   |   |   |   |--- truncated branch of depth 2
|   |   |   |   |   |   |   |   |--- intraspecies_interaction_between_organisms >  1.00
|   |   |   |   |   |   |   |   |   |--- signaling <= 1.00
|   |   |   |   |   |   |   |   |   |   |--- antioxidant_activity <= 1.00
|   |   |   |   |   |   |   |   |   |   |   |--- class: 0
|   |   |   |   |   |   |   |   |   |   |--- antioxidant_activity >  1.00
|   |   |   |   |   |   |   |   |   |   |   |--- class: 1
|   |   |   |   |   |   |   |   |   |--- signaling >  1.00
|   |   |   |   |   |   |   |   |   |   |--- class: 1
|   |   |   |   |   |   |--- metabolic_process >  0.83
|   |   |   |   |   |   |   |--- molecular_carrier_activity <= 1.00
|   |   |   |   |   |   |   |   |--- nitrogen_utilization <= 1.00
|   |   |   |   |   |   |   |   |   |--- response_to_stimulus <= 0.82
|   |   |   |   |   |   |   |   |   |   |--- class: 1
|   |   |   |   |   |   |   |   |   |--- response_to_stimulus >  0.82
|   |   |   |   |   |   |   |   |   |   |--- class: 0
|   |   |   |   |   |   |   |   |--- nitrogen_utilization >  1.00
|   |   |   |   |   |   |   |   |   |--- class: 1
|   |   |   |   |   |   |   |--- molecular_carrier_activity >  1.00
|   |   |   |   |   |   |   |   |--- cellular_anatomical_entity <= 0.69
|   |   |   |   |   |   |   |   |   |--- class: 0
|   |   |   |   |   |   |   |   |--- cellular_anatomical_entity >  0.69
|   |   |   |   |   |   |   |   |   |--- detoxification <= 1.00
|   |   |   |   |   |   |   |   |   |   |--- class: 0
|   |   |   |   |   |   |   |   |   |--- detoxification >  1.00
|   |   |   |   |   |   |   |   |   |   |--- biological_phase <= 1.00
|   |   |   |   |   |   |   |   |   |   |   |--- truncated branch of depth 2
|   |   |   |   |   |   |   |   |   |   |--- biological_phase >  1.00
|   |   |   |   |   |   |   |   |   |   |   |--- truncated branch of depth 8
|   |   |   |--- response_to_stimulus >  0.99
|   |   |   |   |--- pigmentation <= 1.00
|   |   |   |   |   |--- small_molecule_sensor_activity <= 1.00
|   |   |   |   |   |   |--- binding <= 0.92
|   |   |   |   |   |   |   |--- translation_regulator_activity <= 1.00
|   |   |   |   |   |   |   |   |--- detoxification <= 1.00
|   |   |   |   |   |   |   |   |   |--- biological_regulation <= 0.82
|   |   |   |   |   |   |   |   |   |   |--- behavior <= 1.00
|   |   |   |   |   |   |   |   |   |   |   |--- truncated branch of depth 23
|   |   |   |   |   |   |   |   |   |   |--- behavior >  1.00
|   |   |   |   |   |   |   |   |   |   |   |--- truncated branch of depth 2
|   |   |   |   |   |   |   |   |   |--- biological_regulation >  0.82
|   |   |   |   |   |   |   |   |   |   |--- metabolic_process <= 0.88
|   |   |   |   |   |   |   |   |   |   |   |--- truncated branch of depth 14
|   |   |   |   |   |   |   |   |   |   |--- metabolic_process >  0.88
|   |   |   |   |   |   |   |   |   |   |   |--- truncated branch of depth 7
|   |   |   |   |   |   |   |   |--- detoxification >  1.00
|   |   |   |   |   |   |   |   |   |--- binding <= 0.82
|   |   |   |   |   |   |   |   |   |   |--- class: 0
|   |   |   |   |   |   |   |   |   |--- binding >  0.82
|   |   |   |   |   |   |   |   |   |   |--- class: 1
|   |   |   |   |   |   |   |--- translation_regulator_activity >  1.00
|   |   |   |   |   |   |   |   |--- class: 1
|   |   |   |   |   |   |--- binding >  0.92
|   |   |   |   |   |   |   |--- translation_regulator_activity <= 0.98
|   |   |   |   |   |   |   |   |--- catalytic_activity <= 0.95
|   |   |   |   |   |   |   |   |   |--- class: 1
|   |   |   |   |   |   |   |   |--- catalytic_activity >  0.95
|   |   |   |   |   |   |   |   |   |--- class: 0
|   |   |   |   |   |   |   |--- translation_regulator_activity >  0.98
|   |   |   |   |   |   |   |   |--- reproduction <= 1.00
|   |   |   |   |   |   |   |   |   |--- cellular_process <= 0.75
|   |   |   |   |   |   |   |   |   |   |--- biological_phase <= 1.00
|   |   |   |   |   |   |   |   |   |   |   |--- truncated branch of depth 10
|   |   |   |   |   |   |   |   |   |   |--- biological_phase >  1.00
|   |   |   |   |   |   |   |   |   |   |   |--- class: 1
|   |   |   |   |   |   |   |   |   |--- cellular_process >  0.75
|   |   |   |   |   |   |   |   |   |   |--- small_molecule_sensor_activity <= 1.00
|   |   |   |   |   |   |   |   |   |   |   |--- truncated branch of depth 4
|   |   |   |   |   |   |   |   |   |   |--- small_molecule_sensor_activity >  1.00
|   |   |   |   |   |   |   |   |   |   |   |--- truncated branch of depth 10
|   |   |   |   |   |   |   |   |--- reproduction >  1.00
|   |   |   |   |   |   |   |   |   |--- class: 1
|   |   |   |   |   |--- small_molecule_sensor_activity >  1.00
|   |   |   |   |   |   |--- cellular_process <= 0.74
|   |   |   |   |   |   |   |--- detoxification <= 1.00
|   |   |   |   |   |   |   |   |--- response_to_stimulus <= 1.00
|   |   |   |   |   |   |   |   |   |--- reproductive_process <= 0.95
|   |   |   |   |   |   |   |   |   |   |--- class: 1
|   |   |   |   |   |   |   |   |   |--- reproductive_process >  0.95
|   |   |   |   |   |   |   |   |   |   |--- class: 0
|   |   |   |   |   |   |   |   |--- response_to_stimulus >  1.00
|   |   |   |   |   |   |   |   |   |--- cellular_anatomical_entity <= 0.80
|   |   |   |   |   |   |   |   |   |   |--- class: 0
|   |   |   |   |   |   |   |   |   |--- cellular_anatomical_entity >  0.80
|   |   |   |   |   |   |   |   |   |   |--- class: 1
|   |   |   |   |   |   |   |--- detoxification >  1.00
|   |   |   |   |   |   |   |   |--- translation_regulator_activity <= 1.00
|   |   |   |   |   |   |   |   |   |--- class: 0
|   |   |   |   |   |   |   |   |--- translation_regulator_activity >  1.00
|   |   |   |   |   |   |   |   |   |--- class: 1
|   |   |   |   |   |   |--- cellular_process >  0.74
|   |   |   |   |   |   |   |--- cargo_receptor_activity <= 1.00
|   |   |   |   |   |   |   |   |--- translation_regulator_activity <= 1.00
|   |   |   |   |   |   |   |   |   |--- class: 1
|   |   |   |   |   |   |   |   |--- translation_regulator_activity >  1.00
|   |   |   |   |   |   |   |   |   |--- class: 0
|   |   |   |   |   |   |   |--- cargo_receptor_activity >  1.00
|   |   |   |   |   |   |   |   |--- signaling <= 1.00
|   |   |   |   |   |   |   |   |   |--- cellular_anatomical_entity <= 0.85
|   |   |   |   |   |   |   |   |   |   |--- molecular_carrier_activity <= 1.00
|   |   |   |   |   |   |   |   |   |   |   |--- class: 1
|   |   |   |   |   |   |   |   |   |   |--- molecular_carrier_activity >  1.00
|   |   |   |   |   |   |   |   |   |   |   |--- class: 0
|   |   |   |   |   |   |   |   |   |--- cellular_anatomical_entity >  0.85
|   |   |   |   |   |   |   |   |   |   |--- behavior <= 0.99
|   |   |   |   |   |   |   |   |   |   |   |--- class: 0
|   |   |   |   |   |   |   |   |   |   |--- behavior >  0.99
|   |   |   |   |   |   |   |   |   |   |   |--- class: 1
|   |   |   |   |   |   |   |   |--- signaling >  1.00
|   |   |   |   |   |   |   |   |   |--- other_organism_part <= 1.00
|   |   |   |   |   |   |   |   |   |   |--- reproduction <= 1.00
|   |   |   |   |   |   |   |   |   |   |   |--- class: 0
|   |   |   |   |   |   |   |   |   |   |--- reproduction >  1.00
|   |   |   |   |   |   |   |   |   |   |   |--- class: 1
|   |   |   |   |   |   |   |   |   |--- other_organism_part >  1.00
|   |   |   |   |   |   |   |   |   |   |--- growth <= 1.00
|   |   |   |   |   |   |   |   |   |   |   |--- class: 0
|   |   |   |   |   |   |   |   |   |   |--- growth >  1.00
|   |   |   |   |   |   |   |   |   |   |   |--- class: 1
|   |   |   |   |--- pigmentation >  1.00
|   |   |   |   |   |--- binding <= 0.89
|   |   |   |   |   |   |--- cellular_process <= 0.74
|   |   |   |   |   |   |   |--- multi-organism_process <= 0.97
|   |   |   |   |   |   |   |   |--- class: 1
|   |   |   |   |   |   |   |--- multi-organism_process >  0.97
|   |   |   |   |   |   |   |   |--- class: 0
|   |   |   |   |   |   |--- cellular_process >  0.74
|   |   |   |   |   |   |   |--- molecular_carrier_activity <= 1.00
|   |   |   |   |   |   |   |   |--- reproduction <= 1.00
|   |   |   |   |   |   |   |   |   |--- small_molecule_sensor_activity <= 1.00
|   |   |   |   |   |   |   |   |   |   |--- class: 1
|   |   |   |   |   |   |   |   |   |--- small_molecule_sensor_activity >  1.00
|   |   |   |   |   |   |   |   |   |   |--- class: 0
|   |   |   |   |   |   |   |   |--- reproduction >  1.00
|   |   |   |   |   |   |   |   |   |--- class: 1
|   |   |   |   |   |   |   |--- molecular_carrier_activity >  1.00
|   |   |   |   |   |   |   |   |--- class: 0
|   |   |   |   |   |--- binding >  0.89
|   |   |   |   |   |   |--- interspecies_interaction_between_organisms <= 1.00
|   |   |   |   |   |   |   |--- nitrogen_utilization <= 1.00
|   |   |   |   |   |   |   |   |--- class: 1
|   |   |   |   |   |   |   |--- nitrogen_utilization >  1.00
|   |   |   |   |   |   |   |   |--- biological_phase <= 1.00
|   |   |   |   |   |   |   |   |   |--- class: 1
|   |   |   |   |   |   |   |   |--- biological_phase >  1.00
|   |   |   |   |   |   |   |   |   |--- class: 0
|   |   |   |   |   |   |--- interspecies_interaction_between_organisms >  1.00
|   |   |   |   |   |   |   |--- locomotion <= 1.00
|   |   |   |   |   |   |   |   |--- class: 0
|   |   |   |   |   |   |   |--- locomotion >  1.00
|   |   |   |   |   |   |   |   |--- class: 1
|   |   |--- cellular_anatomical_entity >  0.87
|   |   |   |--- metabolic_process <= 0.84
|   |   |   |   |--- pigmentation <= 1.00
|   |   |   |   |   |--- biological_phase <= 1.00
|   |   |   |   |   |   |--- catalytic_activity <= 0.90
|   |   |   |   |   |   |   |--- biological_adhesion <= 1.00
|   |   |   |   |   |   |   |   |--- cellular_process <= 0.75
|   |   |   |   |   |   |   |   |   |--- molecular_adaptor_activity <= 0.99
|   |   |   |   |   |   |   |   |   |   |--- transporter_activity <= 0.99
|   |   |   |   |   |   |   |   |   |   |   |--- class: 0
|   |   |   |   |   |   |   |   |   |   |--- transporter_activity >  0.99
|   |   |   |   |   |   |   |   |   |   |   |--- truncated branch of depth 3
|   |   |   |   |   |   |   |   |   |--- molecular_adaptor_activity >  0.99
|   |   |   |   |   |   |   |   |   |   |--- growth <= 0.95
|   |   |   |   |   |   |   |   |   |   |   |--- class: 1
|   |   |   |   |   |   |   |   |   |   |--- growth >  0.95
|   |   |   |   |   |   |   |   |   |   |   |--- truncated branch of depth 16
|   |   |   |   |   |   |   |   |--- cellular_process >  0.75
|   |   |   |   |   |   |   |   |   |--- biological_regulation <= 0.78
|   |   |   |   |   |   |   |   |   |   |--- molecular_sequestering_activity <= 1.00
|   |   |   |   |   |   |   |   |   |   |   |--- truncated branch of depth 7
|   |   |   |   |   |   |   |   |   |   |--- molecular_sequestering_activity >  1.00
|   |   |   |   |   |   |   |   |   |   |   |--- truncated branch of depth 3
|   |   |   |   |   |   |   |   |   |--- biological_regulation >  0.78
|   |   |   |   |   |   |   |   |   |   |--- nitrogen_utilization <= 1.00
|   |   |   |   |   |   |   |   |   |   |   |--- truncated branch of depth 4
|   |   |   |   |   |   |   |   |   |   |--- nitrogen_utilization >  1.00
|   |   |   |   |   |   |   |   |   |   |   |--- truncated branch of depth 4
|   |   |   |   |   |   |   |--- biological_adhesion >  1.00
|   |   |   |   |   |   |   |   |--- class: 1
|   |   |   |   |   |   |--- catalytic_activity >  0.90
|   |   |   |   |   |   |   |--- localization <= 0.99
|   |   |   |   |   |   |   |   |--- localization <= 0.93
|   |   |   |   |   |   |   |   |   |--- cellular_anatomical_entity <= 0.91
|   |   |   |   |   |   |   |   |   |   |--- growth <= 0.97
|   |   |   |   |   |   |   |   |   |   |   |--- class: 1
|   |   |   |   |   |   |   |   |   |   |--- growth >  0.97
|   |   |   |   |   |   |   |   |   |   |   |--- truncated branch of depth 10
|   |   |   |   |   |   |   |   |   |--- cellular_anatomical_entity >  0.91
|   |   |   |   |   |   |   |   |   |   |--- metabolic_process <= 0.77
|   |   |   |   |   |   |   |   |   |   |   |--- truncated branch of depth 3
|   |   |   |   |   |   |   |   |   |   |--- metabolic_process >  0.77
|   |   |   |   |   |   |   |   |   |   |   |--- truncated branch of depth 7
|   |   |   |   |   |   |   |   |--- localization >  0.93
|   |   |   |   |   |   |   |   |   |--- molecular_function_regulator <= 0.93
|   |   |   |   |   |   |   |   |   |   |--- class: 0
|   |   |   |   |   |   |   |   |   |--- molecular_function_regulator >  0.93
|   |   |   |   |   |   |   |   |   |   |--- fusogenic_activity <= 1.00
|   |   |   |   |   |   |   |   |   |   |   |--- truncated branch of depth 8
|   |   |   |   |   |   |   |   |   |   |--- fusogenic_activity >  1.00
|   |   |   |   |   |   |   |   |   |   |   |--- truncated branch of depth 3
|   |   |   |   |   |   |   |--- localization >  0.99
|   |   |   |   |   |   |   |   |--- biological_adhesion <= 1.00
|   |   |   |   |   |   |   |   |   |--- binding <= 0.87
|   |   |   |   |   |   |   |   |   |   |--- reproduction <= 1.00
|   |   |   |   |   |   |   |   |   |   |   |--- truncated branch of depth 9
|   |   |   |   |   |   |   |   |   |   |--- reproduction >  1.00
|   |   |   |   |   |   |   |   |   |   |   |--- truncated branch of depth 3
|   |   |   |   |   |   |   |   |   |--- binding >  0.87
|   |   |   |   |   |   |   |   |   |   |--- virion_part <= 1.00
|   |   |   |   |   |   |   |   |   |   |   |--- truncated branch of depth 11
|   |   |   |   |   |   |   |   |   |   |--- virion_part >  1.00
|   |   |   |   |   |   |   |   |   |   |   |--- truncated branch of depth 3
|   |   |   |   |   |   |   |   |--- biological_adhesion >  1.00
|   |   |   |   |   |   |   |   |   |--- antioxidant_activity <= 1.00
|   |   |   |   |   |   |   |   |   |   |--- reproductive_process <= 1.00
|   |   |   |   |   |   |   |   |   |   |   |--- class: 0
|   |   |   |   |   |   |   |   |   |   |--- reproductive_process >  1.00
|   |   |   |   |   |   |   |   |   |   |   |--- class: 1
|   |   |   |   |   |   |   |   |   |--- antioxidant_activity >  1.00
|   |   |   |   |   |   |   |   |   |   |--- signaling <= 1.00
|   |   |   |   |   |   |   |   |   |   |   |--- class: 1
|   |   |   |   |   |   |   |   |   |   |--- signaling >  1.00
|   |   |   |   |   |   |   |   |   |   |   |--- class: 0
|   |   |   |   |   |--- biological_phase >  1.00
|   |   |   |   |   |   |--- fusogenic_activity <= 1.00
|   |   |   |   |   |   |   |--- developmental_process <= 1.00
|   |   |   |   |   |   |   |   |--- molecular_transducer_activity <= 1.00
|   |   |   |   |   |   |   |   |   |--- molecular_carrier_activity <= 1.00
|   |   |   |   |   |   |   |   |   |   |--- locomotion <= 1.00
|   |   |   |   |   |   |   |   |   |   |   |--- class: 1
|   |   |   |   |   |   |   |   |   |   |--- locomotion >  1.00
|   |   |   |   |   |   |   |   |   |   |   |--- class: 0
|   |   |   |   |   |   |   |   |   |--- molecular_carrier_activity >  1.00
|   |   |   |   |   |   |   |   |   |   |--- class: 1
|   |   |   |   |   |   |   |   |--- molecular_transducer_activity >  1.00
|   |   |   |   |   |   |   |   |   |--- cellular_anatomical_entity <= 0.88
|   |   |   |   |   |   |   |   |   |   |--- class: 0
|   |   |   |   |   |   |   |   |   |--- cellular_anatomical_entity >  0.88
|   |   |   |   |   |   |   |   |   |   |--- class: 1
|   |   |   |   |   |   |   |--- developmental_process >  1.00
|   |   |   |   |   |   |   |   |--- class: 0
|   |   |   |   |   |   |--- fusogenic_activity >  1.00
|   |   |   |   |   |   |   |--- multicellular_organismal_process <= 1.00
|   |   |   |   |   |   |   |   |--- other_organism_part <= 1.00
|   |   |   |   |   |   |   |   |   |--- class: 0
|   |   |   |   |   |   |   |   |--- other_organism_part >  1.00
|   |   |   |   |   |   |   |   |   |--- virion_part <= 1.00
|   |   |   |   |   |   |   |   |   |   |--- antioxidant_activity <= 1.00
|   |   |   |   |   |   |   |   |   |   |   |--- truncated branch of depth 5
|   |   |   |   |   |   |   |   |   |   |--- antioxidant_activity >  1.00
|   |   |   |   |   |   |   |   |   |   |   |--- class: 0
|   |   |   |   |   |   |   |   |   |--- virion_part >  1.00
|   |   |   |   |   |   |   |   |   |   |--- binding <= 0.85
|   |   |   |   |   |   |   |   |   |   |   |--- truncated branch of depth 2
|   |   |   |   |   |   |   |   |   |   |--- binding >  0.85
|   |   |   |   |   |   |   |   |   |   |   |--- truncated branch of depth 2
|   |   |   |   |   |   |   |--- multicellular_organismal_process >  1.00
|   |   |   |   |   |   |   |   |--- class: 0
|   |   |   |   |--- pigmentation >  1.00
|   |   |   |   |   |--- biological_regulation <= 0.72
|   |   |   |   |   |   |--- cellular_process <= 0.73
|   |   |   |   |   |   |   |--- detoxification <= 1.00
|   |   |   |   |   |   |   |   |--- biological_phase <= 1.00
|   |   |   |   |   |   |   |   |   |--- locomotion <= 0.97
|   |   |   |   |   |   |   |   |   |   |--- pigmentation <= 1.00
|   |   |   |   |   |   |   |   |   |   |   |--- class: 0
|   |   |   |   |   |   |   |   |   |   |--- pigmentation >  1.00
|   |   |   |   |   |   |   |   |   |   |   |--- class: 1
|   |   |   |   |   |   |   |   |   |--- locomotion >  0.97
|   |   |   |   |   |   |   |   |   |   |--- antioxidant_activity <= 1.00
|   |   |   |   |   |   |   |   |   |   |   |--- truncated branch of depth 2
|   |   |   |   |   |   |   |   |   |   |--- antioxidant_activity >  1.00
|   |   |   |   |   |   |   |   |   |   |   |--- truncated branch of depth 5
|   |   |   |   |   |   |   |   |--- biological_phase >  1.00
|   |   |   |   |   |   |   |   |   |--- reproduction <= 1.00
|   |   |   |   |   |   |   |   |   |   |--- class: 1
|   |   |   |   |   |   |   |   |   |--- reproduction >  1.00
|   |   |   |   |   |   |   |   |   |   |--- class: 0
|   |   |   |   |   |   |   |--- detoxification >  1.00
|   |   |   |   |   |   |   |   |--- localization <= 1.00
|   |   |   |   |   |   |   |   |   |--- class: 1
|   |   |   |   |   |   |   |   |--- localization >  1.00
|   |   |   |   |   |   |   |   |   |--- class: 0
|   |   |   |   |   |   |--- cellular_process >  0.73
|   |   |   |   |   |   |   |--- molecular_function_regulator <= 0.93
|   |   |   |   |   |   |   |   |--- cellular_anatomical_entity <= 0.96
|   |   |   |   |   |   |   |   |   |--- class: 0
|   |   |   |   |   |   |   |   |--- cellular_anatomical_entity >  0.96
|   |   |   |   |   |   |   |   |   |--- class: 1
|   |   |   |   |   |   |   |--- molecular_function_regulator >  0.93
|   |   |   |   |   |   |   |   |--- localization <= 1.00
|   |   |   |   |   |   |   |   |   |--- biomineralization <= 1.00
|   |   |   |   |   |   |   |   |   |   |--- class: 0
|   |   |   |   |   |   |   |   |   |--- biomineralization >  1.00
|   |   |   |   |   |   |   |   |   |   |--- rhythmic_process <= 0.98
|   |   |   |   |   |   |   |   |   |   |   |--- class: 0
|   |   |   |   |   |   |   |   |   |   |--- rhythmic_process >  0.98
|   |   |   |   |   |   |   |   |   |   |   |--- truncated branch of depth 3
|   |   |   |   |   |   |   |   |--- localization >  1.00
|   |   |   |   |   |   |   |   |   |--- intraspecies_interaction_between_organisms <= 1.00
|   |   |   |   |   |   |   |   |   |   |--- antioxidant_activity <= 1.00
|   |   |   |   |   |   |   |   |   |   |   |--- class: 0
|   |   |   |   |   |   |   |   |   |   |--- antioxidant_activity >  1.00
|   |   |   |   |   |   |   |   |   |   |   |--- truncated branch of depth 2
|   |   |   |   |   |   |   |   |   |--- intraspecies_interaction_between_organisms >  1.00
|   |   |   |   |   |   |   |   |   |   |--- nitrogen_utilization <= 1.00
|   |   |   |   |   |   |   |   |   |   |   |--- class: 1
|   |   |   |   |   |   |   |   |   |   |--- nitrogen_utilization >  1.00
|   |   |   |   |   |   |   |   |   |   |   |--- truncated branch of depth 4
|   |   |   |   |   |--- biological_regulation >  0.72
|   |   |   |   |   |   |--- molecular_adaptor_activity <= 1.00
|   |   |   |   |   |   |   |--- pigmentation <= 1.00
|   |   |   |   |   |   |   |   |--- rhythmic_process <= 1.00
|   |   |   |   |   |   |   |   |   |--- cellular_process <= 0.74
|   |   |   |   |   |   |   |   |   |   |--- transporter_activity <= 0.99
|   |   |   |   |   |   |   |   |   |   |   |--- truncated branch of depth 2
|   |   |   |   |   |   |   |   |   |   |--- transporter_activity >  0.99
|   |   |   |   |   |   |   |   |   |   |   |--- truncated branch of depth 2
|   |   |   |   |   |   |   |   |   |--- cellular_process >  0.74
|   |   |   |   |   |   |   |   |   |   |--- binding <= 0.92
|   |   |   |   |   |   |   |   |   |   |   |--- truncated branch of depth 4
|   |   |   |   |   |   |   |   |   |   |--- binding >  0.92
|   |   |   |   |   |   |   |   |   |   |   |--- truncated branch of depth 2
|   |   |   |   |   |   |   |   |--- rhythmic_process >  1.00
|   |   |   |   |   |   |   |   |   |--- developmental_process <= 1.00
|   |   |   |   |   |   |   |   |   |   |--- detoxification <= 0.99
|   |   |   |   |   |   |   |   |   |   |   |--- class: 0
|   |   |   |   |   |   |   |   |   |   |--- detoxification >  0.99
|   |   |   |   |   |   |   |   |   |   |   |--- class: 1
|   |   |   |   |   |   |   |   |   |--- developmental_process >  1.00
|   |   |   |   |   |   |   |   |   |   |--- class: 0
|   |   |   |   |   |   |   |--- pigmentation >  1.00
|   |   |   |   |   |   |   |   |--- class: 1
|   |   |   |   |   |   |--- molecular_adaptor_activity >  1.00
|   |   |   |   |   |   |   |--- multicellular_organismal_process <= 0.95
|   |   |   |   |   |   |   |   |--- locomotion <= 1.00
|   |   |   |   |   |   |   |   |   |--- class: 0
|   |   |   |   |   |   |   |   |--- locomotion >  1.00
|   |   |   |   |   |   |   |   |   |--- class: 1
|   |   |   |   |   |   |   |--- multicellular_organismal_process >  0.95
|   |   |   |   |   |   |   |   |--- developmental_process <= 1.00
|   |   |   |   |   |   |   |   |   |--- localization <= 1.00
|   |   |   |   |   |   |   |   |   |   |--- molecular_function_regulator <= 0.91
|   |   |   |   |   |   |   |   |   |   |   |--- class: 0
|   |   |   |   |   |   |   |   |   |   |--- molecular_function_regulator >  0.91
|   |   |   |   |   |   |   |   |   |   |   |--- truncated branch of depth 4
|   |   |   |   |   |   |   |   |   |--- localization >  1.00
|   |   |   |   |   |   |   |   |   |   |--- binding <= 0.84
|   |   |   |   |   |   |   |   |   |   |   |--- class: 1
|   |   |   |   |   |   |   |   |   |   |--- binding >  0.84
|   |   |   |   |   |   |   |   |   |   |   |--- class: 0
|   |   |   |   |   |   |   |   |--- developmental_process >  1.00
|   |   |   |   |   |   |   |   |   |--- molecular_carrier_activity <= 1.00
|   |   |   |   |   |   |   |   |   |   |--- rhythmic_process <= 1.00
|   |   |   |   |   |   |   |   |   |   |   |--- truncated branch of depth 2
|   |   |   |   |   |   |   |   |   |   |--- rhythmic_process >  1.00
|   |   |   |   |   |   |   |   |   |   |   |--- class: 1
|   |   |   |   |   |   |   |   |   |--- molecular_carrier_activity >  1.00
|   |   |   |   |   |   |   |   |   |   |--- biological_regulation <= 0.92
|   |   |   |   |   |   |   |   |   |   |   |--- truncated branch of depth 2
|   |   |   |   |   |   |   |   |   |   |--- biological_regulation >  0.92
|   |   |   |   |   |   |   |   |   |   |   |--- class: 0
|   |   |   |--- metabolic_process >  0.84
|   |   |   |   |--- binding <= 0.89
|   |   |   |   |   |--- nitrogen_utilization <= 1.00
|   |   |   |   |   |   |--- molecular_sequestering_activity <= 1.00
|   |   |   |   |   |   |   |--- biological_regulation <= 0.86
|   |   |   |   |   |   |   |   |--- metabolic_process <= 0.99
|   |   |   |   |   |   |   |   |   |--- reproduction <= 1.00
|   |   |   |   |   |   |   |   |   |   |--- molecular_function_regulator <= 0.87
|   |   |   |   |   |   |   |   |   |   |   |--- truncated branch of depth 2
|   |   |   |   |   |   |   |   |   |   |--- molecular_function_regulator >  0.87
|   |   |   |   |   |   |   |   |   |   |   |--- truncated branch of depth 9
|   |   |   |   |   |   |   |   |   |--- reproduction >  1.00
|   |   |   |   |   |   |   |   |   |   |--- molecular_template_activity <= 1.00
|   |   |   |   |   |   |   |   |   |   |   |--- truncated branch of depth 4
|   |   |   |   |   |   |   |   |   |   |--- molecular_template_activity >  1.00
|   |   |   |   |   |   |   |   |   |   |   |--- truncated branch of depth 6
|   |   |   |   |   |   |   |   |--- metabolic_process >  0.99
|   |   |   |   |   |   |   |   |   |--- class: 0
|   |   |   |   |   |   |   |--- biological_regulation >  0.86
|   |   |   |   |   |   |   |   |--- catalytic_activity <= 0.97
|   |   |   |   |   |   |   |   |   |--- class: 1
|   |   |   |   |   |   |   |   |--- catalytic_activity >  0.97
|   |   |   |   |   |   |   |   |   |--- reproduction <= 1.00
|   |   |   |   |   |   |   |   |   |   |--- class: 0
|   |   |   |   |   |   |   |   |   |--- reproduction >  1.00
|   |   |   |   |   |   |   |   |   |   |--- translation_regulator_activity <= 1.00
|   |   |   |   |   |   |   |   |   |   |   |--- truncated branch of depth 2
|   |   |   |   |   |   |   |   |   |   |--- translation_regulator_activity >  1.00
|   |   |   |   |   |   |   |   |   |   |   |--- class: 0
|   |   |   |   |   |   |--- molecular_sequestering_activity >  1.00
|   |   |   |   |   |   |   |--- molecular_function_regulator <= 1.00
|   |   |   |   |   |   |   |   |--- class: 1
|   |   |   |   |   |   |   |--- molecular_function_regulator >  1.00
|   |   |   |   |   |   |   |   |--- class: 0
|   |   |   |   |   |--- nitrogen_utilization >  1.00
|   |   |   |   |   |   |--- multicellular_organismal_process <= 0.95
|   |   |   |   |   |   |   |--- small_molecule_sensor_activity <= 1.00
|   |   |   |   |   |   |   |   |--- rhythmic_process <= 1.00
|   |   |   |   |   |   |   |   |   |--- localization <= 0.95
|   |   |   |   |   |   |   |   |   |   |--- class: 0
|   |   |   |   |   |   |   |   |   |--- localization >  0.95
|   |   |   |   |   |   |   |   |   |   |--- multicellular_organismal_process <= 0.93
|   |   |   |   |   |   |   |   |   |   |   |--- class: 1
|   |   |   |   |   |   |   |   |   |   |--- multicellular_organismal_process >  0.93
|   |   |   |   |   |   |   |   |   |   |   |--- class: 0
|   |   |   |   |   |   |   |   |--- rhythmic_process >  1.00
|   |   |   |   |   |   |   |   |   |--- nitrogen_utilization <= 1.00
|   |   |   |   |   |   |   |   |   |   |--- pigmentation <= 0.99
|   |   |   |   |   |   |   |   |   |   |   |--- class: 1
|   |   |   |   |   |   |   |   |   |   |--- pigmentation >  0.99
|   |   |   |   |   |   |   |   |   |   |   |--- class: 0
|   |   |   |   |   |   |   |   |   |--- nitrogen_utilization >  1.00
|   |   |   |   |   |   |   |   |   |   |--- class: 1
|   |   |   |   |   |   |   |--- small_molecule_sensor_activity >  1.00
|   |   |   |   |   |   |   |   |--- other_organism_part <= 1.00
|   |   |   |   |   |   |   |   |   |--- structural_molecule_activity <= 1.00
|   |   |   |   |   |   |   |   |   |   |--- class: 1
|   |   |   |   |   |   |   |   |   |--- structural_molecule_activity >  1.00
|   |   |   |   |   |   |   |   |   |   |--- class: 0
|   |   |   |   |   |   |   |   |--- other_organism_part >  1.00
|   |   |   |   |   |   |   |   |   |--- transporter_activity <= 1.00
|   |   |   |   |   |   |   |   |   |   |--- class: 0
|   |   |   |   |   |   |   |   |   |--- transporter_activity >  1.00
|   |   |   |   |   |   |   |   |   |   |--- molecular_adaptor_activity <= 1.00
|   |   |   |   |   |   |   |   |   |   |   |--- class: 1
|   |   |   |   |   |   |   |   |   |   |--- molecular_adaptor_activity >  1.00
|   |   |   |   |   |   |   |   |   |   |   |--- class: 0
|   |   |   |   |   |   |--- multicellular_organismal_process >  0.95
|   |   |   |   |   |   |   |--- molecular_template_activity <= 1.00
|   |   |   |   |   |   |   |   |--- catalytic_activity <= 0.93
|   |   |   |   |   |   |   |   |   |--- transporter_activity <= 1.00
|   |   |   |   |   |   |   |   |   |   |--- response_to_stimulus <= 0.82
|   |   |   |   |   |   |   |   |   |   |   |--- truncated branch of depth 2
|   |   |   |   |   |   |   |   |   |   |--- response_to_stimulus >  0.82
|   |   |   |   |   |   |   |   |   |   |   |--- class: 0
|   |   |   |   |   |   |   |   |   |--- transporter_activity >  1.00
|   |   |   |   |   |   |   |   |   |   |--- class: 1
|   |   |   |   |   |   |   |   |--- catalytic_activity >  0.93
|   |   |   |   |   |   |   |   |   |--- biological_phase <= 1.00
|   |   |   |   |   |   |   |   |   |   |--- translation_regulator_activity <= 0.98
|   |   |   |   |   |   |   |   |   |   |   |--- class: 1
|   |   |   |   |   |   |   |   |   |   |--- translation_regulator_activity >  0.98
|   |   |   |   |   |   |   |   |   |   |   |--- truncated branch of depth 2
|   |   |   |   |   |   |   |   |   |--- biological_phase >  1.00
|   |   |   |   |   |   |   |   |   |   |--- catalytic_activity <= 1.00
|   |   |   |   |   |   |   |   |   |   |   |--- truncated branch of depth 3
|   |   |   |   |   |   |   |   |   |   |--- catalytic_activity >  1.00
|   |   |   |   |   |   |   |   |   |   |   |--- truncated branch of depth 2
|   |   |   |   |   |   |   |--- molecular_template_activity >  1.00
|   |   |   |   |   |   |   |   |--- biological_regulation <= 0.68
|   |   |   |   |   |   |   |   |   |--- cellular_process <= 0.73
|   |   |   |   |   |   |   |   |   |   |--- reproduction <= 1.00
|   |   |   |   |   |   |   |   |   |   |   |--- truncated branch of depth 8
|   |   |   |   |   |   |   |   |   |   |--- reproduction >  1.00
|   |   |   |   |   |   |   |   |   |   |   |--- truncated branch of depth 3
|   |   |   |   |   |   |   |   |   |--- cellular_process >  0.73
|   |   |   |   |   |   |   |   |   |   |--- molecular_transducer_activity <= 1.00
|   |   |   |   |   |   |   |   |   |   |   |--- truncated branch of depth 4
|   |   |   |   |   |   |   |   |   |   |--- molecular_transducer_activity >  1.00
|   |   |   |   |   |   |   |   |   |   |   |--- truncated branch of depth 7
|   |   |   |   |   |   |   |   |--- biological_regulation >  0.68
|   |   |   |   |   |   |   |   |   |--- fusogenic_activity <= 1.00
|   |   |   |   |   |   |   |   |   |   |--- virion_part <= 1.00
|   |   |   |   |   |   |   |   |   |   |   |--- truncated branch of depth 6
|   |   |   |   |   |   |   |   |   |   |--- virion_part >  1.00
|   |   |   |   |   |   |   |   |   |   |   |--- truncated branch of depth 5
|   |   |   |   |   |   |   |   |   |--- fusogenic_activity >  1.00
|   |   |   |   |   |   |   |   |   |   |--- interspecies_interaction_between_organisms <= 0.94
|   |   |   |   |   |   |   |   |   |   |   |--- truncated branch of depth 2
|   |   |   |   |   |   |   |   |   |   |--- interspecies_interaction_between_organisms >  0.94
|   |   |   |   |   |   |   |   |   |   |   |--- truncated branch of depth 9
|   |   |   |   |--- binding >  0.89
|   |   |   |   |   |--- metabolic_process <= 0.98
|   |   |   |   |   |   |--- reproduction <= 1.00
|   |   |   |   |   |   |   |--- binding <= 0.91
|   |   |   |   |   |   |   |   |--- fusogenic_activity <= 1.00
|   |   |   |   |   |   |   |   |   |--- metabolic_process <= 0.92
|   |   |   |   |   |   |   |   |   |   |--- molecular_function_regulator <= 0.90
|   |   |   |   |   |   |   |   |   |   |   |--- truncated branch of depth 2
|   |   |   |   |   |   |   |   |   |   |--- molecular_function_regulator >  0.90
|   |   |   |   |   |   |   |   |   |   |   |--- class: 0
|   |   |   |   |   |   |   |   |   |--- metabolic_process >  0.92
|   |   |   |   |   |   |   |   |   |   |--- multicellular_organismal_process <= 1.00
|   |   |   |   |   |   |   |   |   |   |   |--- class: 1
|   |   |   |   |   |   |   |   |   |   |--- multicellular_organismal_process >  1.00
|   |   |   |   |   |   |   |   |   |   |   |--- class: 0
|   |   |   |   |   |   |   |   |--- fusogenic_activity >  1.00
|   |   |   |   |   |   |   |   |   |--- class: 1
|   |   |   |   |   |   |   |--- binding >  0.91
|   |   |   |   |   |   |   |   |--- immune_system_process <= 0.92
|   |   |   |   |   |   |   |   |   |--- response_to_stimulus <= 0.89
|   |   |   |   |   |   |   |   |   |   |--- developmental_process <= 0.99
|   |   |   |   |   |   |   |   |   |   |   |--- class: 1
|   |   |   |   |   |   |   |   |   |   |--- developmental_process >  0.99
|   |   |   |   |   |   |   |   |   |   |   |--- class: 0
|   |   |   |   |   |   |   |   |   |--- response_to_stimulus >  0.89
|   |   |   |   |   |   |   |   |   |   |--- class: 0
|   |   |   |   |   |   |   |   |--- immune_system_process >  0.92
|   |   |   |   |   |   |   |   |   |--- detoxification <= 1.00
|   |   |   |   |   |   |   |   |   |   |--- biological_regulation <= 0.57
|   |   |   |   |   |   |   |   |   |   |   |--- truncated branch of depth 2
|   |   |   |   |   |   |   |   |   |   |--- biological_regulation >  0.57
|   |   |   |   |   |   |   |   |   |   |   |--- truncated branch of depth 2
|   |   |   |   |   |   |   |   |   |--- detoxification >  1.00
|   |   |   |   |   |   |   |   |   |   |--- biological_phase <= 1.00
|   |   |   |   |   |   |   |   |   |   |   |--- truncated branch of depth 2
|   |   |   |   |   |   |   |   |   |   |--- biological_phase >  1.00
|   |   |   |   |   |   |   |   |   |   |   |--- class: 1
|   |   |   |   |   |   |--- reproduction >  1.00
|   |   |   |   |   |   |   |--- molecular_transducer_activity <= 0.93
|   |   |   |   |   |   |   |   |--- class: 0
|   |   |   |   |   |   |   |--- molecular_transducer_activity >  0.93
|   |   |   |   |   |   |   |   |--- multicellular_organismal_process <= 0.95
|   |   |   |   |   |   |   |   |   |--- molecular_function_regulator <= 1.00
|   |   |   |   |   |   |   |   |   |   |--- structural_molecule_activity <= 1.00
|   |   |   |   |   |   |   |   |   |   |   |--- truncated branch of depth 2
|   |   |   |   |   |   |   |   |   |   |--- structural_molecule_activity >  1.00
|   |   |   |   |   |   |   |   |   |   |   |--- truncated branch of depth 3
|   |   |   |   |   |   |   |   |   |--- molecular_function_regulator >  1.00
|   |   |   |   |   |   |   |   |   |   |--- class: 1
|   |   |   |   |   |   |   |   |--- multicellular_organismal_process >  0.95
|   |   |   |   |   |   |   |   |   |--- nitrogen_utilization <= 0.99
|   |   |   |   |   |   |   |   |   |   |--- class: 0
|   |   |   |   |   |   |   |   |   |--- nitrogen_utilization >  0.99
|   |   |   |   |   |   |   |   |   |   |--- metabolic_process <= 0.89
|   |   |   |   |   |   |   |   |   |   |   |--- truncated branch of depth 9
|   |   |   |   |   |   |   |   |   |   |--- metabolic_process >  0.89
|   |   |   |   |   |   |   |   |   |   |   |--- truncated branch of depth 9
|   |   |   |   |   |--- metabolic_process >  0.98
|   |   |   |   |   |   |--- biological_regulation <= 0.77
|   |   |   |   |   |   |   |--- nitrogen_utilization <= 1.00
|   |   |   |   |   |   |   |   |--- pigmentation <= 1.00
|   |   |   |   |   |   |   |   |   |--- multicellular_organismal_process <= 0.92
|   |   |   |   |   |   |   |   |   |   |--- class: 1
|   |   |   |   |   |   |   |   |   |--- multicellular_organismal_process >  0.92
|   |   |   |   |   |   |   |   |   |   |--- reproductive_process <= 1.00
|   |   |   |   |   |   |   |   |   |   |   |--- truncated branch of depth 9
|   |   |   |   |   |   |   |   |   |   |--- reproductive_process >  1.00
|   |   |   |   |   |   |   |   |   |   |   |--- truncated branch of depth 2
|   |   |   |   |   |   |   |   |--- pigmentation >  1.00
|   |   |   |   |   |   |   |   |   |--- class: 1
|   |   |   |   |   |   |   |--- nitrogen_utilization >  1.00
|   |   |   |   |   |   |   |   |--- biological_adhesion <= 1.00
|   |   |   |   |   |   |   |   |   |--- metabolic_process <= 0.99
|   |   |   |   |   |   |   |   |   |   |--- class: 1
|   |   |   |   |   |   |   |   |   |--- metabolic_process >  0.99
|   |   |   |   |   |   |   |   |   |   |--- class: 0
|   |   |   |   |   |   |   |   |--- biological_adhesion >  1.00
|   |   |   |   |   |   |   |   |   |--- detoxification <= 1.00
|   |   |   |   |   |   |   |   |   |   |--- class: 0
|   |   |   |   |   |   |   |   |   |--- detoxification >  1.00
|   |   |   |   |   |   |   |   |   |   |--- biological_adhesion <= 1.00
|   |   |   |   |   |   |   |   |   |   |   |--- class: 1
|   |   |   |   |   |   |   |   |   |   |--- biological_adhesion >  1.00
|   |   |   |   |   |   |   |   |   |   |   |--- class: 0
|   |   |   |   |   |   |--- biological_regulation >  0.77
|   |   |   |   |   |   |   |--- molecular_transducer_activity <= 0.95
|   |   |   |   |   |   |   |   |--- cellular_process <= 0.77
|   |   |   |   |   |   |   |   |   |--- class: 0
|   |   |   |   |   |   |   |   |--- cellular_process >  0.77
|   |   |   |   |   |   |   |   |   |--- class: 1
|   |   |   |   |   |   |   |--- molecular_transducer_activity >  0.95
|   |   |   |   |   |   |   |   |--- interspecies_interaction_between_organisms <= 0.95
|   |   |   |   |   |   |   |   |   |--- class: 0
|   |   |   |   |   |   |   |   |--- interspecies_interaction_between_organisms >  0.95
|   |   |   |   |   |   |   |   |   |--- cargo_receptor_activity <= 1.00
|   |   |   |   |   |   |   |   |   |   |--- immune_system_process <= 1.00
|   |   |   |   |   |   |   |   |   |   |   |--- truncated branch of depth 4
|   |   |   |   |   |   |   |   |   |   |--- immune_system_process >  1.00
|   |   |   |   |   |   |   |   |   |   |   |--- truncated branch of depth 2
|   |   |   |   |   |   |   |   |   |--- cargo_receptor_activity >  1.00
|   |   |   |   |   |   |   |   |   |   |--- class: 1
|--- cellular_process >  0.78
|   |--- cellular_process <= 0.86
|   |   |--- cellular_anatomical_entity <= 0.86
|   |   |   |--- metabolic_process <= 0.99
|   |   |   |   |--- cargo_receptor_activity <= 1.00
|   |   |   |   |   |--- binding <= 0.91
|   |   |   |   |   |   |--- response_to_stimulus <= 0.99
|   |   |   |   |   |   |   |--- biological_regulation <= 0.79
|   |   |   |   |   |   |   |   |--- fusogenic_activity <= 1.00
|   |   |   |   |   |   |   |   |   |--- fusogenic_activity <= 0.99
|   |   |   |   |   |   |   |   |   |   |--- multi-organism_process <= 0.99
|   |   |   |   |   |   |   |   |   |   |   |--- truncated branch of depth 6
|   |   |   |   |   |   |   |   |   |   |--- multi-organism_process >  0.99
|   |   |   |   |   |   |   |   |   |   |   |--- truncated branch of depth 2
|   |   |   |   |   |   |   |   |   |--- fusogenic_activity >  0.99
|   |   |   |   |   |   |   |   |   |   |--- growth <= 0.97
|   |   |   |   |   |   |   |   |   |   |   |--- class: 1
|   |   |   |   |   |   |   |   |   |   |--- growth >  0.97
|   |   |   |   |   |   |   |   |   |   |   |--- truncated branch of depth 9
|   |   |   |   |   |   |   |   |--- fusogenic_activity >  1.00
|   |   |   |   |   |   |   |   |   |--- biological_regulation <= 0.63
|   |   |   |   |   |   |   |   |   |   |--- small_molecule_sensor_activity <= 1.00
|   |   |   |   |   |   |   |   |   |   |   |--- truncated branch of depth 7
|   |   |   |   |   |   |   |   |   |   |--- small_molecule_sensor_activity >  1.00
|   |   |   |   |   |   |   |   |   |   |   |--- truncated branch of depth 2
|   |   |   |   |   |   |   |   |   |--- biological_regulation >  0.63
|   |   |   |   |   |   |   |   |   |   |--- fusogenic_activity <= 1.00
|   |   |   |   |   |   |   |   |   |   |   |--- truncated branch of depth 2
|   |   |   |   |   |   |   |   |   |   |--- fusogenic_activity >  1.00
|   |   |   |   |   |   |   |   |   |   |   |--- truncated branch of depth 9
|   |   |   |   |   |   |   |--- biological_regulation >  0.79
|   |   |   |   |   |   |   |   |--- binding <= 0.84
|   |   |   |   |   |   |   |   |   |--- molecular_sequestering_activity <= 1.00
|   |   |   |   |   |   |   |   |   |   |--- molecular_transducer_activity <= 0.97
|   |   |   |   |   |   |   |   |   |   |   |--- truncated branch of depth 2
|   |   |   |   |   |   |   |   |   |   |--- molecular_transducer_activity >  0.97
|   |   |   |   |   |   |   |   |   |   |   |--- truncated branch of depth 5
|   |   |   |   |   |   |   |   |   |--- molecular_sequestering_activity >  1.00
|   |   |   |   |   |   |   |   |   |   |--- class: 1
|   |   |   |   |   |   |   |   |--- binding >  0.84
|   |   |   |   |   |   |   |   |   |--- biological_regulation <= 0.96
|   |   |   |   |   |   |   |   |   |   |--- cellular_anatomical_entity <= 0.70
|   |   |   |   |   |   |   |   |   |   |   |--- class: 0
|   |   |   |   |   |   |   |   |   |   |--- cellular_anatomical_entity >  0.70
|   |   |   |   |   |   |   |   |   |   |   |--- truncated branch of depth 8
|   |   |   |   |   |   |   |   |   |--- biological_regulation >  0.96
|   |   |   |   |   |   |   |   |   |   |--- reproduction <= 1.00
|   |   |   |   |   |   |   |   |   |   |   |--- class: 1
|   |   |   |   |   |   |   |   |   |   |--- reproduction >  1.00
|   |   |   |   |   |   |   |   |   |   |   |--- truncated branch of depth 2
|   |   |   |   |   |   |--- response_to_stimulus >  0.99
|   |   |   |   |   |   |   |--- localization <= 0.99
|   |   |   |   |   |   |   |   |--- cellular_process <= 0.84
|   |   |   |   |   |   |   |   |   |--- virion_part <= 1.00
|   |   |   |   |   |   |   |   |   |   |--- molecular_sequestering_activity <= 1.00
|   |   |   |   |   |   |   |   |   |   |   |--- truncated branch of depth 7
|   |   |   |   |   |   |   |   |   |   |--- molecular_sequestering_activity >  1.00
|   |   |   |   |   |   |   |   |   |   |   |--- truncated branch of depth 2
|   |   |   |   |   |   |   |   |   |--- virion_part >  1.00
|   |   |   |   |   |   |   |   |   |   |--- class: 1
|   |   |   |   |   |   |   |   |--- cellular_process >  0.84
|   |   |   |   |   |   |   |   |   |--- molecular_template_activity <= 1.00
|   |   |   |   |   |   |   |   |   |   |--- molecular_adaptor_activity <= 0.99
|   |   |   |   |   |   |   |   |   |   |   |--- class: 1
|   |   |   |   |   |   |   |   |   |   |--- molecular_adaptor_activity >  0.99
|   |   |   |   |   |   |   |   |   |   |   |--- class: 0
|   |   |   |   |   |   |   |   |   |--- molecular_template_activity >  1.00
|   |   |   |   |   |   |   |   |   |   |--- reproductive_process <= 1.00
|   |   |   |   |   |   |   |   |   |   |   |--- truncated branch of depth 2
|   |   |   |   |   |   |   |   |   |   |--- reproductive_process >  1.00
|   |   |   |   |   |   |   |   |   |   |   |--- class: 0
|   |   |   |   |   |   |   |--- localization >  0.99
|   |   |   |   |   |   |   |   |--- other_organism_part <= 1.00
|   |   |   |   |   |   |   |   |   |--- metabolic_process <= 0.92
|   |   |   |   |   |   |   |   |   |   |--- biomineralization <= 1.00
|   |   |   |   |   |   |   |   |   |   |   |--- truncated branch of depth 4
|   |   |   |   |   |   |   |   |   |   |--- biomineralization >  1.00
|   |   |   |   |   |   |   |   |   |   |   |--- class: 1
|   |   |   |   |   |   |   |   |   |--- metabolic_process >  0.92
|   |   |   |   |   |   |   |   |   |   |--- catalytic_activity <= 0.89
|   |   |   |   |   |   |   |   |   |   |   |--- class: 1
|   |   |   |   |   |   |   |   |   |   |--- catalytic_activity >  0.89
|   |   |   |   |   |   |   |   |   |   |   |--- truncated branch of depth 2
|   |   |   |   |   |   |   |   |--- other_organism_part >  1.00
|   |   |   |   |   |   |   |   |   |--- cargo_receptor_activity <= 1.00
|   |   |   |   |   |   |   |   |   |   |--- class: 1
|   |   |   |   |   |   |   |   |   |--- cargo_receptor_activity >  1.00
|   |   |   |   |   |   |   |   |   |   |--- class: 0
|   |   |   |   |   |--- binding >  0.91
|   |   |   |   |   |   |--- multicellular_organismal_process <= 0.99
|   |   |   |   |   |   |   |--- fusogenic_activity <= 1.00
|   |   |   |   |   |   |   |   |--- intraspecies_interaction_between_organisms <= 0.99
|   |   |   |   |   |   |   |   |   |--- class: 1
|   |   |   |   |   |   |   |   |--- intraspecies_interaction_between_organisms >  0.99
|   |   |   |   |   |   |   |   |   |--- signaling <= 1.00
|   |   |   |   |   |   |   |   |   |   |--- metabolic_process <= 0.92
|   |   |   |   |   |   |   |   |   |   |   |--- truncated branch of depth 3
|   |   |   |   |   |   |   |   |   |   |--- metabolic_process >  0.92
|   |   |   |   |   |   |   |   |   |   |   |--- truncated branch of depth 4
|   |   |   |   |   |   |   |   |   |--- signaling >  1.00
|   |   |   |   |   |   |   |   |   |   |--- class: 1
|   |   |   |   |   |   |   |--- fusogenic_activity >  1.00
|   |   |   |   |   |   |   |   |--- localization <= 0.93
|   |   |   |   |   |   |   |   |   |--- detoxification <= 1.00
|   |   |   |   |   |   |   |   |   |   |--- small_molecule_sensor_activity <= 0.99
|   |   |   |   |   |   |   |   |   |   |   |--- class: 0
|   |   |   |   |   |   |   |   |   |   |--- small_molecule_sensor_activity >  0.99
|   |   |   |   |   |   |   |   |   |   |   |--- class: 1
|   |   |   |   |   |   |   |   |   |--- detoxification >  1.00
|   |   |   |   |   |   |   |   |   |   |--- class: 0
|   |   |   |   |   |   |   |   |--- localization >  0.93
|   |   |   |   |   |   |   |   |   |--- small_molecule_sensor_activity <= 1.00
|   |   |   |   |   |   |   |   |   |   |--- binding <= 0.93
|   |   |   |   |   |   |   |   |   |   |   |--- class: 1
|   |   |   |   |   |   |   |   |   |   |--- binding >  0.93
|   |   |   |   |   |   |   |   |   |   |   |--- class: 0
|   |   |   |   |   |   |   |   |   |--- small_molecule_sensor_activity >  1.00
|   |   |   |   |   |   |   |   |   |   |--- cargo_receptor_activity <= 1.00
|   |   |   |   |   |   |   |   |   |   |   |--- class: 0
|   |   |   |   |   |   |   |   |   |   |--- cargo_receptor_activity >  1.00
|   |   |   |   |   |   |   |   |   |   |   |--- class: 1
|   |   |   |   |   |   |--- multicellular_organismal_process >  0.99
|   |   |   |   |   |   |   |--- metabolic_process <= 0.81
|   |   |   |   |   |   |   |   |--- catalytic_activity <= 0.98
|   |   |   |   |   |   |   |   |   |--- reproduction <= 1.00
|   |   |   |   |   |   |   |   |   |   |--- structural_molecule_activity <= 1.00
