|--- cellular_process <= 0.78
|   |--- cellular_process <= 0.70
|   |   |--- metabolic_process <= 0.80
|   |   |   |--- cellular_anatomical_entity <= 0.88
|   |   |   |   |--- cargo_receptor_activity <= 0.98
|   |   |   |   |   |--- localization <= 0.92
|   |   |   |   |   |   |--- immune_system_process <= 0.98
|   |   |   |   |   |   |   |--- class: 1
|   |   |   |   |   |   |--- immune_system_process >  0.98
|   |   |   |   |   |   |   |--- class: 0
|   |   |   |   |   |--- localization >  0.92
|   |   |   |   |   |   |--- class: 0
|   |   |   |   |--- cargo_receptor_activity >  0.98
|   |   |   |   |   |--- other_organism_part <= 1.00
|   |   |   |   |   |   |--- reproduction <= 1.00
|   |   |   |   |   |   |   |--- biological_phase <= 1.00
|   |   |   |   |   |   |   |   |--- cellular_process <= 0.66
|   |   |   |   |   |   |   |   |   |--- detoxification <= 1.00
|   |   |   |   |   |   |   |   |   |   |--- rhythmic_process <= 1.00
|   |   |   |   |   |   |   |   |   |   |   |--- truncated branch of depth 36
|   |   |   |   |   |   |   |   |   |   |--- rhythmic_process >  1.00
|   |   |   |   |   |   |   |   |   |   |   |--- truncated branch of depth 2
|   |   |   |   |   |   |   |   |   |--- detoxification >  1.00
|   |   |   |   |   |   |   |   |   |   |--- rhythmic_process <= 1.00
|   |   |   |   |   |   |   |   |   |   |   |--- class: 0
|   |   |   |   |   |   |   |   |   |   |--- rhythmic_process >  1.00
|   |   |   |   |   |   |   |   |   |   |   |--- class: 1
|   |   |   |   |   |   |   |   |--- cellular_process >  0.66
|   |   |   |   |   |   |   |   |   |--- virion_part <= 1.00
|   |   |   |   |   |   |   |   |   |   |--- cellular_anatomical_entity <= 0.81
|   |   |   |   |   |   |   |   |   |   |   |--- truncated branch of depth 22
|   |   |   |   |   |   |   |   |   |   |--- cellular_anatomical_entity >  0.81
|   |   |   |   |   |   |   |   |   |   |   |--- truncated branch of depth 23
|   |   |   |   |   |   |   |   |   |--- virion_part >  1.00
|   |   |   |   |   |   |   |   |   |   |--- immune_system_process <= 0.94
|   |   |   |   |   |   |   |   |   |   |   |--- class: 0
|   |   |   |   |   |   |   |   |   |   |--- immune_system_process >  0.94
|   |   |   |   |   |   |   |   |   |   |   |--- truncated branch of depth 2
|   |   |   |   |   |   |   |--- biological_phase >  1.00
|   |   |   |   |   |   |   |   |--- biological_regulation <= 0.73
|   |   |   |   |   |   |   |   |   |--- localization <= 1.00
|   |   |   |   |   |   |   |   |   |   |--- catalytic_activity <= 1.00
|   |   |   |   |   |   |   |   |   |   |   |--- class: 0
|   |   |   |   |   |   |   |   |   |   |--- catalytic_activity >  1.00
|   |   |   |   |   |   |   |   |   |   |   |--- class: 1
|   |   |   |   |   |   |   |   |   |--- localization >  1.00
|   |   |   |   |   |   |   |   |   |   |--- growth <= 1.00
|   |   |   |   |   |   |   |   |   |   |   |--- class: 0
|   |   |   |   |   |   |   |   |   |   |--- growth >  1.00
|   |   |   |   |   |   |   |   |   |   |   |--- class: 1
|   |   |   |   |   |   |   |   |--- biological_regulation >  0.73
|   |   |   |   |   |   |   |   |   |--- molecular_function_regulator <= 1.00
|   |   |   |   |   |   |   |   |   |   |--- class: 1
|   |   |   |   |   |   |   |   |   |--- molecular_function_regulator >  1.00
|   |   |   |   |   |   |   |   |   |   |--- class: 0
|   |   |   |   |   |   |--- reproduction >  1.00
|   |   |   |   |   |   |   |--- cellular_process <= 0.69
|   |   |   |   |   |   |   |   |--- behavior <= 1.00
|   |   |   |   |   |   |   |   |   |--- biological_regulation <= 0.79
|   |   |   |   |   |   |   |   |   |   |--- reproduction <= 1.00
|   |   |   |   |   |   |   |   |   |   |   |--- class: 0
|   |   |   |   |   |   |   |   |   |   |--- reproduction >  1.00
|   |   |   |   |   |   |   |   |   |   |   |--- truncated branch of depth 5
|   |   |   |   |   |   |   |   |   |--- biological_regulation >  0.79
|   |   |   |   |   |   |   |   |   |   |--- signaling <= 1.00
|   |   |   |   |   |   |   |   |   |   |   |--- class: 0
|   |   |   |   |   |   |   |   |   |   |--- signaling >  1.00
|   |   |   |   |   |   |   |   |   |   |   |--- truncated branch of depth 2
|   |   |   |   |   |   |   |   |--- behavior >  1.00
|   |   |   |   |   |   |   |   |   |--- cellular_process <= 0.64
|   |   |   |   |   |   |   |   |   |   |--- molecular_function_regulator <= 1.00
|   |   |   |   |   |   |   |   |   |   |   |--- class: 0
|   |   |   |   |   |   |   |   |   |   |--- molecular_function_regulator >  1.00
|   |   |   |   |   |   |   |   |   |   |   |--- class: 1
|   |   |   |   |   |   |   |   |   |--- cellular_process >  0.64
|   |   |   |   |   |   |   |   |   |   |--- fusogenic_activity <= 1.00
|   |   |   |   |   |   |   |   |   |   |   |--- class: 0
|   |   |   |   |   |   |   |   |   |   |--- fusogenic_activity >  1.00
|   |   |   |   |   |   |   |   |   |   |   |--- class: 1
|   |   |   |   |   |   |   |--- cellular_process >  0.69
|   |   |   |   |   |   |   |   |--- cellular_anatomical_entity <= 0.81
|   |   |   |   |   |   |   |   |   |--- behavior <= 1.00
|   |   |   |   |   |   |   |   |   |   |--- class: 0
|   |   |   |   |   |   |   |   |   |--- behavior >  1.00
|   |   |   |   |   |   |   |   |   |   |--- class: 1
|   |   |   |   |   |   |   |   |--- cellular_anatomical_entity >  0.81
|   |   |   |   |   |   |   |   |   |--- class: 1
|   |   |   |   |   |--- other_organism_part >  1.00
|   |   |   |   |   |   |--- biological_regulation <= 0.68
|   |   |   |   |   |   |   |--- metabolic_process <= 0.78
|   |   |   |   |   |   |   |   |--- molecular_template_activity <= 1.00
|   |   |   |   |   |   |   |   |   |--- rhythmic_process <= 1.00
|   |   |   |   |   |   |   |   |   |   |--- multicellular_organismal_process <= 0.99
|   |   |   |   |   |   |   |   |   |   |   |--- class: 0
|   |   |   |   |   |   |   |   |   |   |--- multicellular_organismal_process >  0.99
|   |   |   |   |   |   |   |   |   |   |   |--- class: 1
|   |   |   |   |   |   |   |   |   |--- rhythmic_process >  1.00
|   |   |   |   |   |   |   |   |   |   |--- class: 0
|   |   |   |   |   |   |   |   |--- molecular_template_activity >  1.00
|   |   |   |   |   |   |   |   |   |--- intraspecies_interaction_between_organisms <= 1.00
|   |   |   |   |   |   |   |   |   |   |--- class: 0
|   |   |   |   |   |   |   |   |   |--- intraspecies_interaction_between_organisms >  1.00
|   |   |   |   |   |   |   |   |   |   |--- class: 1
|   |   |   |   |   |   |   |--- metabolic_process >  0.78
|   |   |   |   |   |   |   |   |--- interspecies_interaction_between_organisms <= 1.00
|   |   |   |   |   |   |   |   |   |--- rhythmic_process <= 1.00
|   |   |   |   |   |   |   |   |   |   |--- class: 1
|   |   |   |   |   |   |   |   |   |--- rhythmic_process >  1.00
|   |   |   |   |   |   |   |   |   |   |--- class: 0
|   |   |   |   |   |   |   |   |--- interspecies_interaction_between_organisms >  1.00
|   |   |   |   |   |   |   |   |   |--- class: 1
|   |   |   |   |   |   |--- biological_regulation >  0.68
|   |   |   |   |   |   |   |--- small_molecule_sensor_activity <= 1.00
|   |   |   |   |   |   |   |   |--- class: 0
|   |   |   |   |   |   |   |--- small_molecule_sensor_activity >  1.00
|   |   |   |   |   |   |   |   |--- nitrogen_utilization <= 1.00
|   |   |   |   |   |   |   |   |   |--- fusogenic_activity <= 1.00
|   |   |   |   |   |   |   |   |   |   |--- class: 0
|   |   |   |   |   |   |   |   |   |--- fusogenic_activity >  1.00
|   |   |   |   |   |   |   |   |   |   |--- class: 1
|   |   |   |   |   |   |   |   |--- nitrogen_utilization >  1.00
|   |   |   |   |   |   |   |   |   |--- reproductive_process <= 0.97
|   |   |   |   |   |   |   |   |   |   |--- class: 0
|   |   |   |   |   |   |   |   |   |--- reproductive_process >  0.97
|   |   |   |   |   |   |   |   |   |   |--- class: 1
|   |   |   |--- cellular_anatomical_entity >  0.88
|   |   |   |   |--- binding <= 0.92
|   |   |   |   |   |--- virion_part <= 1.00
|   |   |   |   |   |   |--- molecular_carrier_activity <= 1.00
|   |   |   |   |   |   |   |--- antioxidant_activity <= 1.00
|   |   |   |   |   |   |   |   |--- reproduction <= 1.00
|   |   |   |   |   |   |   |   |   |--- pigmentation <= 1.00
|   |   |   |   |   |   |   |   |   |   |--- biological_regulation <= 0.76
|   |   |   |   |   |   |   |   |   |   |   |--- truncated branch of depth 30
|   |   |   |   |   |   |   |   |   |   |--- biological_regulation >  0.76
|   |   |   |   |   |   |   |   |   |   |   |--- truncated branch of depth 16
|   |   |   |   |   |   |   |   |   |--- pigmentation >  1.00
|   |   |   |   |   |   |   |   |   |   |--- molecular_template_activity <= 1.00
|   |   |   |   |   |   |   |   |   |   |   |--- class: 1
|   |   |   |   |   |   |   |   |   |   |--- molecular_template_activity >  1.00
|   |   |   |   |   |   |   |   |   |   |   |--- class: 0
|   |   |   |   |   |   |   |   |--- reproduction >  1.00
|   |   |   |   |   |   |   |   |   |--- reproduction <= 1.00
|   |   |   |   |   |   |   |   |   |   |--- class: 1
|   |   |   |   |   |   |   |   |   |--- reproduction >  1.00
|   |   |   |   |   |   |   |   |   |   |--- molecular_function_regulator <= 0.96
|   |   |   |   |   |   |   |   |   |   |   |--- class: 1
|   |   |   |   |   |   |   |   |   |   |--- molecular_function_regulator >  0.96
|   |   |   |   |   |   |   |   |   |   |   |--- class: 0
|   |   |   |   |   |   |   |--- antioxidant_activity >  1.00
|   |   |   |   |   |   |   |   |--- localization <= 0.92
|   |   |   |   |   |   |   |   |   |--- class: 0
|   |   |   |   |   |   |   |   |--- localization >  0.92
|   |   |   |   |   |   |   |   |   |--- class: 1
|   |   |   |   |   |   |--- molecular_carrier_activity >  1.00
|   |   |   |   |   |   |   |--- response_to_stimulus <= 0.98
|   |   |   |   |   |   |   |   |--- biological_phase <= 1.00
|   |   |   |   |   |   |   |   |   |--- class: 1
|   |   |   |   |   |   |   |   |--- biological_phase >  1.00
|   |   |   |   |   |   |   |   |   |--- class: 0
|   |   |   |   |   |   |   |--- response_to_stimulus >  0.98
|   |   |   |   |   |   |   |   |--- class: 0
|   |   |   |   |   |--- virion_part >  1.00
|   |   |   |   |   |   |--- developmental_process <= 1.00
|   |   |   |   |   |   |   |--- biological_regulation <= 0.74
|   |   |   |   |   |   |   |   |--- rhythmic_process <= 1.00
|   |   |   |   |   |   |   |   |   |--- cellular_process <= 0.49
|   |   |   |   |   |   |   |   |   |   |--- class: 1
|   |   |   |   |   |   |   |   |   |--- cellular_process >  0.49
|   |   |   |   |   |   |   |   |   |   |--- class: 0
|   |   |   |   |   |   |   |   |--- rhythmic_process >  1.00
|   |   |   |   |   |   |   |   |   |--- binding <= 0.82
|   |   |   |   |   |   |   |   |   |   |--- class: 0
|   |   |   |   |   |   |   |   |   |--- binding >  0.82
|   |   |   |   |   |   |   |   |   |   |--- class: 1
|   |   |   |   |   |   |   |--- biological_regulation >  0.74
|   |   |   |   |   |   |   |   |--- growth <= 1.00
|   |   |   |   |   |   |   |   |   |--- class: 1
|   |   |   |   |   |   |   |   |--- growth >  1.00
|   |   |   |   |   |   |   |   |   |--- multi-organism_process <= 1.00
|   |   |   |   |   |   |   |   |   |   |--- class: 0
|   |   |   |   |   |   |   |   |   |--- multi-organism_process >  1.00
|   |   |   |   |   |   |   |   |   |   |--- class: 1
|   |   |   |   |   |   |--- developmental_process >  1.00
|   |   |   |   |   |   |   |--- class: 1
|   |   |   |   |--- binding >  0.92
|   |   |   |   |   |--- catalytic_activity <= 0.94
|   |   |   |   |   |   |--- fusogenic_activity <= 1.00
|   |   |   |   |   |   |   |--- signaling <= 1.00
|   |   |   |   |   |   |   |   |--- growth <= 1.00
|   |   |   |   |   |   |   |   |   |--- behavior <= 1.00
|   |   |   |   |   |   |   |   |   |   |--- metabolic_process <= 0.79
|   |   |   |   |   |   |   |   |   |   |   |--- truncated branch of depth 6
|   |   |   |   |   |   |   |   |   |   |--- metabolic_process >  0.79
|   |   |   |   |   |   |   |   |   |   |   |--- truncated branch of depth 2
|   |   |   |   |   |   |   |   |   |--- behavior >  1.00
|   |   |   |   |   |   |   |   |   |   |--- nitrogen_utilization <= 1.00
|   |   |   |   |   |   |   |   |   |   |   |--- class: 0
|   |   |   |   |   |   |   |   |   |   |--- nitrogen_utilization >  1.00
|   |   |   |   |   |   |   |   |   |   |   |--- class: 1
|   |   |   |   |   |   |   |   |--- growth >  1.00
|   |   |   |   |   |   |   |   |   |--- pigmentation <= 1.00
|   |   |   |   |   |   |   |   |   |   |--- class: 1
|   |   |   |   |   |   |   |   |   |--- pigmentation >  1.00
|   |   |   |   |   |   |   |   |   |   |--- class: 0
|   |   |   |   |   |   |   |--- signaling >  1.00
|   |   |   |   |   |   |   |   |--- class: 1
|   |   |   |   |   |   |--- fusogenic_activity >  1.00
|   |   |   |   |   |   |   |--- class: 1
|   |   |   |   |   |--- catalytic_activity >  0.94
|   |   |   |   |   |   |--- molecular_template_activity <= 1.00
|   |   |   |   |   |   |   |--- biological_regulation <= 0.76
|   |   |   |   |   |   |   |   |--- catalytic_activity <= 0.94
|   |   |   |   |   |   |   |   |   |--- class: 1
|   |   |   |   |   |   |   |   |--- catalytic_activity >  0.94
|   |   |   |   |   |   |   |   |   |--- detoxification <= 1.00
|   |   |   |   |   |   |   |   |   |   |--- cellular_anatomical_entity <= 0.92
|   |   |   |   |   |   |   |   |   |   |   |--- class: 0
|   |   |   |   |   |   |   |   |   |   |--- cellular_anatomical_entity >  0.92
|   |   |   |   |   |   |   |   |   |   |   |--- truncated branch of depth 5
|   |   |   |   |   |   |   |   |   |--- detoxification >  1.00
|   |   |   |   |   |   |   |   |   |   |--- molecular_sequestering_activity <= 1.00
|   |   |   |   |   |   |   |   |   |   |   |--- truncated branch of depth 2
|   |   |   |   |   |   |   |   |   |   |--- molecular_sequestering_activity >  1.00
|   |   |   |   |   |   |   |   |   |   |   |--- class: 1
|   |   |   |   |   |   |   |--- biological_regulation >  0.76
|   |   |   |   |   |   |   |   |--- binding <= 0.94
|   |   |   |   |   |   |   |   |   |--- other_organism_part <= 1.00
|   |   |   |   |   |   |   |   |   |   |--- class: 0
|   |   |   |   |   |   |   |   |   |--- other_organism_part >  1.00
|   |   |   |   |   |   |   |   |   |   |--- class: 1
|   |   |   |   |   |   |   |   |--- binding >  0.94
|   |   |   |   |   |   |   |   |   |--- response_to_stimulus <= 0.99
|   |   |   |   |   |   |   |   |   |   |--- antioxidant_activity <= 1.00
|   |   |   |   |   |   |   |   |   |   |   |--- truncated branch of depth 2
|   |   |   |   |   |   |   |   |   |   |--- antioxidant_activity >  1.00
|   |   |   |   |   |   |   |   |   |   |   |--- class: 0
|   |   |   |   |   |   |   |   |   |--- response_to_stimulus >  0.99
|   |   |   |   |   |   |   |   |   |   |--- catalytic_activity <= 1.00
|   |   |   |   |   |   |   |   |   |   |   |--- class: 0
|   |   |   |   |   |   |   |   |   |   |--- catalytic_activity >  1.00
|   |   |   |   |   |   |   |   |   |   |   |--- class: 1
|   |   |   |   |   |   |--- molecular_template_activity >  1.00
|   |   |   |   |   |   |   |--- metabolic_process <= 0.62
|   |   |   |   |   |   |   |   |--- class: 0
|   |   |   |   |   |   |   |--- metabolic_process >  0.62
|   |   |   |   |   |   |   |   |--- class: 1
|   |   |--- metabolic_process >  0.80
|   |   |   |--- cellular_anatomical_entity <= 0.86
|   |   |   |   |--- cargo_receptor_activity <= 0.98
|   |   |   |   |   |--- structural_molecule_activity <= 0.99
|   |   |   |   |   |   |--- metabolic_process <= 0.81
|   |   |   |   |   |   |   |--- class: 1
|   |   |   |   |   |   |--- metabolic_process >  0.81
|   |   |   |   |   |   |   |--- class: 0
|   |   |   |   |   |--- structural_molecule_activity >  0.99
|   |   |   |   |   |   |--- metabolic_process <= 0.95
|   |   |   |   |   |   |   |--- class: 1
|   |   |   |   |   |   |--- metabolic_process >  0.95
|   |   |   |   |   |   |   |--- class: 0
|   |   |   |   |--- cargo_receptor_activity >  0.98
|   |   |   |   |   |--- virion_part <= 1.00
|   |   |   |   |   |   |--- pigmentation <= 1.00
|   |   |   |   |   |   |   |--- biological_phase <= 1.00
|   |   |   |   |   |   |   |   |--- fusogenic_activity <= 1.00
|   |   |   |   |   |   |   |   |   |--- biological_regulation <= 0.72
|   |   |   |   |   |   |   |   |   |   |--- molecular_transducer_activity <= 1.00
|   |   |   |   |   |   |   |   |   |   |   |--- truncated branch of depth 18
|   |   |   |   |   |   |   |   |   |   |--- molecular_transducer_activity >  1.00
|   |   |   |   |   |   |   |   |   |   |   |--- truncated branch of depth 25
|   |   |   |   |   |   |   |   |   |--- biological_regulation >  0.72
|   |   |   |   |   |   |   |   |   |   |--- response_to_stimulus <= 0.99
|   |   |   |   |   |   |   |   |   |   |   |--- truncated branch of depth 21
|   |   |   |   |   |   |   |   |   |   |--- response_to_stimulus >  0.99
|   |   |   |   |   |   |   |   |   |   |   |--- truncated branch of depth 15
|   |   |   |   |   |   |   |   |--- fusogenic_activity >  1.00
|   |   |   |   |   |   |   |   |   |--- response_to_stimulus <= 0.88
|   |   |   |   |   |   |   |   |   |   |--- immune_system_process <= 0.91
|   |   |   |   |   |   |   |   |   |   |   |--- class: 1
|   |   |   |   |   |   |   |   |   |   |--- immune_system_process >  0.91
|   |   |   |   |   |   |   |   |   |   |   |--- class: 0
|   |   |   |   |   |   |   |   |   |--- response_to_stimulus >  0.88
|   |   |   |   |   |   |   |   |   |   |--- interspecies_interaction_between_organisms <= 1.00
|   |   |   |   |   |   |   |   |   |   |   |--- truncated branch of depth 3
|   |   |   |   |   |   |   |   |   |   |--- interspecies_interaction_between_organisms >  1.00
|   |   |   |   |   |   |   |   |   |   |   |--- truncated branch of depth 2
|   |   |   |   |   |   |   |--- biological_phase >  1.00
|   |   |   |   |   |   |   |   |--- biological_regulation <= 0.64
|   |   |   |   |   |   |   |   |   |--- biological_adhesion <= 1.00
|   |   |   |   |   |   |   |   |   |   |--- localization <= 0.78
|   |   |   |   |   |   |   |   |   |   |   |--- class: 1
|   |   |   |   |   |   |   |   |   |   |--- localization >  0.78
|   |   |   |   |   |   |   |   |   |   |   |--- class: 0
|   |   |   |   |   |   |   |   |   |--- biological_adhesion >  1.00
|   |   |   |   |   |   |   |   |   |   |--- biomineralization <= 1.00
|   |   |   |   |   |   |   |   |   |   |   |--- class: 1
|   |   |   |   |   |   |   |   |   |   |--- biomineralization >  1.00
|   |   |   |   |   |   |   |   |   |   |   |--- class: 0
|   |   |   |   |   |   |   |   |--- biological_regulation >  0.64
|   |   |   |   |   |   |   |   |   |--- locomotion <= 1.00
|   |   |   |   |   |   |   |   |   |   |--- reproductive_process <= 1.00
|   |   |   |   |   |   |   |   |   |   |   |--- class: 0
|   |   |   |   |   |   |   |   |   |   |--- reproductive_process >  1.00
|   |   |   |   |   |   |   |   |   |   |   |--- truncated branch of depth 2
|   |   |   |   |   |   |   |   |   |--- locomotion >  1.00
|   |   |   |   |   |   |   |   |   |   |--- class: 1
|   |   |   |   |   |   |--- pigmentation >  1.00
|   |   |   |   |   |   |   |--- cellular_anatomical_entity <= 0.74
|   |   |   |   |   |   |   |   |--- class: 0
|   |   |   |   |   |   |   |--- cellular_anatomical_entity >  0.74
|   |   |   |   |   |   |   |   |--- biological_regulation <= 0.66
|   |   |   |   |   |   |   |   |   |--- binding <= 0.90
|   |   |   |   |   |   |   |   |   |   |--- reproduction <= 1.00
|   |   |   |   |   |   |   |   |   |   |   |--- truncated branch of depth 3
|   |   |   |   |   |   |   |   |   |   |--- reproduction >  1.00
|   |   |   |   |   |   |   |   |   |   |   |--- truncated branch of depth 2
|   |   |   |   |   |   |   |   |   |--- binding >  0.90
|   |   |   |   |   |   |   |   |   |   |--- nitrogen_utilization <= 1.00
|   |   |   |   |   |   |   |   |   |   |   |--- class: 1
|   |   |   |   |   |   |   |   |   |   |--- nitrogen_utilization >  1.00
|   |   |   |   |   |   |   |   |   |   |   |--- truncated branch of depth 2
|   |   |   |   |   |   |   |   |--- biological_regulation >  0.66
|   |   |   |   |   |   |   |   |   |--- response_to_stimulus <= 0.97
|   |   |   |   |   |   |   |   |   |   |--- fusogenic_activity <= 1.00
|   |   |   |   |   |   |   |   |   |   |   |--- truncated branch of depth 2
|   |   |   |   |   |   |   |   |   |   |--- fusogenic_activity >  1.00
|   |   |   |   |   |   |   |   |   |   |   |--- truncated branch of depth 2
|   |   |   |   |   |   |   |   |   |--- response_to_stimulus >  0.97
|   |   |   |   |   |   |   |   |   |   |--- reproductive_process <= 1.00
|   |   |   |   |   |   |   |   |   |   |   |--- truncated branch of depth 2
|   |   |   |   |   |   |   |   |   |   |--- reproductive_process >  1.00
|   |   |   |   |   |   |   |   |   |   |   |--- class: 1
|   |   |   |   |   |--- virion_part >  1.00
|   |   |   |   |   |   |--- biological_regulation <= 0.65
|   |   |   |   |   |   |   |--- rhythmic_process <= 1.00
|   |   |   |   |   |   |   |   |--- cellular_process <= 0.69
|   |   |   |   |   |   |   |   |   |--- molecular_transducer_activity <= 1.00
|   |   |   |   |   |   |   |   |   |   |--- locomotion <= 1.00
|   |   |   |   |   |   |   |   |   |   |   |--- class: 0
|   |   |   |   |   |   |   |   |   |   |--- locomotion >  1.00
|   |   |   |   |   |   |   |   |   |   |   |--- truncated branch of depth 2
|   |   |   |   |   |   |   |   |   |--- molecular_transducer_activity >  1.00
|   |   |   |   |   |   |   |   |   |   |--- transporter_activity <= 1.00
|   |   |   |   |   |   |   |   |   |   |   |--- class: 0
|   |   |   |   |   |   |   |   |   |   |--- transporter_activity >  1.00
|   |   |   |   |   |   |   |   |   |   |   |--- class: 1
|   |   |   |   |   |   |   |   |--- cellular_process >  0.69
|   |   |   |   |   |   |   |   |   |--- reproductive_process <= 1.00
|   |   |   |   |   |   |   |   |   |   |--- localization <= 0.86
|   |   |   |   |   |   |   |   |   |   |   |--- class: 0
|   |   |   |   |   |   |   |   |   |   |--- localization >  0.86
|   |   |   |   |   |   |   |   |   |   |   |--- class: 1
|   |   |   |   |   |   |   |   |   |--- reproductive_process >  1.00
|   |   |   |   |   |   |   |   |   |   |--- class: 0
|   |   |   |   |   |   |   |--- rhythmic_process >  1.00
|   |   |   |   |   |   |   |   |--- class: 1
|   |   |   |   |   |   |--- biological_regulation >  0.65
|   |   |   |   |   |   |   |--- cellular_process <= 0.68
|   |   |   |   |   |   |   |   |--- biological_adhesion <= 1.00
|   |   |   |   |   |   |   |   |   |--- localization <= 0.92
|   |   |   |   |   |   |   |   |   |   |--- virion_part <= 1.00
|   |   |   |   |   |   |   |   |   |   |   |--- class: 1
|   |   |   |   |   |   |   |   |   |   |--- virion_part >  1.00
|   |   |   |   |   |   |   |   |   |   |   |--- class: 0
|   |   |   |   |   |   |   |   |   |--- localization >  0.92
|   |   |   |   |   |   |   |   |   |   |--- molecular_sequestering_activity <= 1.00
|   |   |   |   |   |   |   |   |   |   |   |--- class: 1
|   |   |   |   |   |   |   |   |   |   |--- molecular_sequestering_activity >  1.00
|   |   |   |   |   |   |   |   |   |   |   |--- truncated branch of depth 2
|   |   |   |   |   |   |   |   |--- biological_adhesion >  1.00
|   |   |   |   |   |   |   |   |   |--- nitrogen_utilization <= 1.00
|   |   |   |   |   |   |   |   |   |   |--- class: 0
|   |   |   |   |   |   |   |   |   |--- nitrogen_utilization >  1.00
|   |   |   |   |   |   |   |   |   |   |--- molecular_carrier_activity <= 1.00
|   |   |   |   |   |   |   |   |   |   |   |--- class: 0
|   |   |   |   |   |   |   |   |   |   |--- molecular_carrier_activity >  1.00
|   |   |   |   |   |   |   |   |   |   |   |--- truncated branch of depth 4
|   |   |   |   |   |   |   |--- cellular_process >  0.68
|   |   |   |   |   |   |   |   |--- class: 1
|   |   |   |--- cellular_anatomical_entity >  0.86
|   |   |   |   |--- cargo_receptor_activity <= 1.00
|   |   |   |   |   |--- cellular_anatomical_entity <= 0.95
|   |   |   |   |   |   |--- intraspecies_interaction_between_organisms <= 1.00
|   |   |   |   |   |   |   |--- growth <= 0.99
|   |   |   |   |   |   |   |   |--- transporter_activity <= 1.00
|   |   |   |   |   |   |   |   |   |--- biological_adhesion <= 0.98
|   |   |   |   |   |   |   |   |   |   |--- response_to_stimulus <= 0.94
|   |   |   |   |   |   |   |   |   |   |   |--- truncated branch of depth 2
|   |   |   |   |   |   |   |   |   |   |--- response_to_stimulus >  0.94
|   |   |   |   |   |   |   |   |   |   |   |--- truncated branch of depth 2
|   |   |   |   |   |   |   |   |   |--- biological_adhesion >  0.98
|   |   |   |   |   |   |   |   |   |   |--- developmental_process <= 0.99
|   |   |   |   |   |   |   |   |   |   |   |--- truncated branch of depth 6
|   |   |   |   |   |   |   |   |   |   |--- developmental_process >  0.99
|   |   |   |   |   |   |   |   |   |   |   |--- truncated branch of depth 3
|   |   |   |   |   |   |   |   |--- transporter_activity >  1.00
|   |   |   |   |   |   |   |   |   |--- localization <= 1.00
|   |   |   |   |   |   |   |   |   |   |--- molecular_transducer_activity <= 1.00
|   |   |   |   |   |   |   |   |   |   |   |--- truncated branch of depth 2
|   |   |   |   |   |   |   |   |   |   |--- molecular_transducer_activity >  1.00
|   |   |   |   |   |   |   |   |   |   |   |--- truncated branch of depth 3
|   |   |   |   |   |   |   |   |   |--- localization >  1.00
|   |   |   |   |   |   |   |   |   |   |--- class: 0
|   |   |   |   |   |   |   |--- growth >  0.99
|   |   |   |   |   |   |   |   |--- reproduction <= 1.00
|   |   |   |   |   |   |   |   |   |--- pigmentation <= 1.00
|   |   |   |   |   |   |   |   |   |   |--- immune_system_process <= 1.00
|   |   |   |   |   |   |   |   |   |   |   |--- truncated branch of depth 13
|   |   |   |   |   |   |   |   |   |   |--- immune_system_process >  1.00
|   |   |   |   |   |   |   |   |   |   |   |--- class: 1
|   |   |   |   |   |   |   |   |   |--- pigmentation >  1.00
|   |   |   |   |   |   |   |   |   |   |--- class: 1
|   |   |   |   |   |   |   |   |--- reproduction >  1.00
|   |   |   |   |   |   |   |   |   |--- binding <= 0.80
|   |   |   |   |   |   |   |   |   |   |--- class: 0
|   |   |   |   |   |   |   |   |   |--- binding >  0.80
|   |   |   |   |   |   |   |   |   |   |--- class: 1
|   |   |   |   |   |   |--- intraspecies_interaction_between_organisms >  1.00
|   |   |   |   |   |   |   |--- biomineralization <= 1.00
|   |   |   |   |   |   |   |   |--- class: 0
|   |   |   |   |   |   |   |--- biomineralization >  1.00
|   |   |   |   |   |   |   |   |--- class: 1
|   |   |   |   |   |--- cellular_anatomical_entity >  0.95
|   |   |   |   |   |   |--- binding <= 0.88
|   |   |   |   |   |   |   |--- cargo_receptor_activity <= 1.00
|   |   |   |   |   |   |   |   |--- nitrogen_utilization <= 0.99
|   |   |   |   |   |   |   |   |   |--- class: 1
|   |   |   |   |   |   |   |   |--- nitrogen_utilization >  0.99
|   |   |   |   |   |   |   |   |   |--- class: 0
|   |   |   |   |   |   |   |--- cargo_receptor_activity >  1.00
|   |   |   |   |   |   |   |   |--- multi-organism_process <= 1.00
|   |   |   |   |   |   |   |   |   |--- class: 1
|   |   |   |   |   |   |   |   |--- multi-organism_process >  1.00
|   |   |   |   |   |   |   |   |   |--- class: 0
|   |   |   |   |   |   |--- binding >  0.88
|   |   |   |   |   |   |   |--- nitrogen_utilization <= 1.00
|   |   |   |   |   |   |   |   |--- transporter_activity <= 0.99
|   |   |   |   |   |   |   |   |   |--- detoxification <= 0.99
|   |   |   |   |   |   |   |   |   |   |--- class: 0
|   |   |   |   |   |   |   |   |   |--- detoxification >  0.99
|   |   |   |   |   |   |   |   |   |   |--- class: 1
|   |   |   |   |   |   |   |   |--- transporter_activity >  0.99
|   |   |   |   |   |   |   |   |   |--- small_molecule_sensor_activity <= 1.00
|   |   |   |   |   |   |   |   |   |   |--- class: 0
|   |   |   |   |   |   |   |   |   |--- small_molecule_sensor_activity >  1.00
|   |   |   |   |   |   |   |   |   |   |--- signaling <= 1.00
|   |   |   |   |   |   |   |   |   |   |   |--- class: 0
|   |   |   |   |   |   |   |   |   |   |--- signaling >  1.00
|   |   |   |   |   |   |   |   |   |   |   |--- class: 1
|   |   |   |   |   |   |   |--- nitrogen_utilization >  1.00
|   |   |   |   |   |   |   |   |--- small_molecule_sensor_activity <= 1.00
|   |   |   |   |   |   |   |   |   |--- cellular_process <= 0.50
|   |   |   |   |   |   |   |   |   |   |--- class: 0
|   |   |   |   |   |   |   |   |   |--- cellular_process >  0.50
|   |   |   |   |   |   |   |   |   |   |--- class: 1
|   |   |   |   |   |   |   |   |--- small_molecule_sensor_activity >  1.00
|   |   |   |   |   |   |   |   |   |--- class: 0
|   |   |   |   |--- cargo_receptor_activity >  1.00
|   |   |   |   |   |--- biological_regulation <= 0.70
|   |   |   |   |   |   |--- molecular_function_regulator <= 1.00
|   |   |   |   |   |   |   |--- biological_adhesion <= 1.00
|   |   |   |   |   |   |   |   |--- locomotion <= 0.94
|   |   |   |   |   |   |   |   |   |--- signaling <= 1.00
|   |   |   |   |   |   |   |   |   |   |--- molecular_carrier_activity <= 0.99
|   |   |   |   |   |   |   |   |   |   |   |--- class: 1
|   |   |   |   |   |   |   |   |   |   |--- molecular_carrier_activity >  0.99
|   |   |   |   |   |   |   |   |   |   |   |--- class: 0
|   |   |   |   |   |   |   |   |   |--- signaling >  1.00
|   |   |   |   |   |   |   |   |   |   |--- binding <= 0.79
|   |   |   |   |   |   |   |   |   |   |   |--- truncated branch of depth 2
|   |   |   |   |   |   |   |   |   |   |--- binding >  0.79
|   |   |   |   |   |   |   |   |   |   |   |--- class: 1
|   |   |   |   |   |   |   |   |--- locomotion >  0.94
|   |   |   |   |   |   |   |   |   |--- cellular_process <= 0.70
|   |   |   |   |   |   |   |   |   |   |--- response_to_stimulus <= 1.00
|   |   |   |   |   |   |   |   |   |   |   |--- truncated branch of depth 15
|   |   |   |   |   |   |   |   |   |   |--- response_to_stimulus >  1.00
|   |   |   |   |   |   |   |   |   |   |   |--- truncated branch of depth 3
|   |   |   |   |   |   |   |   |   |--- cellular_process >  0.70
|   |   |   |   |   |   |   |   |   |   |--- transporter_activity <= 1.00
|   |   |   |   |   |   |   |   |   |   |   |--- class: 1
|   |   |   |   |   |   |   |   |   |   |--- transporter_activity >  1.00
|   |   |   |   |   |   |   |   |   |   |   |--- truncated branch of depth 2
|   |   |   |   |   |   |   |--- biological_adhesion >  1.00
|   |   |   |   |   |   |   |   |--- cargo_receptor_activity <= 1.00
|   |   |   |   |   |   |   |   |   |--- molecular_sequestering_activity <= 1.00
|   |   |   |   |   |   |   |   |   |   |--- molecular_carrier_activity <= 1.00
|   |   |   |   |   |   |   |   |   |   |   |--- truncated branch of depth 5
|   |   |   |   |   |   |   |   |   |   |--- molecular_carrier_activity >  1.00
|   |   |   |   |   |   |   |   |   |   |   |--- truncated branch of depth 3
|   |   |   |   |   |   |   |   |   |--- molecular_sequestering_activity >  1.00
|   |   |   |   |   |   |   |   |   |   |--- class: 1
|   |   |   |   |   |   |   |   |--- cargo_receptor_activity >  1.00
|   |   |   |   |   |   |   |   |   |--- class: 1
|   |   |   |   |   |   |--- molecular_function_regulator >  1.00
|   |   |   |   |   |   |   |--- metabolic_process <= 0.89
|   |   |   |   |   |   |   |   |--- molecular_function_regulator <= 1.00
|   |   |   |   |   |   |   |   |   |--- reproduction <= 1.00
|   |   |   |   |   |   |   |   |   |   |--- cellular_anatomical_entity <= 0.95
|   |   |   |   |   |   |   |   |   |   |   |--- truncated branch of depth 2
|   |   |   |   |   |   |   |   |   |   |--- cellular_anatomical_entity >  0.95
|   |   |   |   |   |   |   |   |   |   |   |--- class: 1
|   |   |   |   |   |   |   |   |   |--- reproduction >  1.00
|   |   |   |   |   |   |   |   |   |   |--- class: 1
|   |   |   |   |   |   |   |   |--- molecular_function_regulator >  1.00
|   |   |   |   |   |   |   |   |   |--- class: 1
|   |   |   |   |   |   |   |--- metabolic_process >  0.89
|   |   |   |   |   |   |   |   |--- molecular_adaptor_activity <= 0.98
|   |   |   |   |   |   |   |   |   |--- class: 0
|   |   |   |   |   |   |   |   |--- molecular_adaptor_activity >  0.98
|   |   |   |   |   |   |   |   |   |--- multicellular_organismal_process <= 0.94
|   |   |   |   |   |   |   |   |   |   |--- class: 0
|   |   |   |   |   |   |   |   |   |--- multicellular_organismal_process >  0.94
|   |   |   |   |   |   |   |   |   |   |--- intraspecies_interaction_between_organisms <= 1.00
|   |   |   |   |   |   |   |   |   |   |   |--- class: 1
|   |   |   |   |   |   |   |   |   |   |--- intraspecies_interaction_between_organisms >  1.00
|   |   |   |   |   |   |   |   |   |   |   |--- class: 0
|   |   |   |   |   |--- biological_regulation >  0.70
|   |   |   |   |   |   |--- fusogenic_activity <= 1.00
|   |   |   |   |   |   |   |--- nitrogen_utilization <= 1.00
|   |   |   |   |   |   |   |   |--- molecular_template_activity <= 1.00
|   |   |   |   |   |   |   |   |   |--- binding <= 0.88
|   |   |   |   |   |   |   |   |   |   |--- antioxidant_activity <= 0.99
|   |   |   |   |   |   |   |   |   |   |   |--- class: 1
|   |   |   |   |   |   |   |   |   |   |--- antioxidant_activity >  0.99
|   |   |   |   |   |   |   |   |   |   |   |--- truncated branch of depth 2
|   |   |   |   |   |   |   |   |   |--- binding >  0.88
|   |   |   |   |   |   |   |   |   |   |--- metabolic_process <= 0.87
|   |   |   |   |   |   |   |   |   |   |   |--- truncated branch of depth 3
|   |   |   |   |   |   |   |   |   |   |--- metabolic_process >  0.87
|   |   |   |   |   |   |   |   |   |   |   |--- truncated branch of depth 4
|   |   |   |   |   |   |   |   |--- molecular_template_activity >  1.00
|   |   |   |   |   |   |   |   |   |--- developmental_process <= 0.91
|   |   |   |   |   |   |   |   |   |   |--- small_molecule_sensor_activity <= 1.00
|   |   |   |   |   |   |   |   |   |   |   |--- class: 0
|   |   |   |   |   |   |   |   |   |   |--- small_molecule_sensor_activity >  1.00
|   |   |   |   |   |   |   |   |   |   |   |--- class: 1
|   |   |   |   |   |   |   |   |   |--- developmental_process >  0.91
|   |   |   |   |   |   |   |   |   |   |--- binding <= 0.91
|   |   |   |   |   |   |   |   |   |   |   |--- truncated branch of depth 6
|   |   |   |   |   |   |   |   |   |   |--- binding >  0.91
|   |   |   |   |   |   |   |   |   |   |   |--- truncated branch of depth 3
|   |   |   |   |   |   |   |--- nitrogen_utilization >  1.00
|   |   |   |   |   |   |   |   |--- growth <= 1.00
|   |   |   |   |   |   |   |   |   |--- structural_molecule_activity <= 1.00
|   |   |   |   |   |   |   |   |   |   |--- metabolic_process <= 0.83
|   |   |   |   |   |   |   |   |   |   |   |--- truncated branch of depth 2
|   |   |   |   |   |   |   |   |   |   |--- metabolic_process >  0.83
|   |   |   |   |   |   |   |   |   |   |   |--- truncated branch of depth 2
|   |   |   |   |   |   |   |   |   |--- structural_molecule_activity >  1.00
|   |   |   |   |   |   |   |   |   |   |--- molecular_carrier_activity <= 1.00
|   |   |   |   |   |   |   |   |   |   |   |--- truncated branch of depth 5
|   |   |   |   |   |   |   |   |   |   |--- molecular_carrier_activity >  1.00
|   |   |   |   |   |   |   |   |   |   |   |--- class: 0
|   |   |   |   |   |   |   |   |--- growth >  1.00
|   |   |   |   |   |   |   |   |   |--- molecular_template_activity <= 1.00
|   |   |   |   |   |   |   |   |   |   |--- class: 0
|   |   |   |   |   |   |   |   |   |--- molecular_template_activity >  1.00
|   |   |   |   |   |   |   |   |   |   |--- localization <= 1.00
|   |   |   |   |   |   |   |   |   |   |   |--- class: 1
|   |   |   |   |   |   |   |   |   |   |--- localization >  1.00
|   |   |   |   |   |   |   |   |   |   |   |--- truncated branch of depth 2
|   |   |   |   |   |   |--- fusogenic_activity >  1.00
|   |   |   |   |   |   |   |--- multicellular_organismal_process <= 0.93
|   |   |   |   |   |   |   |   |--- class: 0
|   |   |   |   |   |   |   |--- multicellular_organismal_process >  0.93
|   |   |   |   |   |   |   |   |--- transporter_activity <= 1.00
|   |   |   |   |   |   |   |   |   |--- locomotion <= 1.00
|   |   |   |   |   |   |   |   |   |   |--- molecular_function_regulator <= 1.00
|   |   |   |   |   |   |   |   |   |   |   |--- class: 1
|   |   |   |   |   |   |   |   |   |   |--- molecular_function_regulator >  1.00
|   |   |   |   |   |   |   |   |   |   |   |--- class: 0
|   |   |   |   |   |   |   |   |   |--- locomotion >  1.00
|   |   |   |   |   |   |   |   |   |   |--- class: 0
|   |   |   |   |   |   |   |   |--- transporter_activity >  1.00
|   |   |   |   |   |   |   |   |   |--- developmental_process <= 0.95
|   |   |   |   |   |   |   |   |   |   |--- fusogenic_activity <= 1.00
|   |   |   |   |   |   |   |   |   |   |   |--- class: 1
|   |   |   |   |   |   |   |   |   |   |--- fusogenic_activity >  1.00
|   |   |   |   |   |   |   |   |   |   |   |--- truncated branch of depth 3
|   |   |   |   |   |   |   |   |   |--- developmental_process >  0.95
|   |   |   |   |   |   |   |   |   |   |--- nitrogen_utilization <= 1.00
|   |   |   |   |   |   |   |   |   |   |   |--- truncated branch of depth 3
|   |   |   |   |   |   |   |   |   |   |--- nitrogen_utilization >  1.00
|   |   |   |   |   |   |   |   |   |   |   |--- class: 0
|   |--- cellular_process >  0.70
|   |   |--- cellular_anatomical_entity <= 0.86
|   |   |   |--- response_to_stimulus <= 0.99
|   |   |   |   |--- biological_regulation <= 0.73
|   |   |   |   |   |--- transporter_activity <= 1.00
|   |   |   |   |   |   |--- translation_regulator_activity <= 0.96
|   |   |   |   |   |   |   |--- localization <= 0.96
|   |   |   |   |   |   |   |   |--- interspecies_interaction_between_organisms <= 1.00
|   |   |   |   |   |   |   |   |   |--- class: 1
|   |   |   |   |   |   |   |   |--- interspecies_interaction_between_organisms >  1.00
|   |   |   |   |   |   |   |   |   |--- class: 0
|   |   |   |   |   |   |   |--- localization >  0.96
|   |   |   |   |   |   |   |   |--- cellular_process <= 0.73
|   |   |   |   |   |   |   |   |   |--- virion_part <= 0.98
|   |   |   |   |   |   |   |   |   |   |--- class: 0
|   |   |   |   |   |   |   |   |   |--- virion_part >  0.98
|   |   |   |   |   |   |   |   |   |   |--- class: 1
|   |   |   |   |   |   |   |   |--- cellular_process >  0.73
|   |   |   |   |   |   |   |   |   |--- class: 0
|   |   |   |   |   |   |--- translation_regulator_activity >  0.96
|   |   |   |   |   |   |   |--- multicellular_organismal_process <= 1.00
|   |   |   |   |   |   |   |   |--- response_to_stimulus <= 0.92
|   |   |   |   |   |   |   |   |   |--- pigmentation <= 1.00
|   |   |   |   |   |   |   |   |   |   |--- locomotion <= 1.00
|   |   |   |   |   |   |   |   |   |   |   |--- truncated branch of depth 26
|   |   |   |   |   |   |   |   |   |   |--- locomotion >  1.00
|   |   |   |   |   |   |   |   |   |   |   |--- truncated branch of depth 11
|   |   |   |   |   |   |   |   |   |--- pigmentation >  1.00
|   |   |   |   |   |   |   |   |   |   |--- biomineralization <= 1.00
|   |   |   |   |   |   |   |   |   |   |   |--- truncated branch of depth 3
|   |   |   |   |   |   |   |   |   |   |--- biomineralization >  1.00
|   |   |   |   |   |   |   |   |   |   |   |--- class: 1
|   |   |   |   |   |   |   |   |--- response_to_stimulus >  0.92
|   |   |   |   |   |   |   |   |   |--- signaling <= 1.00
|   |   |   |   |   |   |   |   |   |   |--- multi-organism_process <= 0.97
|   |   |   |   |   |   |   |   |   |   |   |--- truncated branch of depth 2
|   |   |   |   |   |   |   |   |   |   |--- multi-organism_process >  0.97
|   |   |   |   |   |   |   |   |   |   |   |--- truncated branch of depth 13
|   |   |   |   |   |   |   |   |   |--- signaling >  1.00
|   |   |   |   |   |   |   |   |   |   |--- localization <= 0.91
|   |   |   |   |   |   |   |   |   |   |   |--- truncated branch of depth 5
|   |   |   |   |   |   |   |   |   |   |--- localization >  0.91
|   |   |   |   |   |   |   |   |   |   |   |--- truncated branch of depth 8
|   |   |   |   |   |   |   |--- multicellular_organismal_process >  1.00
|   |   |   |   |   |   |   |   |--- metabolic_process <= 0.85
|   |   |   |   |   |   |   |   |   |--- biological_phase <= 1.00
|   |   |   |   |   |   |   |   |   |   |--- nitrogen_utilization <= 1.00
|   |   |   |   |   |   |   |   |   |   |   |--- truncated branch of depth 9
|   |   |   |   |   |   |   |   |   |   |--- nitrogen_utilization >  1.00
|   |   |   |   |   |   |   |   |   |   |   |--- truncated branch of depth 2
|   |   |   |   |   |   |   |   |   |--- biological_phase >  1.00
|   |   |   |   |   |   |   |   |   |   |--- molecular_sequestering_activity <= 1.00
|   |   |   |   |   |   |   |   |   |   |   |--- class: 1
|   |   |   |   |   |   |   |   |   |   |--- molecular_sequestering_activity >  1.00
|   |   |   |   |   |   |   |   |   |   |   |--- class: 0
|   |   |   |   |   |   |   |   |--- metabolic_process >  0.85
|   |   |   |   |   |   |   |   |   |--- biological_adhesion <= 1.00
|   |   |   |   |   |   |   |   |   |   |--- metabolic_process <= 0.95
|   |   |   |   |   |   |   |   |   |   |   |--- truncated branch of depth 7
|   |   |   |   |   |   |   |   |   |   |--- metabolic_process >  0.95
|   |   |   |   |   |   |   |   |   |   |   |--- truncated branch of depth 5
|   |   |   |   |   |   |   |   |   |--- biological_adhesion >  1.00
|   |   |   |   |   |   |   |   |   |   |--- immune_system_process <= 0.90
|   |   |   |   |   |   |   |   |   |   |   |--- class: 0
|   |   |   |   |   |   |   |   |   |   |--- immune_system_process >  0.90
|   |   |   |   |   |   |   |   |   |   |   |--- truncated branch of depth 9
|   |   |   |   |   |--- transporter_activity >  1.00
|   |   |   |   |   |   |--- growth <= 1.00
|   |   |   |   |   |   |   |--- structural_molecule_activity <= 1.00
|   |   |   |   |   |   |   |   |--- cellular_anatomical_entity <= 0.83
|   |   |   |   |   |   |   |   |   |--- molecular_transducer_activity <= 1.00
|   |   |   |   |   |   |   |   |   |   |--- multi-organism_process <= 1.00
|   |   |   |   |   |   |   |   |   |   |   |--- class: 0
|   |   |   |   |   |   |   |   |   |   |--- multi-organism_process >  1.00
|   |   |   |   |   |   |   |   |   |   |   |--- class: 1
|   |   |   |   |   |   |   |   |   |--- molecular_transducer_activity >  1.00
|   |   |   |   |   |   |   |   |   |   |--- detoxification <= 1.00
|   |   |   |   |   |   |   |   |   |   |   |--- truncated branch of depth 3
|   |   |   |   |   |   |   |   |   |   |--- detoxification >  1.00
|   |   |   |   |   |   |   |   |   |   |   |--- truncated branch of depth 2
|   |   |   |   |   |   |   |   |--- cellular_anatomical_entity >  0.83
|   |   |   |   |   |   |   |   |   |--- reproduction <= 1.00
|   |   |   |   |   |   |   |   |   |   |--- class: 0
|   |   |   |   |   |   |   |   |   |--- reproduction >  1.00
|   |   |   |   |   |   |   |   |   |   |--- biological_adhesion <= 1.00
|   |   |   |   |   |   |   |   |   |   |   |--- truncated branch of depth 4
|   |   |   |   |   |   |   |   |   |   |--- biological_adhesion >  1.00
|   |   |   |   |   |   |   |   |   |   |   |--- truncated branch of depth 2
|   |   |   |   |   |   |   |--- structural_molecule_activity >  1.00
|   |   |   |   |   |   |   |   |--- intraspecies_interaction_between_organisms <= 1.00
|   |   |   |   |   |   |   |   |   |--- molecular_function_regulator <= 1.00
|   |   |   |   |   |   |   |   |   |   |--- catalytic_activity <= 1.00
|   |   |   |   |   |   |   |   |   |   |   |--- truncated branch of depth 3
|   |   |   |   |   |   |   |   |   |   |--- catalytic_activity >  1.00
|   |   |   |   |   |   |   |   |   |   |   |--- class: 1
|   |   |   |   |   |   |   |   |   |--- molecular_function_regulator >  1.00
|   |   |   |   |   |   |   |   |   |   |--- class: 1
|   |   |   |   |   |   |   |   |--- intraspecies_interaction_between_organisms >  1.00
|   |   |   |   |   |   |   |   |   |--- metabolic_process <= 0.77
|   |   |   |   |   |   |   |   |   |   |--- class: 0
|   |   |   |   |   |   |   |   |   |--- metabolic_process >  0.77
|   |   |   |   |   |   |   |   |   |   |--- detoxification <= 1.00
|   |   |   |   |   |   |   |   |   |   |   |--- truncated branch of depth 2
|   |   |   |   |   |   |   |   |   |   |--- detoxification >  1.00
|   |   |   |   |   |   |   |   |   |   |   |--- truncated branch of depth 2
|   |   |   |   |   |   |--- growth >  1.00
|   |   |   |   |   |   |   |--- response_to_stimulus <= 0.87
|   |   |   |   |   |   |   |   |--- molecular_carrier_activity <= 1.00
|   |   |   |   |   |   |   |   |   |--- translation_regulator_activity <= 1.00
|   |   |   |   |   |   |   |   |   |   |--- fusogenic_activity <= 1.00
|   |   |   |   |   |   |   |   |   |   |   |--- truncated branch of depth 5
|   |   |   |   |   |   |   |   |   |   |--- fusogenic_activity >  1.00
|   |   |   |   |   |   |   |   |   |   |   |--- class: 1
|   |   |   |   |   |   |   |   |   |--- translation_regulator_activity >  1.00
|   |   |   |   |   |   |   |   |   |   |--- reproductive_process <= 0.98
|   |   |   |   |   |   |   |   |   |   |   |--- class: 0
|   |   |   |   |   |   |   |   |   |   |--- reproductive_process >  0.98
|   |   |   |   |   |   |   |   |   |   |   |--- truncated branch of depth 2
|   |   |   |   |   |   |   |   |--- molecular_carrier_activity >  1.00
|   |   |   |   |   |   |   |   |   |--- nitrogen_utilization <= 1.00
|   |   |   |   |   |   |   |   |   |   |--- class: 1
|   |   |   |   |   |   |   |   |   |--- nitrogen_utilization >  1.00
|   |   |   |   |   |   |   |   |   |   |--- class: 0
|   |   |   |   |   |   |   |--- response_to_stimulus >  0.87
|   |   |   |   |   |   |   |   |--- molecular_adaptor_activity <= 1.00
|   |   |   |   |   |   |   |   |   |--- multi-organism_process <= 1.00
|   |   |   |   |   |   |   |   |   |   |--- rhythmic_process <= 0.97
|   |   |   |   |   |   |   |   |   |   |   |--- class: 1
|   |   |   |   |   |   |   |   |   |   |--- rhythmic_process >  0.97
|   |   |   |   |   |   |   |   |   |   |   |--- class: 0
|   |   |   |   |   |   |   |   |   |--- multi-organism_process >  1.00
|   |   |   |   |   |   |   |   |   |   |--- metabolic_process <= 0.79
|   |   |   |   |   |   |   |   |   |   |   |--- class: 0
|   |   |   |   |   |   |   |   |   |   |--- metabolic_process >  0.79
|   |   |   |   |   |   |   |   |   |   |   |--- class: 1
|   |   |   |   |   |   |   |   |--- molecular_adaptor_activity >  1.00
|   |   |   |   |   |   |   |   |   |--- molecular_carrier_activity <= 1.00
|   |   |   |   |   |   |   |   |   |   |--- class: 0
|   |   |   |   |   |   |   |   |   |--- molecular_carrier_activity >  1.00
|   |   |   |   |   |   |   |   |   |   |--- immune_system_process <= 0.92
|   |   |   |   |   |   |   |   |   |   |   |--- truncated branch of depth 2
|   |   |   |   |   |   |   |   |   |   |--- immune_system_process >  0.92
|   |   |   |   |   |   |   |   |   |   |   |--- truncated branch of depth 8
|   |   |   |   |--- biological_regulation >  0.73
|   |   |   |   |   |--- signaling <= 1.00
|   |   |   |   |   |   |--- small_molecule_sensor_activity <= 0.99
|   |   |   |   |   |   |   |--- molecular_transducer_activity <= 0.99
|   |   |   |   |   |   |   |   |--- detoxification <= 0.99
|   |   |   |   |   |   |   |   |   |--- cargo_receptor_activity <= 0.95
|   |   |   |   |   |   |   |   |   |   |--- class: 0
|   |   |   |   |   |   |   |   |   |--- cargo_receptor_activity >  0.95
|   |   |   |   |   |   |   |   |   |   |--- biological_regulation <= 0.77
|   |   |   |   |   |   |   |   |   |   |   |--- truncated branch of depth 3
|   |   |   |   |   |   |   |   |   |   |--- biological_regulation >  0.77
|   |   |   |   |   |   |   |   |   |   |   |--- class: 1
|   |   |   |   |   |   |   |   |--- detoxification >  0.99
|   |   |   |   |   |   |   |   |   |--- biomineralization <= 0.99
|   |   |   |   |   |   |   |   |   |   |--- class: 0
|   |   |   |   |   |   |   |   |   |--- biomineralization >  0.99
|   |   |   |   |   |   |   |   |   |   |--- class: 1
|   |   |   |   |   |   |   |--- molecular_transducer_activity >  0.99
|   |   |   |   |   |   |   |   |--- metabolic_process <= 0.97
|   |   |   |   |   |   |   |   |   |--- metabolic_process <= 0.73
|   |   |   |   |   |   |   |   |   |   |--- class: 1
|   |   |   |   |   |   |   |   |   |--- metabolic_process >  0.73
|   |   |   |   |   |   |   |   |   |   |--- class: 0
|   |   |   |   |   |   |   |   |--- metabolic_process >  0.97
|   |   |   |   |   |   |   |   |   |--- class: 1
|   |   |   |   |   |   |--- small_molecule_sensor_activity >  0.99
|   |   |   |   |   |   |   |--- transporter_activity <= 1.00
|   |   |   |   |   |   |   |   |--- immune_system_process <= 1.00
|   |   |   |   |   |   |   |   |   |--- response_to_stimulus <= 0.90
|   |   |   |   |   |   |   |   |   |   |--- biological_phase <= 1.00
|   |   |   |   |   |   |   |   |   |   |   |--- truncated branch of depth 11
|   |   |   |   |   |   |   |   |   |   |--- biological_phase >  1.00
|   |   |   |   |   |   |   |   |   |   |   |--- truncated branch of depth 2
|   |   |   |   |   |   |   |   |   |--- response_to_stimulus >  0.90
|   |   |   |   |   |   |   |   |   |   |--- pigmentation <= 1.00
|   |   |   |   |   |   |   |   |   |   |   |--- truncated branch of depth 14
|   |   |   |   |   |   |   |   |   |   |--- pigmentation >  1.00
|   |   |   |   |   |   |   |   |   |   |   |--- truncated branch of depth 2
|   |   |   |   |   |   |   |   |--- immune_system_process >  1.00
|   |   |   |   |   |   |   |   |   |--- localization <= 0.99
|   |   |   |   |   |   |   |   |   |   |--- biological_regulation <= 0.98
|   |   |   |   |   |   |   |   |   |   |   |--- truncated branch of depth 10
|   |   |   |   |   |   |   |   |   |   |--- biological_regulation >  0.98
|   |   |   |   |   |   |   |   |   |   |   |--- truncated branch of depth 2
|   |   |   |   |   |   |   |   |   |--- localization >  0.99
|   |   |   |   |   |   |   |   |   |   |--- small_molecule_sensor_activity <= 1.00
|   |   |   |   |   |   |   |   |   |   |   |--- truncated branch of depth 12
|   |   |   |   |   |   |   |   |   |   |--- small_molecule_sensor_activity >  1.00
|   |   |   |   |   |   |   |   |   |   |   |--- truncated branch of depth 3
|   |   |   |   |   |   |   |--- transporter_activity >  1.00
|   |   |   |   |   |   |   |   |--- biomineralization <= 1.00
|   |   |   |   |   |   |   |   |   |--- virion_part <= 1.00
|   |   |   |   |   |   |   |   |   |   |--- class: 1
|   |   |   |   |   |   |   |   |   |--- virion_part >  1.00
|   |   |   |   |   |   |   |   |   |   |--- class: 0
|   |   |   |   |   |   |   |   |--- biomineralization >  1.00
|   |   |   |   |   |   |   |   |   |--- antioxidant_activity <= 1.00
|   |   |   |   |   |   |   |   |   |   |--- class: 0
|   |   |   |   |   |   |   |   |   |--- antioxidant_activity >  1.00
|   |   |   |   |   |   |   |   |   |   |--- molecular_sequestering_activity <= 1.00
|   |   |   |   |   |   |   |   |   |   |   |--- class: 0
|   |   |   |   |   |   |   |   |   |   |--- molecular_sequestering_activity >  1.00
|   |   |   |   |   |   |   |   |   |   |   |--- class: 1
|   |   |   |   |   |--- signaling >  1.00
|   |   |   |   |   |   |--- metabolic_process <= 0.86
|   |   |   |   |   |   |   |--- biological_regulation <= 0.89
|   |   |   |   |   |   |   |   |--- multi-organism_process <= 1.00
|   |   |   |   |   |   |   |   |   |--- molecular_adaptor_activity <= 0.99
|   |   |   |   |   |   |   |   |   |   |--- pigmentation <= 1.00
|   |   |   |   |   |   |   |   |   |   |   |--- class: 0
|   |   |   |   |   |   |   |   |   |   |--- pigmentation >  1.00
|   |   |   |   |   |   |   |   |   |   |   |--- class: 1
|   |   |   |   |   |   |   |   |   |--- molecular_adaptor_activity >  0.99
|   |   |   |   |   |   |   |   |   |   |--- reproductive_process <= 1.00
|   |   |   |   |   |   |   |   |   |   |   |--- truncated branch of depth 3
|   |   |   |   |   |   |   |   |   |   |--- reproductive_process >  1.00
|   |   |   |   |   |   |   |   |   |   |   |--- truncated branch of depth 3
|   |   |   |   |   |   |   |   |--- multi-organism_process >  1.00
|   |   |   |   |   |   |   |   |   |--- rhythmic_process <= 1.00
|   |   |   |   |   |   |   |   |   |   |--- virion_part <= 1.00
|   |   |   |   |   |   |   |   |   |   |   |--- class: 0
|   |   |   |   |   |   |   |   |   |   |--- virion_part >  1.00
|   |   |   |   |   |   |   |   |   |   |   |--- truncated branch of depth 10
|   |   |   |   |   |   |   |   |   |--- rhythmic_process >  1.00
|   |   |   |   |   |   |   |   |   |   |--- pigmentation <= 1.00
|   |   |   |   |   |   |   |   |   |   |   |--- class: 0
|   |   |   |   |   |   |   |   |   |   |--- pigmentation >  1.00
|   |   |   |   |   |   |   |   |   |   |   |--- truncated branch of depth 2
|   |   |   |   |   |   |   |--- biological_regulation >  0.89
|   |   |   |   |   |   |   |   |--- other_organism_part <= 1.00
|   |   |   |   |   |   |   |   |   |--- class: 0
|   |   |   |   |   |   |   |   |--- other_organism_part >  1.00
|   |   |   |   |   |   |   |   |   |--- cellular_anatomical_entity <= 0.84
|   |   |   |   |   |   |   |   |   |   |--- class: 1
|   |   |   |   |   |   |   |   |   |--- cellular_anatomical_entity >  0.84
|   |   |   |   |   |   |   |   |   |   |--- class: 0
|   |   |   |   |   |   |--- metabolic_process >  0.86
|   |   |   |   |   |   |   |--- metabolic_process <= 0.99
|   |   |   |   |   |   |   |   |--- reproductive_process <= 1.00
|   |   |   |   |   |   |   |   |   |--- locomotion <= 1.00
|   |   |   |   |   |   |   |   |   |   |--- locomotion <= 0.98
|   |   |   |   |   |   |   |   |   |   |   |--- class: 1
|   |   |   |   |   |   |   |   |   |   |--- locomotion >  0.98
|   |   |   |   |   |   |   |   |   |   |   |--- truncated branch of depth 3
|   |   |   |   |   |   |   |   |   |--- locomotion >  1.00
|   |   |   |   |   |   |   |   |   |   |--- class: 1
|   |   |   |   |   |   |   |   |--- reproductive_process >  1.00
|   |   |   |   |   |   |   |   |   |--- localization <= 0.82
|   |   |   |   |   |   |   |   |   |   |--- class: 0
|   |   |   |   |   |   |   |   |   |--- localization >  0.82
|   |   |   |   |   |   |   |   |   |   |--- molecular_adaptor_activity <= 1.00
|   |   |   |   |   |   |   |   |   |   |   |--- class: 1
|   |   |   |   |   |   |   |   |   |   |--- molecular_adaptor_activity >  1.00
|   |   |   |   |   |   |   |   |   |   |   |--- truncated branch of depth 2
|   |   |   |   |   |   |   |--- metabolic_process >  0.99
|   |   |   |   |   |   |   |   |--- molecular_carrier_activity <= 1.00
|   |   |   |   |   |   |   |   |   |--- nitrogen_utilization <= 1.00
|   |   |   |   |   |   |   |   |   |   |--- class: 0
|   |   |   |   |   |   |   |   |   |--- nitrogen_utilization >  1.00
|   |   |   |   |   |   |   |   |   |   |--- biological_phase <= 1.00
|   |   |   |   |   |   |   |   |   |   |   |--- class: 1
|   |   |   |   |   |   |   |   |   |   |--- biological_phase >  1.00
|   |   |   |   |   |   |   |   |   |   |   |--- truncated branch of depth 2
|   |   |   |   |   |   |   |   |--- molecular_carrier_activity >  1.00
|   |   |   |   |   |   |   |   |   |--- signaling <= 1.00
|   |   |   |   |   |   |   |   |   |   |--- class: 0
|   |   |   |   |   |   |   |   |   |--- signaling >  1.00
|   |   |   |   |   |   |   |   |   |   |--- class: 1
|   |   |   |--- response_to_stimulus >  0.99
|   |   |   |   |--- pigmentation <= 1.00
|   |   |   |   |   |--- reproduction <= 1.00
|   |   |   |   |   |   |--- small_molecule_sensor_activity <= 1.00
|   |   |   |   |   |   |   |--- biological_regulation <= 0.81
|   |   |   |   |   |   |   |   |--- detoxification <= 1.00
|   |   |   |   |   |   |   |   |   |--- antioxidant_activity <= 1.00
|   |   |   |   |   |   |   |   |   |   |--- cellular_anatomical_entity <= 0.82
|   |   |   |   |   |   |   |   |   |   |   |--- truncated branch of depth 19
|   |   |   |   |   |   |   |   |   |   |--- cellular_anatomical_entity >  0.82
|   |   |   |   |   |   |   |   |   |   |   |--- truncated branch of depth 21
|   |   |   |   |   |   |   |   |   |--- antioxidant_activity >  1.00
|   |   |   |   |   |   |   |   |   |   |--- reproductive_process <= 1.00
|   |   |   |   |   |   |   |   |   |   |   |--- class: 1
|   |   |   |   |   |   |   |   |   |   |--- reproductive_process >  1.00
|   |   |   |   |   |   |   |   |   |   |   |--- class: 0
|   |   |   |   |   |   |   |   |--- detoxification >  1.00
|   |   |   |   |   |   |   |   |   |--- behavior <= 1.00
|   |   |   |   |   |   |   |   |   |   |--- class: 0
|   |   |   |   |   |   |   |   |   |--- behavior >  1.00
|   |   |   |   |   |   |   |   |   |   |--- class: 1
|   |   |   |   |   |   |   |--- biological_regulation >  0.81
|   |   |   |   |   |   |   |   |--- biological_regulation <= 0.98
|   |   |   |   |   |   |   |   |   |--- translation_regulator_activity <= 0.99
|   |   |   |   |   |   |   |   |   |   |--- structural_molecule_activity <= 0.97
|   |   |   |   |   |   |   |   |   |   |   |--- class: 1
|   |   |   |   |   |   |   |   |   |   |--- structural_molecule_activity >  0.97
|   |   |   |   |   |   |   |   |   |   |   |--- truncated branch of depth 2
|   |   |   |   |   |   |   |   |   |--- translation_regulator_activity >  0.99
|   |   |   |   |   |   |   |   |   |   |--- developmental_process <= 0.99
|   |   |   |   |   |   |   |   |   |   |   |--- truncated branch of depth 10
|   |   |   |   |   |   |   |   |   |   |--- developmental_process >  0.99
|   |   |   |   |   |   |   |   |   |   |   |--- truncated branch of depth 5
|   |   |   |   |   |   |   |   |--- biological_regulation >  0.98
|   |   |   |   |   |   |   |   |   |--- multi-organism_process <= 0.98
|   |   |   |   |   |   |   |   |   |   |--- detoxification <= 1.00
|   |   |   |   |   |   |   |   |   |   |   |--- class: 0
|   |   |   |   |   |   |   |   |   |   |--- detoxification >  1.00
|   |   |   |   |   |   |   |   |   |   |   |--- class: 1
|   |   |   |   |   |   |   |   |   |--- multi-organism_process >  0.98
|   |   |   |   |   |   |   |   |   |   |--- localization <= 0.81
|   |   |   |   |   |   |   |   |   |   |   |--- class: 1
|   |   |   |   |   |   |   |   |   |   |--- localization >  0.81
|   |   |   |   |   |   |   |   |   |   |   |--- truncated branch of depth 5
|   |   |   |   |   |   |--- small_molecule_sensor_activity >  1.00
|   |   |   |   |   |   |   |--- signaling <= 1.00
|   |   |   |   |   |   |   |   |--- class: 0
|   |   |   |   |   |   |   |--- signaling >  1.00
|   |   |   |   |   |   |   |   |--- locomotion <= 1.00
|   |   |   |   |   |   |   |   |   |--- class: 1
|   |   |   |   |   |   |   |   |--- locomotion >  1.00
|   |   |   |   |   |   |   |   |   |--- class: 0
|   |   |   |   |   |--- reproduction >  1.00
|   |   |   |   |   |   |--- cellular_process <= 0.77
|   |   |   |   |   |   |   |--- cargo_receptor_activity <= 1.00
|   |   |   |   |   |   |   |   |--- molecular_adaptor_activity <= 0.99
|   |   |   |   |   |   |   |   |   |--- molecular_template_activity <= 1.00
|   |   |   |   |   |   |   |   |   |   |--- class: 0
|   |   |   |   |   |   |   |   |   |--- molecular_template_activity >  1.00
|   |   |   |   |   |   |   |   |   |   |--- class: 1
|   |   |   |   |   |   |   |   |--- molecular_adaptor_activity >  0.99
|   |   |   |   |   |   |   |   |   |--- virion_part <= 1.00
|   |   |   |   |   |   |   |   |   |   |--- molecular_function_regulator <= 1.00
|   |   |   |   |   |   |   |   |   |   |   |--- truncated branch of depth 5
|   |   |   |   |   |   |   |   |   |   |--- molecular_function_regulator >  1.00
|   |   |   |   |   |   |   |   |   |   |   |--- class: 1
|   |   |   |   |   |   |   |   |   |--- virion_part >  1.00
|   |   |   |   |   |   |   |   |   |   |--- biological_phase <= 1.00
|   |   |   |   |   |   |   |   |   |   |   |--- class: 1
|   |   |   |   |   |   |   |   |   |   |--- biological_phase >  1.00
|   |   |   |   |   |   |   |   |   |   |   |--- class: 0
|   |   |   |   |   |   |   |--- cargo_receptor_activity >  1.00
|   |   |   |   |   |   |   |   |--- structural_molecule_activity <= 1.00
|   |   |   |   |   |   |   |   |   |--- class: 1
|   |   |   |   |   |   |   |   |--- structural_molecule_activity >  1.00
|   |   |   |   |   |   |   |   |   |--- intraspecies_interaction_between_organisms <= 1.00
|   |   |   |   |   |   |   |   |   |   |--- class: 1
|   |   |   |   |   |   |   |   |   |--- intraspecies_interaction_between_organisms >  1.00
|   |   |   |   |   |   |   |   |   |   |--- class: 0
|   |   |   |   |   |   |--- cellular_process >  0.77
|   |   |   |   |   |   |   |--- developmental_process <= 0.91
|   |   |   |   |   |   |   |   |--- catalytic_activity <= 0.89
|   |   |   |   |   |   |   |   |   |--- class: 1
|   |   |   |   |   |   |   |   |--- catalytic_activity >  0.89
|   |   |   |   |   |   |   |   |   |--- class: 0
|   |   |   |   |   |   |   |--- developmental_process >  0.91
|   |   |   |   |   |   |   |   |--- molecular_function_regulator <= 0.99
|   |   |   |   |   |   |   |   |   |--- class: 0
|   |   |   |   |   |   |   |   |--- molecular_function_regulator >  0.99
|   |   |   |   |   |   |   |   |   |--- class: 1
|   |   |   |   |--- pigmentation >  1.00
|   |   |   |   |   |--- binding <= 0.89
|   |   |   |   |   |   |--- cellular_process <= 0.74
|   |   |   |   |   |   |   |--- molecular_template_activity <= 0.99
|   |   |   |   |   |   |   |   |--- class: 1
|   |   |   |   |   |   |   |--- molecular_template_activity >  0.99
|   |   |   |   |   |   |   |   |--- class: 0
|   |   |   |   |   |   |--- cellular_process >  0.74
|   |   |   |   |   |   |   |--- molecular_template_activity <= 1.00
|   |   |   |   |   |   |   |   |--- reproduction <= 1.00
|   |   |   |   |   |   |   |   |   |--- class: 0
|   |   |   |   |   |   |   |   |--- reproduction >  1.00
|   |   |   |   |   |   |   |   |   |--- class: 1
|   |   |   |   |   |   |   |--- molecular_template_activity >  1.00
|   |   |   |   |   |   |   |   |--- metabolic_process <= 0.87
|   |   |   |   |   |   |   |   |   |--- class: 0
|   |   |   |   |   |   |   |   |--- metabolic_process >  0.87
|   |   |   |   |   |   |   |   |   |--- signaling <= 1.00
|   |   |   |   |   |   |   |   |   |   |--- class: 0
|   |   |   |   |   |   |   |   |   |--- signaling >  1.00
|   |   |   |   |   |   |   |   |   |   |--- class: 1
|   |   |   |   |   |--- binding >  0.89
|   |   |   |   |   |   |--- nitrogen_utilization <= 1.00
|   |   |   |   |   |   |   |--- metabolic_process <= 0.75
|   |   |   |   |   |   |   |   |--- class: 0
|   |   |   |   |   |   |   |--- metabolic_process >  0.75
|   |   |   |   |   |   |   |   |--- class: 1
|   |   |   |   |   |   |--- nitrogen_utilization >  1.00
|   |   |   |   |   |   |   |--- intraspecies_interaction_between_organisms <= 1.00
|   |   |   |   |   |   |   |   |--- class: 1
|   |   |   |   |   |   |   |--- intraspecies_interaction_between_organisms >  1.00
|   |   |   |   |   |   |   |   |--- nitrogen_utilization <= 1.00
|   |   |   |   |   |   |   |   |   |--- class: 0
|   |   |   |   |   |   |   |   |--- nitrogen_utilization >  1.00
|   |   |   |   |   |   |   |   |   |--- class: 1
|   |   |--- cellular_anatomical_entity >  0.86
|   |   |   |--- metabolic_process <= 0.84
|   |   |   |   |--- pigmentation <= 1.00
|   |   |   |   |   |--- biological_adhesion <= 1.00
|   |   |   |   |   |   |--- binding <= 0.93
|   |   |   |   |   |   |   |--- locomotion <= 0.95
|   |   |   |   |   |   |   |   |--- structural_molecule_activity <= 1.00
|   |   |   |   |   |   |   |   |   |--- interspecies_interaction_between_organisms <= 1.00
|   |   |   |   |   |   |   |   |   |   |--- class: 1
|   |   |   |   |   |   |   |   |   |--- interspecies_interaction_between_organisms >  1.00
|   |   |   |   |   |   |   |   |   |   |--- class: 0
|   |   |   |   |   |   |   |   |--- structural_molecule_activity >  1.00
|   |   |   |   |   |   |   |   |   |--- transporter_activity <= 1.00
|   |   |   |   |   |   |   |   |   |   |--- class: 0
|   |   |   |   |   |   |   |   |   |--- transporter_activity >  1.00
|   |   |   |   |   |   |   |   |   |   |--- class: 1
|   |   |   |   |   |   |   |--- locomotion >  0.95
|   |   |   |   |   |   |   |   |--- virion_part <= 1.00
|   |   |   |   |   |   |   |   |   |--- small_molecule_sensor_activity <= 1.00
|   |   |   |   |   |   |   |   |   |   |--- intraspecies_interaction_between_organisms <= 0.98
|   |   |   |   |   |   |   |   |   |   |   |--- truncated branch of depth 3
|   |   |   |   |   |   |   |   |   |   |--- intraspecies_interaction_between_organisms >  0.98
|   |   |   |   |   |   |   |   |   |   |   |--- truncated branch of depth 21
|   |   |   |   |   |   |   |   |   |--- small_molecule_sensor_activity >  1.00
|   |   |   |   |   |   |   |   |   |   |--- signaling <= 1.00
|   |   |   |   |   |   |   |   |   |   |   |--- truncated branch of depth 2
|   |   |   |   |   |   |   |   |   |   |--- signaling >  1.00
|   |   |   |   |   |   |   |   |   |   |   |--- class: 1
|   |   |   |   |   |   |   |   |--- virion_part >  1.00
|   |   |   |   |   |   |   |   |   |--- localization <= 1.00
|   |   |   |   |   |   |   |   |   |   |--- biological_regulation <= 0.63
|   |   |   |   |   |   |   |   |   |   |   |--- truncated branch of depth 2
|   |   |   |   |   |   |   |   |   |   |--- biological_regulation >  0.63
|   |   |   |   |   |   |   |   |   |   |   |--- truncated branch of depth 2
|   |   |   |   |   |   |   |   |   |--- localization >  1.00
|   |   |   |   |   |   |   |   |   |   |--- molecular_template_activity <= 1.00
|   |   |   |   |   |   |   |   |   |   |   |--- class: 0
|   |   |   |   |   |   |   |   |   |   |--- molecular_template_activity >  1.00
|   |   |   |   |   |   |   |   |   |   |   |--- truncated branch of depth 2
|   |   |   |   |   |   |--- binding >  0.93
|   |   |   |   |   |   |   |--- interspecies_interaction_between_organisms <= 0.99
|   |   |   |   |   |   |   |   |--- interspecies_interaction_between_organisms <= 0.95
|   |   |   |   |   |   |   |   |   |--- translation_regulator_activity <= 1.00
|   |   |   |   |   |   |   |   |   |   |--- molecular_sequestering_activity <= 1.00
|   |   |   |   |   |   |   |   |   |   |   |--- class: 0
|   |   |   |   |   |   |   |   |   |   |--- molecular_sequestering_activity >  1.00
|   |   |   |   |   |   |   |   |   |   |   |--- class: 1
|   |   |   |   |   |   |   |   |   |--- translation_regulator_activity >  1.00
|   |   |   |   |   |   |   |   |   |   |--- pigmentation <= 1.00
|   |   |   |   |   |   |   |   |   |   |   |--- class: 0
|   |   |   |   |   |   |   |   |   |   |--- pigmentation >  1.00
|   |   |   |   |   |   |   |   |   |   |   |--- truncated branch of depth 2
|   |   |   |   |   |   |   |   |--- interspecies_interaction_between_organisms >  0.95
|   |   |   |   |   |   |   |   |   |--- developmental_process <= 1.00
|   |   |   |   |   |   |   |   |   |   |--- cellular_anatomical_entity <= 0.94
|   |   |   |   |   |   |   |   |   |   |   |--- class: 1
|   |   |   |   |   |   |   |   |   |   |--- cellular_anatomical_entity >  0.94
|   |   |   |   |   |   |   |   |   |   |   |--- truncated branch of depth 2
|   |   |   |   |   |   |   |   |   |--- developmental_process >  1.00
|   |   |   |   |   |   |   |   |   |   |--- class: 0
|   |   |   |   |   |   |   |--- interspecies_interaction_between_organisms >  0.99
|   |   |   |   |   |   |   |   |--- cellular_anatomical_entity <= 0.91
|   |   |   |   |   |   |   |   |   |--- reproduction <= 1.00
|   |   |   |   |   |   |   |   |   |   |--- multi-organism_process <= 1.00
|   |   |   |   |   |   |   |   |   |   |   |--- truncated branch of depth 8
|   |   |   |   |   |   |   |   |   |   |--- multi-organism_process >  1.00
|   |   |   |   |   |   |   |   |   |   |   |--- truncated branch of depth 3
|   |   |   |   |   |   |   |   |   |--- reproduction >  1.00
|   |   |   |   |   |   |   |   |   |   |--- class: 1
|   |   |   |   |   |   |   |   |--- cellular_anatomical_entity >  0.91
|   |   |   |   |   |   |   |   |   |--- catalytic_activity <= 0.97
|   |   |   |   |   |   |   |   |   |   |--- immune_system_process <= 0.99
|   |   |   |   |   |   |   |   |   |   |   |--- truncated branch of depth 5
|   |   |   |   |   |   |   |   |   |   |--- immune_system_process >  0.99
|   |   |   |   |   |   |   |   |   |   |   |--- truncated branch of depth 5
|   |   |   |   |   |   |   |   |   |--- catalytic_activity >  0.97
|   |   |   |   |   |   |   |   |   |   |--- response_to_stimulus <= 1.00
|   |   |   |   |   |   |   |   |   |   |   |--- truncated branch of depth 6
|   |   |   |   |   |   |   |   |   |   |--- response_to_stimulus >  1.00
|   |   |   |   |   |   |   |   |   |   |   |--- class: 0
|   |   |   |   |   |--- biological_adhesion >  1.00
|   |   |   |   |   |   |--- molecular_function_regulator <= 0.97
|   |   |   |   |   |   |   |--- nitrogen_utilization <= 1.00
|   |   |   |   |   |   |   |   |--- cargo_receptor_activity <= 1.00
|   |   |   |   |   |   |   |   |   |--- class: 0
|   |   |   |   |   |   |   |   |--- cargo_receptor_activity >  1.00
|   |   |   |   |   |   |   |   |   |--- antioxidant_activity <= 1.00
|   |   |   |   |   |   |   |   |   |   |--- class: 0
|   |   |   |   |   |   |   |   |   |--- antioxidant_activity >  1.00
|   |   |   |   |   |   |   |   |   |   |--- class: 1
|   |   |   |   |   |   |   |--- nitrogen_utilization >  1.00
|   |   |   |   |   |   |   |   |--- response_to_stimulus <= 0.80
|   |   |   |   |   |   |   |   |   |--- class: 1
|   |   |   |   |   |   |   |   |--- response_to_stimulus >  0.80
|   |   |   |   |   |   |   |   |   |--- class: 0
|   |   |   |   |   |   |--- molecular_function_regulator >  0.97
|   |   |   |   |   |   |   |--- cellular_process <= 0.71
|   |   |   |   |   |   |   |   |--- class: 0
|   |   |   |   |   |   |   |--- cellular_process >  0.71
|   |   |   |   |   |   |   |   |--- class: 1
|   |   |   |   |--- pigmentation >  1.00
|   |   |   |   |   |--- biological_regulation <= 0.72
|   |   |   |   |   |   |--- cargo_receptor_activity <= 1.00
|   |   |   |   |   |   |   |--- biological_phase <= 1.00
|   |   |   |   |   |   |   |   |--- locomotion <= 0.95
|   |   |   |   |   |   |   |   |   |--- biological_phase <= 1.00
|   |   |   |   |   |   |   |   |   |   |--- class: 1
|   |   |   |   |   |   |   |   |   |--- biological_phase >  1.00
|   |   |   |   |   |   |   |   |   |   |--- class: 0
|   |   |   |   |   |   |   |   |--- locomotion >  0.95
|   |   |   |   |   |   |   |   |   |--- cellular_process <= 0.76
|   |   |   |   |   |   |   |   |   |   |--- growth <= 1.00
|   |   |   |   |   |   |   |   |   |   |   |--- truncated branch of depth 9
|   |   |   |   |   |   |   |   |   |   |--- growth >  1.00
|   |   |   |   |   |   |   |   |   |   |   |--- class: 1
|   |   |   |   |   |   |   |   |   |--- cellular_process >  0.76
|   |   |   |   |   |   |   |   |   |   |--- growth <= 1.00
|   |   |   |   |   |   |   |   |   |   |   |--- class: 1
|   |   |   |   |   |   |   |   |   |   |--- growth >  1.00
|   |   |   |   |   |   |   |   |   |   |   |--- truncated branch of depth 3
|   |   |   |   |   |   |   |--- biological_phase >  1.00
|   |   |   |   |   |   |   |   |--- localization <= 0.99
|   |   |   |   |   |   |   |   |   |--- reproduction <= 1.00
|   |   |   |   |   |   |   |   |   |   |--- class: 0
|   |   |   |   |   |   |   |   |   |--- reproduction >  1.00
|   |   |   |   |   |   |   |   |   |   |--- cargo_receptor_activity <= 1.00
|   |   |   |   |   |   |   |   |   |   |   |--- class: 0
|   |   |   |   |   |   |   |   |   |   |--- cargo_receptor_activity >  1.00
|   |   |   |   |   |   |   |   |   |   |   |--- class: 1
|   |   |   |   |   |   |   |   |--- localization >  0.99
|   |   |   |   |   |   |   |   |   |--- detoxification <= 1.00
|   |   |   |   |   |   |   |   |   |   |--- class: 1
|   |   |   |   |   |   |   |   |   |--- detoxification >  1.00
|   |   |   |   |   |   |   |   |   |   |--- molecular_function_regulator <= 1.00
|   |   |   |   |   |   |   |   |   |   |   |--- truncated branch of depth 2
|   |   |   |   |   |   |   |   |   |   |--- molecular_function_regulator >  1.00
|   |   |   |   |   |   |   |   |   |   |   |--- class: 1
|   |   |   |   |   |   |--- cargo_receptor_activity >  1.00
|   |   |   |   |   |   |   |--- metabolic_process <= 0.72
|   |   |   |   |   |   |   |   |--- class: 0
|   |   |   |   |   |   |   |--- metabolic_process >  0.72
|   |   |   |   |   |   |   |   |--- biological_phase <= 1.00
|   |   |   |   |   |   |   |   |   |--- virion_part <= 1.00
|   |   |   |   |   |   |   |   |   |   |--- class: 0
|   |   |   |   |   |   |   |   |   |--- virion_part >  1.00
|   |   |   |   |   |   |   |   |   |   |--- class: 1
|   |   |   |   |   |   |   |   |--- biological_phase >  1.00
|   |   |   |   |   |   |   |   |   |--- class: 0
|   |   |   |   |   |--- biological_regulation >  0.72
|   |   |   |   |   |   |--- biological_regulation <= 0.95
|   |   |   |   |   |   |   |--- molecular_adaptor_activity <= 1.00
|   |   |   |   |   |   |   |   |--- molecular_template_activity <= 1.00
|   |   |   |   |   |   |   |   |   |--- transporter_activity <= 0.99
|   |   |   |   |   |   |   |   |   |   |--- class: 1
|   |   |   |   |   |   |   |   |   |--- transporter_activity >  0.99
|   |   |   |   |   |   |   |   |   |   |--- class: 0
|   |   |   |   |   |   |   |   |--- molecular_template_activity >  1.00
|   |   |   |   |   |   |   |   |   |--- pigmentation <= 1.00
|   |   |   |   |   |   |   |   |   |   |--- interspecies_interaction_between_organisms <= 1.00
|   |   |   |   |   |   |   |   |   |   |   |--- truncated branch of depth 5
|   |   |   |   |   |   |   |   |   |   |--- interspecies_interaction_between_organisms >  1.00
|   |   |   |   |   |   |   |   |   |   |   |--- truncated branch of depth 4
|   |   |   |   |   |   |   |   |   |--- pigmentation >  1.00
|   |   |   |   |   |   |   |   |   |   |--- transporter_activity <= 1.00
|   |   |   |   |   |   |   |   |   |   |   |--- class: 1
|   |   |   |   |   |   |   |   |   |   |--- transporter_activity >  1.00
|   |   |   |   |   |   |   |   |   |   |   |--- class: 0
|   |   |   |   |   |   |   |--- molecular_adaptor_activity >  1.00
|   |   |   |   |   |   |   |   |--- multicellular_organismal_process <= 0.95
|   |   |   |   |   |   |   |   |   |--- class: 0
|   |   |   |   |   |   |   |   |--- multicellular_organismal_process >  0.95
|   |   |   |   |   |   |   |   |   |--- cellular_process <= 0.71
|   |   |   |   |   |   |   |   |   |   |--- detoxification <= 1.00
|   |   |   |   |   |   |   |   |   |   |   |--- truncated branch of depth 2
|   |   |   |   |   |   |   |   |   |   |--- detoxification >  1.00
|   |   |   |   |   |   |   |   |   |   |   |--- class: 1
|   |   |   |   |   |   |   |   |   |--- cellular_process >  0.71
|   |   |   |   |   |   |   |   |   |   |--- small_molecule_sensor_activity <= 1.00
|   |   |   |   |   |   |   |   |   |   |   |--- class: 0
|   |   |   |   |   |   |   |   |   |   |--- small_molecule_sensor_activity >  1.00
|   |   |   |   |   |   |   |   |   |   |   |--- truncated branch of depth 8
|   |   |   |   |   |   |--- biological_regulation >  0.95
|   |   |   |   |   |   |   |--- behavior <= 0.99
|   |   |   |   |   |   |   |   |--- class: 1
|   |   |   |   |   |   |   |--- behavior >  0.99
|   |   |   |   |   |   |   |   |--- class: 0
|   |   |   |--- metabolic_process >  0.84
|   |   |   |   |--- biological_phase <= 1.00
|   |   |   |   |   |--- binding <= 0.87
|   |   |   |   |   |   |--- cargo_receptor_activity <= 1.00
|   |   |   |   |   |   |   |--- multi-organism_process <= 0.98
|   |   |   |   |   |   |   |   |--- growth <= 0.96
|   |   |   |   |   |   |   |   |   |--- class: 0
|   |   |   |   |   |   |   |   |--- growth >  0.96
|   |   |   |   |   |   |   |   |   |--- class: 1
|   |   |   |   |   |   |   |--- multi-organism_process >  0.98
|   |   |   |   |   |   |   |   |--- molecular_template_activity <= 1.00
|   |   |   |   |   |   |   |   |   |--- molecular_template_activity <= 0.99
|   |   |   |   |   |   |   |   |   |   |--- reproductive_process <= 0.86
|   |   |   |   |   |   |   |   |   |   |   |--- class: 1
|   |   |   |   |   |   |   |   |   |   |--- reproductive_process >  0.86
|   |   |   |   |   |   |   |   |   |   |   |--- class: 0
|   |   |   |   |   |   |   |   |   |--- molecular_template_activity >  0.99
|   |   |   |   |   |   |   |   |   |   |--- structural_molecule_activity <= 0.99
|   |   |   |   |   |   |   |   |   |   |   |--- truncated branch of depth 5
|   |   |   |   |   |   |   |   |   |   |--- structural_molecule_activity >  0.99
|   |   |   |   |   |   |   |   |   |   |   |--- truncated branch of depth 9
|   |   |   |   |   |   |   |   |--- molecular_template_activity >  1.00
|   |   |   |   |   |   |   |   |   |--- antioxidant_activity <= 1.00
|   |   |   |   |   |   |   |   |   |   |--- class: 0
|   |   |   |   |   |   |   |   |   |--- antioxidant_activity >  1.00
|   |   |   |   |   |   |   |   |   |   |--- class: 1
|   |   |   |   |   |   |--- cargo_receptor_activity >  1.00
|   |   |   |   |   |   |   |--- fusogenic_activity <= 1.00
|   |   |   |   |   |   |   |   |--- class: 1
|   |   |   |   |   |   |   |--- fusogenic_activity >  1.00
|   |   |   |   |   |   |   |   |--- class: 0
|   |   |   |   |   |--- binding >  0.87
|   |   |   |   |   |   |--- molecular_function_regulator <= 1.00
|   |   |   |   |   |   |   |--- biological_regulation <= 0.83
|   |   |   |   |   |   |   |   |--- metabolic_process <= 0.98
|   |   |   |   |   |   |   |   |   |--- metabolic_process <= 0.92
|   |   |   |   |   |   |   |   |   |   |--- cargo_receptor_activity <= 1.00
|   |   |   |   |   |   |   |   |   |   |   |--- truncated branch of depth 9
|   |   |   |   |   |   |   |   |   |   |--- cargo_receptor_activity >  1.00
|   |   |   |   |   |   |   |   |   |   |   |--- class: 1
|   |   |   |   |   |   |   |   |   |--- metabolic_process >  0.92
|   |   |   |   |   |   |   |   |   |   |--- binding <= 0.88
|   |   |   |   |   |   |   |   |   |   |   |--- class: 0
|   |   |   |   |   |   |   |   |   |   |--- binding >  0.88
|   |   |   |   |   |   |   |   |   |   |   |--- truncated branch of depth 7
|   |   |   |   |   |   |   |   |--- metabolic_process >  0.98
|   |   |   |   |   |   |   |   |   |--- reproductive_process <= 1.00
|   |   |   |   |   |   |   |   |   |   |--- behavior <= 0.99
|   |   |   |   |   |   |   |   |   |   |   |--- truncated branch of depth 3
|   |   |   |   |   |   |   |   |   |   |--- behavior >  0.99
|   |   |   |   |   |   |   |   |   |   |   |--- class: 0
|   |   |   |   |   |   |   |   |   |--- reproductive_process >  1.00
|   |   |   |   |   |   |   |   |   |   |--- virion_part <= 1.00
|   |   |   |   |   |   |   |   |   |   |   |--- truncated branch of depth 2
|   |   |   |   |   |   |   |   |   |   |--- virion_part >  1.00
|   |   |   |   |   |   |   |   |   |   |   |--- class: 1
|   |   |   |   |   |   |   |--- biological_regulation >  0.83
|   |   |   |   |   |   |   |   |--- growth <= 1.00
|   |   |   |   |   |   |   |   |   |--- class: 1
|   |   |   |   |   |   |   |   |--- growth >  1.00
|   |   |   |   |   |   |   |   |   |--- multicellular_organismal_process <= 0.99
|   |   |   |   |   |   |   |   |   |   |--- class: 0
|   |   |   |   |   |   |   |   |   |--- multicellular_organismal_process >  0.99
|   |   |   |   |   |   |   |   |   |   |--- intraspecies_interaction_between_organisms <= 1.00
|   |   |   |   |   |   |   |   |   |   |   |--- class: 0
|   |   |   |   |   |   |   |   |   |   |--- intraspecies_interaction_between_organisms >  1.00
|   |   |   |   |   |   |   |   |   |   |   |--- class: 1
|   |   |   |   |   |   |--- molecular_function_regulator >  1.00
|   |   |   |   |   |   |   |--- molecular_template_activity <= 1.00
|   |   |   |   |   |   |   |   |--- cargo_receptor_activity <= 1.00
|   |   |   |   |   |   |   |   |   |--- biological_phase <= 0.99
|   |   |   |   |   |   |   |   |   |   |--- class: 0
|   |   |   |   |   |   |   |   |   |--- biological_phase >  0.99
|   |   |   |   |   |   |   |   |   |   |--- class: 1
|   |   |   |   |   |   |   |   |--- cargo_receptor_activity >  1.00
|   |   |   |   |   |   |   |   |   |--- class: 0
|   |   |   |   |   |   |   |--- molecular_template_activity >  1.00
|   |   |   |   |   |   |   |   |--- metabolic_process <= 1.00
|   |   |   |   |   |   |   |   |   |--- metabolic_process <= 0.84
|   |   |   |   |   |   |   |   |   |   |--- class: 0
|   |   |   |   |   |   |   |   |   |--- metabolic_process >  0.84
|   |   |   |   |   |   |   |   |   |   |--- biological_regulation <= 0.64
|   |   |   |   |   |   |   |   |   |   |   |--- truncated branch of depth 3
|   |   |   |   |   |   |   |   |   |   |--- biological_regulation >  0.64
|   |   |   |   |   |   |   |   |   |   |   |--- truncated branch of depth 6
|   |   |   |   |   |   |   |   |--- metabolic_process >  1.00
|   |   |   |   |   |   |   |   |   |--- cellular_anatomical_entity <= 0.94
|   |   |   |   |   |   |   |   |   |   |--- class: 0
|   |   |   |   |   |   |   |   |   |--- cellular_anatomical_entity >  0.94
|   |   |   |   |   |   |   |   |   |   |--- class: 1
|   |   |   |   |--- biological_phase >  1.00
|   |   |   |   |   |--- metabolic_process <= 0.98
|   |   |   |   |   |   |--- binding <= 0.89
|   |   |   |   |   |   |   |--- translation_regulator_activity <= 1.00
|   |   |   |   |   |   |   |   |--- biological_regulation <= 0.67
|   |   |   |   |   |   |   |   |   |--- interspecies_interaction_between_organisms <= 0.98
|   |   |   |   |   |   |   |   |   |   |--- immune_system_process <= 1.00
|   |   |   |   |   |   |   |   |   |   |   |--- truncated branch of depth 4
|   |   |   |   |   |   |   |   |   |   |--- immune_system_process >  1.00
|   |   |   |   |   |   |   |   |   |   |   |--- class: 1
|   |   |   |   |   |   |   |   |   |--- interspecies_interaction_between_organisms >  0.98
|   |   |   |   |   |   |   |   |   |   |--- reproduction <= 1.00
|   |   |   |   |   |   |   |   |   |   |   |--- truncated branch of depth 5
|   |   |   |   |   |   |   |   |   |   |--- reproduction >  1.00
|   |   |   |   |   |   |   |   |   |   |   |--- class: 1
|   |   |   |   |   |   |   |   |--- biological_regulation >  0.67
|   |   |   |   |   |   |   |   |   |--- structural_molecule_activity <= 1.00
|   |   |   |   |   |   |   |   |   |   |--- fusogenic_activity <= 1.00
|   |   |   |   |   |   |   |   |   |   |   |--- class: 0
|   |   |   |   |   |   |   |   |   |   |--- fusogenic_activity >  1.00
|   |   |   |   |   |   |   |   |   |   |   |--- truncated branch of depth 4
|   |   |   |   |   |   |   |   |   |--- structural_molecule_activity >  1.00
|   |   |   |   |   |   |   |   |   |   |--- biological_phase <= 1.00
|   |   |   |   |   |   |   |   |   |   |   |--- truncated branch of depth 7
|   |   |   |   |   |   |   |   |   |   |--- biological_phase >  1.00
|   |   |   |   |   |   |   |   |   |   |   |--- truncated branch of depth 2
|   |   |   |   |   |   |   |--- translation_regulator_activity >  1.00
|   |   |   |   |   |   |   |   |--- intraspecies_interaction_between_organisms <= 1.00
|   |   |   |   |   |   |   |   |   |--- molecular_sequestering_activity <= 1.00
|   |   |   |   |   |   |   |   |   |   |--- virion_part <= 1.00
|   |   |   |   |   |   |   |   |   |   |   |--- class: 0
|   |   |   |   |   |   |   |   |   |   |--- virion_part >  1.00
|   |   |   |   |   |   |   |   |   |   |   |--- class: 1
|   |   |   |   |   |   |   |   |   |--- molecular_sequestering_activity >  1.00
|   |   |   |   |   |   |   |   |   |   |--- rhythmic_process <= 1.00
|   |   |   |   |   |   |   |   |   |   |   |--- class: 1
|   |   |   |   |   |   |   |   |   |   |--- rhythmic_process >  1.00
|   |   |   |   |   |   |   |   |   |   |   |--- class: 0
|   |   |   |   |   |   |   |   |--- intraspecies_interaction_between_organisms >  1.00
|   |   |   |   |   |   |   |   |   |--- multi-organism_process <= 0.99
|   |   |   |   |   |   |   |   |   |   |--- reproduction <= 1.00
|   |   |   |   |   |   |   |   |   |   |   |--- truncated branch of depth 2
|   |   |   |   |   |   |   |   |   |   |--- reproduction >  1.00
|   |   |   |   |   |   |   |   |   |   |   |--- truncated branch of depth 2
|   |   |   |   |   |   |   |   |   |--- multi-organism_process >  0.99
|   |   |   |   |   |   |   |   |   |   |--- developmental_process <= 0.88
|   |   |   |   |   |   |   |   |   |   |   |--- truncated branch of depth 2
|   |   |   |   |   |   |   |   |   |   |--- developmental_process >  0.88
|   |   |   |   |   |   |   |   |   |   |   |--- truncated branch of depth 14
|   |   |   |   |   |   |--- binding >  0.89
|   |   |   |   |   |   |   |--- molecular_transducer_activity <= 0.92
|   |   |   |   |   |   |   |   |--- class: 0
|   |   |   |   |   |   |   |--- molecular_transducer_activity >  0.92
|   |   |   |   |   |   |   |   |--- small_molecule_sensor_activity <= 1.00
|   |   |   |   |   |   |   |   |   |--- small_molecule_sensor_activity <= 0.99
|   |   |   |   |   |   |   |   |   |   |--- reproductive_process <= 1.00
|   |   |   |   |   |   |   |   |   |   |   |--- class: 1
|   |   |   |   |   |   |   |   |   |   |--- reproductive_process >  1.00
|   |   |   |   |   |   |   |   |   |   |   |--- class: 0
|   |   |   |   |   |   |   |   |   |--- small_molecule_sensor_activity >  0.99
|   |   |   |   |   |   |   |   |   |   |--- structural_molecule_activity <= 0.98
|   |   |   |   |   |   |   |   |   |   |   |--- class: 1
|   |   |   |   |   |   |   |   |   |   |--- structural_molecule_activity >  0.98
|   |   |   |   |   |   |   |   |   |   |   |--- class: 0
|   |   |   |   |   |   |   |   |--- small_molecule_sensor_activity >  1.00
|   |   |   |   |   |   |   |   |   |--- nitrogen_utilization <= 1.00
|   |   |   |   |   |   |   |   |   |   |--- interspecies_interaction_between_organisms <= 0.98
|   |   |   |   |   |   |   |   |   |   |   |--- class: 1
|   |   |   |   |   |   |   |   |   |   |--- interspecies_interaction_between_organisms >  0.98
|   |   |   |   |   |   |   |   |   |   |   |--- class: 0
|   |   |   |   |   |   |   |   |   |--- nitrogen_utilization >  1.00
|   |   |   |   |   |   |   |   |   |   |--- catalytic_activity <= 0.85
|   |   |   |   |   |   |   |   |   |   |   |--- truncated branch of depth 3
|   |   |   |   |   |   |   |   |   |   |--- catalytic_activity >  0.85
|   |   |   |   |   |   |   |   |   |   |   |--- truncated branch of depth 16
|   |   |   |   |   |--- metabolic_process >  0.98
|   |   |   |   |   |   |--- biological_regulation <= 0.78
|   |   |   |   |   |   |   |--- reproduction <= 1.00
|   |   |   |   |   |   |   |   |--- nitrogen_utilization <= 1.00
|   |   |   |   |   |   |   |   |   |--- transporter_activity <= 1.00
|   |   |   |   |   |   |   |   |   |   |--- growth <= 0.99
|   |   |   |   |   |   |   |   |   |   |   |--- truncated branch of depth 2
|   |   |   |   |   |   |   |   |   |   |--- growth >  0.99
|   |   |   |   |   |   |   |   |   |   |   |--- truncated branch of depth 10
|   |   |   |   |   |   |   |   |   |--- transporter_activity >  1.00
|   |   |   |   |   |   |   |   |   |   |--- class: 1
|   |   |   |   |   |   |   |   |--- nitrogen_utilization >  1.00
|   |   |   |   |   |   |   |   |   |--- cellular_anatomical_entity <= 0.89
|   |   |   |   |   |   |   |   |   |   |--- class: 0
|   |   |   |   |   |   |   |   |   |--- cellular_anatomical_entity >  0.89
|   |   |   |   |   |   |   |   |   |   |--- molecular_adaptor_activity <= 1.00
|   |   |   |   |   |   |   |   |   |   |   |--- class: 1
|   |   |   |   |   |   |   |   |   |   |--- molecular_adaptor_activity >  1.00
|   |   |   |   |   |   |   |   |   |   |   |--- class: 0
|   |   |   |   |   |   |   |--- reproduction >  1.00
|   |   |   |   |   |   |   |   |--- metabolic_process <= 1.00
|   |   |   |   |   |   |   |   |   |--- biological_regulation <= 0.76
|   |   |   |   |   |   |   |   |   |   |--- fusogenic_activity <= 1.00
|   |   |   |   |   |   |   |   |   |   |   |--- truncated branch of depth 2
|   |   |   |   |   |   |   |   |   |   |--- fusogenic_activity >  1.00
|   |   |   |   |   |   |   |   |   |   |   |--- truncated branch of depth 4
|   |   |   |   |   |   |   |   |   |--- biological_regulation >  0.76
|   |   |   |   |   |   |   |   |   |   |--- signaling <= 1.00
|   |   |   |   |   |   |   |   |   |   |   |--- class: 0
|   |   |   |   |   |   |   |   |   |   |--- signaling >  1.00
|   |   |   |   |   |   |   |   |   |   |   |--- class: 1
|   |   |   |   |   |   |   |   |--- metabolic_process >  1.00
|   |   |   |   |   |   |   |   |   |--- class: 0
|   |   |   |   |   |   |--- biological_regulation >  0.78
|   |   |   |   |   |   |   |--- molecular_transducer_activity <= 0.95
|   |   |   |   |   |   |   |   |--- molecular_adaptor_activity <= 1.00
|   |   |   |   |   |   |   |   |   |--- class: 0
|   |   |   |   |   |   |   |   |--- molecular_adaptor_activity >  1.00
|   |   |   |   |   |   |   |   |   |--- class: 1
|   |   |   |   |   |   |   |--- molecular_transducer_activity >  0.95
|   |   |   |   |   |   |   |   |--- localization <= 0.84
|   |   |   |   |   |   |   |   |   |--- class: 0
|   |   |   |   |   |   |   |   |--- localization >  0.84
|   |   |   |   |   |   |   |   |   |--- cargo_receptor_activity <= 1.00
|   |   |   |   |   |   |   |   |   |   |--- interspecies_interaction_between_organisms <= 1.00
|   |   |   |   |   |   |   |   |   |   |   |--- truncated branch of depth 3
|   |   |   |   |   |   |   |   |   |   |--- interspecies_interaction_between_organisms >  1.00
|   |   |   |   |   |   |   |   |   |   |   |--- truncated branch of depth 2
|   |   |   |   |   |   |   |   |   |--- cargo_receptor_activity >  1.00
|   |   |   |   |   |   |   |   |   |   |--- class: 1
|--- cellular_process >  0.78
|   |--- cellular_process <= 0.86
|   |   |--- cellular_anatomical_entity <= 0.84
|   |   |   |--- multi-organism_process <= 1.00
|   |   |   |   |--- biological_regulation <= 0.76
|   |   |   |   |   |--- virion_part <= 1.00
|   |   |   |   |   |   |--- cargo_receptor_activity <= 1.00
|   |   |   |   |   |   |   |--- metabolic_process <= 0.98
|   |   |   |   |   |   |   |   |--- metabolic_process <= 0.90
|   |   |   |   |   |   |   |   |   |--- transporter_activity <= 0.97
|   |   |   |   |   |   |   |   |   |   |--- molecular_function_regulator <= 0.98
|   |   |   |   |   |   |   |   |   |   |   |--- class: 1
|   |   |   |   |   |   |   |   |   |   |--- molecular_function_regulator >  0.98
|   |   |   |   |   |   |   |   |   |   |   |--- truncated branch of depth 2
|   |   |   |   |   |   |   |   |   |--- transporter_activity >  0.97
|   |   |   |   |   |   |   |   |   |   |--- small_molecule_sensor_activity <= 1.00
|   |   |   |   |   |   |   |   |   |   |   |--- truncated branch of depth 7
|   |   |   |   |   |   |   |   |   |   |--- small_molecule_sensor_activity >  1.00
|   |   |   |   |   |   |   |   |   |   |   |--- truncated branch of depth 2
|   |   |   |   |   |   |   |   |--- metabolic_process >  0.90
|   |   |   |   |   |   |   |   |   |--- multi-organism_process <= 0.99
|   |   |   |   |   |   |   |   |   |   |--- cellular_anatomical_entity <= 0.73
|   |   |   |   |   |   |   |   |   |   |   |--- truncated branch of depth 2
|   |   |   |   |   |   |   |   |   |   |--- cellular_anatomical_entity >  0.73
|   |   |   |   |   |   |   |   |   |   |   |--- class: 0
|   |   |   |   |   |   |   |   |   |--- multi-organism_process >  0.99
|   |   |   |   |   |   |   |   |   |   |--- molecular_function_regulator <= 0.96
|   |   |   |   |   |   |   |   |   |   |   |--- truncated branch of depth 4
|   |   |   |   |   |   |   |   |   |   |--- molecular_function_regulator >  0.96
|   |   |   |   |   |   |   |   |   |   |   |--- truncated branch of depth 6
|   |   |   |   |   |   |   |--- metabolic_process >  0.98
|   |   |   |   |   |   |   |   |--- rhythmic_process <= 1.00
|   |   |   |   |   |   |   |   |   |--- molecular_sequestering_activity <= 1.00
|   |   |   |   |   |   |   |   |   |   |--- structural_molecule_activity <= 1.00
|   |   |   |   |   |   |   |   |   |   |   |--- class: 0
|   |   |   |   |   |   |   |   |   |   |--- structural_molecule_activity >  1.00
|   |   |   |   |   |   |   |   |   |   |   |--- truncated branch of depth 2
|   |   |   |   |   |   |   |   |   |--- molecular_sequestering_activity >  1.00
|   |   |   |   |   |   |   |   |   |   |--- reproduction <= 1.00
|   |   |   |   |   |   |   |   |   |   |   |--- class: 1
|   |   |   |   |   |   |   |   |   |   |--- reproduction >  1.00
|   |   |   |   |   |   |   |   |   |   |   |--- class: 0
|   |   |   |   |   |   |   |   |--- rhythmic_process >  1.00
|   |   |   |   |   |   |   |   |   |--- class: 1
|   |   |   |   |   |   |--- cargo_receptor_activity >  1.00
|   |   |   |   |   |   |   |--- transporter_activity <= 1.00
|   |   |   |   |   |   |   |   |--- class: 0
|   |   |   |   |   |   |   |--- transporter_activity >  1.00
|   |   |   |   |   |   |   |   |--- class: 1
|   |   |   |   |   |--- virion_part >  1.00
|   |   |   |   |   |   |--- translation_regulator_activity <= 0.99
|   |   |   |   |   |   |   |--- metabolic_process <= 0.82
|   |   |   |   |   |   |   |   |--- class: 0
|   |   |   |   |   |   |   |--- metabolic_process >  0.82
|   |   |   |   |   |   |   |   |--- biomineralization <= 0.99
|   |   |   |   |   |   |   |   |   |--- class: 0
|   |   |   |   |   |   |   |   |--- biomineralization >  0.99
|   |   |   |   |   |   |   |   |   |--- class: 1
|   |   |   |   |   |   |--- translation_regulator_activity >  0.99
|   |   |   |   |   |   |   |--- fusogenic_activity <= 1.00
|   |   |   |   |   |   |   |   |--- biological_regulation <= 0.62
|   |   |   |   |   |   |   |   |   |--- nitrogen_utilization <= 1.00
|   |   |   |   |   |   |   |   |   |   |--- molecular_template_activity <= 1.00
|   |   |   |   |   |   |   |   |   |   |   |--- truncated branch of depth 3
|   |   |   |   |   |   |   |   |   |   |--- molecular_template_activity >  1.00
|   |   |   |   |   |   |   |   |   |   |   |--- class: 1
|   |   |   |   |   |   |   |   |   |--- nitrogen_utilization >  1.00
|   |   |   |   |   |   |   |   |   |   |--- translation_regulator_activity <= 1.00
|   |   |   |   |   |   |   |   |   |   |   |--- truncated branch of depth 7
|   |   |   |   |   |   |   |   |   |   |--- translation_regulator_activity >  1.00
|   |   |   |   |   |   |   |   |   |   |   |--- class: 1
|   |   |   |   |   |   |   |   |--- biological_regulation >  0.62
|   |   |   |   |   |   |   |   |   |--- response_to_stimulus <= 0.83
|   |   |   |   |   |   |   |   |   |   |--- small_molecule_sensor_activity <= 1.00
|   |   |   |   |   |   |   |   |   |   |   |--- truncated branch of depth 2
|   |   |   |   |   |   |   |   |   |   |--- small_molecule_sensor_activity >  1.00
|   |   |   |   |   |   |   |   |   |   |   |--- class: 1
|   |   |   |   |   |   |   |   |   |--- response_to_stimulus >  0.83
|   |   |   |   |   |   |   |   |   |   |--- molecular_transducer_activity <= 0.99
|   |   |   |   |   |   |   |   |   |   |   |--- truncated branch of depth 7
|   |   |   |   |   |   |   |   |   |   |--- molecular_transducer_activity >  0.99
|   |   |   |   |   |   |   |   |   |   |   |--- truncated branch of depth 9
|   |   |   |   |   |   |   |--- fusogenic_activity >  1.00
|   |   |   |   |   |   |   |   |--- localization <= 0.90
|   |   |   |   |   |   |   |   |   |--- catalytic_activity <= 1.00
|   |   |   |   |   |   |   |   |   |   |--- class: 0
|   |   |   |   |   |   |   |   |   |--- catalytic_activity >  1.00
|   |   |   |   |   |   |   |   |   |   |--- class: 1
|   |   |   |   |   |   |   |   |--- localization >  0.90
|   |   |   |   |   |   |   |   |   |--- immune_system_process <= 0.92
|   |   |   |   |   |   |   |   |   |   |--- localization <= 0.91
|   |   |   |   |   |   |   |   |   |   |   |--- class: 1
|   |   |   |   |   |   |   |   |   |   |--- localization >  0.91
|   |   |   |   |   |   |   |   |   |   |   |--- class: 0
|   |   |   |   |   |   |   |   |   |--- immune_system_process >  0.92
|   |   |   |   |   |   |   |   |   |   |--- biological_adhesion <= 0.94
|   |   |   |   |   |   |   |   |   |   |   |--- class: 0
|   |   |   |   |   |   |   |   |   |   |--- biological_adhesion >  0.94
|   |   |   |   |   |   |   |   |   |   |   |--- truncated branch of depth 2
|   |   |   |   |--- biological_regulation >  0.76
|   |   |   |   |   |--- biological_regulation <= 0.98
|   |   |   |   |   |   |--- metabolic_process <= 0.96
|   |   |   |   |   |   |   |--- catalytic_activity <= 0.92
|   |   |   |   |   |   |   |   |--- transporter_activity <= 1.00
|   |   |   |   |   |   |   |   |   |--- cellular_process <= 0.83
|   |   |   |   |   |   |   |   |   |   |--- localization <= 0.88
|   |   |   |   |   |   |   |   |   |   |   |--- truncated branch of depth 2
|   |   |   |   |   |   |   |   |   |   |--- localization >  0.88
|   |   |   |   |   |   |   |   |   |   |   |--- truncated branch of depth 3
|   |   |   |   |   |   |   |   |   |--- cellular_process >  0.83
|   |   |   |   |   |   |   |   |   |   |--- rhythmic_process <= 1.00
|   |   |   |   |   |   |   |   |   |   |   |--- truncated branch of depth 2
|   |   |   |   |   |   |   |   |   |   |--- rhythmic_process >  1.00
|   |   |   |   |   |   |   |   |   |   |   |--- class: 1
|   |   |   |   |   |   |   |   |--- transporter_activity >  1.00
|   |   |   |   |   |   |   |   |   |--- response_to_stimulus <= 0.98
|   |   |   |   |   |   |   |   |   |   |--- biological_regulation <= 0.77
|   |   |   |   |   |   |   |   |   |   |   |--- class: 0
|   |   |   |   |   |   |   |   |   |   |--- biological_regulation >  0.77
|   |   |   |   |   |   |   |   |   |   |   |--- truncated branch of depth 3
|   |   |   |   |   |   |   |   |   |--- response_to_stimulus >  0.98
|   |   |   |   |   |   |   |   |   |   |--- localization <= 0.87
|   |   |   |   |   |   |   |   |   |   |   |--- truncated branch of depth 2
