|--- biological_process <= 0.41
|   |--- biological_process <= 0.34
|   |   |--- molecular_function <= 0.07
|   |   |   |--- class: 1
|   |   |--- molecular_function >  0.07
|   |   |   |--- class: 0
|   |--- biological_process >  0.34
|   |   |--- cellular_component <= 0.45
|   |   |   |--- class: 0
|   |   |--- cellular_component >  0.45
|   |   |   |--- class: 1
|--- biological_process >  0.41
|   |--- class: 1

