|--- cellular_process <= 0.48
|   |--- cellular_anatomical_entity <= 0.43
|   |   |--- interspecies_interaction_between_organisms <= 0.97
|   |   |   |--- cellular_process <= 0.41
|   |   |   |   |--- rhythmic_process <= 0.55
|   |   |   |   |   |--- localization <= 0.89
|   |   |   |   |   |   |--- biological_regulation <= 0.21
|   |   |   |   |   |   |   |--- detoxification <= 0.99
|   |   |   |   |   |   |   |   |--- virion <= 1.00
|   |   |   |   |   |   |   |   |   |--- class: 0
|   |   |   |   |   |   |   |   |--- virion >  1.00
|   |   |   |   |   |   |   |   |   |--- class: 1
|   |   |   |   |   |   |   |--- detoxification >  0.99
|   |   |   |   |   |   |   |   |--- response_to_stimulus <= 0.25
|   |   |   |   |   |   |   |   |   |--- intraspecies_interaction_between_organisms <= 1.00
|   |   |   |   |   |   |   |   |   |   |--- class: 1
|   |   |   |   |   |   |   |   |   |--- intraspecies_interaction_between_organisms >  1.00
|   |   |   |   |   |   |   |   |   |   |--- class: 0
|   |   |   |   |   |   |   |   |--- response_to_stimulus >  0.25
|   |   |   |   |   |   |   |   |   |--- class: 0
|   |   |   |   |   |   |--- biological_regulation >  0.21
|   |   |   |   |   |   |   |--- multicellular_organismal_process <= 0.99
|   |   |   |   |   |   |   |   |--- virion_part <= 0.99
|   |   |   |   |   |   |   |   |   |--- class: 0
|   |   |   |   |   |   |   |   |--- virion_part >  0.99
|   |   |   |   |   |   |   |   |   |--- binding <= 0.32
|   |   |   |   |   |   |   |   |   |   |--- biological_phase <= 1.00
|   |   |   |   |   |   |   |   |   |   |   |--- truncated branch of depth 5
|   |   |   |   |   |   |   |   |   |   |--- biological_phase >  1.00
|   |   |   |   |   |   |   |   |   |   |   |--- class: 0
|   |   |   |   |   |   |   |   |   |--- binding >  0.32
|   |   |   |   |   |   |   |   |   |   |--- transporter_activity <= 1.00
|   |   |   |   |   |   |   |   |   |   |   |--- class: 1
|   |   |   |   |   |   |   |   |   |   |--- transporter_activity >  1.00
|   |   |   |   |   |   |   |   |   |   |   |--- class: 0
|   |   |   |   |   |   |   |--- multicellular_organismal_process >  0.99
|   |   |   |   |   |   |   |   |--- class: 0
|   |   |   |   |   |--- localization >  0.89
|   |   |   |   |   |   |--- translation_regulator_activity <= 1.00
|   |   |   |   |   |   |   |--- sulfur_utilization <= 1.00
|   |   |   |   |   |   |   |   |--- class: 0
|   |   |   |   |   |   |   |--- sulfur_utilization >  1.00
|   |   |   |   |   |   |   |   |--- class: 1
|   |   |   |   |   |   |--- translation_regulator_activity >  1.00
|   |   |   |   |   |   |   |--- class: 1
|   |   |   |   |--- rhythmic_process >  0.55
|   |   |   |   |   |--- structural_molecule_activity <= 0.61
|   |   |   |   |   |   |--- structural_molecule_activity <= 0.56
|   |   |   |   |   |   |   |--- translation_regulator_activity <= 0.98
|   |   |   |   |   |   |   |   |--- immune_system_process <= 0.99
|   |   |   |   |   |   |   |   |   |--- class: 1
|   |   |   |   |   |   |   |   |--- immune_system_process >  0.99
|   |   |   |   |   |   |   |   |   |--- class: 0
|   |   |   |   |   |   |   |--- translation_regulator_activity >  0.98
|   |   |   |   |   |   |   |   |--- growth <= 0.54
|   |   |   |   |   |   |   |   |   |--- cellular_process <= 0.31
|   |   |   |   |   |   |   |   |   |   |--- class: 0
|   |   |   |   |   |   |   |   |   |--- cellular_process >  0.31
|   |   |   |   |   |   |   |   |   |   |--- cargo_receptor_activity <= 1.00
|   |   |   |   |   |   |   |   |   |   |   |--- class: 0
|   |   |   |   |   |   |   |   |   |   |--- cargo_receptor_activity >  1.00
|   |   |   |   |   |   |   |   |   |   |   |--- class: 1
|   |   |   |   |   |   |   |   |--- growth >  0.54
|   |   |   |   |   |   |   |   |   |--- carbohydrate_utilization <= 1.00
|   |   |   |   |   |   |   |   |   |   |--- other_organism_part <= 0.99
|   |   |   |   |   |   |   |   |   |   |   |--- class: 1
|   |   |   |   |   |   |   |   |   |   |--- other_organism_part >  0.99
|   |   |   |   |   |   |   |   |   |   |   |--- truncated branch of depth 12
|   |   |   |   |   |   |   |   |   |--- carbohydrate_utilization >  1.00
|   |   |   |   |   |   |   |   |   |   |--- pigmentation <= 1.00
|   |   |   |   |   |   |   |   |   |   |   |--- class: 1
|   |   |   |   |   |   |   |   |   |   |--- pigmentation >  1.00
|   |   |   |   |   |   |   |   |   |   |   |--- class: 0
|   |   |   |   |   |   |--- structural_molecule_activity >  0.56
|   |   |   |   |   |   |   |--- multicellular_organismal_process <= 0.98
|   |   |   |   |   |   |   |   |--- intraspecies_interaction_between_organisms <= 1.00
|   |   |   |   |   |   |   |   |   |--- nutrient_reservoir_activity <= 1.00
|   |   |   |   |   |   |   |   |   |   |--- class: 0
|   |   |   |   |   |   |   |   |   |--- nutrient_reservoir_activity >  1.00
|   |   |   |   |   |   |   |   |   |   |--- phosphorus_utilization <= 1.00
|   |   |   |   |   |   |   |   |   |   |   |--- class: 1
|   |   |   |   |   |   |   |   |   |   |--- phosphorus_utilization >  1.00
|   |   |   |   |   |   |   |   |   |   |   |--- class: 0
|   |   |   |   |   |   |   |   |--- intraspecies_interaction_between_organisms >  1.00
|   |   |   |   |   |   |   |   |   |--- molecular_template_activity <= 1.00
|   |   |   |   |   |   |   |   |   |   |--- biomineralization <= 1.00
|   |   |   |   |   |   |   |   |   |   |   |--- class: 0
|   |   |   |   |   |   |   |   |   |   |--- biomineralization >  1.00
|   |   |   |   |   |   |   |   |   |   |   |--- class: 1
|   |   |   |   |   |   |   |   |   |--- molecular_template_activity >  1.00
|   |   |   |   |   |   |   |   |   |   |--- antioxidant_activity <= 1.00
|   |   |   |   |   |   |   |   |   |   |   |--- class: 1
|   |   |   |   |   |   |   |   |   |   |--- antioxidant_activity >  1.00
|   |   |   |   |   |   |   |   |   |   |   |--- truncated branch of depth 2
|   |   |   |   |   |   |   |--- multicellular_organismal_process >  0.98
|   |   |   |   |   |   |   |   |--- catalytic_activity <= 0.50
|   |   |   |   |   |   |   |   |   |--- response_to_stimulus <= 0.36
|   |   |   |   |   |   |   |   |   |   |--- immune_system_process <= 0.47
|   |   |   |   |   |   |   |   |   |   |   |--- truncated branch of depth 2
|   |   |   |   |   |   |   |   |   |   |--- immune_system_process >  0.47
|   |   |   |   |   |   |   |   |   |   |   |--- truncated branch of depth 3
|   |   |   |   |   |   |   |   |   |--- response_to_stimulus >  0.36
|   |   |   |   |   |   |   |   |   |   |--- binding <= 0.70
|   |   |   |   |   |   |   |   |   |   |   |--- truncated branch of depth 3
|   |   |   |   |   |   |   |   |   |   |--- binding >  0.70
|   |   |   |   |   |   |   |   |   |   |   |--- class: 1
|   |   |   |   |   |   |   |   |--- catalytic_activity >  0.50
|   |   |   |   |   |   |   |   |   |--- cellular_anatomical_entity <= 0.33
|   |   |   |   |   |   |   |   |   |   |--- cellular_process <= 0.37
|   |   |   |   |   |   |   |   |   |   |   |--- truncated branch of depth 9
|   |   |   |   |   |   |   |   |   |   |--- cellular_process >  0.37
|   |   |   |   |   |   |   |   |   |   |   |--- truncated branch of depth 3
|   |   |   |   |   |   |   |   |   |--- cellular_anatomical_entity >  0.33
|   |   |   |   |   |   |   |   |   |   |--- sulfur_utilization <= 1.00
|   |   |   |   |   |   |   |   |   |   |   |--- truncated branch of depth 4
|   |   |   |   |   |   |   |   |   |   |--- sulfur_utilization >  1.00
|   |   |   |   |   |   |   |   |   |   |   |--- truncated branch of depth 4
|   |   |   |   |   |--- structural_molecule_activity >  0.61
|   |   |   |   |   |   |--- developmental_process <= 0.35
|   |   |   |   |   |   |   |--- locomotion <= 0.98
|   |   |   |   |   |   |   |   |--- localization <= 0.98
|   |   |   |   |   |   |   |   |   |--- cellular_anatomical_entity <= 0.29
|   |   |   |   |   |   |   |   |   |   |--- biological_regulation <= 0.38
|   |   |   |   |   |   |   |   |   |   |   |--- truncated branch of depth 14
|   |   |   |   |   |   |   |   |   |   |--- biological_regulation >  0.38
|   |   |   |   |   |   |   |   |   |   |   |--- truncated branch of depth 2
|   |   |   |   |   |   |   |   |   |--- cellular_anatomical_entity >  0.29
|   |   |   |   |   |   |   |   |   |   |--- cellular_process <= 0.30
|   |   |   |   |   |   |   |   |   |   |   |--- truncated branch of depth 9
|   |   |   |   |   |   |   |   |   |   |--- cellular_process >  0.30
|   |   |   |   |   |   |   |   |   |   |   |--- truncated branch of depth 7
|   |   |   |   |   |   |   |   |--- localization >  0.98
|   |   |   |   |   |   |   |   |   |--- biological_adhesion <= 0.99
|   |   |   |   |   |   |   |   |   |   |--- phosphorus_utilization <= 0.99
|   |   |   |   |   |   |   |   |   |   |   |--- class: 1
|   |   |   |   |   |   |   |   |   |   |--- phosphorus_utilization >  0.99
|   |   |   |   |   |   |   |   |   |   |   |--- class: 0
|   |   |   |   |   |   |   |   |   |--- biological_adhesion >  0.99
|   |   |   |   |   |   |   |   |   |   |--- class: 1
|   |   |   |   |   |   |   |--- locomotion >  0.98
|   |   |   |   |   |   |   |   |--- reproduction <= 0.85
|   |   |   |   |   |   |   |   |   |--- detoxification <= 1.00
|   |   |   |   |   |   |   |   |   |   |--- rhythmic_process <= 1.00
|   |   |   |   |   |   |   |   |   |   |   |--- class: 1
|   |   |   |   |   |   |   |   |   |   |--- rhythmic_process >  1.00
|   |   |   |   |   |   |   |   |   |   |   |--- class: 0
|   |   |   |   |   |   |   |   |   |--- detoxification >  1.00
|   |   |   |   |   |   |   |   |   |   |--- class: 0
|   |   |   |   |   |   |   |   |--- reproduction >  0.85
|   |   |   |   |   |   |   |   |   |--- cellular_anatomical_entity <= 0.32
|   |   |   |   |   |   |   |   |   |   |--- biomineralization <= 0.59
|   |   |   |   |   |   |   |   |   |   |   |--- class: 1
|   |   |   |   |   |   |   |   |   |   |--- biomineralization >  0.59
|   |   |   |   |   |   |   |   |   |   |   |--- truncated branch of depth 13
|   |   |   |   |   |   |   |   |   |--- cellular_anatomical_entity >  0.32
|   |   |   |   |   |   |   |   |   |   |--- interspecies_interaction_between_organisms <= 0.50
|   |   |   |   |   |   |   |   |   |   |   |--- truncated branch of depth 14
|   |   |   |   |   |   |   |   |   |   |--- interspecies_interaction_between_organisms >  0.50
|   |   |   |   |   |   |   |   |   |   |   |--- truncated branch of depth 4
|   |   |   |   |   |   |--- developmental_process >  0.35
|   |   |   |   |   |   |   |--- interspecies_interaction_between_organisms <= 0.54
|   |   |   |   |   |   |   |   |--- molecular_function_regulator <= 0.42
|   |   |   |   |   |   |   |   |   |--- cellular_anatomical_entity <= 0.42
|   |   |   |   |   |   |   |   |   |   |--- growth <= 0.57
|   |   |   |   |   |   |   |   |   |   |   |--- truncated branch of depth 4
|   |   |   |   |   |   |   |   |   |   |--- growth >  0.57
|   |   |   |   |   |   |   |   |   |   |   |--- truncated branch of depth 20
|   |   |   |   |   |   |   |   |   |--- cellular_anatomical_entity >  0.42
|   |   |   |   |   |   |   |   |   |   |--- protein_tag <= 1.00
|   |   |   |   |   |   |   |   |   |   |   |--- truncated branch of depth 3
|   |   |   |   |   |   |   |   |   |   |--- protein_tag >  1.00
|   |   |   |   |   |   |   |   |   |   |   |--- truncated branch of depth 2
|   |   |   |   |   |   |   |   |--- molecular_function_regulator >  0.42
|   |   |   |   |   |   |   |   |   |--- cellular_anatomical_entity <= 0.36
|   |   |   |   |   |   |   |   |   |   |--- reproduction <= 0.99
|   |   |   |   |   |   |   |   |   |   |   |--- truncated branch of depth 5
|   |   |   |   |   |   |   |   |   |   |--- reproduction >  0.99
|   |   |   |   |   |   |   |   |   |   |   |--- truncated branch of depth 31
|   |   |   |   |   |   |   |   |   |--- cellular_anatomical_entity >  0.36
|   |   |   |   |   |   |   |   |   |   |--- multi-organism_process <= 0.59
|   |   |   |   |   |   |   |   |   |   |   |--- truncated branch of depth 4
|   |   |   |   |   |   |   |   |   |   |--- multi-organism_process >  0.59
|   |   |   |   |   |   |   |   |   |   |   |--- truncated branch of depth 17
|   |   |   |   |   |   |   |--- interspecies_interaction_between_organisms >  0.54
|   |   |   |   |   |   |   |   |--- biological_regulation <= 0.42
|   |   |   |   |   |   |   |   |   |--- metabolic_process <= 0.43
|   |   |   |   |   |   |   |   |   |   |--- multicellular_organismal_process <= 0.43
|   |   |   |   |   |   |   |   |   |   |   |--- truncated branch of depth 3
|   |   |   |   |   |   |   |   |   |   |--- multicellular_organismal_process >  0.43
|   |   |   |   |   |   |   |   |   |   |   |--- truncated branch of depth 4
|   |   |   |   |   |   |   |   |   |--- metabolic_process >  0.43
|   |   |   |   |   |   |   |   |   |   |--- biomineralization <= 0.99
|   |   |   |   |   |   |   |   |   |   |   |--- class: 0
|   |   |   |   |   |   |   |   |   |   |--- biomineralization >  0.99
|   |   |   |   |   |   |   |   |   |   |   |--- truncated branch of depth 3
|   |   |   |   |   |   |   |   |--- biological_regulation >  0.42
|   |   |   |   |   |   |   |   |   |--- molecular_transducer_activity <= 0.99
|   |   |   |   |   |   |   |   |   |   |--- developmental_process <= 0.99
|   |   |   |   |   |   |   |   |   |   |   |--- class: 1
|   |   |   |   |   |   |   |   |   |   |--- developmental_process >  0.99
|   |   |   |   |   |   |   |   |   |   |   |--- class: 0
|   |   |   |   |   |   |   |   |   |--- molecular_transducer_activity >  0.99
|   |   |   |   |   |   |   |   |   |   |--- metabolic_process <= 0.46
|   |   |   |   |   |   |   |   |   |   |   |--- class: 0
|   |   |   |   |   |   |   |   |   |   |--- metabolic_process >  0.46
|   |   |   |   |   |   |   |   |   |   |   |--- class: 1
|   |   |   |--- cellular_process >  0.41
|   |   |   |   |--- locomotion <= 0.98
|   |   |   |   |   |--- developmental_process <= 0.85
|   |   |   |   |   |   |--- localization <= 0.98
|   |   |   |   |   |   |   |--- cellular_anatomical_entity <= 0.21
|   |   |   |   |   |   |   |   |--- multi-organism_process <= 0.99
|   |   |   |   |   |   |   |   |   |--- class: 0
|   |   |   |   |   |   |   |   |--- multi-organism_process >  0.99
|   |   |   |   |   |   |   |   |   |--- protein_folding_chaperone <= 1.00
|   |   |   |   |   |   |   |   |   |   |--- class: 1
|   |   |   |   |   |   |   |   |   |--- protein_folding_chaperone >  1.00
|   |   |   |   |   |   |   |   |   |   |--- class: 0
|   |   |   |   |   |   |   |--- cellular_anatomical_entity >  0.21
|   |   |   |   |   |   |   |   |--- biological_regulation <= 0.19
|   |   |   |   |   |   |   |   |   |--- small_molecule_sensor_activity <= 1.00
|   |   |   |   |   |   |   |   |   |   |--- class: 1
|   |   |   |   |   |   |   |   |   |--- small_molecule_sensor_activity >  1.00
|   |   |   |   |   |   |   |   |   |   |--- class: 0
|   |   |   |   |   |   |   |   |--- biological_regulation >  0.19
|   |   |   |   |   |   |   |   |   |--- catalytic_activity <= 0.99
|   |   |   |   |   |   |   |   |   |   |--- carbohydrate_utilization <= 1.00
|   |   |   |   |   |   |   |   |   |   |   |--- truncated branch of depth 10
|   |   |   |   |   |   |   |   |   |   |--- carbohydrate_utilization >  1.00
|   |   |   |   |   |   |   |   |   |   |   |--- truncated branch of depth 2
|   |   |   |   |   |   |   |   |   |--- catalytic_activity >  0.99
|   |   |   |   |   |   |   |   |   |   |--- class: 0
|   |   |   |   |   |   |--- localization >  0.98
|   |   |   |   |   |   |   |--- molecular_carrier_activity <= 1.00
|   |   |   |   |   |   |   |   |--- nutrient_reservoir_activity <= 1.00
|   |   |   |   |   |   |   |   |   |--- class: 0
|   |   |   |   |   |   |   |   |--- nutrient_reservoir_activity >  1.00
|   |   |   |   |   |   |   |   |   |--- class: 1
|   |   |   |   |   |   |   |--- molecular_carrier_activity >  1.00
|   |   |   |   |   |   |   |   |--- multicellular_organismal_process <= 0.37
|   |   |   |   |   |   |   |   |   |--- class: 0
|   |   |   |   |   |   |   |   |--- multicellular_organismal_process >  0.37
|   |   |   |   |   |   |   |   |   |--- phosphorus_utilization <= 1.00
|   |   |   |   |   |   |   |   |   |   |--- class: 1
|   |   |   |   |   |   |   |   |   |--- phosphorus_utilization >  1.00
|   |   |   |   |   |   |   |   |   |   |--- class: 0
|   |   |   |   |   |--- developmental_process >  0.85
|   |   |   |   |   |   |--- molecular_sequestering_activity <= 0.99
|   |   |   |   |   |   |   |--- class: 1
|   |   |   |   |   |   |--- molecular_sequestering_activity >  0.99
|   |   |   |   |   |   |   |--- biological_phase <= 1.00
|   |   |   |   |   |   |   |   |--- class: 1
|   |   |   |   |   |   |   |--- biological_phase >  1.00
|   |   |   |   |   |   |   |   |--- class: 0
|   |   |   |   |--- locomotion >  0.98
|   |   |   |   |   |--- interspecies_interaction_between_organisms <= 0.52
|   |   |   |   |   |   |--- metabolic_process <= 0.46
|   |   |   |   |   |   |   |--- reproductive_process <= 0.98
|   |   |   |   |   |   |   |   |--- behavior <= 0.99
|   |   |   |   |   |   |   |   |   |--- binding <= 0.28
|   |   |   |   |   |   |   |   |   |   |--- growth <= 0.99
|   |   |   |   |   |   |   |   |   |   |   |--- class: 0
|   |   |   |   |   |   |   |   |   |   |--- growth >  0.99
|   |   |   |   |   |   |   |   |   |   |   |--- truncated branch of depth 2
|   |   |   |   |   |   |   |   |   |--- binding >  0.28
|   |   |   |   |   |   |   |   |   |   |--- detoxification <= 1.00
|   |   |   |   |   |   |   |   |   |   |   |--- truncated branch of depth 4
|   |   |   |   |   |   |   |   |   |   |--- detoxification >  1.00
|   |   |   |   |   |   |   |   |   |   |   |--- truncated branch of depth 2
|   |   |   |   |   |   |   |   |--- behavior >  0.99
|   |   |   |   |   |   |   |   |   |--- response_to_stimulus <= 0.34
|   |   |   |   |   |   |   |   |   |   |--- class: 1
|   |   |   |   |   |   |   |   |   |--- response_to_stimulus >  0.34
|   |   |   |   |   |   |   |   |   |   |--- small_molecule_sensor_activity <= 0.99
|   |   |   |   |   |   |   |   |   |   |   |--- class: 1
|   |   |   |   |   |   |   |   |   |   |--- small_molecule_sensor_activity >  0.99
|   |   |   |   |   |   |   |   |   |   |   |--- truncated branch of depth 2
|   |   |   |   |   |   |   |--- reproductive_process >  0.98
|   |   |   |   |   |   |   |   |--- cellular_process <= 0.48
|   |   |   |   |   |   |   |   |   |--- cellular_anatomical_entity <= 0.33
|   |   |   |   |   |   |   |   |   |   |--- response_to_stimulus <= 0.31
|   |   |   |   |   |   |   |   |   |   |   |--- truncated branch of depth 2
|   |   |   |   |   |   |   |   |   |   |--- response_to_stimulus >  0.31
|   |   |   |   |   |   |   |   |   |   |   |--- truncated branch of depth 8
|   |   |   |   |   |   |   |   |   |--- cellular_anatomical_entity >  0.33
|   |   |   |   |   |   |   |   |   |   |--- binding <= 0.49
|   |   |   |   |   |   |   |   |   |   |   |--- truncated branch of depth 11
|   |   |   |   |   |   |   |   |   |   |--- binding >  0.49
|   |   |   |   |   |   |   |   |   |   |   |--- truncated branch of depth 9
|   |   |   |   |   |   |   |   |--- cellular_process >  0.48
|   |   |   |   |   |   |   |   |   |--- class: 1
|   |   |   |   |   |   |--- metabolic_process >  0.46
|   |   |   |   |   |   |   |--- metabolic_process <= 0.90
|   |   |   |   |   |   |   |   |--- response_to_stimulus <= 0.36
|   |   |   |   |   |   |   |   |   |--- cellular_process <= 0.48
|   |   |   |   |   |   |   |   |   |   |--- transporter_activity <= 0.77
|   |   |   |   |   |   |   |   |   |   |   |--- truncated branch of depth 2
|   |   |   |   |   |   |   |   |   |   |--- transporter_activity >  0.77
|   |   |   |   |   |   |   |   |   |   |   |--- truncated branch of depth 5
|   |   |   |   |   |   |   |   |   |--- cellular_process >  0.48
|   |   |   |   |   |   |   |   |   |   |--- class: 0
|   |   |   |   |   |   |   |   |--- response_to_stimulus >  0.36
|   |   |   |   |   |   |   |   |   |--- binding <= 0.31
|   |   |   |   |   |   |   |   |   |   |--- phosphorus_utilization <= 1.00
|   |   |   |   |   |   |   |   |   |   |   |--- class: 1
|   |   |   |   |   |   |   |   |   |   |--- phosphorus_utilization >  1.00
|   |   |   |   |   |   |   |   |   |   |   |--- class: 0
|   |   |   |   |   |   |   |   |   |--- binding >  0.31
|   |   |   |   |   |   |   |   |   |   |--- biological_regulation <= 0.86
|   |   |   |   |   |   |   |   |   |   |   |--- truncated branch of depth 10
|   |   |   |   |   |   |   |   |   |   |--- biological_regulation >  0.86
|   |   |   |   |   |   |   |   |   |   |   |--- class: 0
|   |   |   |   |   |   |   |--- metabolic_process >  0.90
|   |   |   |   |   |   |   |   |--- developmental_process <= 0.84
|   |   |   |   |   |   |   |   |   |--- molecular_adaptor_activity <= 0.99
|   |   |   |   |   |   |   |   |   |   |--- translation_regulator_activity <= 0.99
|   |   |   |   |   |   |   |   |   |   |   |--- class: 0
|   |   |   |   |   |   |   |   |   |   |--- translation_regulator_activity >  0.99
|   |   |   |   |   |   |   |   |   |   |   |--- truncated branch of depth 3
|   |   |   |   |   |   |   |   |   |--- molecular_adaptor_activity >  0.99
|   |   |   |   |   |   |   |   |   |   |--- cellular_process <= 0.41
|   |   |   |   |   |   |   |   |   |   |   |--- class: 1
|   |   |   |   |   |   |   |   |   |   |--- cellular_process >  0.41
|   |   |   |   |   |   |   |   |   |   |   |--- truncated branch of depth 2
|   |   |   |   |   |   |   |   |--- developmental_process >  0.84
|   |   |   |   |   |   |   |   |   |--- catalytic_activity <= 0.43
|   |   |   |   |   |   |   |   |   |   |--- class: 1
|   |   |   |   |   |   |   |   |   |--- catalytic_activity >  0.43
|   |   |   |   |   |   |   |   |   |   |--- class: 0
|   |   |   |   |   |--- interspecies_interaction_between_organisms >  0.52
|   |   |   |   |   |   |--- interspecies_interaction_between_organisms <= 0.97
|   |   |   |   |   |   |   |--- metabolic_process <= 0.86
|   |   |   |   |   |   |   |   |--- toxin_activity <= 1.00
|   |   |   |   |   |   |   |   |   |--- antioxidant_activity <= 0.99
|   |   |   |   |   |   |   |   |   |   |--- class: 0
|   |   |   |   |   |   |   |   |   |--- antioxidant_activity >  0.99
|   |   |   |   |   |   |   |   |   |   |--- signaling <= 1.00
|   |   |   |   |   |   |   |   |   |   |   |--- class: 1
|   |   |   |   |   |   |   |   |   |   |--- signaling >  1.00
|   |   |   |   |   |   |   |   |   |   |   |--- truncated branch of depth 2
|   |   |   |   |   |   |   |   |--- toxin_activity >  1.00
|   |   |   |   |   |   |   |   |   |--- class: 0
|   |   |   |   |   |   |   |--- metabolic_process >  0.86
|   |   |   |   |   |   |   |   |--- class: 0
|   |   |   |   |   |   |--- interspecies_interaction_between_organisms >  0.97
|   |   |   |   |   |   |   |--- structural_molecule_activity <= 0.99
|   |   |   |   |   |   |   |   |--- class: 1
|   |   |   |   |   |   |   |--- structural_molecule_activity >  0.99
|   |   |   |   |   |   |   |   |--- class: 0
|   |   |--- interspecies_interaction_between_organisms >  0.97
|   |   |   |--- response_to_stimulus <= 0.31
|   |   |   |   |--- cellular_process <= 0.43
|   |   |   |   |   |--- locomotion <= 0.44
|   |   |   |   |   |   |--- localization <= 0.37
|   |   |   |   |   |   |   |--- immune_system_process <= 0.43
|   |   |   |   |   |   |   |   |--- reproduction <= 1.00
|   |   |   |   |   |   |   |   |   |--- class: 1
|   |   |   |   |   |   |   |   |--- reproduction >  1.00
|   |   |   |   |   |   |   |   |   |--- class: 0
|   |   |   |   |   |   |   |--- immune_system_process >  0.43
|   |   |   |   |   |   |   |   |--- behavior <= 1.00
|   |   |   |   |   |   |   |   |   |--- class: 1
|   |   |   |   |   |   |   |   |--- behavior >  1.00
|   |   |   |   |   |   |   |   |   |--- class: 0
|   |   |   |   |   |   |--- localization >  0.37
|   |   |   |   |   |   |   |--- interspecies_interaction_between_organisms <= 0.99
|   |   |   |   |   |   |   |   |--- translation_regulator_activity <= 0.99
|   |   |   |   |   |   |   |   |   |--- class: 1
|   |   |   |   |   |   |   |   |--- translation_regulator_activity >  0.99
|   |   |   |   |   |   |   |   |   |--- detoxification <= 0.99
|   |   |   |   |   |   |   |   |   |   |--- class: 1
|   |   |   |   |   |   |   |   |   |--- detoxification >  0.99
|   |   |   |   |   |   |   |   |   |   |--- class: 0
|   |   |   |   |   |   |   |--- interspecies_interaction_between_organisms >  0.99
|   |   |   |   |   |   |   |   |--- protein_tag <= 1.00
|   |   |   |   |   |   |   |   |   |--- class: 1
|   |   |   |   |   |   |   |   |--- protein_tag >  1.00
|   |   |   |   |   |   |   |   |   |--- class: 0
|   |   |   |   |   |--- locomotion >  0.44
|   |   |   |   |   |   |--- biological_regulation <= 0.37
|   |   |   |   |   |   |   |--- metabolic_process <= 0.48
|   |   |   |   |   |   |   |   |--- catalytic_activity <= 0.99
|   |   |   |   |   |   |   |   |   |--- molecular_function_regulator <= 0.25
|   |   |   |   |   |   |   |   |   |   |--- class: 1
|   |   |   |   |   |   |   |   |   |--- molecular_function_regulator >  0.25
|   |   |   |   |   |   |   |   |   |   |--- biological_adhesion <= 1.00
|   |   |   |   |   |   |   |   |   |   |   |--- truncated branch of depth 14
|   |   |   |   |   |   |   |   |   |   |--- biological_adhesion >  1.00
|   |   |   |   |   |   |   |   |   |   |   |--- truncated branch of depth 3
|   |   |   |   |   |   |   |   |--- catalytic_activity >  0.99
|   |   |   |   |   |   |   |   |   |--- multicellular_organismal_process <= 0.75
|   |   |   |   |   |   |   |   |   |   |--- response_to_stimulus <= 0.23
|   |   |   |   |   |   |   |   |   |   |   |--- class: 1
|   |   |   |   |   |   |   |   |   |   |--- response_to_stimulus >  0.23
|   |   |   |   |   |   |   |   |   |   |   |--- truncated branch of depth 3
|   |   |   |   |   |   |   |   |   |--- multicellular_organismal_process >  0.75
|   |   |   |   |   |   |   |   |   |   |--- metabolic_process <= 0.37
|   |   |   |   |   |   |   |   |   |   |   |--- class: 0
|   |   |   |   |   |   |   |   |   |   |--- metabolic_process >  0.37
|   |   |   |   |   |   |   |   |   |   |   |--- class: 1
|   |   |   |   |   |   |   |--- metabolic_process >  0.48
|   |   |   |   |   |   |   |   |--- catalytic_activity <= 0.99
|   |   |   |   |   |   |   |   |   |--- small_molecule_sensor_activity <= 1.00
|   |   |   |   |   |   |   |   |   |   |--- translation_regulator_activity <= 1.00
|   |   |   |   |   |   |   |   |   |   |   |--- class: 0
|   |   |   |   |   |   |   |   |   |   |--- translation_regulator_activity >  1.00
|   |   |   |   |   |   |   |   |   |   |   |--- class: 1
|   |   |   |   |   |   |   |   |   |--- small_molecule_sensor_activity >  1.00
|   |   |   |   |   |   |   |   |   |   |--- fusogenic_activity <= 0.99
|   |   |   |   |   |   |   |   |   |   |   |--- class: 0
|   |   |   |   |   |   |   |   |   |   |--- fusogenic_activity >  0.99
|   |   |   |   |   |   |   |   |   |   |   |--- truncated branch of depth 3
|   |   |   |   |   |   |   |   |--- catalytic_activity >  0.99
|   |   |   |   |   |   |   |   |   |--- other_organism_part <= 1.00
|   |   |   |   |   |   |   |   |   |   |--- class: 1
|   |   |   |   |   |   |   |   |   |--- other_organism_part >  1.00
|   |   |   |   |   |   |   |   |   |   |--- nitrogen_utilization <= 1.00
|   |   |   |   |   |   |   |   |   |   |   |--- class: 0
|   |   |   |   |   |   |   |   |   |   |--- nitrogen_utilization >  1.00
|   |   |   |   |   |   |   |   |   |   |   |--- class: 1
|   |   |   |   |   |   |--- biological_regulation >  0.37
|   |   |   |   |   |   |   |--- molecular_function_regulator <= 0.98
|   |   |   |   |   |   |   |   |--- catalytic_activity <= 0.47
|   |   |   |   |   |   |   |   |   |--- carbohydrate_utilization <= 1.00
|   |   |   |   |   |   |   |   |   |   |--- reproduction <= 1.00
|   |   |   |   |   |   |   |   |   |   |   |--- class: 1
|   |   |   |   |   |   |   |   |   |   |--- reproduction >  1.00
|   |   |   |   |   |   |   |   |   |   |   |--- class: 0
|   |   |   |   |   |   |   |   |   |--- carbohydrate_utilization >  1.00
|   |   |   |   |   |   |   |   |   |   |--- metabolic_process <= 0.57
|   |   |   |   |   |   |   |   |   |   |   |--- truncated branch of depth 3
|   |   |   |   |   |   |   |   |   |   |--- metabolic_process >  0.57
|   |   |   |   |   |   |   |   |   |   |   |--- class: 1
|   |   |   |   |   |   |   |   |--- catalytic_activity >  0.47
|   |   |   |   |   |   |   |   |   |--- metabolic_process <= 0.41
|   |   |   |   |   |   |   |   |   |   |--- response_to_stimulus <= 0.31
|   |   |   |   |   |   |   |   |   |   |   |--- truncated branch of depth 3
|   |   |   |   |   |   |   |   |   |   |--- response_to_stimulus >  0.31
|   |   |   |   |   |   |   |   |   |   |   |--- truncated branch of depth 2
|   |   |   |   |   |   |   |   |   |--- metabolic_process >  0.41
|   |   |   |   |   |   |   |   |   |   |--- growth <= 0.99
|   |   |   |   |   |   |   |   |   |   |   |--- class: 1
|   |   |   |   |   |   |   |   |   |   |--- growth >  0.99
|   |   |   |   |   |   |   |   |   |   |   |--- truncated branch of depth 3
|   |   |   |   |   |   |   |--- molecular_function_regulator >  0.98
|   |   |   |   |   |   |   |   |--- behavior <= 0.44
|   |   |   |   |   |   |   |   |   |--- class: 1
|   |   |   |   |   |   |   |   |--- behavior >  0.44
|   |   |   |   |   |   |   |   |   |--- fusogenic_activity <= 0.99
|   |   |   |   |   |   |   |   |   |   |--- class: 1
|   |   |   |   |   |   |   |   |   |--- fusogenic_activity >  0.99
|   |   |   |   |   |   |   |   |   |   |--- interspecies_interaction_between_organisms <= 0.98
|   |   |   |   |   |   |   |   |   |   |   |--- class: 1
|   |   |   |   |   |   |   |   |   |   |--- interspecies_interaction_between_organisms >  0.98
|   |   |   |   |   |   |   |   |   |   |   |--- truncated branch of depth 4
|   |   |   |   |--- cellular_process >  0.43
|   |   |   |   |   |--- metabolic_process <= 0.42
|   |   |   |   |   |   |--- signaling <= 0.99
|   |   |   |   |   |   |   |--- catalytic_activity <= 0.46
|   |   |   |   |   |   |   |   |--- virion <= 1.00
|   |   |   |   |   |   |   |   |   |--- class: 0
|   |   |   |   |   |   |   |   |--- virion >  1.00
|   |   |   |   |   |   |   |   |   |--- class: 1
|   |   |   |   |   |   |   |--- catalytic_activity >  0.46
|   |   |   |   |   |   |   |   |--- class: 1
|   |   |   |   |   |   |--- signaling >  0.99
|   |   |   |   |   |   |   |--- interspecies_interaction_between_organisms <= 0.99
|   |   |   |   |   |   |   |   |--- class: 0
|   |   |   |   |   |   |   |--- interspecies_interaction_between_organisms >  0.99
|   |   |   |   |   |   |   |   |--- class: 1
|   |   |   |   |   |--- metabolic_process >  0.42
|   |   |   |   |   |   |--- developmental_process <= 0.34
|   |   |   |   |   |   |   |--- behavior <= 0.42
|   |   |   |   |   |   |   |   |--- class: 1
|   |   |   |   |   |   |   |--- behavior >  0.42
|   |   |   |   |   |   |   |   |--- class: 0
|   |   |   |   |   |   |--- developmental_process >  0.34
|   |   |   |   |   |   |   |--- class: 1
|   |   |   |--- response_to_stimulus >  0.31
|   |   |   |   |--- nitrogen_utilization <= 0.99
|   |   |   |   |   |--- biological_phase <= 1.00
|   |   |   |   |   |   |--- molecular_sequestering_activity <= 1.00
|   |   |   |   |   |   |   |--- cellular_process <= 0.44
|   |   |   |   |   |   |   |   |--- class: 1
|   |   |   |   |   |   |   |--- cellular_process >  0.44
|   |   |   |   |   |   |   |   |--- class: 0
|   |   |   |   |   |   |--- molecular_sequestering_activity >  1.00
|   |   |   |   |   |   |   |--- class: 0
|   |   |   |   |   |--- biological_phase >  1.00
|   |   |   |   |   |   |--- molecular_function_regulator <= 0.99
|   |   |   |   |   |   |   |--- class: 0
|   |   |   |   |   |   |--- molecular_function_regulator >  0.99
|   |   |   |   |   |   |   |--- binding <= 0.47
|   |   |   |   |   |   |   |   |--- metabolic_process <= 0.46
|   |   |   |   |   |   |   |   |   |--- antioxidant_activity <= 0.99
|   |   |   |   |   |   |   |   |   |   |--- class: 1
|   |   |   |   |   |   |   |   |   |--- antioxidant_activity >  0.99
|   |   |   |   |   |   |   |   |   |   |--- class: 0
|   |   |   |   |   |   |   |   |--- metabolic_process >  0.46
|   |   |   |   |   |   |   |   |   |--- molecular_carrier_activity <= 1.00
|   |   |   |   |   |   |   |   |   |   |--- class: 1
|   |   |   |   |   |   |   |   |   |--- molecular_carrier_activity >  1.00
|   |   |   |   |   |   |   |   |   |   |--- class: 0
|   |   |   |   |   |   |   |--- binding >  0.47
|   |   |   |   |   |   |   |   |--- translation_regulator_activity <= 1.00
|   |   |   |   |   |   |   |   |   |--- class: 1
|   |   |   |   |   |   |   |   |--- translation_regulator_activity >  1.00
|   |   |   |   |   |   |   |   |   |--- class: 0
|   |   |   |   |--- nitrogen_utilization >  0.99
|   |   |   |   |   |--- cellular_process <= 0.42
|   |   |   |   |   |   |--- biological_regulation <= 0.52
|   |   |   |   |   |   |   |--- molecular_function_regulator <= 0.42
|   |   |   |   |   |   |   |   |--- rhythmic_process <= 0.87
|   |   |   |   |   |   |   |   |   |--- nutrient_reservoir_activity <= 1.00
|   |   |   |   |   |   |   |   |   |   |--- cargo_receptor_activity <= 0.99
|   |   |   |   |   |   |   |   |   |   |   |--- class: 1
|   |   |   |   |   |   |   |   |   |   |--- cargo_receptor_activity >  0.99
|   |   |   |   |   |   |   |   |   |   |   |--- truncated branch of depth 6
|   |   |   |   |   |   |   |   |   |--- nutrient_reservoir_activity >  1.00
|   |   |   |   |   |   |   |   |   |   |--- antioxidant_activity <= 0.99
|   |   |   |   |   |   |   |   |   |   |   |--- class: 0
|   |   |   |   |   |   |   |   |   |   |--- antioxidant_activity >  0.99
|   |   |   |   |   |   |   |   |   |   |   |--- truncated branch of depth 3
|   |   |   |   |   |   |   |   |--- rhythmic_process >  0.87
|   |   |   |   |   |   |   |   |   |--- immune_system_process <= 0.47
|   |   |   |   |   |   |   |   |   |   |--- multicellular_organismal_process <= 0.92
|   |   |   |   |   |   |   |   |   |   |   |--- truncated branch of depth 9
|   |   |   |   |   |   |   |   |   |   |--- multicellular_organismal_process >  0.92
|   |   |   |   |   |   |   |   |   |   |   |--- truncated branch of depth 4
|   |   |   |   |   |   |   |   |   |--- immune_system_process >  0.47
|   |   |   |   |   |   |   |   |   |   |--- cellular_process <= 0.29
|   |   |   |   |   |   |   |   |   |   |   |--- truncated branch of depth 5
|   |   |   |   |   |   |   |   |   |   |--- cellular_process >  0.29
|   |   |   |   |   |   |   |   |   |   |   |--- truncated branch of depth 26
|   |   |   |   |   |   |   |--- molecular_function_regulator >  0.42
|   |   |   |   |   |   |   |   |--- metabolic_process <= 0.46
|   |   |   |   |   |   |   |   |   |--- antioxidant_activity <= 0.54
|   |   |   |   |   |   |   |   |   |   |--- class: 1
|   |   |   |   |   |   |   |   |   |--- antioxidant_activity >  0.54
|   |   |   |   |   |   |   |   |   |   |--- rhythmic_process <= 0.98
|   |   |   |   |   |   |   |   |   |   |   |--- truncated branch of depth 14
|   |   |   |   |   |   |   |   |   |   |--- rhythmic_process >  0.98
|   |   |   |   |   |   |   |   |   |   |   |--- truncated branch of depth 37
|   |   |   |   |   |   |   |   |--- metabolic_process >  0.46
|   |   |   |   |   |   |   |   |   |--- cellular_anatomical_entity <= 0.34
|   |   |   |   |   |   |   |   |   |   |--- catalytic_activity <= 0.39
|   |   |   |   |   |   |   |   |   |   |   |--- truncated branch of depth 3
|   |   |   |   |   |   |   |   |   |   |--- catalytic_activity >  0.39
|   |   |   |   |   |   |   |   |   |   |   |--- truncated branch of depth 22
|   |   |   |   |   |   |   |   |   |--- cellular_anatomical_entity >  0.34
|   |   |   |   |   |   |   |   |   |   |--- reproduction <= 0.99
|   |   |   |   |   |   |   |   |   |   |   |--- truncated branch of depth 5
|   |   |   |   |   |   |   |   |   |   |--- reproduction >  0.99
|   |   |   |   |   |   |   |   |   |   |   |--- truncated branch of depth 21
|   |   |   |   |   |   |--- biological_regulation >  0.52
|   |   |   |   |   |   |   |--- catalytic_activity <= 0.55
|   |   |   |   |   |   |   |   |--- molecular_function_regulator <= 0.97
|   |   |   |   |   |   |   |   |   |--- metabolic_process <= 0.41
|   |   |   |   |   |   |   |   |   |   |--- developmental_process <= 0.34
|   |   |   |   |   |   |   |   |   |   |   |--- class: 1
|   |   |   |   |   |   |   |   |   |   |--- developmental_process >  0.34
|   |   |   |   |   |   |   |   |   |   |   |--- truncated branch of depth 3
|   |   |   |   |   |   |   |   |   |--- metabolic_process >  0.41
|   |   |   |   |   |   |   |   |   |   |--- cellular_anatomical_entity <= 0.32
|   |   |   |   |   |   |   |   |   |   |   |--- truncated branch of depth 2
|   |   |   |   |   |   |   |   |   |   |--- cellular_anatomical_entity >  0.32
|   |   |   |   |   |   |   |   |   |   |   |--- class: 1
|   |   |   |   |   |   |   |   |--- molecular_function_regulator >  0.97
|   |   |   |   |   |   |   |   |   |--- molecular_carrier_activity <= 0.55
|   |   |   |   |   |   |   |   |   |   |--- class: 1
|   |   |   |   |   |   |   |   |   |--- molecular_carrier_activity >  0.55
|   |   |   |   |   |   |   |   |   |   |--- pigmentation <= 1.00
|   |   |   |   |   |   |   |   |   |   |   |--- truncated branch of depth 13
|   |   |   |   |   |   |   |   |   |   |--- pigmentation >  1.00
|   |   |   |   |   |   |   |   |   |   |   |--- class: 1
|   |   |   |   |   |   |   |--- catalytic_activity >  0.55
|   |   |   |   |   |   |   |   |--- binding <= 0.67
|   |   |   |   |   |   |   |   |   |--- nutrient_reservoir_activity <= 1.00
|   |   |   |   |   |   |   |   |   |   |--- multicellular_organismal_process <= 0.99
|   |   |   |   |   |   |   |   |   |   |   |--- truncated branch of depth 7
|   |   |   |   |   |   |   |   |   |   |--- multicellular_organismal_process >  0.99
|   |   |   |   |   |   |   |   |   |   |   |--- truncated branch of depth 2
|   |   |   |   |   |   |   |   |   |--- nutrient_reservoir_activity >  1.00
|   |   |   |   |   |   |   |   |   |   |--- intraspecies_interaction_between_organisms <= 1.00
|   |   |   |   |   |   |   |   |   |   |   |--- truncated branch of depth 6
|   |   |   |   |   |   |   |   |   |   |--- intraspecies_interaction_between_organisms >  1.00
|   |   |   |   |   |   |   |   |   |   |   |--- truncated branch of depth 6
|   |   |   |   |   |   |   |   |--- binding >  0.67
|   |   |   |   |   |   |   |   |   |--- biological_regulation <= 0.99
|   |   |   |   |   |   |   |   |   |   |--- cellular_process <= 0.32
|   |   |   |   |   |   |   |   |   |   |   |--- class: 0
|   |   |   |   |   |   |   |   |   |   |--- cellular_process >  0.32
|   |   |   |   |   |   |   |   |   |   |   |--- truncated branch of depth 4
|   |   |   |   |   |   |   |   |   |--- biological_regulation >  0.99
|   |   |   |   |   |   |   |   |   |   |--- pigmentation <= 1.00
|   |   |   |   |   |   |   |   |   |   |   |--- truncated branch of depth 2
|   |   |   |   |   |   |   |   |   |   |--- pigmentation >  1.00
|   |   |   |   |   |   |   |   |   |   |   |--- truncated branch of depth 3
|   |   |   |   |   |--- cellular_process >  0.42
|   |   |   |   |   |   |--- developmental_process <= 0.38
|   |   |   |   |   |   |   |--- response_to_stimulus <= 0.37
|   |   |   |   |   |   |   |   |--- biological_regulation <= 0.37
|   |   |   |   |   |   |   |   |   |--- structural_molecule_activity <= 0.99
|   |   |   |   |   |   |   |   |   |   |--- class: 1
|   |   |   |   |   |   |   |   |   |--- structural_molecule_activity >  0.99
|   |   |   |   |   |   |   |   |   |   |--- nitrogen_utilization <= 1.00
|   |   |   |   |   |   |   |   |   |   |   |--- truncated branch of depth 4
|   |   |   |   |   |   |   |   |   |   |--- nitrogen_utilization >  1.00
|   |   |   |   |   |   |   |   |   |   |   |--- class: 1
|   |   |   |   |   |   |   |   |--- biological_regulation >  0.37
|   |   |   |   |   |   |   |   |   |--- transporter_activity <= 1.00
|   |   |   |   |   |   |   |   |   |   |--- protein_tag <= 1.00
|   |   |   |   |   |   |   |   |   |   |   |--- class: 1
|   |   |   |   |   |   |   |   |   |   |--- protein_tag >  1.00
|   |   |   |   |   |   |   |   |   |   |   |--- class: 0
|   |   |   |   |   |   |   |   |   |--- transporter_activity >  1.00
|   |   |   |   |   |   |   |   |   |   |--- other_organism_part <= 1.00
|   |   |   |   |   |   |   |   |   |   |   |--- class: 1
|   |   |   |   |   |   |   |   |   |   |--- other_organism_part >  1.00
|   |   |   |   |   |   |   |   |   |   |   |--- class: 0
|   |   |   |   |   |   |   |--- response_to_stimulus >  0.37
|   |   |   |   |   |   |   |   |--- signaling <= 0.56
|   |   |   |   |   |   |   |   |   |--- binding <= 0.29
|   |   |   |   |   |   |   |   |   |   |--- molecular_template_activity <= 1.00
|   |   |   |   |   |   |   |   |   |   |   |--- class: 0
|   |   |   |   |   |   |   |   |   |   |--- molecular_template_activity >  1.00
|   |   |   |   |   |   |   |   |   |   |   |--- class: 1
|   |   |   |   |   |   |   |   |   |--- binding >  0.29
|   |   |   |   |   |   |   |   |   |   |--- multi-organism_process <= 0.99
|   |   |   |   |   |   |   |   |   |   |   |--- class: 1
|   |   |   |   |   |   |   |   |   |   |--- multi-organism_process >  0.99
|   |   |   |   |   |   |   |   |   |   |   |--- class: 0
|   |   |   |   |   |   |   |   |--- signaling >  0.56
|   |   |   |   |   |   |   |   |   |--- growth <= 0.99
|   |   |   |   |   |   |   |   |   |   |--- phosphorus_utilization <= 1.00
|   |   |   |   |   |   |   |   |   |   |   |--- truncated branch of depth 4
|   |   |   |   |   |   |   |   |   |   |--- phosphorus_utilization >  1.00
|   |   |   |   |   |   |   |   |   |   |   |--- truncated branch of depth 5
|   |   |   |   |   |   |   |   |   |--- growth >  0.99
|   |   |   |   |   |   |   |   |   |   |--- immune_system_process <= 0.98
|   |   |   |   |   |   |   |   |   |   |   |--- truncated branch of depth 7
|   |   |   |   |   |   |   |   |   |   |--- immune_system_process >  0.98
|   |   |   |   |   |   |   |   |   |   |   |--- truncated branch of depth 5
|   |   |   |   |   |   |--- developmental_process >  0.38
|   |   |   |   |   |   |   |--- response_to_stimulus <= 0.94
|   |   |   |   |   |   |   |   |--- response_to_stimulus <= 0.49
|   |   |   |   |   |   |   |   |   |--- reproductive_process <= 0.45
|   |   |   |   |   |   |   |   |   |   |--- cargo_receptor_activity <= 1.00
|   |   |   |   |   |   |   |   |   |   |   |--- truncated branch of depth 5
|   |   |   |   |   |   |   |   |   |   |--- cargo_receptor_activity >  1.00
|   |   |   |   |   |   |   |   |   |   |   |--- truncated branch of depth 3
|   |   |   |   |   |   |   |   |   |--- reproductive_process >  0.45
|   |   |   |   |   |   |   |   |   |   |--- metabolic_process <= 0.45
|   |   |   |   |   |   |   |   |   |   |   |--- truncated branch of depth 25
|   |   |   |   |   |   |   |   |   |   |--- metabolic_process >  0.45
|   |   |   |   |   |   |   |   |   |   |   |--- truncated branch of depth 13
|   |   |   |   |   |   |   |   |--- response_to_stimulus >  0.49
|   |   |   |   |   |   |   |   |   |--- virion <= 1.00
|   |   |   |   |   |   |   |   |   |   |--- transporter_activity <= 0.99
|   |   |   |   |   |   |   |   |   |   |   |--- truncated branch of depth 2
|   |   |   |   |   |   |   |   |   |   |--- transporter_activity >  0.99
|   |   |   |   |   |   |   |   |   |   |   |--- truncated branch of depth 3
|   |   |   |   |   |   |   |   |   |--- virion >  1.00
|   |   |   |   |   |   |   |   |   |   |--- class: 0
|   |   |   |   |   |   |   |--- response_to_stimulus >  0.94
|   |   |   |   |   |   |   |   |--- metabolic_process <= 0.48
|   |   |   |   |   |   |   |   |   |--- binding <= 0.80
|   |   |   |   |   |   |   |   |   |   |--- small_molecule_sensor_activity <= 1.00
|   |   |   |   |   |   |   |   |   |   |   |--- truncated branch of depth 16
|   |   |   |   |   |   |   |   |   |   |--- small_molecule_sensor_activity >  1.00
|   |   |   |   |   |   |   |   |   |   |   |--- class: 1
|   |   |   |   |   |   |   |   |   |--- binding >  0.80
|   |   |   |   |   |   |   |   |   |   |--- binding <= 0.90
|   |   |   |   |   |   |   |   |   |   |   |--- class: 1
|   |   |   |   |   |   |   |   |   |   |--- binding >  0.90
|   |   |   |   |   |   |   |   |   |   |   |--- truncated branch of depth 2
|   |   |   |   |   |   |   |   |--- metabolic_process >  0.48
|   |   |   |   |   |   |   |   |   |--- metabolic_process <= 0.88
|   |   |   |   |   |   |   |   |   |   |--- multi-organism_process <= 0.99
|   |   |   |   |   |   |   |   |   |   |   |--- truncated branch of depth 2
|   |   |   |   |   |   |   |   |   |   |--- multi-organism_process >  0.99
|   |   |   |   |   |   |   |   |   |   |   |--- truncated branch of depth 4
|   |   |   |   |   |   |   |   |   |--- metabolic_process >  0.88
|   |   |   |   |   |   |   |   |   |   |--- localization <= 0.30
|   |   |   |   |   |   |   |   |   |   |   |--- truncated branch of depth 2
|   |   |   |   |   |   |   |   |   |   |--- localization >  0.30
|   |   |   |   |   |   |   |   |   |   |   |--- truncated branch of depth 9
|   |--- cellular_anatomical_entity >  0.43
|   |   |--- metabolic_process <= 0.46
|   |   |   |--- developmental_process <= 0.38
|   |   |   |   |--- localization <= 0.98
|   |   |   |   |   |--- cellular_process <= 0.30
|   |   |   |   |   |   |--- rhythmic_process <= 0.58
|   |   |   |   |   |   |   |--- growth <= 0.99
|   |   |   |   |   |   |   |   |--- reproductive_process <= 0.31
|   |   |   |   |   |   |   |   |   |--- class: 0
|   |   |   |   |   |   |   |   |--- reproductive_process >  0.31
|   |   |   |   |   |   |   |   |   |--- class: 1
|   |   |   |   |   |   |   |--- growth >  0.99
|   |   |   |   |   |   |   |   |--- molecular_function_regulator <= 0.42
|   |   |   |   |   |   |   |   |   |--- phosphorus_utilization <= 1.00
|   |   |   |   |   |   |   |   |   |   |--- class: 1
|   |   |   |   |   |   |   |   |   |--- phosphorus_utilization >  1.00
|   |   |   |   |   |   |   |   |   |   |--- class: 0
|   |   |   |   |   |   |   |   |--- molecular_function_regulator >  0.42
|   |   |   |   |   |   |   |   |   |--- class: 0
|   |   |   |   |   |   |--- rhythmic_process >  0.58
|   |   |   |   |   |   |   |--- locomotion <= 0.44
|   |   |   |   |   |   |   |   |--- interspecies_interaction_between_organisms <= 0.72
|   |   |   |   |   |   |   |   |   |--- translation_regulator_activity <= 0.99
|   |   |   |   |   |   |   |   |   |   |--- class: 0
|   |   |   |   |   |   |   |   |   |--- translation_regulator_activity >  0.99
|   |   |   |   |   |   |   |   |   |   |--- class: 1
|   |   |   |   |   |   |   |   |--- interspecies_interaction_between_organisms >  0.72
|   |   |   |   |   |   |   |   |   |--- cellular_anatomical_entity <= 0.45
|   |   |   |   |   |   |   |   |   |   |--- interspecies_interaction_between_organisms <= 0.99
|   |   |   |   |   |   |   |   |   |   |   |--- class: 0
|   |   |   |   |   |   |   |   |   |   |--- interspecies_interaction_between_organisms >  0.99
|   |   |   |   |   |   |   |   |   |   |   |--- class: 1
|   |   |   |   |   |   |   |   |   |--- cellular_anatomical_entity >  0.45
|   |   |   |   |   |   |   |   |   |   |--- class: 0
|   |   |   |   |   |   |   |--- locomotion >  0.44
|   |   |   |   |   |   |   |   |--- structural_molecule_activity <= 0.99
|   |   |   |   |   |   |   |   |   |--- carbohydrate_utilization <= 0.99
|   |   |   |   |   |   |   |   |   |   |--- class: 1
|   |   |   |   |   |   |   |   |   |--- carbohydrate_utilization >  0.99
|   |   |   |   |   |   |   |   |   |   |--- virion <= 0.99
|   |   |   |   |   |   |   |   |   |   |   |--- truncated branch of depth 2
|   |   |   |   |   |   |   |   |   |   |--- virion >  0.99
|   |   |   |   |   |   |   |   |   |   |   |--- truncated branch of depth 8
|   |   |   |   |   |   |   |   |--- structural_molecule_activity >  0.99
|   |   |   |   |   |   |   |   |   |--- structural_molecule_activity <= 0.99
|   |   |   |   |   |   |   |   |   |   |--- biological_adhesion <= 0.99
|   |   |   |   |   |   |   |   |   |   |   |--- truncated branch of depth 3
|   |   |   |   |   |   |   |   |   |   |--- biological_adhesion >  0.99
|   |   |   |   |   |   |   |   |   |   |   |--- class: 1
|   |   |   |   |   |   |   |   |   |--- structural_molecule_activity >  0.99
|   |   |   |   |   |   |   |   |   |   |--- localization <= 0.50
|   |   |   |   |   |   |   |   |   |   |   |--- truncated branch of depth 5
|   |   |   |   |   |   |   |   |   |   |--- localization >  0.50
|   |   |   |   |   |   |   |   |   |   |   |--- class: 1
|   |   |   |   |   |--- cellular_process >  0.30
|   |   |   |   |   |   |--- cellular_process <= 0.41
|   |   |   |   |   |   |   |--- response_to_stimulus <= 0.86
|   |   |   |   |   |   |   |   |--- locomotion <= 0.99
|   |   |   |   |   |   |   |   |   |--- catalytic_activity <= 0.99
|   |   |   |   |   |   |   |   |   |   |--- multi-organism_process <= 1.00
|   |   |   |   |   |   |   |   |   |   |   |--- truncated branch of depth 11
|   |   |   |   |   |   |   |   |   |   |--- multi-organism_process >  1.00
|   |   |   |   |   |   |   |   |   |   |   |--- class: 0
|   |   |   |   |   |   |   |   |   |--- catalytic_activity >  0.99
|   |   |   |   |   |   |   |   |   |   |--- transporter_activity <= 0.99
|   |   |   |   |   |   |   |   |   |   |   |--- truncated branch of depth 2
|   |   |   |   |   |   |   |   |   |   |--- transporter_activity >  0.99
|   |   |   |   |   |   |   |   |   |   |   |--- class: 1
|   |   |   |   |   |   |   |   |--- locomotion >  0.99
|   |   |   |   |   |   |   |   |   |--- rhythmic_process <= 0.81
|   |   |   |   |   |   |   |   |   |   |--- molecular_adaptor_activity <= 1.00
|   |   |   |   |   |   |   |   |   |   |   |--- class: 1
|   |   |   |   |   |   |   |   |   |   |--- molecular_adaptor_activity >  1.00
|   |   |   |   |   |   |   |   |   |   |   |--- truncated branch of depth 2
|   |   |   |   |   |   |   |   |   |--- rhythmic_process >  0.81
|   |   |   |   |   |   |   |   |   |   |--- antioxidant_activity <= 1.00
|   |   |   |   |   |   |   |   |   |   |   |--- truncated branch of depth 9
|   |   |   |   |   |   |   |   |   |   |--- antioxidant_activity >  1.00
|   |   |   |   |   |   |   |   |   |   |   |--- truncated branch of depth 6
|   |   |   |   |   |   |   |--- response_to_stimulus >  0.86
|   |   |   |   |   |   |   |   |--- biological_phase <= 1.00
|   |   |   |   |   |   |   |   |   |--- protein_folding_chaperone <= 1.00
|   |   |   |   |   |   |   |   |   |   |--- immune_system_process <= 0.99
|   |   |   |   |   |   |   |   |   |   |   |--- truncated branch of depth 3
|   |   |   |   |   |   |   |   |   |   |--- immune_system_process >  0.99
|   |   |   |   |   |   |   |   |   |   |   |--- truncated branch of depth 3
|   |   |   |   |   |   |   |   |   |--- protein_folding_chaperone >  1.00
|   |   |   |   |   |   |   |   |   |   |--- catalytic_activity <= 0.99
|   |   |   |   |   |   |   |   |   |   |   |--- class: 0
|   |   |   |   |   |   |   |   |   |   |--- catalytic_activity >  0.99
|   |   |   |   |   |   |   |   |   |   |   |--- class: 1
|   |   |   |   |   |   |   |   |--- biological_phase >  1.00
|   |   |   |   |   |   |   |   |   |--- class: 1
|   |   |   |   |   |   |--- cellular_process >  0.41
|   |   |   |   |   |   |   |--- growth <= 1.00
|   |   |   |   |   |   |   |   |--- immune_system_process <= 0.98
|   |   |   |   |   |   |   |   |   |--- locomotion <= 0.99
|   |   |   |   |   |   |   |   |   |   |--- sulfur_utilization <= 1.00
|   |   |   |   |   |   |   |   |   |   |   |--- truncated branch of depth 5
|   |   |   |   |   |   |   |   |   |   |--- sulfur_utilization >  1.00
|   |   |   |   |   |   |   |   |   |   |   |--- truncated branch of depth 2
|   |   |   |   |   |   |   |   |   |--- locomotion >  0.99
|   |   |   |   |   |   |   |   |   |   |--- cargo_receptor_activity <= 1.00
|   |   |   |   |   |   |   |   |   |   |   |--- class: 0
|   |   |   |   |   |   |   |   |   |   |--- cargo_receptor_activity >  1.00
|   |   |   |   |   |   |   |   |   |   |   |--- class: 1
|   |   |   |   |   |   |   |   |--- immune_system_process >  0.98
|   |   |   |   |   |   |   |   |   |--- cellular_anatomical_entity <= 0.52
|   |   |   |   |   |   |   |   |   |   |--- behavior <= 0.99
|   |   |   |   |   |   |   |   |   |   |   |--- truncated branch of depth 4
|   |   |   |   |   |   |   |   |   |   |--- behavior >  0.99
|   |   |   |   |   |   |   |   |   |   |   |--- class: 0
|   |   |   |   |   |   |   |   |   |--- cellular_anatomical_entity >  0.52
|   |   |   |   |   |   |   |   |   |   |--- pigmentation <= 1.00
|   |   |   |   |   |   |   |   |   |   |   |--- truncated branch of depth 3
|   |   |   |   |   |   |   |   |   |   |--- pigmentation >  1.00
|   |   |   |   |   |   |   |   |   |   |   |--- truncated branch of depth 3
|   |   |   |   |   |   |   |--- growth >  1.00
|   |   |   |   |   |   |   |   |--- response_to_stimulus <= 0.43
|   |   |   |   |   |   |   |   |   |--- molecular_template_activity <= 1.00
|   |   |   |   |   |   |   |   |   |   |--- class: 0
|   |   |   |   |   |   |   |   |   |--- molecular_template_activity >  1.00
|   |   |   |   |   |   |   |   |   |   |--- class: 1
|   |   |   |   |   |   |   |   |--- response_to_stimulus >  0.43
|   |   |   |   |   |   |   |   |   |--- class: 1
|   |   |   |   |--- localization >  0.98
|   |   |   |   |   |--- biological_regulation <= 0.47
|   |   |   |   |   |   |--- rhythmic_process <= 0.98
|   |   |   |   |   |   |   |--- developmental_process <= 0.35
|   |   |   |   |   |   |   |   |--- toxin_activity <= 1.00
|   |   |   |   |   |   |   |   |   |--- locomotion <= 0.42
|   |   |   |   |   |   |   |   |   |   |--- class: 1
|   |   |   |   |   |   |   |   |   |--- locomotion >  0.42
|   |   |   |   |   |   |   |   |   |   |--- molecular_sequestering_activity <= 1.00
|   |   |   |   |   |   |   |   |   |   |   |--- truncated branch of depth 2
|   |   |   |   |   |   |   |   |   |   |--- molecular_sequestering_activity >  1.00
|   |   |   |   |   |   |   |   |   |   |   |--- class: 0
|   |   |   |   |   |   |   |   |--- toxin_activity >  1.00
|   |   |   |   |   |   |   |   |   |--- cellular_anatomical_entity <= 0.48
|   |   |   |   |   |   |   |   |   |   |--- detoxification <= 0.99
|   |   |   |   |   |   |   |   |   |   |   |--- class: 1
|   |   |   |   |   |   |   |   |   |   |--- detoxification >  0.99
|   |   |   |   |   |   |   |   |   |   |   |--- truncated branch of depth 2
|   |   |   |   |   |   |   |   |   |--- cellular_anatomical_entity >  0.48
|   |   |   |   |   |   |   |   |   |   |--- intraspecies_interaction_between_organisms <= 0.99
|   |   |   |   |   |   |   |   |   |   |   |--- class: 0
|   |   |   |   |   |   |   |   |   |   |--- intraspecies_interaction_between_organisms >  0.99
|   |   |   |   |   |   |   |   |   |   |   |--- class: 1
|   |   |   |   |   |   |   |--- developmental_process >  0.35
|   |   |   |   |   |   |   |   |--- fusogenic_activity <= 1.00
|   |   |   |   |   |   |   |   |   |--- class: 1
|   |   |   |   |   |   |   |   |--- fusogenic_activity >  1.00
|   |   |   |   |   |   |   |   |   |--- small_molecule_sensor_activity <= 1.00
|   |   |   |   |   |   |   |   |   |   |--- class: 0
|   |   |   |   |   |   |   |   |   |--- small_molecule_sensor_activity >  1.00
|   |   |   |   |   |   |   |   |   |   |--- class: 1
|   |   |   |   |   |   |--- rhythmic_process >  0.98
|   |   |   |   |   |   |   |--- cellular_process <= 0.35
|   |   |   |   |   |   |   |   |--- cargo_receptor_activity <= 0.99
|   |   |   |   |   |   |   |   |   |--- cellular_anatomical_entity <= 0.55
|   |   |   |   |   |   |   |   |   |   |--- class: 0
|   |   |   |   |   |   |   |   |   |--- cellular_anatomical_entity >  0.55
|   |   |   |   |   |   |   |   |   |   |--- class: 1
|   |   |   |   |   |   |   |   |--- cargo_receptor_activity >  0.99
|   |   |   |   |   |   |   |   |   |--- growth <= 0.99
|   |   |   |   |   |   |   |   |   |   |--- signaling <= 0.57
|   |   |   |   |   |   |   |   |   |   |   |--- class: 1
|   |   |   |   |   |   |   |   |   |   |--- signaling >  0.57
|   |   |   |   |   |   |   |   |   |   |   |--- truncated branch of depth 7
|   |   |   |   |   |   |   |   |   |--- growth >  0.99
|   |   |   |   |   |   |   |   |   |   |--- response_to_stimulus <= 0.99
|   |   |   |   |   |   |   |   |   |   |   |--- truncated branch of depth 11
|   |   |   |   |   |   |   |   |   |   |--- response_to_stimulus >  0.99
|   |   |   |   |   |   |   |   |   |   |   |--- class: 1
|   |   |   |   |   |   |   |--- cellular_process >  0.35
|   |   |   |   |   |   |   |   |--- cellular_anatomical_entity <= 0.72
|   |   |   |   |   |   |   |   |   |--- immune_system_process <= 0.36
|   |   |   |   |   |   |   |   |   |   |--- rhythmic_process <= 0.99
|   |   |   |   |   |   |   |   |   |   |   |--- class: 1
|   |   |   |   |   |   |   |   |   |   |--- rhythmic_process >  0.99
|   |   |   |   |   |   |   |   |   |   |   |--- class: 0
|   |   |   |   |   |   |   |   |   |--- immune_system_process >  0.36
|   |   |   |   |   |   |   |   |   |   |--- other_organism_part <= 1.00
|   |   |   |   |   |   |   |   |   |   |   |--- class: 1
|   |   |   |   |   |   |   |   |   |   |--- other_organism_part >  1.00
|   |   |   |   |   |   |   |   |   |   |   |--- truncated branch of depth 12
|   |   |   |   |   |   |   |   |--- cellular_anatomical_entity >  0.72
|   |   |   |   |   |   |   |   |   |--- detoxification <= 1.00
|   |   |   |   |   |   |   |   |   |   |--- class: 1
|   |   |   |   |   |   |   |   |   |--- detoxification >  1.00
|   |   |   |   |   |   |   |   |   |   |--- reproductive_process <= 0.73
|   |   |   |   |   |   |   |   |   |   |   |--- class: 0
|   |   |   |   |   |   |   |   |   |   |--- reproductive_process >  0.73
|   |   |   |   |   |   |   |   |   |   |   |--- class: 1
|   |   |   |   |   |--- biological_regulation >  0.47
|   |   |   |   |   |   |--- interspecies_interaction_between_organisms <= 0.98
|   |   |   |   |   |   |   |--- biological_adhesion <= 0.99
|   |   |   |   |   |   |   |   |--- nitrogen_utilization <= 1.00
|   |   |   |   |   |   |   |   |   |--- class: 1
|   |   |   |   |   |   |   |   |--- nitrogen_utilization >  1.00
|   |   |   |   |   |   |   |   |   |--- biological_phase <= 1.00
|   |   |   |   |   |   |   |   |   |   |--- class: 1
|   |   |   |   |   |   |   |   |   |--- biological_phase >  1.00
|   |   |   |   |   |   |   |   |   |   |--- class: 0
|   |   |   |   |   |   |   |--- biological_adhesion >  0.99
|   |   |   |   |   |   |   |   |--- class: 0
|   |   |   |   |   |   |--- interspecies_interaction_between_organisms >  0.98
|   |   |   |   |   |   |   |--- protein_folding_chaperone <= 1.00
|   |   |   |   |   |   |   |   |--- cellular_anatomical_entity <= 0.61
|   |   |   |   |   |   |   |   |   |--- virion <= 0.99
|   |   |   |   |   |   |   |   |   |   |--- class: 1
|   |   |   |   |   |   |   |   |   |--- virion >  0.99
|   |   |   |   |   |   |   |   |   |   |--- molecular_sequestering_activity <= 0.99
|   |   |   |   |   |   |   |   |   |   |   |--- class: 1
|   |   |   |   |   |   |   |   |   |   |--- molecular_sequestering_activity >  0.99
|   |   |   |   |   |   |   |   |   |   |   |--- truncated branch of depth 3
|   |   |   |   |   |   |   |   |--- cellular_anatomical_entity >  0.61
|   |   |   |   |   |   |   |   |   |--- antioxidant_activity <= 1.00
|   |   |   |   |   |   |   |   |   |   |--- class: 0
|   |   |   |   |   |   |   |   |   |--- antioxidant_activity >  1.00
|   |   |   |   |   |   |   |   |   |   |--- class: 1
|   |   |   |   |   |   |   |--- protein_folding_chaperone >  1.00
|   |   |   |   |   |   |   |   |--- molecular_function_regulator <= 0.42
|   |   |   |   |   |   |   |   |   |--- protein_tag <= 1.00
|   |   |   |   |   |   |   |   |   |   |--- class: 1
|   |   |   |   |   |   |   |   |   |--- protein_tag >  1.00
|   |   |   |   |   |   |   |   |   |   |--- class: 0
|   |   |   |   |   |   |   |   |--- molecular_function_regulator >  0.42
|   |   |   |   |   |   |   |   |   |--- metabolic_process <= 0.42
|   |   |   |   |   |   |   |   |   |   |--- class: 1
|   |   |   |   |   |   |   |   |   |--- metabolic_process >  0.42
|   |   |   |   |   |   |   |   |   |   |--- class: 0
|   |   |   |--- developmental_process >  0.38
|   |   |   |   |--- cellular_process <= 0.38
|   |   |   |   |   |--- catalytic_activity <= 0.47
|   |   |   |   |   |   |--- cellular_process <= 0.27
|   |   |   |   |   |   |   |--- signaling <= 0.52
|   |   |   |   |   |   |   |   |--- transporter_activity <= 0.99
|   |   |   |   |   |   |   |   |   |--- class: 1
|   |   |   |   |   |   |   |   |--- transporter_activity >  0.99
|   |   |   |   |   |   |   |   |   |--- class: 0
|   |   |   |   |   |   |   |--- signaling >  0.52
|   |   |   |   |   |   |   |   |--- metabolic_process <= 0.38
|   |   |   |   |   |   |   |   |   |--- locomotion <= 0.40
|   |   |   |   |   |   |   |   |   |   |--- class: 1
|   |   |   |   |   |   |   |   |   |--- locomotion >  0.40
|   |   |   |   |   |   |   |   |   |   |--- molecular_sequestering_activity <= 1.00
|   |   |   |   |   |   |   |   |   |   |   |--- truncated branch of depth 8
|   |   |   |   |   |   |   |   |   |   |--- molecular_sequestering_activity >  1.00
|   |   |   |   |   |   |   |   |   |   |   |--- class: 1
|   |   |   |   |   |   |   |   |--- metabolic_process >  0.38
|   |   |   |   |   |   |   |   |   |--- protein_tag <= 0.99
|   |   |   |   |   |   |   |   |   |   |--- metabolic_process <= 0.42
|   |   |   |   |   |   |   |   |   |   |   |--- class: 1
|   |   |   |   |   |   |   |   |   |   |--- metabolic_process >  0.42
|   |   |   |   |   |   |   |   |   |   |   |--- class: 0
|   |   |   |   |   |   |   |   |   |--- protein_tag >  0.99
|   |   |   |   |   |   |   |   |   |   |--- translation_regulator_activity <= 0.99
|   |   |   |   |   |   |   |   |   |   |   |--- truncated branch of depth 2
|   |   |   |   |   |   |   |   |   |   |--- translation_regulator_activity >  0.99
|   |   |   |   |   |   |   |   |   |   |   |--- truncated branch of depth 7
|   |   |   |   |   |   |--- cellular_process >  0.27
|   |   |   |   |   |   |   |--- molecular_function_regulator <= 0.41
|   |   |   |   |   |   |   |   |--- response_to_stimulus <= 0.35
|   |   |   |   |   |   |   |   |   |--- interspecies_interaction_between_organisms <= 0.41
|   |   |   |   |   |   |   |   |   |   |--- protein_tag <= 0.99
|   |   |   |   |   |   |   |   |   |   |   |--- class: 1
|   |   |   |   |   |   |   |   |   |   |--- protein_tag >  0.99
|   |   |   |   |   |   |   |   |   |   |   |--- class: 0
|   |   |   |   |   |   |   |   |   |--- interspecies_interaction_between_organisms >  0.41
|   |   |   |   |   |   |   |   |   |   |--- signaling <= 0.57
|   |   |   |   |   |   |   |   |   |   |   |--- class: 0
|   |   |   |   |   |   |   |   |   |   |--- signaling >  0.57
|   |   |   |   |   |   |   |   |   |   |   |--- truncated branch of depth 2
|   |   |   |   |   |   |   |   |--- response_to_stimulus >  0.35
|   |   |   |   |   |   |   |   |   |--- localization <= 0.47
|   |   |   |   |   |   |   |   |   |   |--- binding <= 0.32
|   |   |   |   |   |   |   |   |   |   |   |--- truncated branch of depth 2
|   |   |   |   |   |   |   |   |   |   |--- binding >  0.32
|   |   |   |   |   |   |   |   |   |   |   |--- truncated branch of depth 2
|   |   |   |   |   |   |   |   |   |--- localization >  0.47
|   |   |   |   |   |   |   |   |   |   |--- immune_system_process <= 0.99
|   |   |   |   |   |   |   |   |   |   |   |--- truncated branch of depth 2
|   |   |   |   |   |   |   |   |   |   |--- immune_system_process >  0.99
|   |   |   |   |   |   |   |   |   |   |   |--- truncated branch of depth 3
|   |   |   |   |   |   |   |--- molecular_function_regulator >  0.41
|   |   |   |   |   |   |   |   |--- biological_regulation <= 0.48
|   |   |   |   |   |   |   |   |   |--- developmental_process <= 0.91
|   |   |   |   |   |   |   |   |   |   |--- developmental_process <= 0.50
|   |   |   |   |   |   |   |   |   |   |   |--- truncated branch of depth 15
|   |   |   |   |   |   |   |   |   |   |--- developmental_process >  0.50
|   |   |   |   |   |   |   |   |   |   |   |--- truncated branch of depth 3
|   |   |   |   |   |   |   |   |   |--- developmental_process >  0.91
|   |   |   |   |   |   |   |   |   |   |--- binding <= 0.51
|   |   |   |   |   |   |   |   |   |   |   |--- truncated branch of depth 15
|   |   |   |   |   |   |   |   |   |   |--- binding >  0.51
|   |   |   |   |   |   |   |   |   |   |   |--- truncated branch of depth 10
|   |   |   |   |   |   |   |   |--- biological_regulation >  0.48
|   |   |   |   |   |   |   |   |   |--- cellular_anatomical_entity <= 0.53
|   |   |   |   |   |   |   |   |   |   |--- metabolic_process <= 0.44
|   |   |   |   |   |   |   |   |   |   |   |--- truncated branch of depth 8
|   |   |   |   |   |   |   |   |   |   |--- metabolic_process >  0.44
|   |   |   |   |   |   |   |   |   |   |   |--- class: 1
|   |   |   |   |   |   |   |   |   |--- cellular_anatomical_entity >  0.53
|   |   |   |   |   |   |   |   |   |   |--- nitrogen_utilization <= 1.00
|   |   |   |   |   |   |   |   |   |   |   |--- truncated branch of depth 4
|   |   |   |   |   |   |   |   |   |   |--- nitrogen_utilization >  1.00
|   |   |   |   |   |   |   |   |   |   |   |--- truncated branch of depth 5
|   |   |   |   |   |--- catalytic_activity >  0.47
|   |   |   |   |   |   |--- cellular_anatomical_entity <= 0.59
|   |   |   |   |   |   |   |--- antioxidant_activity <= 1.00
|   |   |   |   |   |   |   |   |--- biological_regulation <= 0.48
|   |   |   |   |   |   |   |   |   |--- response_to_stimulus <= 0.32
|   |   |   |   |   |   |   |   |   |   |--- molecular_adaptor_activity <= 0.99
|   |   |   |   |   |   |   |   |   |   |   |--- truncated branch of depth 4
|   |   |   |   |   |   |   |   |   |   |--- molecular_adaptor_activity >  0.99
|   |   |   |   |   |   |   |   |   |   |   |--- truncated branch of depth 3
|   |   |   |   |   |   |   |   |   |--- response_to_stimulus >  0.32
|   |   |   |   |   |   |   |   |   |   |--- molecular_function_regulator <= 0.42
|   |   |   |   |   |   |   |   |   |   |   |--- truncated branch of depth 5
|   |   |   |   |   |   |   |   |   |   |--- molecular_function_regulator >  0.42
|   |   |   |   |   |   |   |   |   |   |   |--- truncated branch of depth 11
|   |   |   |   |   |   |   |   |--- biological_regulation >  0.48
|   |   |   |   |   |   |   |   |   |--- binding <= 0.44
|   |   |   |   |   |   |   |   |   |   |--- other_organism_part <= 1.00
|   |   |   |   |   |   |   |   |   |   |   |--- class: 1
|   |   |   |   |   |   |   |   |   |   |--- other_organism_part >  1.00
|   |   |   |   |   |   |   |   |   |   |   |--- truncated branch of depth 3
|   |   |   |   |   |   |   |   |   |--- binding >  0.44
|   |   |   |   |   |   |   |   |   |   |--- multicellular_organismal_process <= 0.99
|   |   |   |   |   |   |   |   |   |   |   |--- class: 1
|   |   |   |   |   |   |   |   |   |   |--- multicellular_organismal_process >  0.99
|   |   |   |   |   |   |   |   |   |   |   |--- truncated branch of depth 2
|   |   |   |   |   |   |   |--- antioxidant_activity >  1.00
|   |   |   |   |   |   |   |   |--- growth <= 0.50
|   |   |   |   |   |   |   |   |   |--- class: 1
|   |   |   |   |   |   |   |   |--- growth >  0.50
|   |   |   |   |   |   |   |   |   |--- nutrient_reservoir_activity <= 1.00
|   |   |   |   |   |   |   |   |   |   |--- response_to_stimulus <= 0.34
|   |   |   |   |   |   |   |   |   |   |   |--- truncated branch of depth 5
|   |   |   |   |   |   |   |   |   |   |--- response_to_stimulus >  0.34
|   |   |   |   |   |   |   |   |   |   |   |--- truncated branch of depth 21
|   |   |   |   |   |   |   |   |   |--- nutrient_reservoir_activity >  1.00
|   |   |   |   |   |   |   |   |   |   |--- carbohydrate_utilization <= 1.00
|   |   |   |   |   |   |   |   |   |   |   |--- truncated branch of depth 2
|   |   |   |   |   |   |   |   |   |   |--- carbohydrate_utilization >  1.00
|   |   |   |   |   |   |   |   |   |   |   |--- class: 0
|   |   |   |   |   |   |--- cellular_anatomical_entity >  0.59
|   |   |   |   |   |   |   |--- binding <= 0.64
|   |   |   |   |   |   |   |   |--- detoxification <= 1.00
|   |   |   |   |   |   |   |   |   |--- molecular_carrier_activity <= 0.99
|   |   |   |   |   |   |   |   |   |   |--- cellular_process <= 0.29
|   |   |   |   |   |   |   |   |   |   |   |--- class: 0
|   |   |   |   |   |   |   |   |   |   |--- cellular_process >  0.29
|   |   |   |   |   |   |   |   |   |   |   |--- class: 1
|   |   |   |   |   |   |   |   |   |--- molecular_carrier_activity >  0.99
|   |   |   |   |   |   |   |   |   |   |--- biological_phase <= 1.00
|   |   |   |   |   |   |   |   |   |   |   |--- truncated branch of depth 3
|   |   |   |   |   |   |   |   |   |   |--- biological_phase >  1.00
|   |   |   |   |   |   |   |   |   |   |   |--- truncated branch of depth 6
|   |   |   |   |   |   |   |   |--- detoxification >  1.00
|   |   |   |   |   |   |   |   |   |--- cellular_anatomical_entity <= 0.69
|   |   |   |   |   |   |   |   |   |   |--- molecular_function_regulator <= 0.39
|   |   |   |   |   |   |   |   |   |   |   |--- truncated branch of depth 2
|   |   |   |   |   |   |   |   |   |   |--- molecular_function_regulator >  0.39
|   |   |   |   |   |   |   |   |   |   |   |--- truncated branch of depth 3
|   |   |   |   |   |   |   |   |   |--- cellular_anatomical_entity >  0.69
|   |   |   |   |   |   |   |   |   |   |--- reproduction <= 1.00
|   |   |   |   |   |   |   |   |   |   |   |--- class: 1
|   |   |   |   |   |   |   |   |   |   |--- reproduction >  1.00
|   |   |   |   |   |   |   |   |   |   |   |--- class: 0
|   |   |   |   |   |   |   |--- binding >  0.64
|   |   |   |   |   |   |   |   |--- biological_adhesion <= 0.98
|   |   |   |   |   |   |   |   |   |--- class: 0
|   |   |   |   |   |   |   |   |--- biological_adhesion >  0.98
|   |   |   |   |   |   |   |   |   |--- immune_system_process <= 0.99
|   |   |   |   |   |   |   |   |   |   |--- catalytic_activity <= 0.77
|   |   |   |   |   |   |   |   |   |   |   |--- class: 0
|   |   |   |   |   |   |   |   |   |   |--- catalytic_activity >  0.77
|   |   |   |   |   |   |   |   |   |   |   |--- class: 1
|   |   |   |   |   |   |   |   |   |--- immune_system_process >  0.99
|   |   |   |   |   |   |   |   |   |   |--- class: 0
|   |   |   |   |--- cellular_process >  0.38
|   |   |   |   |   |--- binding <= 0.71
|   |   |   |   |   |   |--- localization <= 0.97
|   |   |   |   |   |   |   |--- localization <= 0.51
|   |   |   |   |   |   |   |   |--- locomotion <= 0.98
|   |   |   |   |   |   |   |   |   |--- pigmentation <= 0.99
|   |   |   |   |   |   |   |   |   |   |--- class: 0
|   |   |   |   |   |   |   |   |   |--- pigmentation >  0.99
|   |   |   |   |   |   |   |   |   |   |--- cargo_receptor_activity <= 0.99
|   |   |   |   |   |   |   |   |   |   |   |--- class: 0
|   |   |   |   |   |   |   |   |   |   |--- cargo_receptor_activity >  0.99
|   |   |   |   |   |   |   |   |   |   |   |--- truncated branch of depth 5
|   |   |   |   |   |   |   |   |--- locomotion >  0.98
|   |   |   |   |   |   |   |   |   |--- reproductive_process <= 0.80
|   |   |   |   |   |   |   |   |   |   |--- interspecies_interaction_between_organisms <= 0.47
|   |   |   |   |   |   |   |   |   |   |   |--- truncated branch of depth 3
|   |   |   |   |   |   |   |   |   |   |--- interspecies_interaction_between_organisms >  0.47
|   |   |   |   |   |   |   |   |   |   |   |--- truncated branch of depth 5
|   |   |   |   |   |   |   |   |   |--- reproductive_process >  0.80
|   |   |   |   |   |   |   |   |   |   |--- response_to_stimulus <= 0.34
|   |   |   |   |   |   |   |   |   |   |   |--- truncated branch of depth 6
|   |   |   |   |   |   |   |   |   |   |--- response_to_stimulus >  0.34
|   |   |   |   |   |   |   |   |   |   |   |--- truncated branch of depth 13
|   |   |   |   |   |   |   |--- localization >  0.51
|   |   |   |   |   |   |   |   |--- other_organism_part <= 1.00
|   |   |   |   |   |   |   |   |   |--- toxin_activity <= 1.00
|   |   |   |   |   |   |   |   |   |   |--- localization <= 0.86
|   |   |   |   |   |   |   |   |   |   |   |--- truncated branch of depth 2
|   |   |   |   |   |   |   |   |   |   |--- localization >  0.86
|   |   |   |   |   |   |   |   |   |   |   |--- class: 0
|   |   |   |   |   |   |   |   |   |--- toxin_activity >  1.00
|   |   |   |   |   |   |   |   |   |   |--- reproductive_process <= 0.99
|   |   |   |   |   |   |   |   |   |   |   |--- class: 1
|   |   |   |   |   |   |   |   |   |   |--- reproductive_process >  0.99
|   |   |   |   |   |   |   |   |   |   |   |--- truncated branch of depth 2
|   |   |   |   |   |   |   |   |--- other_organism_part >  1.00
|   |   |   |   |   |   |   |   |   |--- translation_regulator_activity <= 0.78
|   |   |   |   |   |   |   |   |   |   |--- cellular_anatomical_entity <= 0.46
|   |   |   |   |   |   |   |   |   |   |   |--- class: 1
|   |   |   |   |   |   |   |   |   |   |--- cellular_anatomical_entity >  0.46
|   |   |   |   |   |   |   |   |   |   |   |--- class: 0
|   |   |   |   |   |   |   |   |   |--- translation_regulator_activity >  0.78
|   |   |   |   |   |   |   |   |   |   |--- other_organism_part <= 1.00
|   |   |   |   |   |   |   |   |   |   |   |--- class: 1
|   |   |   |   |   |   |   |   |   |   |--- other_organism_part >  1.00
|   |   |   |   |   |   |   |   |   |   |   |--- class: 0
|   |   |   |   |   |   |--- localization >  0.97
|   |   |   |   |   |   |   |--- cellular_anatomical_entity <= 0.59
|   |   |   |   |   |   |   |   |--- response_to_stimulus <= 0.34
|   |   |   |   |   |   |   |   |   |--- protein_tag <= 1.00
|   |   |   |   |   |   |   |   |   |   |--- molecular_template_activity <= 1.00
|   |   |   |   |   |   |   |   |   |   |   |--- truncated branch of depth 2
|   |   |   |   |   |   |   |   |   |   |--- molecular_template_activity >  1.00
|   |   |   |   |   |   |   |   |   |   |   |--- truncated branch of depth 2
|   |   |   |   |   |   |   |   |   |--- protein_tag >  1.00
|   |   |   |   |   |   |   |   |   |   |--- molecular_function_regulator <= 0.99
|   |   |   |   |   |   |   |   |   |   |   |--- truncated branch of depth 4
|   |   |   |   |   |   |   |   |   |   |--- molecular_function_regulator >  0.99
|   |   |   |   |   |   |   |   |   |   |   |--- truncated branch of depth 2
|   |   |   |   |   |   |   |   |--- response_to_stimulus >  0.34
|   |   |   |   |   |   |   |   |   |--- developmental_process <= 0.98
|   |   |   |   |   |   |   |   |   |   |--- molecular_carrier_activity <= 1.00
|   |   |   |   |   |   |   |   |   |   |   |--- truncated branch of depth 10
|   |   |   |   |   |   |   |   |   |   |--- molecular_carrier_activity >  1.00
|   |   |   |   |   |   |   |   |   |   |   |--- truncated branch of depth 9
|   |   |   |   |   |   |   |   |   |--- developmental_process >  0.98
|   |   |   |   |   |   |   |   |   |   |--- binding <= 0.41
|   |   |   |   |   |   |   |   |   |   |   |--- truncated branch of depth 6
|   |   |   |   |   |   |   |   |   |   |--- binding >  0.41
|   |   |   |   |   |   |   |   |   |   |   |--- truncated branch of depth 9
|   |   |   |   |   |   |   |--- cellular_anatomical_entity >  0.59
|   |   |   |   |   |   |   |   |--- biological_regulation <= 0.50
|   |   |   |   |   |   |   |   |   |--- metabolic_process <= 0.41
|   |   |   |   |   |   |   |   |   |   |--- signaling <= 0.99
|   |   |   |   |   |   |   |   |   |   |   |--- truncated branch of depth 2
|   |   |   |   |   |   |   |   |   |   |--- signaling >  0.99
|   |   |   |   |   |   |   |   |   |   |   |--- truncated branch of depth 12
|   |   |   |   |   |   |   |   |   |--- metabolic_process >  0.41
|   |   |   |   |   |   |   |   |   |   |--- intraspecies_interaction_between_organisms <= 1.00
|   |   |   |   |   |   |   |   |   |   |   |--- truncated branch of depth 4
|   |   |   |   |   |   |   |   |   |   |--- intraspecies_interaction_between_organisms >  1.00
|   |   |   |   |   |   |   |   |   |   |   |--- truncated branch of depth 4
|   |   |   |   |   |   |   |   |--- biological_regulation >  0.50
|   |   |   |   |   |   |   |   |   |--- toxin_activity <= 0.99
|   |   |   |   |   |   |   |   |   |   |--- class: 0
|   |   |   |   |   |   |   |   |   |--- toxin_activity >  0.99
|   |   |   |   |   |   |   |   |   |   |--- virion_part <= 1.00
|   |   |   |   |   |   |   |   |   |   |   |--- truncated branch of depth 4
|   |   |   |   |   |   |   |   |   |   |--- virion_part >  1.00
|   |   |   |   |   |   |   |   |   |   |   |--- truncated branch of depth 4
|   |   |   |   |   |--- binding >  0.71
|   |   |   |   |   |   |--- binding <= 0.88
|   |   |   |   |   |   |   |--- protein_folding_chaperone <= 1.00
|   |   |   |   |   |   |   |   |--- protein_folding_chaperone <= 1.00
|   |   |   |   |   |   |   |   |   |--- class: 1
|   |   |   |   |   |   |   |   |--- protein_folding_chaperone >  1.00
|   |   |   |   |   |   |   |   |   |--- class: 0
|   |   |   |   |   |   |   |--- protein_folding_chaperone >  1.00
|   |   |   |   |   |   |   |   |--- molecular_function_regulator <= 0.99
|   |   |   |   |   |   |   |   |   |--- molecular_function_regulator <= 0.64
|   |   |   |   |   |   |   |   |   |   |--- class: 0
|   |   |   |   |   |   |   |   |   |--- molecular_function_regulator >  0.64
|   |   |   |   |   |   |   |   |   |   |--- nitrogen_utilization <= 0.99
|   |   |   |   |   |   |   |   |   |   |   |--- truncated branch of depth 2
|   |   |   |   |   |   |   |   |   |   |--- nitrogen_utilization >  0.99
|   |   |   |   |   |   |   |   |   |   |   |--- class: 1
|   |   |   |   |   |   |   |   |--- molecular_function_regulator >  0.99
|   |   |   |   |   |   |   |   |   |--- pigmentation <= 1.00
|   |   |   |   |   |   |   |   |   |   |--- class: 1
|   |   |   |   |   |   |   |   |   |--- pigmentation >  1.00
|   |   |   |   |   |   |   |   |   |   |--- class: 0
|   |   |   |   |   |   |--- binding >  0.88
|   |   |   |   |   |   |   |--- catalytic_activity <= 0.56
|   |   |   |   |   |   |   |   |--- interspecies_interaction_between_organisms <= 0.98
|   |   |   |   |   |   |   |   |   |--- cellular_process <= 0.40
|   |   |   |   |   |   |   |   |   |   |--- class: 0
|   |   |   |   |   |   |   |   |   |--- cellular_process >  0.40
|   |   |   |   |   |   |   |   |   |   |--- class: 1
|   |   |   |   |   |   |   |   |--- interspecies_interaction_between_organisms >  0.98
|   |   |   |   |   |   |   |   |   |--- immune_system_process <= 0.71
|   |   |   |   |   |   |   |   |   |   |--- class: 1
|   |   |   |   |   |   |   |   |   |--- immune_system_process >  0.71
|   |   |   |   |   |   |   |   |   |   |--- class: 0
|   |   |   |   |   |   |   |--- catalytic_activity >  0.56
|   |   |   |   |   |   |   |   |--- molecular_transducer_activity <= 0.99
|   |   |   |   |   |   |   |   |   |--- small_molecule_sensor_activity <= 1.00
|   |   |   |   |   |   |   |   |   |   |--- class: 0
|   |   |   |   |   |   |   |   |   |--- small_molecule_sensor_activity >  1.00
|   |   |   |   |   |   |   |   |   |   |--- reproduction <= 0.99
|   |   |   |   |   |   |   |   |   |   |   |--- class: 0
|   |   |   |   |   |   |   |   |   |   |--- reproduction >  0.99
|   |   |   |   |   |   |   |   |   |   |   |--- class: 1
|   |   |   |   |   |   |   |   |--- molecular_transducer_activity >  0.99
|   |   |   |   |   |   |   |   |   |--- biomineralization <= 1.00
|   |   |   |   |   |   |   |   |   |   |--- multi-organism_process <= 0.99
|   |   |   |   |   |   |   |   |   |   |   |--- truncated branch of depth 2
|   |   |   |   |   |   |   |   |   |   |--- multi-organism_process >  0.99
|   |   |   |   |   |   |   |   |   |   |   |--- truncated branch of depth 2
|   |   |   |   |   |   |   |   |   |--- biomineralization >  1.00
|   |   |   |   |   |   |   |   |   |   |--- class: 0
|   |   |--- metabolic_process >  0.46
|   |   |   |--- metabolic_process <= 0.97
|   |   |   |   |--- metabolic_process <= 0.51
|   |   |   |   |   |--- interspecies_interaction_between_organisms <= 0.98
|   |   |   |   |   |   |--- developmental_process <= 0.99
|   |   |   |   |   |   |   |--- response_to_stimulus <= 0.99
|   |   |   |   |   |   |   |   |--- molecular_carrier_activity <= 1.00
|   |   |   |   |   |   |   |   |   |--- fusogenic_activity <= 0.99
|   |   |   |   |   |   |   |   |   |   |--- class: 0
|   |   |   |   |   |   |   |   |   |--- fusogenic_activity >  0.99
|   |   |   |   |   |   |   |   |   |   |--- molecular_template_activity <= 1.00
|   |   |   |   |   |   |   |   |   |   |   |--- truncated branch of depth 7
|   |   |   |   |   |   |   |   |   |   |--- molecular_template_activity >  1.00
|   |   |   |   |   |   |   |   |   |   |   |--- truncated branch of depth 4
|   |   |   |   |   |   |   |   |--- molecular_carrier_activity >  1.00
|   |   |   |   |   |   |   |   |   |--- catalytic_activity <= 0.99
|   |   |   |   |   |   |   |   |   |   |--- nitrogen_utilization <= 1.00
|   |   |   |   |   |   |   |   |   |   |   |--- truncated branch of depth 3
|   |   |   |   |   |   |   |   |   |   |--- nitrogen_utilization >  1.00
|   |   |   |   |   |   |   |   |   |   |   |--- truncated branch of depth 4
|   |   |   |   |   |   |   |   |   |--- catalytic_activity >  0.99
|   |   |   |   |   |   |   |   |   |   |--- multicellular_organismal_process <= 0.43
|   |   |   |   |   |   |   |   |   |   |   |--- class: 1
|   |   |   |   |   |   |   |   |   |   |--- multicellular_organismal_process >  0.43
|   |   |   |   |   |   |   |   |   |   |   |--- class: 0
|   |   |   |   |   |   |   |--- response_to_stimulus >  0.99
|   |   |   |   |   |   |   |   |--- cellular_process <= 0.48
|   |   |   |   |   |   |   |   |   |--- class: 0
|   |   |   |   |   |   |   |   |--- cellular_process >  0.48
|   |   |   |   |   |   |   |   |   |--- class: 1
|   |   |   |   |   |   |--- developmental_process >  0.99
|   |   |   |   |   |   |   |--- protein_tag <= 1.00
|   |   |   |   |   |   |   |   |--- catalytic_activity <= 0.40
|   |   |   |   |   |   |   |   |   |--- antioxidant_activity <= 0.99
|   |   |   |   |   |   |   |   |   |   |--- class: 0
|   |   |   |   |   |   |   |   |   |--- antioxidant_activity >  0.99
|   |   |   |   |   |   |   |   |   |   |--- class: 1
|   |   |   |   |   |   |   |   |--- catalytic_activity >  0.40
|   |   |   |   |   |   |   |   |   |--- nutrient_reservoir_activity <= 0.99
|   |   |   |   |   |   |   |   |   |   |--- class: 1
|   |   |   |   |   |   |   |   |   |--- nutrient_reservoir_activity >  0.99
|   |   |   |   |   |   |   |   |   |   |--- class: 0
|   |   |   |   |   |   |   |--- protein_tag >  1.00
|   |   |   |   |   |   |   |   |--- nutrient_reservoir_activity <= 0.99
|   |   |   |   |   |   |   |   |   |--- class: 0
|   |   |   |   |   |   |   |   |--- nutrient_reservoir_activity >  0.99
|   |   |   |   |   |   |   |   |   |--- class: 1
|   |   |   |   |   |--- interspecies_interaction_between_organisms >  0.98
|   |   |   |   |   |   |--- cellular_anatomical_entity <= 0.61
|   |   |   |   |   |   |   |--- cellular_process <= 0.47
|   |   |   |   |   |   |   |   |--- phosphorus_utilization <= 1.00
|   |   |   |   |   |   |   |   |   |--- sulfur_utilization <= 1.00
|   |   |   |   |   |   |   |   |   |   |--- localization <= 0.99
|   |   |   |   |   |   |   |   |   |   |   |--- truncated branch of depth 2
|   |   |   |   |   |   |   |   |   |   |--- localization >  0.99
|   |   |   |   |   |   |   |   |   |   |   |--- class: 1
|   |   |   |   |   |   |   |   |   |--- sulfur_utilization >  1.00
|   |   |   |   |   |   |   |   |   |   |--- cellular_anatomical_entity <= 0.50
|   |   |   |   |   |   |   |   |   |   |   |--- class: 0
|   |   |   |   |   |   |   |   |   |   |--- cellular_anatomical_entity >  0.50
|   |   |   |   |   |   |   |   |   |   |   |--- class: 1
|   |   |   |   |   |   |   |   |--- phosphorus_utilization >  1.00
|   |   |   |   |   |   |   |   |   |--- response_to_stimulus <= 0.35
|   |   |   |   |   |   |   |   |   |   |--- behavior <= 0.99
|   |   |   |   |   |   |   |   |   |   |   |--- class: 1
|   |   |   |   |   |   |   |   |   |   |--- behavior >  0.99
|   |   |   |   |   |   |   |   |   |   |   |--- truncated branch of depth 3
|   |   |   |   |   |   |   |   |   |--- response_to_stimulus >  0.35
|   |   |   |   |   |   |   |   |   |   |--- catalytic_activity <= 0.99
|   |   |   |   |   |   |   |   |   |   |   |--- truncated branch of depth 7
|   |   |   |   |   |   |   |   |   |   |--- catalytic_activity >  0.99
|   |   |   |   |   |   |   |   |   |   |   |--- truncated branch of depth 2
|   |   |   |   |   |   |   |--- cellular_process >  0.47
|   |   |   |   |   |   |   |   |--- binding <= 0.37
|   |   |   |   |   |   |   |   |   |--- reproductive_process <= 0.99
|   |   |   |   |   |   |   |   |   |   |--- class: 1
|   |   |   |   |   |   |   |   |   |--- reproductive_process >  0.99
|   |   |   |   |   |   |   |   |   |   |--- class: 0
|   |   |   |   |   |   |   |   |--- binding >  0.37
|   |   |   |   |   |   |   |   |   |--- rhythmic_process <= 1.00
|   |   |   |   |   |   |   |   |   |   |--- class: 1
|   |   |   |   |   |   |   |   |   |--- rhythmic_process >  1.00
|   |   |   |   |   |   |   |   |   |   |--- class: 0
|   |   |   |   |   |   |--- cellular_anatomical_entity >  0.61
|   |   |   |   |   |   |   |--- biological_regulation <= 0.34
|   |   |   |   |   |   |   |   |--- protein_folding_chaperone <= 1.00
|   |   |   |   |   |   |   |   |   |--- class: 1
|   |   |   |   |   |   |   |   |--- protein_folding_chaperone >  1.00
|   |   |   |   |   |   |   |   |   |--- structural_molecule_activity <= 0.99
|   |   |   |   |   |   |   |   |   |   |--- class: 1
|   |   |   |   |   |   |   |   |   |--- structural_molecule_activity >  0.99
|   |   |   |   |   |   |   |   |   |   |--- class: 0
|   |   |   |   |   |   |   |--- biological_regulation >  0.34
|   |   |   |   |   |   |   |   |--- molecular_function_regulator <= 0.99
|   |   |   |   |   |   |   |   |   |--- fusogenic_activity <= 1.00
|   |   |   |   |   |   |   |   |   |   |--- biological_phase <= 0.99
|   |   |   |   |   |   |   |   |   |   |   |--- class: 0
|   |   |   |   |   |   |   |   |   |   |--- biological_phase >  0.99
|   |   |   |   |   |   |   |   |   |   |   |--- class: 1
|   |   |   |   |   |   |   |   |   |--- fusogenic_activity >  1.00
|   |   |   |   |   |   |   |   |   |   |--- phosphorus_utilization <= 1.00
|   |   |   |   |   |   |   |   |   |   |   |--- class: 0
|   |   |   |   |   |   |   |   |   |   |--- phosphorus_utilization >  1.00
|   |   |   |   |   |   |   |   |   |   |   |--- class: 1
|   |   |   |   |   |   |   |   |--- molecular_function_regulator >  0.99
|   |   |   |   |   |   |   |   |   |--- other_organism_part <= 1.00
|   |   |   |   |   |   |   |   |   |   |--- class: 1
|   |   |   |   |   |   |   |   |   |--- other_organism_part >  1.00
|   |   |   |   |   |   |   |   |   |   |--- class: 0
|   |   |   |   |--- metabolic_process >  0.51
|   |   |   |   |   |--- binding <= 0.27
|   |   |   |   |   |   |--- metabolic_process <= 0.53
|   |   |   |   |   |   |   |--- virion_part <= 1.00
|   |   |   |   |   |   |   |   |--- class: 1
|   |   |   |   |   |   |   |--- virion_part >  1.00
|   |   |   |   |   |   |   |   |--- class: 0
|   |   |   |   |   |   |--- metabolic_process >  0.53
|   |   |   |   |   |   |   |--- carbon_utilization <= 1.00
|   |   |   |   |   |   |   |   |--- class: 1
|   |   |   |   |   |   |   |--- carbon_utilization >  1.00
|   |   |   |   |   |   |   |   |--- protein_tag <= 1.00
|   |   |   |   |   |   |   |   |   |--- class: 0
|   |   |   |   |   |   |   |   |--- protein_tag >  1.00
|   |   |   |   |   |   |   |   |   |--- class: 1
|   |   |   |   |   |--- binding >  0.27
|   |   |   |   |   |   |--- structural_molecule_activity <= 0.51
|   |   |   |   |   |   |   |--- developmental_process <= 0.54
|   |   |   |   |   |   |   |   |--- class: 0
|   |   |   |   |   |   |   |--- developmental_process >  0.54
|   |   |   |   |   |   |   |   |--- class: 1
|   |   |   |   |   |   |--- structural_molecule_activity >  0.51
|   |   |   |   |   |   |   |--- molecular_transducer_activity <= 0.43
|   |   |   |   |   |   |   |   |--- transporter_activity <= 0.99
|   |   |   |   |   |   |   |   |   |--- class: 0
|   |   |   |   |   |   |   |   |--- transporter_activity >  0.99
|   |   |   |   |   |   |   |   |   |--- class: 1
|   |   |   |   |   |   |   |--- molecular_transducer_activity >  0.43
|   |   |   |   |   |   |   |   |--- behavior <= 0.99
|   |   |   |   |   |   |   |   |   |--- intraspecies_interaction_between_organisms <= 0.69
|   |   |   |   |   |   |   |   |   |   |--- class: 0
|   |   |   |   |   |   |   |   |   |--- intraspecies_interaction_between_organisms >  0.69
|   |   |   |   |   |   |   |   |   |   |--- cargo_receptor_activity <= 0.99
|   |   |   |   |   |   |   |   |   |   |   |--- truncated branch of depth 4
|   |   |   |   |   |   |   |   |   |   |--- cargo_receptor_activity >  0.99
|   |   |   |   |   |   |   |   |   |   |   |--- truncated branch of depth 9
|   |   |   |   |   |   |   |   |--- behavior >  0.99
|   |   |   |   |   |   |   |   |   |--- transporter_activity <= 0.49
|   |   |   |   |   |   |   |   |   |   |--- class: 0
|   |   |   |   |   |   |   |   |   |--- transporter_activity >  0.49
|   |   |   |   |   |   |   |   |   |   |--- behavior <= 0.99
|   |   |   |   |   |   |   |   |   |   |   |--- class: 0
|   |   |   |   |   |   |   |   |   |   |--- behavior >  0.99
|   |   |   |   |   |   |   |   |   |   |   |--- truncated branch of depth 12
|   |   |   |--- metabolic_process >  0.97
|   |   |   |   |--- biological_regulation <= 0.51
|   |   |   |   |   |--- molecular_function_regulator <= 0.50
|   |   |   |   |   |   |--- cellular_anatomical_entity <= 0.78
|   |   |   |   |   |   |   |--- reproductive_process <= 0.48
|   |   |   |   |   |   |   |   |--- molecular_transducer_activity <= 0.99
|   |   |   |   |   |   |   |   |   |--- carbohydrate_utilization <= 1.00
|   |   |   |   |   |   |   |   |   |   |--- nitrogen_utilization <= 1.00
|   |   |   |   |   |   |   |   |   |   |   |--- truncated branch of depth 2
|   |   |   |   |   |   |   |   |   |   |--- nitrogen_utilization >  1.00
|   |   |   |   |   |   |   |   |   |   |   |--- class: 0
|   |   |   |   |   |   |   |   |   |--- carbohydrate_utilization >  1.00
|   |   |   |   |   |   |   |   |   |   |--- class: 1
|   |   |   |   |   |   |   |   |--- molecular_transducer_activity >  0.99
|   |   |   |   |   |   |   |   |   |--- translation_regulator_activity <= 1.00
|   |   |   |   |   |   |   |   |   |   |--- class: 1
|   |   |   |   |   |   |   |   |   |--- translation_regulator_activity >  1.00
|   |   |   |   |   |   |   |   |   |   |--- class: 0
|   |   |   |   |   |   |   |--- reproductive_process >  0.48
|   |   |   |   |   |   |   |   |--- antioxidant_activity <= 1.00
|   |   |   |   |   |   |   |   |   |--- multi-organism_process <= 1.00
|   |   |   |   |   |   |   |   |   |   |--- structural_molecule_activity <= 0.51
|   |   |   |   |   |   |   |   |   |   |   |--- class: 1
|   |   |   |   |   |   |   |   |   |   |--- structural_molecule_activity >  0.51
|   |   |   |   |   |   |   |   |   |   |   |--- truncated branch of depth 7
|   |   |   |   |   |   |   |   |   |--- multi-organism_process >  1.00
|   |   |   |   |   |   |   |   |   |   |--- protein_folding_chaperone <= 1.00
|   |   |   |   |   |   |   |   |   |   |   |--- class: 1
|   |   |   |   |   |   |   |   |   |   |--- protein_folding_chaperone >  1.00
|   |   |   |   |   |   |   |   |   |   |   |--- class: 0
|   |   |   |   |   |   |   |   |--- antioxidant_activity >  1.00
|   |   |   |   |   |   |   |   |   |--- antioxidant_activity <= 1.00
|   |   |   |   |   |   |   |   |   |   |--- multicellular_organismal_process <= 0.38
|   |   |   |   |   |   |   |   |   |   |   |--- class: 0
|   |   |   |   |   |   |   |   |   |   |--- multicellular_organismal_process >  0.38
|   |   |   |   |   |   |   |   |   |   |   |--- truncated branch of depth 2
|   |   |   |   |   |   |   |   |   |--- antioxidant_activity >  1.00
|   |   |   |   |   |   |   |   |   |   |--- multicellular_organismal_process <= 0.45
|   |   |   |   |   |   |   |   |   |   |   |--- truncated branch of depth 4
|   |   |   |   |   |   |   |   |   |   |--- multicellular_organismal_process >  0.45
|   |   |   |   |   |   |   |   |   |   |   |--- truncated branch of depth 5
|   |   |   |   |   |   |--- cellular_anatomical_entity >  0.78
|   |   |   |   |   |   |   |--- behavior <= 0.99
|   |   |   |   |   |   |   |   |--- class: 0
|   |   |   |   |   |   |   |--- behavior >  0.99
|   |   |   |   |   |   |   |   |--- class: 1
|   |   |   |   |   |--- molecular_function_regulator >  0.50
|   |   |   |   |   |   |--- cellular_anatomical_entity <= 0.52
|   |   |   |   |   |   |   |--- cellular_process <= 0.40
|   |   |   |   |   |   |   |   |--- developmental_process <= 0.29
|   |   |   |   |   |   |   |   |   |--- molecular_template_activity <= 0.99
|   |   |   |   |   |   |   |   |   |   |--- class: 0
|   |   |   |   |   |   |   |   |   |--- molecular_template_activity >  0.99
|   |   |   |   |   |   |   |   |   |   |--- class: 1
|   |   |   |   |   |   |   |   |--- developmental_process >  0.29
|   |   |   |   |   |   |   |   |   |--- localization <= 0.34
|   |   |   |   |   |   |   |   |   |   |--- cellular_anatomical_entity <= 0.47
|   |   |   |   |   |   |   |   |   |   |   |--- truncated branch of depth 2
|   |   |   |   |   |   |   |   |   |   |--- cellular_anatomical_entity >  0.47
|   |   |   |   |   |   |   |   |   |   |   |--- truncated branch of depth 3
|   |   |   |   |   |   |   |   |   |--- localization >  0.34
|   |   |   |   |   |   |   |   |   |   |--- biological_adhesion <= 0.46
|   |   |   |   |   |   |   |   |   |   |   |--- truncated branch of depth 2
|   |   |   |   |   |   |   |   |   |   |--- biological_adhesion >  0.46
|   |   |   |   |   |   |   |   |   |   |   |--- truncated branch of depth 7
|   |   |   |   |   |   |   |--- cellular_process >  0.40
|   |   |   |   |   |   |   |   |--- molecular_adaptor_activity <= 0.99
|   |   |   |   |   |   |   |   |   |--- protein_tag <= 1.00
|   |   |   |   |   |   |   |   |   |   |--- phosphorus_utilization <= 1.00
|   |   |   |   |   |   |   |   |   |   |   |--- class: 1
|   |   |   |   |   |   |   |   |   |   |--- phosphorus_utilization >  1.00
|   |   |   |   |   |   |   |   |   |   |   |--- class: 0
|   |   |   |   |   |   |   |   |   |--- protein_tag >  1.00
|   |   |   |   |   |   |   |   |   |   |--- biological_phase <= 1.00
|   |   |   |   |   |   |   |   |   |   |   |--- class: 0
|   |   |   |   |   |   |   |   |   |   |--- biological_phase >  1.00
|   |   |   |   |   |   |   |   |   |   |   |--- class: 1
|   |   |   |   |   |   |   |   |--- molecular_adaptor_activity >  0.99
|   |   |   |   |   |   |   |   |   |--- multi-organism_process <= 0.99
|   |   |   |   |   |   |   |   |   |   |--- growth <= 0.99
|   |   |   |   |   |   |   |   |   |   |   |--- truncated branch of depth 2
|   |   |   |   |   |   |   |   |   |   |--- growth >  0.99
|   |   |   |   |   |   |   |   |   |   |   |--- truncated branch of depth 3
|   |   |   |   |   |   |   |   |   |--- multi-organism_process >  0.99
|   |   |   |   |   |   |   |   |   |   |--- nitrogen_utilization <= 1.00
|   |   |   |   |   |   |   |   |   |   |   |--- truncated branch of depth 3
|   |   |   |   |   |   |   |   |   |   |--- nitrogen_utilization >  1.00
|   |   |   |   |   |   |   |   |   |   |   |--- truncated branch of depth 6
|   |   |   |   |   |   |--- cellular_anatomical_entity >  0.52
|   |   |   |   |   |   |   |--- molecular_transducer_activity <= 0.54
|   |   |   |   |   |   |   |   |--- structural_molecule_activity <= 0.99
|   |   |   |   |   |   |   |   |   |--- sulfur_utilization <= 1.00
|   |   |   |   |   |   |   |   |   |   |--- class: 1
|   |   |   |   |   |   |   |   |   |--- sulfur_utilization >  1.00
|   |   |   |   |   |   |   |   |   |   |--- catalytic_activity <= 0.99
|   |   |   |   |   |   |   |   |   |   |   |--- class: 0
|   |   |   |   |   |   |   |   |   |   |--- catalytic_activity >  0.99
|   |   |   |   |   |   |   |   |   |   |   |--- truncated branch of depth 3
|   |   |   |   |   |   |   |   |--- structural_molecule_activity >  0.99
|   |   |   |   |   |   |   |   |   |--- class: 1
|   |   |   |   |   |   |   |--- molecular_transducer_activity >  0.54
|   |   |   |   |   |   |   |   |--- biological_adhesion <= 0.99
|   |   |   |   |   |   |   |   |   |--- molecular_carrier_activity <= 1.00
|   |   |   |   |   |   |   |   |   |   |--- interspecies_interaction_between_organisms <= 0.45
|   |   |   |   |   |   |   |   |   |   |   |--- truncated branch of depth 3
|   |   |   |   |   |   |   |   |   |   |--- interspecies_interaction_between_organisms >  0.45
|   |   |   |   |   |   |   |   |   |   |   |--- truncated branch of depth 13
|   |   |   |   |   |   |   |   |   |--- molecular_carrier_activity >  1.00
|   |   |   |   |   |   |   |   |   |   |--- localization <= 0.39
|   |   |   |   |   |   |   |   |   |   |   |--- class: 1
|   |   |   |   |   |   |   |   |   |   |--- localization >  0.39
|   |   |   |   |   |   |   |   |   |   |   |--- truncated branch of depth 3
|   |   |   |   |   |   |   |   |--- biological_adhesion >  0.99
|   |   |   |   |   |   |   |   |   |--- molecular_adaptor_activity <= 0.99
|   |   |   |   |   |   |   |   |   |   |--- molecular_sequestering_activity <= 1.00
|   |   |   |   |   |   |   |   |   |   |   |--- class: 1
|   |   |   |   |   |   |   |   |   |   |--- molecular_sequestering_activity >  1.00
|   |   |   |   |   |   |   |   |   |   |   |--- class: 0
|   |   |   |   |   |   |   |   |   |--- molecular_adaptor_activity >  0.99
