|--- cellular_process <= 0.08
|   |--- cellular_anatomical_entity <= 0.20
|   |   |--- class: 0
|   |--- cellular_anatomical_entity >  0.20
|   |   |--- biological_regulation <= 0.10
|   |   |   |--- class: 0
|   |   |--- biological_regulation >  0.10
|   |   |   |--- class: 1
|--- cellular_process >  0.08
|   |--- class: 1

