|--- cellular_process <= 0.78
|   |--- cellular_process <= 0.70
|   |   |--- metabolic_process <= 0.84
|   |   |   |--- cargo_receptor_activity <= 0.98
|   |   |   |   |--- localization <= 0.91
|   |   |   |   |   |--- behavior <= 0.98
|   |   |   |   |   |   |--- class: 1
|   |   |   |   |   |--- behavior >  0.98
|   |   |   |   |   |   |--- class: 0
|   |   |   |   |--- localization >  0.91
|   |   |   |   |   |--- multi-organism_process <= 0.95
|   |   |   |   |   |   |--- class: 1
|   |   |   |   |   |--- multi-organism_process >  0.95
|   |   |   |   |   |   |--- class: 0
|   |   |   |--- cargo_receptor_activity >  0.98
|   |   |   |   |--- cellular_anatomical_entity <= 0.86
|   |   |   |   |   |--- sulfur_utilization <= 1.00
|   |   |   |   |   |   |--- other_organism_part <= 1.00
|   |   |   |   |   |   |   |--- locomotion <= 1.00
|   |   |   |   |   |   |   |   |--- virion_part <= 1.00
|   |   |   |   |   |   |   |   |   |--- virion <= 1.00
|   |   |   |   |   |   |   |   |   |   |--- reproduction <= 1.00
|   |   |   |   |   |   |   |   |   |   |   |--- truncated branch of depth 41
|   |   |   |   |   |   |   |   |   |   |--- reproduction >  1.00
|   |   |   |   |   |   |   |   |   |   |   |--- truncated branch of depth 6
|   |   |   |   |   |   |   |   |   |--- virion >  1.00
|   |   |   |   |   |   |   |   |   |   |--- behavior <= 1.00
|   |   |   |   |   |   |   |   |   |   |   |--- class: 0
|   |   |   |   |   |   |   |   |   |   |--- behavior >  1.00
|   |   |   |   |   |   |   |   |   |   |   |--- class: 1
|   |   |   |   |   |   |   |   |--- virion_part >  1.00
|   |   |   |   |   |   |   |   |   |--- biological_regulation <= 0.78
|   |   |   |   |   |   |   |   |   |   |--- toxin_activity <= 1.00
|   |   |   |   |   |   |   |   |   |   |   |--- truncated branch of depth 14
|   |   |   |   |   |   |   |   |   |   |--- toxin_activity >  1.00
|   |   |   |   |   |   |   |   |   |   |   |--- truncated branch of depth 2
|   |   |   |   |   |   |   |   |   |--- biological_regulation >  0.78
|   |   |   |   |   |   |   |   |   |   |--- cellular_process <= 0.68
|   |   |   |   |   |   |   |   |   |   |   |--- truncated branch of depth 5
|   |   |   |   |   |   |   |   |   |   |--- cellular_process >  0.68
|   |   |   |   |   |   |   |   |   |   |   |--- class: 1
|   |   |   |   |   |   |   |--- locomotion >  1.00
|   |   |   |   |   |   |   |   |--- class: 1
|   |   |   |   |   |   |--- other_organism_part >  1.00
|   |   |   |   |   |   |   |--- cellular_process <= 0.64
|   |   |   |   |   |   |   |   |--- locomotion <= 1.00
|   |   |   |   |   |   |   |   |   |--- response_to_stimulus <= 0.94
|   |   |   |   |   |   |   |   |   |   |--- virion <= 1.00
|   |   |   |   |   |   |   |   |   |   |   |--- class: 0
|   |   |   |   |   |   |   |   |   |   |--- virion >  1.00
|   |   |   |   |   |   |   |   |   |   |   |--- class: 1
|   |   |   |   |   |   |   |   |   |--- response_to_stimulus >  0.94
|   |   |   |   |   |   |   |   |   |   |--- response_to_stimulus <= 0.99
|   |   |   |   |   |   |   |   |   |   |   |--- class: 1
|   |   |   |   |   |   |   |   |   |   |--- response_to_stimulus >  0.99
|   |   |   |   |   |   |   |   |   |   |   |--- class: 0
|   |   |   |   |   |   |   |   |--- locomotion >  1.00
|   |   |   |   |   |   |   |   |   |--- class: 1
|   |   |   |   |   |   |   |--- cellular_process >  0.64
|   |   |   |   |   |   |   |   |--- structural_molecule_activity <= 1.00
|   |   |   |   |   |   |   |   |   |--- other_organism_part <= 1.00
|   |   |   |   |   |   |   |   |   |   |--- class: 1
|   |   |   |   |   |   |   |   |   |--- other_organism_part >  1.00
|   |   |   |   |   |   |   |   |   |   |--- catalytic_activity <= 1.00
|   |   |   |   |   |   |   |   |   |   |   |--- class: 0
|   |   |   |   |   |   |   |   |   |   |--- catalytic_activity >  1.00
|   |   |   |   |   |   |   |   |   |   |   |--- truncated branch of depth 2
|   |   |   |   |   |   |   |   |--- structural_molecule_activity >  1.00
|   |   |   |   |   |   |   |   |   |--- biological_adhesion <= 0.96
|   |   |   |   |   |   |   |   |   |   |--- class: 0
|   |   |   |   |   |   |   |   |   |--- biological_adhesion >  0.96
|   |   |   |   |   |   |   |   |   |   |--- class: 1
|   |   |   |   |   |--- sulfur_utilization >  1.00
|   |   |   |   |   |   |--- biological_regulation <= 0.70
|   |   |   |   |   |   |   |--- metabolic_process <= 0.78
|   |   |   |   |   |   |   |   |--- biological_adhesion <= 1.00
|   |   |   |   |   |   |   |   |   |--- class: 0
|   |   |   |   |   |   |   |   |--- biological_adhesion >  1.00
|   |   |   |   |   |   |   |   |   |--- pigmentation <= 1.00
|   |   |   |   |   |   |   |   |   |   |--- class: 1
|   |   |   |   |   |   |   |   |   |--- pigmentation >  1.00
|   |   |   |   |   |   |   |   |   |   |--- class: 0
|   |   |   |   |   |   |   |--- metabolic_process >  0.78
|   |   |   |   |   |   |   |   |--- molecular_transducer_activity <= 1.00
|   |   |   |   |   |   |   |   |   |--- biomineralization <= 1.00
|   |   |   |   |   |   |   |   |   |   |--- cargo_receptor_activity <= 1.00
|   |   |   |   |   |   |   |   |   |   |   |--- class: 1
|   |   |   |   |   |   |   |   |   |   |--- cargo_receptor_activity >  1.00
|   |   |   |   |   |   |   |   |   |   |   |--- class: 0
|   |   |   |   |   |   |   |   |   |--- biomineralization >  1.00
|   |   |   |   |   |   |   |   |   |   |--- biological_adhesion <= 1.00
|   |   |   |   |   |   |   |   |   |   |   |--- class: 0
|   |   |   |   |   |   |   |   |   |   |--- biological_adhesion >  1.00
|   |   |   |   |   |   |   |   |   |   |   |--- class: 1
|   |   |   |   |   |   |   |   |--- molecular_transducer_activity >  1.00
|   |   |   |   |   |   |   |   |   |--- class: 1
|   |   |   |   |   |   |--- biological_regulation >  0.70
|   |   |   |   |   |   |   |--- multicellular_organismal_process <= 0.97
|   |   |   |   |   |   |   |   |--- reproductive_process <= 1.00
|   |   |   |   |   |   |   |   |   |--- class: 0
|   |   |   |   |   |   |   |   |--- reproductive_process >  1.00
|   |   |   |   |   |   |   |   |   |--- class: 1
|   |   |   |   |   |   |   |--- multicellular_organismal_process >  0.97
|   |   |   |   |   |   |   |   |--- localization <= 0.99
|   |   |   |   |   |   |   |   |   |--- detoxification <= 1.00
|   |   |   |   |   |   |   |   |   |   |--- class: 1
|   |   |   |   |   |   |   |   |   |--- detoxification >  1.00
|   |   |   |   |   |   |   |   |   |   |--- interspecies_interaction_between_organisms <= 0.99
|   |   |   |   |   |   |   |   |   |   |   |--- class: 1
|   |   |   |   |   |   |   |   |   |   |--- interspecies_interaction_between_organisms >  0.99
|   |   |   |   |   |   |   |   |   |   |   |--- class: 0
|   |   |   |   |   |   |   |   |--- localization >  0.99
|   |   |   |   |   |   |   |   |   |--- nutrient_reservoir_activity <= 1.00
|   |   |   |   |   |   |   |   |   |   |--- class: 1
|   |   |   |   |   |   |   |   |   |--- nutrient_reservoir_activity >  1.00
|   |   |   |   |   |   |   |   |   |   |--- class: 0
|   |   |   |   |--- cellular_anatomical_entity >  0.86
|   |   |   |   |   |--- intraspecies_interaction_between_organisms <= 1.00
|   |   |   |   |   |   |--- toxin_activity <= 1.00
|   |   |   |   |   |   |   |--- molecular_carrier_activity <= 1.00
|   |   |   |   |   |   |   |   |--- biological_phase <= 1.00
|   |   |   |   |   |   |   |   |   |--- binding <= 0.92
|   |   |   |   |   |   |   |   |   |   |--- virion_part <= 1.00
|   |   |   |   |   |   |   |   |   |   |   |--- truncated branch of depth 34
|   |   |   |   |   |   |   |   |   |   |--- virion_part >  1.00
|   |   |   |   |   |   |   |   |   |   |   |--- truncated branch of depth 8
|   |   |   |   |   |   |   |   |   |--- binding >  0.92
|   |   |   |   |   |   |   |   |   |   |--- catalytic_activity <= 1.00
|   |   |   |   |   |   |   |   |   |   |   |--- truncated branch of depth 13
|   |   |   |   |   |   |   |   |   |   |--- catalytic_activity >  1.00
|   |   |   |   |   |   |   |   |   |   |   |--- truncated branch of depth 7
|   |   |   |   |   |   |   |   |--- biological_phase >  1.00
|   |   |   |   |   |   |   |   |   |--- biological_regulation <= 0.69
|   |   |   |   |   |   |   |   |   |   |--- rhythmic_process <= 0.99
|   |   |   |   |   |   |   |   |   |   |   |--- truncated branch of depth 2
|   |   |   |   |   |   |   |   |   |   |--- rhythmic_process >  0.99
|   |   |   |   |   |   |   |   |   |   |   |--- truncated branch of depth 5
|   |   |   |   |   |   |   |   |   |--- biological_regulation >  0.69
|   |   |   |   |   |   |   |   |   |   |--- binding <= 0.87
|   |   |   |   |   |   |   |   |   |   |   |--- truncated branch of depth 3
|   |   |   |   |   |   |   |   |   |   |--- binding >  0.87
|   |   |   |   |   |   |   |   |   |   |   |--- truncated branch of depth 4
|   |   |   |   |   |   |   |--- molecular_carrier_activity >  1.00
|   |   |   |   |   |   |   |   |--- binding <= 0.79
|   |   |   |   |   |   |   |   |   |--- class: 0
|   |   |   |   |   |   |   |   |--- binding >  0.79
|   |   |   |   |   |   |   |   |   |--- carbohydrate_utilization <= 1.00
|   |   |   |   |   |   |   |   |   |   |--- phosphorus_utilization <= 1.00
|   |   |   |   |   |   |   |   |   |   |   |--- truncated branch of depth 2
|   |   |   |   |   |   |   |   |   |   |--- phosphorus_utilization >  1.00
|   |   |   |   |   |   |   |   |   |   |   |--- class: 1
|   |   |   |   |   |   |   |   |   |--- carbohydrate_utilization >  1.00
|   |   |   |   |   |   |   |   |   |   |--- class: 1
|   |   |   |   |   |   |--- toxin_activity >  1.00
|   |   |   |   |   |   |   |--- binding <= 0.82
|   |   |   |   |   |   |   |   |--- molecular_transducer_activity <= 1.00
|   |   |   |   |   |   |   |   |   |--- class: 0
|   |   |   |   |   |   |   |   |--- molecular_transducer_activity >  1.00
|   |   |   |   |   |   |   |   |   |--- class: 1
|   |   |   |   |   |   |   |--- binding >  0.82
|   |   |   |   |   |   |   |   |--- biological_adhesion <= 1.00
|   |   |   |   |   |   |   |   |   |--- nutrient_reservoir_activity <= 1.00
|   |   |   |   |   |   |   |   |   |   |--- class: 0
|   |   |   |   |   |   |   |   |   |--- nutrient_reservoir_activity >  1.00
|   |   |   |   |   |   |   |   |   |   |--- nitrogen_utilization <= 1.00
|   |   |   |   |   |   |   |   |   |   |   |--- class: 1
|   |   |   |   |   |   |   |   |   |   |--- nitrogen_utilization >  1.00
|   |   |   |   |   |   |   |   |   |   |   |--- class: 0
|   |   |   |   |   |   |   |   |--- biological_adhesion >  1.00
|   |   |   |   |   |   |   |   |   |--- biological_adhesion <= 1.00
|   |   |   |   |   |   |   |   |   |   |--- class: 0
|   |   |   |   |   |   |   |   |   |--- biological_adhesion >  1.00
|   |   |   |   |   |   |   |   |   |   |--- molecular_sequestering_activity <= 1.00
|   |   |   |   |   |   |   |   |   |   |   |--- class: 0
|   |   |   |   |   |   |   |   |   |   |--- molecular_sequestering_activity >  1.00
|   |   |   |   |   |   |   |   |   |   |   |--- class: 1
|   |   |   |   |   |--- intraspecies_interaction_between_organisms >  1.00
|   |   |   |   |   |   |--- phosphorus_utilization <= 1.00
|   |   |   |   |   |   |   |--- response_to_stimulus <= 0.80
|   |   |   |   |   |   |   |   |--- class: 1
|   |   |   |   |   |   |   |--- response_to_stimulus >  0.80
|   |   |   |   |   |   |   |   |--- class: 0
|   |   |   |   |   |   |--- phosphorus_utilization >  1.00
|   |   |   |   |   |   |   |--- nutrient_reservoir_activity <= 1.00
|   |   |   |   |   |   |   |   |--- class: 1
|   |   |   |   |   |   |   |--- nutrient_reservoir_activity >  1.00
|   |   |   |   |   |   |   |   |--- transporter_activity <= 1.00
|   |   |   |   |   |   |   |   |   |--- class: 0
|   |   |   |   |   |   |   |   |--- transporter_activity >  1.00
|   |   |   |   |   |   |   |   |   |--- virion_part <= 1.00
|   |   |   |   |   |   |   |   |   |   |--- class: 1
|   |   |   |   |   |   |   |   |   |--- virion_part >  1.00
|   |   |   |   |   |   |   |   |   |   |--- class: 0
|   |   |--- metabolic_process >  0.84
|   |   |   |--- cellular_anatomical_entity <= 0.86
|   |   |   |   |--- toxin_activity <= 1.00
|   |   |   |   |   |--- pigmentation <= 1.00
|   |   |   |   |   |   |--- nutrient_reservoir_activity <= 1.00
|   |   |   |   |   |   |   |--- virion_part <= 0.96
|   |   |   |   |   |   |   |   |--- structural_molecule_activity <= 0.97
|   |   |   |   |   |   |   |   |   |--- class: 0
|   |   |   |   |   |   |   |   |--- structural_molecule_activity >  0.97
|   |   |   |   |   |   |   |   |   |--- class: 1
|   |   |   |   |   |   |   |--- virion_part >  0.96
|   |   |   |   |   |   |   |   |--- phosphorus_utilization <= 1.00
|   |   |   |   |   |   |   |   |   |--- biological_regulation <= 0.72
|   |   |   |   |   |   |   |   |   |   |--- structural_molecule_activity <= 0.97
|   |   |   |   |   |   |   |   |   |   |   |--- truncated branch of depth 6
|   |   |   |   |   |   |   |   |   |   |--- structural_molecule_activity >  0.97
|   |   |   |   |   |   |   |   |   |   |   |--- truncated branch of depth 24
|   |   |   |   |   |   |   |   |   |--- biological_regulation >  0.72
|   |   |   |   |   |   |   |   |   |   |--- virion <= 1.00
|   |   |   |   |   |   |   |   |   |   |   |--- truncated branch of depth 15
|   |   |   |   |   |   |   |   |   |   |--- virion >  1.00
|   |   |   |   |   |   |   |   |   |   |   |--- truncated branch of depth 3
|   |   |   |   |   |   |   |   |--- phosphorus_utilization >  1.00
|   |   |   |   |   |   |   |   |   |--- cellular_process <= 0.65
|   |   |   |   |   |   |   |   |   |   |--- protein_folding_chaperone <= 1.00
|   |   |   |   |   |   |   |   |   |   |   |--- class: 0
|   |   |   |   |   |   |   |   |   |   |--- protein_folding_chaperone >  1.00
|   |   |   |   |   |   |   |   |   |   |   |--- truncated branch of depth 2
|   |   |   |   |   |   |   |   |   |--- cellular_process >  0.65
|   |   |   |   |   |   |   |   |   |   |--- signaling <= 1.00
|   |   |   |   |   |   |   |   |   |   |   |--- truncated branch of depth 3
|   |   |   |   |   |   |   |   |   |   |--- signaling >  1.00
|   |   |   |   |   |   |   |   |   |   |   |--- truncated branch of depth 4
|   |   |   |   |   |   |--- nutrient_reservoir_activity >  1.00
|   |   |   |   |   |   |   |--- behavior <= 1.00
|   |   |   |   |   |   |   |   |--- carbon_utilization <= 1.00
|   |   |   |   |   |   |   |   |   |--- class: 1
|   |   |   |   |   |   |   |   |--- carbon_utilization >  1.00
|   |   |   |   |   |   |   |   |   |--- catalytic_activity <= 0.96
|   |   |   |   |   |   |   |   |   |   |--- class: 1
|   |   |   |   |   |   |   |   |   |--- catalytic_activity >  0.96
|   |   |   |   |   |   |   |   |   |   |--- detoxification <= 1.00
|   |   |   |   |   |   |   |   |   |   |   |--- class: 1
|   |   |   |   |   |   |   |   |   |   |--- detoxification >  1.00
|   |   |   |   |   |   |   |   |   |   |   |--- class: 0
|   |   |   |   |   |   |   |--- behavior >  1.00
|   |   |   |   |   |   |   |   |--- structural_molecule_activity <= 1.00
|   |   |   |   |   |   |   |   |   |--- class: 0
|   |   |   |   |   |   |   |   |--- structural_molecule_activity >  1.00
|   |   |   |   |   |   |   |   |   |--- class: 1
|   |   |   |   |   |--- pigmentation >  1.00
|   |   |   |   |   |   |--- catalytic_activity <= 0.97
|   |   |   |   |   |   |   |--- protein_folding_chaperone <= 1.00
|   |   |   |   |   |   |   |   |--- carbohydrate_utilization <= 1.00
|   |   |   |   |   |   |   |   |   |--- class: 0
|   |   |   |   |   |   |   |   |--- carbohydrate_utilization >  1.00
|   |   |   |   |   |   |   |   |   |--- antioxidant_activity <= 1.00
|   |   |   |   |   |   |   |   |   |   |--- class: 1
|   |   |   |   |   |   |   |   |   |--- antioxidant_activity >  1.00
|   |   |   |   |   |   |   |   |   |   |--- class: 0
|   |   |   |   |   |   |   |--- protein_folding_chaperone >  1.00
|   |   |   |   |   |   |   |   |--- biological_adhesion <= 1.00
|   |   |   |   |   |   |   |   |   |--- class: 1
|   |   |   |   |   |   |   |   |--- biological_adhesion >  1.00
|   |   |   |   |   |   |   |   |   |--- class: 0
|   |   |   |   |   |   |--- catalytic_activity >  0.97
|   |   |   |   |   |   |   |--- binding <= 0.92
|   |   |   |   |   |   |   |   |--- structural_molecule_activity <= 1.00
|   |   |   |   |   |   |   |   |   |--- protein_folding_chaperone <= 1.00
|   |   |   |   |   |   |   |   |   |   |--- biomineralization <= 1.00
|   |   |   |   |   |   |   |   |   |   |   |--- class: 0
|   |   |   |   |   |   |   |   |   |   |--- biomineralization >  1.00
|   |   |   |   |   |   |   |   |   |   |   |--- class: 1
|   |   |   |   |   |   |   |   |   |--- protein_folding_chaperone >  1.00
|   |   |   |   |   |   |   |   |   |   |--- biomineralization <= 1.00
|   |   |   |   |   |   |   |   |   |   |   |--- class: 1
|   |   |   |   |   |   |   |   |   |   |--- biomineralization >  1.00
|   |   |   |   |   |   |   |   |   |   |   |--- class: 0
|   |   |   |   |   |   |   |   |--- structural_molecule_activity >  1.00
|   |   |   |   |   |   |   |   |   |--- class: 1
|   |   |   |   |   |   |   |--- binding >  0.92
|   |   |   |   |   |   |   |   |--- class: 1
|   |   |   |   |--- toxin_activity >  1.00
|   |   |   |   |   |--- biological_adhesion <= 1.00
|   |   |   |   |   |   |--- cellular_anatomical_entity <= 0.83
|   |   |   |   |   |   |   |--- carbohydrate_utilization <= 1.00
|   |   |   |   |   |   |   |   |--- molecular_transducer_activity <= 1.00
|   |   |   |   |   |   |   |   |   |--- pigmentation <= 1.00
|   |   |   |   |   |   |   |   |   |   |--- class: 1
|   |   |   |   |   |   |   |   |   |--- pigmentation >  1.00
|   |   |   |   |   |   |   |   |   |   |--- structural_molecule_activity <= 0.96
|   |   |   |   |   |   |   |   |   |   |   |--- class: 1
|   |   |   |   |   |   |   |   |   |   |--- structural_molecule_activity >  0.96
|   |   |   |   |   |   |   |   |   |   |   |--- truncated branch of depth 4
|   |   |   |   |   |   |   |   |--- molecular_transducer_activity >  1.00
|   |   |   |   |   |   |   |   |   |--- class: 1
|   |   |   |   |   |   |   |--- carbohydrate_utilization >  1.00
|   |   |   |   |   |   |   |   |--- class: 1
|   |   |   |   |   |   |--- cellular_anatomical_entity >  0.83
|   |   |   |   |   |   |   |--- class: 1
|   |   |   |   |   |--- biological_adhesion >  1.00
|   |   |   |   |   |   |--- localization <= 0.89
|   |   |   |   |   |   |   |--- translation_regulator_activity <= 1.00
|   |   |   |   |   |   |   |   |--- biomineralization <= 1.00
|   |   |   |   |   |   |   |   |   |--- class: 0
|   |   |   |   |   |   |   |   |--- biomineralization >  1.00
|   |   |   |   |   |   |   |   |   |--- class: 1
|   |   |   |   |   |   |   |--- translation_regulator_activity >  1.00
|   |   |   |   |   |   |   |   |--- class: 0
|   |   |   |   |   |   |--- localization >  0.89
|   |   |   |   |   |   |   |--- interspecies_interaction_between_organisms <= 1.00
|   |   |   |   |   |   |   |   |--- structural_molecule_activity <= 0.99
|   |   |   |   |   |   |   |   |   |--- metabolic_process <= 0.93
|   |   |   |   |   |   |   |   |   |   |--- class: 0
|   |   |   |   |   |   |   |   |   |--- metabolic_process >  0.93
|   |   |   |   |   |   |   |   |   |   |--- class: 1
|   |   |   |   |   |   |   |   |--- structural_molecule_activity >  0.99
|   |   |   |   |   |   |   |   |   |--- class: 1
|   |   |   |   |   |   |   |--- interspecies_interaction_between_organisms >  1.00
|   |   |   |   |   |   |   |   |--- other_organism_part <= 1.00
|   |   |   |   |   |   |   |   |   |--- class: 0
|   |   |   |   |   |   |   |   |--- other_organism_part >  1.00
|   |   |   |   |   |   |   |   |   |--- class: 1
|   |   |   |--- cellular_anatomical_entity >  0.86
|   |   |   |   |--- protein_folding_chaperone <= 1.00
|   |   |   |   |   |--- biological_phase <= 1.00
|   |   |   |   |   |   |--- cargo_receptor_activity <= 1.00
|   |   |   |   |   |   |   |--- carbohydrate_utilization <= 1.00
|   |   |   |   |   |   |   |   |--- structural_molecule_activity <= 0.97
|   |   |   |   |   |   |   |   |   |--- translation_regulator_activity <= 0.98
|   |   |   |   |   |   |   |   |   |   |--- class: 1
|   |   |   |   |   |   |   |   |   |--- translation_regulator_activity >  0.98
|   |   |   |   |   |   |   |   |   |   |--- metabolic_process <= 0.85
|   |   |   |   |   |   |   |   |   |   |   |--- class: 0
|   |   |   |   |   |   |   |   |   |   |--- metabolic_process >  0.85
|   |   |   |   |   |   |   |   |   |   |   |--- truncated branch of depth 3
|   |   |   |   |   |   |   |   |--- structural_molecule_activity >  0.97
|   |   |   |   |   |   |   |   |   |--- biological_regulation <= 0.71
|   |   |   |   |   |   |   |   |   |   |--- toxin_activity <= 1.00
|   |   |   |   |   |   |   |   |   |   |   |--- truncated branch of depth 17
|   |   |   |   |   |   |   |   |   |   |--- toxin_activity >  1.00
|   |   |   |   |   |   |   |   |   |   |   |--- truncated branch of depth 2
|   |   |   |   |   |   |   |   |   |--- biological_regulation >  0.71
|   |   |   |   |   |   |   |   |   |   |--- binding <= 0.90
|   |   |   |   |   |   |   |   |   |   |   |--- truncated branch of depth 11
|   |   |   |   |   |   |   |   |   |   |--- binding >  0.90
|   |   |   |   |   |   |   |   |   |   |   |--- truncated branch of depth 8
|   |   |   |   |   |   |   |--- carbohydrate_utilization >  1.00
|   |   |   |   |   |   |   |   |--- reproductive_process <= 0.96
|   |   |   |   |   |   |   |   |   |--- class: 0
|   |   |   |   |   |   |   |   |--- reproductive_process >  0.96
|   |   |   |   |   |   |   |   |   |--- rhythmic_process <= 1.00
|   |   |   |   |   |   |   |   |   |   |--- class: 1
|   |   |   |   |   |   |   |   |   |--- rhythmic_process >  1.00
|   |   |   |   |   |   |   |   |   |   |--- toxin_activity <= 1.00
|   |   |   |   |   |   |   |   |   |   |   |--- class: 0
|   |   |   |   |   |   |   |   |   |   |--- toxin_activity >  1.00
|   |   |   |   |   |   |   |   |   |   |   |--- class: 1
|   |   |   |   |   |   |--- cargo_receptor_activity >  1.00
|   |   |   |   |   |   |   |--- fusogenic_activity <= 1.00
|   |   |   |   |   |   |   |   |--- multi-organism_process <= 1.00
|   |   |   |   |   |   |   |   |   |--- growth <= 1.00
|   |   |   |   |   |   |   |   |   |   |--- immune_system_process <= 0.90
|   |   |   |   |   |   |   |   |   |   |   |--- truncated branch of depth 2
|   |   |   |   |   |   |   |   |   |   |--- immune_system_process >  0.90
|   |   |   |   |   |   |   |   |   |   |   |--- truncated branch of depth 2
|   |   |   |   |   |   |   |   |   |--- growth >  1.00
|   |   |   |   |   |   |   |   |   |   |--- class: 1
|   |   |   |   |   |   |   |   |--- multi-organism_process >  1.00
|   |   |   |   |   |   |   |   |   |--- biological_regulation <= 0.53
|   |   |   |   |   |   |   |   |   |   |--- class: 0
|   |   |   |   |   |   |   |   |   |--- biological_regulation >  0.53
|   |   |   |   |   |   |   |   |   |   |--- metabolic_process <= 0.99
|   |   |   |   |   |   |   |   |   |   |   |--- truncated branch of depth 8
|   |   |   |   |   |   |   |   |   |   |--- metabolic_process >  0.99
|   |   |   |   |   |   |   |   |   |   |   |--- truncated branch of depth 2
|   |   |   |   |   |   |   |--- fusogenic_activity >  1.00
|   |   |   |   |   |   |   |   |--- response_to_stimulus <= 0.82
|   |   |   |   |   |   |   |   |   |--- class: 0
|   |   |   |   |   |   |   |   |--- response_to_stimulus >  0.82
|   |   |   |   |   |   |   |   |   |--- immune_system_process <= 0.91
|   |   |   |   |   |   |   |   |   |   |--- multicellular_organismal_process <= 0.97
|   |   |   |   |   |   |   |   |   |   |   |--- class: 0
|   |   |   |   |   |   |   |   |   |   |--- multicellular_organismal_process >  0.97
|   |   |   |   |   |   |   |   |   |   |   |--- class: 1
|   |   |   |   |   |   |   |   |   |--- immune_system_process >  0.91
|   |   |   |   |   |   |   |   |   |   |--- class: 1
|   |   |   |   |   |--- biological_phase >  1.00
|   |   |   |   |   |   |--- multicellular_organismal_process <= 1.00
|   |   |   |   |   |   |   |--- molecular_adaptor_activity <= 1.00
|   |   |   |   |   |   |   |   |--- transporter_activity <= 0.99
|   |   |   |   |   |   |   |   |   |--- locomotion <= 1.00
|   |   |   |   |   |   |   |   |   |   |--- class: 0
|   |   |   |   |   |   |   |   |   |--- locomotion >  1.00
|   |   |   |   |   |   |   |   |   |   |--- class: 1
|   |   |   |   |   |   |   |   |--- transporter_activity >  0.99
|   |   |   |   |   |   |   |   |   |--- class: 1
|   |   |   |   |   |   |   |--- molecular_adaptor_activity >  1.00
|   |   |   |   |   |   |   |   |--- biological_adhesion <= 1.00
|   |   |   |   |   |   |   |   |   |--- class: 0
|   |   |   |   |   |   |   |   |--- biological_adhesion >  1.00
|   |   |   |   |   |   |   |   |   |--- molecular_template_activity <= 1.00
|   |   |   |   |   |   |   |   |   |   |--- class: 0
|   |   |   |   |   |   |   |   |   |--- molecular_template_activity >  1.00
|   |   |   |   |   |   |   |   |   |   |--- carbohydrate_utilization <= 1.00
|   |   |   |   |   |   |   |   |   |   |   |--- truncated branch of depth 2
|   |   |   |   |   |   |   |   |   |   |--- carbohydrate_utilization >  1.00
|   |   |   |   |   |   |   |   |   |   |   |--- truncated branch of depth 2
|   |   |   |   |   |   |--- multicellular_organismal_process >  1.00
|   |   |   |   |   |   |   |--- cellular_anatomical_entity <= 0.98
|   |   |   |   |   |   |   |   |--- class: 1
|   |   |   |   |   |   |   |--- cellular_anatomical_entity >  0.98
|   |   |   |   |   |   |   |   |--- class: 0
|   |   |   |   |--- protein_folding_chaperone >  1.00
|   |   |   |   |   |--- immune_system_process <= 0.93
|   |   |   |   |   |   |--- molecular_sequestering_activity <= 1.00
|   |   |   |   |   |   |   |--- cellular_anatomical_entity <= 0.92
|   |   |   |   |   |   |   |   |--- class: 0
|   |   |   |   |   |   |   |--- cellular_anatomical_entity >  0.92
|   |   |   |   |   |   |   |   |--- class: 1
|   |   |   |   |   |   |--- molecular_sequestering_activity >  1.00
|   |   |   |   |   |   |   |--- class: 1
|   |   |   |   |   |--- immune_system_process >  0.93
|   |   |   |   |   |   |--- multi-organism_process <= 0.99
|   |   |   |   |   |   |   |--- response_to_stimulus <= 0.83
|   |   |   |   |   |   |   |   |--- class: 1
|   |   |   |   |   |   |   |--- response_to_stimulus >  0.83
|   |   |   |   |   |   |   |   |--- class: 0
|   |   |   |   |   |   |--- multi-organism_process >  0.99
|   |   |   |   |   |   |   |--- localization <= 0.83
|   |   |   |   |   |   |   |   |--- antioxidant_activity <= 1.00
|   |   |   |   |   |   |   |   |   |--- class: 0
|   |   |   |   |   |   |   |   |--- antioxidant_activity >  1.00
|   |   |   |   |   |   |   |   |   |--- class: 1
|   |   |   |   |   |   |   |--- localization >  0.83
|   |   |   |   |   |   |   |   |--- small_molecule_sensor_activity <= 1.00
|   |   |   |   |   |   |   |   |   |--- class: 0
|   |   |   |   |   |   |   |   |--- small_molecule_sensor_activity >  1.00
|   |   |   |   |   |   |   |   |   |--- molecular_adaptor_activity <= 1.00
|   |   |   |   |   |   |   |   |   |   |--- biological_regulation <= 0.67
|   |   |   |   |   |   |   |   |   |   |   |--- truncated branch of depth 2
|   |   |   |   |   |   |   |   |   |   |--- biological_regulation >  0.67
|   |   |   |   |   |   |   |   |   |   |   |--- truncated branch of depth 2
|   |   |   |   |   |   |   |   |   |--- molecular_adaptor_activity >  1.00
|   |   |   |   |   |   |   |   |   |   |--- class: 1
|   |--- cellular_process >  0.70
|   |   |--- cellular_anatomical_entity <= 0.87
|   |   |   |--- response_to_stimulus <= 0.99
|   |   |   |   |--- biological_regulation <= 0.73
|   |   |   |   |   |--- transporter_activity <= 1.00
|   |   |   |   |   |   |--- translation_regulator_activity <= 0.96
|   |   |   |   |   |   |   |--- localization <= 0.98
|   |   |   |   |   |   |   |   |--- binding <= 0.82
|   |   |   |   |   |   |   |   |   |--- molecular_template_activity <= 0.99
|   |   |   |   |   |   |   |   |   |   |--- class: 1
|   |   |   |   |   |   |   |   |   |--- molecular_template_activity >  0.99
|   |   |   |   |   |   |   |   |   |   |--- class: 0
|   |   |   |   |   |   |   |   |--- binding >  0.82
|   |   |   |   |   |   |   |   |   |--- class: 1
|   |   |   |   |   |   |   |--- localization >  0.98
|   |   |   |   |   |   |   |   |--- metabolic_process <= 0.86
|   |   |   |   |   |   |   |   |   |--- class: 1
|   |   |   |   |   |   |   |   |--- metabolic_process >  0.86
|   |   |   |   |   |   |   |   |   |--- class: 0
|   |   |   |   |   |   |--- translation_regulator_activity >  0.96
|   |   |   |   |   |   |   |--- multicellular_organismal_process <= 1.00
|   |   |   |   |   |   |   |   |--- response_to_stimulus <= 0.90
|   |   |   |   |   |   |   |   |   |--- carbon_utilization <= 1.00
|   |   |   |   |   |   |   |   |   |   |--- translation_regulator_activity <= 1.00
|   |   |   |   |   |   |   |   |   |   |   |--- truncated branch of depth 16
|   |   |   |   |   |   |   |   |   |   |--- translation_regulator_activity >  1.00
|   |   |   |   |   |   |   |   |   |   |   |--- class: 1
|   |   |   |   |   |   |   |   |   |--- carbon_utilization >  1.00
|   |   |   |   |   |   |   |   |   |   |--- cellular_anatomical_entity <= 0.82
|   |   |   |   |   |   |   |   |   |   |   |--- truncated branch of depth 4
|   |   |   |   |   |   |   |   |   |   |--- cellular_anatomical_entity >  0.82
|   |   |   |   |   |   |   |   |   |   |   |--- truncated branch of depth 5
|   |   |   |   |   |   |   |   |--- response_to_stimulus >  0.90
|   |   |   |   |   |   |   |   |   |--- fusogenic_activity <= 1.00
|   |   |   |   |   |   |   |   |   |   |--- carbon_utilization <= 0.97
|   |   |   |   |   |   |   |   |   |   |   |--- class: 1
|   |   |   |   |   |   |   |   |   |   |--- carbon_utilization >  0.97
|   |   |   |   |   |   |   |   |   |   |   |--- truncated branch of depth 23
|   |   |   |   |   |   |   |   |   |--- fusogenic_activity >  1.00
|   |   |   |   |   |   |   |   |   |   |--- cellular_anatomical_entity <= 0.83
|   |   |   |   |   |   |   |   |   |   |   |--- truncated branch of depth 7
|   |   |   |   |   |   |   |   |   |   |--- cellular_anatomical_entity >  0.83
|   |   |   |   |   |   |   |   |   |   |   |--- truncated branch of depth 3
|   |   |   |   |   |   |   |--- multicellular_organismal_process >  1.00
|   |   |   |   |   |   |   |   |--- metabolic_process <= 0.87
|   |   |   |   |   |   |   |   |   |--- molecular_sequestering_activity <= 1.00
|   |   |   |   |   |   |   |   |   |   |--- protein_tag <= 1.00
|   |   |   |   |   |   |   |   |   |   |   |--- truncated branch of depth 15
|   |   |   |   |   |   |   |   |   |   |--- protein_tag >  1.00
|   |   |   |   |   |   |   |   |   |   |   |--- truncated branch of depth 2
|   |   |   |   |   |   |   |   |   |--- molecular_sequestering_activity >  1.00
|   |   |   |   |   |   |   |   |   |   |--- biological_phase <= 1.00
|   |   |   |   |   |   |   |   |   |   |   |--- truncated branch of depth 2
|   |   |   |   |   |   |   |   |   |   |--- biological_phase >  1.00
|   |   |   |   |   |   |   |   |   |   |   |--- class: 0
|   |   |   |   |   |   |   |   |--- metabolic_process >  0.87
|   |   |   |   |   |   |   |   |   |--- metabolic_process <= 0.95
|   |   |   |   |   |   |   |   |   |   |--- cellular_anatomical_entity <= 0.79
|   |   |   |   |   |   |   |   |   |   |   |--- truncated branch of depth 4
|   |   |   |   |   |   |   |   |   |   |--- cellular_anatomical_entity >  0.79
|   |   |   |   |   |   |   |   |   |   |   |--- truncated branch of depth 10
|   |   |   |   |   |   |   |   |   |--- metabolic_process >  0.95
|   |   |   |   |   |   |   |   |   |   |--- growth <= 1.00
|   |   |   |   |   |   |   |   |   |   |   |--- truncated branch of depth 10
|   |   |   |   |   |   |   |   |   |   |--- growth >  1.00
|   |   |   |   |   |   |   |   |   |   |   |--- truncated branch of depth 2
|   |   |   |   |   |--- transporter_activity >  1.00
|   |   |   |   |   |   |--- behavior <= 1.00
|   |   |   |   |   |   |   |--- molecular_sequestering_activity <= 1.00
|   |   |   |   |   |   |   |   |--- signaling <= 1.00
|   |   |   |   |   |   |   |   |   |--- nitrogen_utilization <= 1.00
|   |   |   |   |   |   |   |   |   |   |--- interspecies_interaction_between_organisms <= 1.00
|   |   |   |   |   |   |   |   |   |   |   |--- class: 0
|   |   |   |   |   |   |   |   |   |   |--- interspecies_interaction_between_organisms >  1.00
|   |   |   |   |   |   |   |   |   |   |   |--- class: 1
|   |   |   |   |   |   |   |   |   |--- nitrogen_utilization >  1.00
|   |   |   |   |   |   |   |   |   |   |--- molecular_transducer_activity <= 1.00
|   |   |   |   |   |   |   |   |   |   |   |--- truncated branch of depth 6
|   |   |   |   |   |   |   |   |   |   |--- molecular_transducer_activity >  1.00
|   |   |   |   |   |   |   |   |   |   |   |--- class: 1
|   |   |   |   |   |   |   |   |--- signaling >  1.00
|   |   |   |   |   |   |   |   |   |--- molecular_sequestering_activity <= 1.00
|   |   |   |   |   |   |   |   |   |   |--- class: 1
|   |   |   |   |   |   |   |   |   |--- molecular_sequestering_activity >  1.00
|   |   |   |   |   |   |   |   |   |   |--- class: 0
|   |   |   |   |   |   |   |--- molecular_sequestering_activity >  1.00
|   |   |   |   |   |   |   |   |--- molecular_transducer_activity <= 1.00
|   |   |   |   |   |   |   |   |   |--- growth <= 1.00
|   |   |   |   |   |   |   |   |   |   |--- molecular_template_activity <= 1.00
|   |   |   |   |   |   |   |   |   |   |   |--- truncated branch of depth 6
|   |   |   |   |   |   |   |   |   |   |--- molecular_template_activity >  1.00
|   |   |   |   |   |   |   |   |   |   |   |--- class: 1
|   |   |   |   |   |   |   |   |   |--- growth >  1.00
|   |   |   |   |   |   |   |   |   |   |--- multi-organism_process <= 1.00
|   |   |   |   |   |   |   |   |   |   |   |--- class: 0
|   |   |   |   |   |   |   |   |   |   |--- multi-organism_process >  1.00
|   |   |   |   |   |   |   |   |   |   |   |--- class: 1
|   |   |   |   |   |   |   |   |--- molecular_transducer_activity >  1.00
|   |   |   |   |   |   |   |   |   |--- binding <= 0.86
|   |   |   |   |   |   |   |   |   |   |--- small_molecule_sensor_activity <= 1.00
|   |   |   |   |   |   |   |   |   |   |   |--- truncated branch of depth 6
|   |   |   |   |   |   |   |   |   |   |--- small_molecule_sensor_activity >  1.00
|   |   |   |   |   |   |   |   |   |   |   |--- truncated branch of depth 3
|   |   |   |   |   |   |   |   |   |--- binding >  0.86
|   |   |   |   |   |   |   |   |   |   |--- intraspecies_interaction_between_organisms <= 1.00
|   |   |   |   |   |   |   |   |   |   |   |--- truncated branch of depth 4
|   |   |   |   |   |   |   |   |   |   |--- intraspecies_interaction_between_organisms >  1.00
|   |   |   |   |   |   |   |   |   |   |   |--- truncated branch of depth 3
|   |   |   |   |   |   |--- behavior >  1.00
|   |   |   |   |   |   |   |--- response_to_stimulus <= 0.90
|   |   |   |   |   |   |   |   |--- protein_folding_chaperone <= 1.00
|   |   |   |   |   |   |   |   |   |--- biomineralization <= 1.00
|   |   |   |   |   |   |   |   |   |   |--- cellular_anatomical_entity <= 0.81
|   |   |   |   |   |   |   |   |   |   |   |--- truncated branch of depth 3
|   |   |   |   |   |   |   |   |   |   |--- cellular_anatomical_entity >  0.81
|   |   |   |   |   |   |   |   |   |   |   |--- truncated branch of depth 7
|   |   |   |   |   |   |   |   |   |--- biomineralization >  1.00
|   |   |   |   |   |   |   |   |   |   |--- molecular_adaptor_activity <= 1.00
|   |   |   |   |   |   |   |   |   |   |   |--- class: 0
|   |   |   |   |   |   |   |   |   |   |--- molecular_adaptor_activity >  1.00
|   |   |   |   |   |   |   |   |   |   |   |--- truncated branch of depth 2
|   |   |   |   |   |   |   |   |--- protein_folding_chaperone >  1.00
|   |   |   |   |   |   |   |   |   |--- metabolic_process <= 0.79
|   |   |   |   |   |   |   |   |   |   |--- reproduction <= 1.00
|   |   |   |   |   |   |   |   |   |   |   |--- class: 1
|   |   |   |   |   |   |   |   |   |   |--- reproduction >  1.00
|   |   |   |   |   |   |   |   |   |   |   |--- class: 0
|   |   |   |   |   |   |   |   |   |--- metabolic_process >  0.79
|   |   |   |   |   |   |   |   |   |   |--- biomineralization <= 1.00
|   |   |   |   |   |   |   |   |   |   |   |--- class: 1
|   |   |   |   |   |   |   |   |   |   |--- biomineralization >  1.00
|   |   |   |   |   |   |   |   |   |   |   |--- truncated branch of depth 2
|   |   |   |   |   |   |   |--- response_to_stimulus >  0.90
|   |   |   |   |   |   |   |   |--- structural_molecule_activity <= 0.97
|   |   |   |   |   |   |   |   |   |--- class: 0
|   |   |   |   |   |   |   |   |--- structural_molecule_activity >  0.97
|   |   |   |   |   |   |   |   |   |--- biological_regulation <= 0.56
|   |   |   |   |   |   |   |   |   |   |--- biological_regulation <= 0.53
|   |   |   |   |   |   |   |   |   |   |   |--- truncated branch of depth 2
|   |   |   |   |   |   |   |   |   |   |--- biological_regulation >  0.53
|   |   |   |   |   |   |   |   |   |   |   |--- class: 0
|   |   |   |   |   |   |   |   |   |--- biological_regulation >  0.56
|   |   |   |   |   |   |   |   |   |   |--- multicellular_organismal_process <= 0.98
|   |   |   |   |   |   |   |   |   |   |   |--- truncated branch of depth 5
|   |   |   |   |   |   |   |   |   |   |--- multicellular_organismal_process >  0.98
|   |   |   |   |   |   |   |   |   |   |   |--- truncated branch of depth 10
|   |   |   |   |--- biological_regulation >  0.73
|   |   |   |   |   |--- signaling <= 1.00
|   |   |   |   |   |   |--- small_molecule_sensor_activity <= 0.99
|   |   |   |   |   |   |   |--- molecular_transducer_activity <= 0.99
|   |   |   |   |   |   |   |   |--- metabolic_process <= 0.91
|   |   |   |   |   |   |   |   |   |--- locomotion <= 0.97
|   |   |   |   |   |   |   |   |   |   |--- multicellular_organismal_process <= 0.97
|   |   |   |   |   |   |   |   |   |   |   |--- class: 0
|   |   |   |   |   |   |   |   |   |   |--- multicellular_organismal_process >  0.97
|   |   |   |   |   |   |   |   |   |   |   |--- truncated branch of depth 2
|   |   |   |   |   |   |   |   |   |--- locomotion >  0.97
|   |   |   |   |   |   |   |   |   |   |--- response_to_stimulus <= 0.84
|   |   |   |   |   |   |   |   |   |   |   |--- truncated branch of depth 2
|   |   |   |   |   |   |   |   |   |   |--- response_to_stimulus >  0.84
|   |   |   |   |   |   |   |   |   |   |   |--- class: 1
|   |   |   |   |   |   |   |   |--- metabolic_process >  0.91
|   |   |   |   |   |   |   |   |   |--- immune_system_process <= 0.96
|   |   |   |   |   |   |   |   |   |   |--- class: 1
|   |   |   |   |   |   |   |   |   |--- immune_system_process >  0.96
|   |   |   |   |   |   |   |   |   |   |--- biological_regulation <= 0.92
|   |   |   |   |   |   |   |   |   |   |   |--- class: 0
|   |   |   |   |   |   |   |   |   |   |--- biological_regulation >  0.92
|   |   |   |   |   |   |   |   |   |   |   |--- truncated branch of depth 2
|   |   |   |   |   |   |   |--- molecular_transducer_activity >  0.99
|   |   |   |   |   |   |   |   |--- biological_adhesion <= 0.96
|   |   |   |   |   |   |   |   |   |--- class: 1
|   |   |   |   |   |   |   |   |--- biological_adhesion >  0.96
|   |   |   |   |   |   |   |   |   |--- nitrogen_utilization <= 1.00
|   |   |   |   |   |   |   |   |   |   |--- class: 0
|   |   |   |   |   |   |   |   |   |--- nitrogen_utilization >  1.00
|   |   |   |   |   |   |   |   |   |   |--- class: 1
|   |   |   |   |   |   |--- small_molecule_sensor_activity >  0.99
|   |   |   |   |   |   |   |--- toxin_activity <= 1.00
|   |   |   |   |   |   |   |   |--- immune_system_process <= 1.00
|   |   |   |   |   |   |   |   |   |--- nitrogen_utilization <= 1.00
|   |   |   |   |   |   |   |   |   |   |--- nutrient_reservoir_activity <= 0.97
|   |   |   |   |   |   |   |   |   |   |   |--- class: 1
|   |   |   |   |   |   |   |   |   |   |--- nutrient_reservoir_activity >  0.97
|   |   |   |   |   |   |   |   |   |   |   |--- truncated branch of depth 14
|   |   |   |   |   |   |   |   |   |--- nitrogen_utilization >  1.00
|   |   |   |   |   |   |   |   |   |   |--- cellular_anatomical_entity <= 0.81
|   |   |   |   |   |   |   |   |   |   |   |--- truncated branch of depth 3
|   |   |   |   |   |   |   |   |   |   |--- cellular_anatomical_entity >  0.81
|   |   |   |   |   |   |   |   |   |   |   |--- truncated branch of depth 4
|   |   |   |   |   |   |   |   |--- immune_system_process >  1.00
|   |   |   |   |   |   |   |   |   |--- small_molecule_sensor_activity <= 1.00
|   |   |   |   |   |   |   |   |   |   |--- localization <= 0.99
|   |   |   |   |   |   |   |   |   |   |   |--- truncated branch of depth 8
|   |   |   |   |   |   |   |   |   |   |--- localization >  0.99
|   |   |   |   |   |   |   |   |   |   |   |--- truncated branch of depth 8
|   |   |   |   |   |   |   |   |   |--- small_molecule_sensor_activity >  1.00
|   |   |   |   |   |   |   |   |   |   |--- cellular_anatomical_entity <= 0.79
|   |   |   |   |   |   |   |   |   |   |   |--- truncated branch of depth 4
|   |   |   |   |   |   |   |   |   |   |--- cellular_anatomical_entity >  0.79
|   |   |   |   |   |   |   |   |   |   |   |--- truncated branch of depth 5
|   |   |   |   |   |   |   |--- toxin_activity >  1.00
|   |   |   |   |   |   |   |   |--- virion <= 1.00
|   |   |   |   |   |   |   |   |   |--- metabolic_process <= 0.86
|   |   |   |   |   |   |   |   |   |   |--- small_molecule_sensor_activity <= 1.00
|   |   |   |   |   |   |   |   |   |   |   |--- truncated branch of depth 7
|   |   |   |   |   |   |   |   |   |   |--- small_molecule_sensor_activity >  1.00
|   |   |   |   |   |   |   |   |   |   |   |--- truncated branch of depth 4
|   |   |   |   |   |   |   |   |   |--- metabolic_process >  0.86
|   |   |   |   |   |   |   |   |   |   |--- molecular_transducer_activity <= 0.99
|   |   |   |   |   |   |   |   |   |   |   |--- truncated branch of depth 3
|   |   |   |   |   |   |   |   |   |   |--- molecular_transducer_activity >  0.99
|   |   |   |   |   |   |   |   |   |   |   |--- truncated branch of depth 8
|   |   |   |   |   |   |   |   |--- virion >  1.00
|   |   |   |   |   |   |   |   |   |--- localization <= 0.92
|   |   |   |   |   |   |   |   |   |   |--- virion_part <= 1.00
|   |   |   |   |   |   |   |   |   |   |   |--- truncated branch of depth 2
|   |   |   |   |   |   |   |   |   |   |--- virion_part >  1.00
|   |   |   |   |   |   |   |   |   |   |   |--- truncated branch of depth 4
|   |   |   |   |   |   |   |   |   |--- localization >  0.92
|   |   |   |   |   |   |   |   |   |   |--- behavior <= 0.99
|   |   |   |   |   |   |   |   |   |   |   |--- class: 0
|   |   |   |   |   |   |   |   |   |   |--- behavior >  0.99
|   |   |   |   |   |   |   |   |   |   |   |--- truncated branch of depth 4
|   |   |   |   |   |--- signaling >  1.00
|   |   |   |   |   |   |--- metabolic_process <= 0.83
|   |   |   |   |   |   |   |--- multi-organism_process <= 1.00
|   |   |   |   |   |   |   |   |--- cargo_receptor_activity <= 1.00
|   |   |   |   |   |   |   |   |   |--- molecular_function_regulator <= 0.93
|   |   |   |   |   |   |   |   |   |   |--- class: 1
|   |   |   |   |   |   |   |   |   |--- molecular_function_regulator >  0.93
|   |   |   |   |   |   |   |   |   |   |--- biological_phase <= 1.00
|   |   |   |   |   |   |   |   |   |   |   |--- class: 0
|   |   |   |   |   |   |   |   |   |   |--- biological_phase >  1.00
|   |   |   |   |   |   |   |   |   |   |   |--- class: 1
|   |   |   |   |   |   |   |   |--- cargo_receptor_activity >  1.00
|   |   |   |   |   |   |   |   |   |--- cellular_anatomical_entity <= 0.79
|   |   |   |   |   |   |   |   |   |   |--- class: 0
|   |   |   |   |   |   |   |   |   |--- cellular_anatomical_entity >  0.79
|   |   |   |   |   |   |   |   |   |   |--- class: 1
|   |   |   |   |   |   |   |--- multi-organism_process >  1.00
|   |   |   |   |   |   |   |   |--- protein_folding_chaperone <= 1.00
|   |   |   |   |   |   |   |   |   |--- cellular_process <= 0.74
|   |   |   |   |   |   |   |   |   |   |--- carbon_utilization <= 1.00
|   |   |   |   |   |   |   |   |   |   |   |--- class: 0
|   |   |   |   |   |   |   |   |   |   |--- carbon_utilization >  1.00
|   |   |   |   |   |   |   |   |   |   |   |--- truncated branch of depth 3
|   |   |   |   |   |   |   |   |   |--- cellular_process >  0.74
|   |   |   |   |   |   |   |   |   |   |--- fusogenic_activity <= 1.00
|   |   |   |   |   |   |   |   |   |   |   |--- truncated branch of depth 2
|   |   |   |   |   |   |   |   |   |   |--- fusogenic_activity >  1.00
|   |   |   |   |   |   |   |   |   |   |   |--- truncated branch of depth 3
|   |   |   |   |   |   |   |   |--- protein_folding_chaperone >  1.00
|   |   |   |   |   |   |   |   |   |--- growth <= 1.00
|   |   |   |   |   |   |   |   |   |   |--- catalytic_activity <= 0.88
|   |   |   |   |   |   |   |   |   |   |   |--- class: 0
|   |   |   |   |   |   |   |   |   |   |--- catalytic_activity >  0.88
|   |   |   |   |   |   |   |   |   |   |   |--- class: 1
|   |   |   |   |   |   |   |   |   |--- growth >  1.00
|   |   |   |   |   |   |   |   |   |   |--- class: 0
|   |   |   |   |   |   |--- metabolic_process >  0.83
|   |   |   |   |   |   |   |--- toxin_activity <= 1.00
|   |   |   |   |   |   |   |   |--- molecular_carrier_activity <= 1.00
|   |   |   |   |   |   |   |   |   |--- class: 0
|   |   |   |   |   |   |   |   |--- molecular_carrier_activity >  1.00
|   |   |   |   |   |   |   |   |   |--- transporter_activity <= 1.00
|   |   |   |   |   |   |   |   |   |   |--- class: 0
|   |   |   |   |   |   |   |   |   |--- transporter_activity >  1.00
|   |   |   |   |   |   |   |   |   |   |--- reproduction <= 1.00
|   |   |   |   |   |   |   |   |   |   |   |--- class: 0
|   |   |   |   |   |   |   |   |   |   |--- reproduction >  1.00
|   |   |   |   |   |   |   |   |   |   |   |--- truncated branch of depth 2
|   |   |   |   |   |   |   |--- toxin_activity >  1.00
|   |   |   |   |   |   |   |   |--- cellular_anatomical_entity <= 0.69
|   |   |   |   |   |   |   |   |   |--- class: 0
|   |   |   |   |   |   |   |   |--- cellular_anatomical_entity >  0.69
|   |   |   |   |   |   |   |   |   |--- detoxification <= 1.00
|   |   |   |   |   |   |   |   |   |   |--- class: 0
|   |   |   |   |   |   |   |   |   |--- detoxification >  1.00
|   |   |   |   |   |   |   |   |   |   |--- developmental_process <= 0.89
|   |   |   |   |   |   |   |   |   |   |   |--- truncated branch of depth 3
|   |   |   |   |   |   |   |   |   |   |--- developmental_process >  0.89
|   |   |   |   |   |   |   |   |   |   |   |--- truncated branch of depth 5
|   |   |   |--- response_to_stimulus >  0.99
|   |   |   |   |--- pigmentation <= 1.00
|   |   |   |   |   |--- carbohydrate_utilization <= 1.00
|   |   |   |   |   |   |--- binding <= 0.91
|   |   |   |   |   |   |   |--- reproduction <= 1.00
|   |   |   |   |   |   |   |   |--- detoxification <= 1.00
|   |   |   |   |   |   |   |   |   |--- translation_regulator_activity <= 1.00
|   |   |   |   |   |   |   |   |   |   |--- molecular_carrier_activity <= 0.99
|   |   |   |   |   |   |   |   |   |   |   |--- truncated branch of depth 3
|   |   |   |   |   |   |   |   |   |   |--- molecular_carrier_activity >  0.99
|   |   |   |   |   |   |   |   |   |   |   |--- truncated branch of depth 19
|   |   |   |   |   |   |   |   |   |--- translation_regulator_activity >  1.00
|   |   |   |   |   |   |   |   |   |   |--- class: 1
|   |   |   |   |   |   |   |   |--- detoxification >  1.00
|   |   |   |   |   |   |   |   |   |--- molecular_transducer_activity <= 0.97
|   |   |   |   |   |   |   |   |   |   |--- class: 0
|   |   |   |   |   |   |   |   |   |--- molecular_transducer_activity >  0.97
|   |   |   |   |   |   |   |   |   |   |--- class: 1
|   |   |   |   |   |   |   |--- reproduction >  1.00
|   |   |   |   |   |   |   |   |--- molecular_function_regulator <= 1.00
|   |   |   |   |   |   |   |   |   |--- immune_system_process <= 0.90
|   |   |   |   |   |   |   |   |   |   |--- class: 1
|   |   |   |   |   |   |   |   |   |--- immune_system_process >  0.90
|   |   |   |   |   |   |   |   |   |   |--- structural_molecule_activity <= 1.00
|   |   |   |   |   |   |   |   |   |   |   |--- class: 0
|   |   |   |   |   |   |   |   |   |   |--- structural_molecule_activity >  1.00
|   |   |   |   |   |   |   |   |   |   |   |--- class: 1
|   |   |   |   |   |   |   |   |--- molecular_function_regulator >  1.00
|   |   |   |   |   |   |   |   |   |--- interspecies_interaction_between_organisms <= 1.00
|   |   |   |   |   |   |   |   |   |   |--- biological_phase <= 1.00
|   |   |   |   |   |   |   |   |   |   |   |--- class: 0
|   |   |   |   |   |   |   |   |   |   |--- biological_phase >  1.00
|   |   |   |   |   |   |   |   |   |   |   |--- class: 1
|   |   |   |   |   |   |   |   |   |--- interspecies_interaction_between_organisms >  1.00
|   |   |   |   |   |   |   |   |   |   |--- class: 0
|   |   |   |   |   |   |--- binding >  0.91
|   |   |   |   |   |   |   |--- structural_molecule_activity <= 0.98
|   |   |   |   |   |   |   |   |--- translation_regulator_activity <= 0.99
|   |   |   |   |   |   |   |   |   |--- class: 1
|   |   |   |   |   |   |   |   |--- translation_regulator_activity >  0.99
|   |   |   |   |   |   |   |   |   |--- signaling <= 1.00
|   |   |   |   |   |   |   |   |   |   |--- metabolic_process <= 0.82
|   |   |   |   |   |   |   |   |   |   |   |--- class: 1
|   |   |   |   |   |   |   |   |   |   |--- metabolic_process >  0.82
|   |   |   |   |   |   |   |   |   |   |   |--- truncated branch of depth 3
|   |   |   |   |   |   |   |   |   |--- signaling >  1.00
|   |   |   |   |   |   |   |   |   |   |--- rhythmic_process <= 1.00
|   |   |   |   |   |   |   |   |   |   |   |--- truncated branch of depth 3
|   |   |   |   |   |   |   |   |   |   |--- rhythmic_process >  1.00
|   |   |   |   |   |   |   |   |   |   |   |--- class: 1
|   |   |   |   |   |   |   |--- structural_molecule_activity >  0.98
|   |   |   |   |   |   |   |   |--- cellular_process <= 0.78
|   |   |   |   |   |   |   |   |   |--- protein_tag <= 1.00
|   |   |   |   |   |   |   |   |   |   |--- multi-organism_process <= 1.00
|   |   |   |   |   |   |   |   |   |   |   |--- truncated branch of depth 18
|   |   |   |   |   |   |   |   |   |   |--- multi-organism_process >  1.00
|   |   |   |   |   |   |   |   |   |   |   |--- truncated branch of depth 2
|   |   |   |   |   |   |   |   |   |--- protein_tag >  1.00
|   |   |   |   |   |   |   |   |   |   |--- class: 1
|   |   |   |   |   |   |   |   |--- cellular_process >  0.78
|   |   |   |   |   |   |   |   |   |--- fusogenic_activity <= 1.00
|   |   |   |   |   |   |   |   |   |   |--- protein_folding_chaperone <= 0.99
|   |   |   |   |   |   |   |   |   |   |   |--- class: 1
|   |   |   |   |   |   |   |   |   |   |--- protein_folding_chaperone >  0.99
|   |   |   |   |   |   |   |   |   |   |   |--- class: 0
|   |   |   |   |   |   |   |   |   |--- fusogenic_activity >  1.00
|   |   |   |   |   |   |   |   |   |   |--- class: 1
|   |   |   |   |   |--- carbohydrate_utilization >  1.00
|   |   |   |   |   |   |--- multi-organism_process <= 1.00
|   |   |   |   |   |   |   |--- biological_regulation <= 0.84
|   |   |   |   |   |   |   |   |--- virion_part <= 1.00
|   |   |   |   |   |   |   |   |   |--- toxin_activity <= 1.00
|   |   |   |   |   |   |   |   |   |   |--- structural_molecule_activity <= 0.96
|   |   |   |   |   |   |   |   |   |   |   |--- class: 1
|   |   |   |   |   |   |   |   |   |   |--- structural_molecule_activity >  0.96
|   |   |   |   |   |   |   |   |   |   |   |--- class: 0
|   |   |   |   |   |   |   |   |   |--- toxin_activity >  1.00
|   |   |   |   |   |   |   |   |   |   |--- nitrogen_utilization <= 1.00
|   |   |   |   |   |   |   |   |   |   |   |--- class: 1
|   |   |   |   |   |   |   |   |   |   |--- nitrogen_utilization >  1.00
|   |   |   |   |   |   |   |   |   |   |   |--- class: 0
|   |   |   |   |   |   |   |   |--- virion_part >  1.00
|   |   |   |   |   |   |   |   |   |--- class: 1
|   |   |   |   |   |   |   |--- biological_regulation >  0.84
|   |   |   |   |   |   |   |   |--- class: 1
|   |   |   |   |   |   |--- multi-organism_process >  1.00
|   |   |   |   |   |   |   |--- intraspecies_interaction_between_organisms <= 1.00
|   |   |   |   |   |   |   |   |--- multicellular_organismal_process <= 0.96
|   |   |   |   |   |   |   |   |   |--- class: 0
|   |   |   |   |   |   |   |   |--- multicellular_organismal_process >  0.96
|   |   |   |   |   |   |   |   |   |--- biological_regulation <= 0.99
|   |   |   |   |   |   |   |   |   |   |--- class: 1
|   |   |   |   |   |   |   |   |   |--- biological_regulation >  0.99
|   |   |   |   |   |   |   |   |   |   |--- class: 0
|   |   |   |   |   |   |   |--- intraspecies_interaction_between_organisms >  1.00
|   |   |   |   |   |   |   |   |--- class: 0
|   |   |   |   |--- pigmentation >  1.00
|   |   |   |   |   |--- binding <= 0.89
|   |   |   |   |   |   |--- cellular_process <= 0.74
|   |   |   |   |   |   |   |--- multi-organism_process <= 0.97
|   |   |   |   |   |   |   |   |--- class: 1
|   |   |   |   |   |   |   |--- multi-organism_process >  0.97
|   |   |   |   |   |   |   |   |--- class: 0
|   |   |   |   |   |   |--- cellular_process >  0.74
|   |   |   |   |   |   |   |--- molecular_carrier_activity <= 1.00
|   |   |   |   |   |   |   |   |--- reproduction <= 1.00
|   |   |   |   |   |   |   |   |   |--- biological_regulation <= 0.86
|   |   |   |   |   |   |   |   |   |   |--- class: 0
|   |   |   |   |   |   |   |   |   |--- biological_regulation >  0.86
|   |   |   |   |   |   |   |   |   |   |--- class: 1
|   |   |   |   |   |   |   |   |--- reproduction >  1.00
|   |   |   |   |   |   |   |   |   |--- class: 1
|   |   |   |   |   |   |   |--- molecular_carrier_activity >  1.00
|   |   |   |   |   |   |   |   |--- class: 0
|   |   |   |   |   |--- binding >  0.89
|   |   |   |   |   |   |--- interspecies_interaction_between_organisms <= 1.00
|   |   |   |   |   |   |   |--- nitrogen_utilization <= 1.00
|   |   |   |   |   |   |   |   |--- class: 1
|   |   |   |   |   |   |   |--- nitrogen_utilization >  1.00
|   |   |   |   |   |   |   |   |--- nutrient_reservoir_activity <= 1.00
|   |   |   |   |   |   |   |   |   |--- class: 1
|   |   |   |   |   |   |   |   |--- nutrient_reservoir_activity >  1.00
|   |   |   |   |   |   |   |   |   |--- class: 0
|   |   |   |   |   |   |--- interspecies_interaction_between_organisms >  1.00
|   |   |   |   |   |   |   |--- locomotion <= 1.00
|   |   |   |   |   |   |   |   |--- class: 0
|   |   |   |   |   |   |   |--- locomotion >  1.00
|   |   |   |   |   |   |   |   |--- class: 1
|   |   |--- cellular_anatomical_entity >  0.87
|   |   |   |--- metabolic_process <= 0.84
|   |   |   |   |--- pigmentation <= 1.00
|   |   |   |   |   |--- biological_phase <= 1.00
|   |   |   |   |   |   |--- virion <= 1.00
|   |   |   |   |   |   |   |--- binding <= 0.93
|   |   |   |   |   |   |   |   |--- locomotion <= 0.96
|   |   |   |   |   |   |   |   |   |--- structural_molecule_activity <= 1.00
|   |   |   |   |   |   |   |   |   |   |--- behavior <= 1.00
|   |   |   |   |   |   |   |   |   |   |   |--- class: 1
|   |   |   |   |   |   |   |   |   |   |--- behavior >  1.00
|   |   |   |   |   |   |   |   |   |   |   |--- class: 0
|   |   |   |   |   |   |   |   |   |--- structural_molecule_activity >  1.00
|   |   |   |   |   |   |   |   |   |   |--- virion <= 1.00
|   |   |   |   |   |   |   |   |   |   |   |--- truncated branch of depth 2
|   |   |   |   |   |   |   |   |   |   |--- virion >  1.00
|   |   |   |   |   |   |   |   |   |   |   |--- truncated branch of depth 2
|   |   |   |   |   |   |   |   |--- locomotion >  0.96
|   |   |   |   |   |   |   |   |   |--- virion_part <= 1.00
|   |   |   |   |   |   |   |   |   |   |--- biomineralization <= 1.00
|   |   |   |   |   |   |   |   |   |   |   |--- truncated branch of depth 27
|   |   |   |   |   |   |   |   |   |   |--- biomineralization >  1.00
|   |   |   |   |   |   |   |   |   |   |   |--- truncated branch of depth 3
|   |   |   |   |   |   |   |   |   |--- virion_part >  1.00
|   |   |   |   |   |   |   |   |   |   |--- response_to_stimulus <= 1.00
|   |   |   |   |   |   |   |   |   |   |   |--- truncated branch of depth 3
|   |   |   |   |   |   |   |   |   |   |--- response_to_stimulus >  1.00
|   |   |   |   |   |   |   |   |   |   |   |--- class: 0
|   |   |   |   |   |   |   |--- binding >  0.93
|   |   |   |   |   |   |   |   |--- interspecies_interaction_between_organisms <= 0.99
|   |   |   |   |   |   |   |   |   |--- biological_regulation <= 0.99
|   |   |   |   |   |   |   |   |   |   |--- biological_phase <= 1.00
|   |   |   |   |   |   |   |   |   |   |   |--- truncated branch of depth 8
|   |   |   |   |   |   |   |   |   |   |--- biological_phase >  1.00
|   |   |   |   |   |   |   |   |   |   |   |--- truncated branch of depth 2
|   |   |   |   |   |   |   |   |   |--- biological_regulation >  0.99
|   |   |   |   |   |   |   |   |   |   |--- class: 0
|   |   |   |   |   |   |   |   |--- interspecies_interaction_between_organisms >  0.99
|   |   |   |   |   |   |   |   |   |--- catalytic_activity <= 0.90
|   |   |   |   |   |   |   |   |   |   |--- transporter_activity <= 1.00
|   |   |   |   |   |   |   |   |   |   |   |--- truncated branch of depth 6
|   |   |   |   |   |   |   |   |   |   |--- transporter_activity >  1.00
|   |   |   |   |   |   |   |   |   |   |   |--- truncated branch of depth 2
|   |   |   |   |   |   |   |   |   |--- catalytic_activity >  0.90
|   |   |   |   |   |   |   |   |   |   |--- cellular_anatomical_entity <= 0.91
|   |   |   |   |   |   |   |   |   |   |   |--- truncated branch of depth 6
|   |   |   |   |   |   |   |   |   |   |--- cellular_anatomical_entity >  0.91
|   |   |   |   |   |   |   |   |   |   |   |--- truncated branch of depth 7
|   |   |   |   |   |   |--- virion >  1.00
|   |   |   |   |   |   |   |--- metabolic_process <= 0.75
|   |   |   |   |   |   |   |   |--- interspecies_interaction_between_organisms <= 1.00
|   |   |   |   |   |   |   |   |   |--- class: 0
|   |   |   |   |   |   |   |   |--- interspecies_interaction_between_organisms >  1.00
|   |   |   |   |   |   |   |   |   |--- class: 1
|   |   |   |   |   |   |   |--- metabolic_process >  0.75
|   |   |   |   |   |   |   |   |--- structural_molecule_activity <= 0.98
|   |   |   |   |   |   |   |   |   |--- class: 0
|   |   |   |   |   |   |   |   |--- structural_molecule_activity >  0.98
|   |   |   |   |   |   |   |   |   |--- class: 1
|   |   |   |   |   |--- biological_phase >  1.00
|   |   |   |   |   |   |--- fusogenic_activity <= 1.00
|   |   |   |   |   |   |   |--- developmental_process <= 1.00
|   |   |   |   |   |   |   |   |--- molecular_transducer_activity <= 1.00
|   |   |   |   |   |   |   |   |   |--- locomotion <= 1.00
|   |   |   |   |   |   |   |   |   |   |--- class: 1
|   |   |   |   |   |   |   |   |   |--- locomotion >  1.00
|   |   |   |   |   |   |   |   |   |   |--- phosphorus_utilization <= 1.00
|   |   |   |   |   |   |   |   |   |   |   |--- class: 0
|   |   |   |   |   |   |   |   |   |   |--- phosphorus_utilization >  1.00
|   |   |   |   |   |   |   |   |   |   |   |--- class: 1
|   |   |   |   |   |   |   |   |--- molecular_transducer_activity >  1.00
|   |   |   |   |   |   |   |   |   |--- reproductive_process <= 0.98
|   |   |   |   |   |   |   |   |   |   |--- class: 0
|   |   |   |   |   |   |   |   |   |--- reproductive_process >  0.98
|   |   |   |   |   |   |   |   |   |   |--- class: 1
|   |   |   |   |   |   |   |--- developmental_process >  1.00
|   |   |   |   |   |   |   |   |--- class: 0
|   |   |   |   |   |   |--- fusogenic_activity >  1.00
|   |   |   |   |   |   |   |--- multicellular_organismal_process <= 1.00
|   |   |   |   |   |   |   |   |--- other_organism_part <= 1.00
|   |   |   |   |   |   |   |   |   |--- class: 0
|   |   |   |   |   |   |   |   |--- other_organism_part >  1.00
|   |   |   |   |   |   |   |   |   |--- virion_part <= 1.00
|   |   |   |   |   |   |   |   |   |   |--- biomineralization <= 1.00
|   |   |   |   |   |   |   |   |   |   |   |--- truncated branch of depth 5
|   |   |   |   |   |   |   |   |   |   |--- biomineralization >  1.00
|   |   |   |   |   |   |   |   |   |   |   |--- class: 0
|   |   |   |   |   |   |   |   |   |--- virion_part >  1.00
|   |   |   |   |   |   |   |   |   |   |--- binding <= 0.85
|   |   |   |   |   |   |   |   |   |   |   |--- truncated branch of depth 2
|   |   |   |   |   |   |   |   |   |   |--- binding >  0.85
|   |   |   |   |   |   |   |   |   |   |   |--- truncated branch of depth 2
|   |   |   |   |   |   |   |--- multicellular_organismal_process >  1.00
|   |   |   |   |   |   |   |   |--- class: 0
|   |   |   |   |--- pigmentation >  1.00
|   |   |   |   |   |--- biological_regulation <= 0.72
|   |   |   |   |   |   |--- cellular_process <= 0.73
|   |   |   |   |   |   |   |--- detoxification <= 1.00
|   |   |   |   |   |   |   |   |--- biological_phase <= 1.00
|   |   |   |   |   |   |   |   |   |--- locomotion <= 0.97
|   |   |   |   |   |   |   |   |   |   |--- pigmentation <= 1.00
|   |   |   |   |   |   |   |   |   |   |   |--- class: 0
|   |   |   |   |   |   |   |   |   |   |--- pigmentation >  1.00
|   |   |   |   |   |   |   |   |   |   |   |--- class: 1
|   |   |   |   |   |   |   |   |   |--- locomotion >  0.97
|   |   |   |   |   |   |   |   |   |   |--- antioxidant_activity <= 1.00
|   |   |   |   |   |   |   |   |   |   |   |--- truncated branch of depth 2
|   |   |   |   |   |   |   |   |   |   |--- antioxidant_activity >  1.00
|   |   |   |   |   |   |   |   |   |   |   |--- truncated branch of depth 4
|   |   |   |   |   |   |   |   |--- biological_phase >  1.00
|   |   |   |   |   |   |   |   |   |--- binding <= 0.83
|   |   |   |   |   |   |   |   |   |   |--- class: 0
|   |   |   |   |   |   |   |   |   |--- binding >  0.83
|   |   |   |   |   |   |   |   |   |   |--- class: 1
|   |   |   |   |   |   |   |--- detoxification >  1.00
|   |   |   |   |   |   |   |   |--- virion <= 1.00
|   |   |   |   |   |   |   |   |   |--- class: 0
|   |   |   |   |   |   |   |   |--- virion >  1.00
|   |   |   |   |   |   |   |   |   |--- class: 1
|   |   |   |   |   |   |--- cellular_process >  0.73
|   |   |   |   |   |   |   |--- molecular_function_regulator <= 0.93
|   |   |   |   |   |   |   |   |--- cellular_anatomical_entity <= 0.96
|   |   |   |   |   |   |   |   |   |--- class: 0
|   |   |   |   |   |   |   |   |--- cellular_anatomical_entity >  0.96
|   |   |   |   |   |   |   |   |   |--- class: 1
|   |   |   |   |   |   |   |--- molecular_function_regulator >  0.93
|   |   |   |   |   |   |   |   |--- localization <= 1.00
|   |   |   |   |   |   |   |   |   |--- biomineralization <= 1.00
|   |   |   |   |   |   |   |   |   |   |--- class: 0
|   |   |   |   |   |   |   |   |   |--- biomineralization >  1.00
|   |   |   |   |   |   |   |   |   |   |--- structural_molecule_activity <= 0.97
|   |   |   |   |   |   |   |   |   |   |   |--- class: 0
|   |   |   |   |   |   |   |   |   |   |--- structural_molecule_activity >  0.97
|   |   |   |   |   |   |   |   |   |   |   |--- truncated branch of depth 3
|   |   |   |   |   |   |   |   |--- localization >  1.00
|   |   |   |   |   |   |   |   |   |--- intraspecies_interaction_between_organisms <= 1.00
|   |   |   |   |   |   |   |   |   |   |--- antioxidant_activity <= 1.00
|   |   |   |   |   |   |   |   |   |   |   |--- class: 0
|   |   |   |   |   |   |   |   |   |   |--- antioxidant_activity >  1.00
|   |   |   |   |   |   |   |   |   |   |   |--- truncated branch of depth 2
|   |   |   |   |   |   |   |   |   |--- intraspecies_interaction_between_organisms >  1.00
|   |   |   |   |   |   |   |   |   |   |--- phosphorus_utilization <= 1.00
|   |   |   |   |   |   |   |   |   |   |   |--- truncated branch of depth 2
|   |   |   |   |   |   |   |   |   |   |--- phosphorus_utilization >  1.00
|   |   |   |   |   |   |   |   |   |   |   |--- truncated branch of depth 3
|   |   |   |   |   |--- biological_regulation >  0.72
|   |   |   |   |   |   |--- phosphorus_utilization <= 1.00
|   |   |   |   |   |   |   |--- molecular_adaptor_activity <= 1.00
|   |   |   |   |   |   |   |   |--- immune_system_process <= 1.00
|   |   |   |   |   |   |   |   |   |--- pigmentation <= 1.00
|   |   |   |   |   |   |   |   |   |   |--- class: 1
|   |   |   |   |   |   |   |   |   |--- pigmentation >  1.00
|   |   |   |   |   |   |   |   |   |   |--- class: 0
|   |   |   |   |   |   |   |   |--- immune_system_process >  1.00
|   |   |   |   |   |   |   |   |   |--- reproductive_process <= 1.00
|   |   |   |   |   |   |   |   |   |   |--- class: 0
|   |   |   |   |   |   |   |   |   |--- reproductive_process >  1.00
|   |   |   |   |   |   |   |   |   |   |--- class: 1
|   |   |   |   |   |   |   |--- molecular_adaptor_activity >  1.00
|   |   |   |   |   |   |   |   |--- developmental_process <= 1.00
|   |   |   |   |   |   |   |   |   |--- biological_regulation <= 0.96
|   |   |   |   |   |   |   |   |   |   |--- rhythmic_process <= 1.00
|   |   |   |   |   |   |   |   |   |   |   |--- truncated branch of depth 2
|   |   |   |   |   |   |   |   |   |   |--- rhythmic_process >  1.00
|   |   |   |   |   |   |   |   |   |   |   |--- truncated branch of depth 3
|   |   |   |   |   |   |   |   |   |--- biological_regulation >  0.96
|   |   |   |   |   |   |   |   |   |   |--- class: 0
|   |   |   |   |   |   |   |   |--- developmental_process >  1.00
|   |   |   |   |   |   |   |   |   |--- class: 0
|   |   |   |   |   |   |--- phosphorus_utilization >  1.00
|   |   |   |   |   |   |   |--- protein_tag <= 1.00
|   |   |   |   |   |   |   |   |--- class: 0
|   |   |   |   |   |   |   |--- protein_tag >  1.00
|   |   |   |   |   |   |   |   |--- sulfur_utilization <= 1.00
|   |   |   |   |   |   |   |   |   |--- carbohydrate_utilization <= 1.00
|   |   |   |   |   |   |   |   |   |   |--- class: 1
|   |   |   |   |   |   |   |   |   |--- carbohydrate_utilization >  1.00
|   |   |   |   |   |   |   |   |   |   |--- class: 0
|   |   |   |   |   |   |   |   |--- sulfur_utilization >  1.00
|   |   |   |   |   |   |   |   |   |--- molecular_transducer_activity <= 1.00
|   |   |   |   |   |   |   |   |   |   |--- virion_part <= 1.00
|   |   |   |   |   |   |   |   |   |   |   |--- truncated branch of depth 4
|   |   |   |   |   |   |   |   |   |   |--- virion_part >  1.00
|   |   |   |   |   |   |   |   |   |   |   |--- truncated branch of depth 8
|   |   |   |   |   |   |   |   |   |--- molecular_transducer_activity >  1.00
|   |   |   |   |   |   |   |   |   |   |--- molecular_adaptor_activity <= 1.00
|   |   |   |   |   |   |   |   |   |   |   |--- class: 0
|   |   |   |   |   |   |   |   |   |   |--- molecular_adaptor_activity >  1.00
|   |   |   |   |   |   |   |   |   |   |   |--- class: 1
|   |   |   |--- metabolic_process >  0.84
|   |   |   |   |--- binding <= 0.89
|   |   |   |   |   |--- carbohydrate_utilization <= 1.00
|   |   |   |   |   |   |--- nitrogen_utilization <= 1.00
|   |   |   |   |   |   |   |--- reproduction <= 1.00
|   |   |   |   |   |   |   |   |--- molecular_sequestering_activity <= 1.00
|   |   |   |   |   |   |   |   |   |--- biological_regulation <= 0.87
|   |   |   |   |   |   |   |   |   |   |--- multicellular_organismal_process <= 0.99
|   |   |   |   |   |   |   |   |   |   |   |--- truncated branch of depth 8
|   |   |   |   |   |   |   |   |   |   |--- multicellular_organismal_process >  0.99
|   |   |   |   |   |   |   |   |   |   |   |--- truncated branch of depth 6
|   |   |   |   |   |   |   |   |   |--- biological_regulation >  0.87
|   |   |   |   |   |   |   |   |   |   |--- localization <= 0.99
|   |   |   |   |   |   |   |   |   |   |   |--- truncated branch of depth 3
|   |   |   |   |   |   |   |   |   |   |--- localization >  0.99
|   |   |   |   |   |   |   |   |   |   |   |--- class: 0
|   |   |   |   |   |   |   |   |--- molecular_sequestering_activity >  1.00
|   |   |   |   |   |   |   |   |   |--- other_organism_part <= 1.00
|   |   |   |   |   |   |   |   |   |   |--- class: 1
|   |   |   |   |   |   |   |   |   |--- other_organism_part >  1.00
|   |   |   |   |   |   |   |   |   |   |--- class: 0
|   |   |   |   |   |   |   |--- reproduction >  1.00
|   |   |   |   |   |   |   |   |--- carbohydrate_utilization <= 1.00
|   |   |   |   |   |   |   |   |   |--- nitrogen_utilization <= 0.99
|   |   |   |   |   |   |   |   |   |   |--- class: 0
|   |   |   |   |   |   |   |   |   |--- nitrogen_utilization >  0.99
|   |   |   |   |   |   |   |   |   |   |--- class: 1
|   |   |   |   |   |   |   |   |--- carbohydrate_utilization >  1.00
|   |   |   |   |   |   |   |   |   |--- class: 0
|   |   |   |   |   |   |--- nitrogen_utilization >  1.00
|   |   |   |   |   |   |   |--- developmental_process <= 0.90
|   |   |   |   |   |   |   |   |--- response_to_stimulus <= 0.82
|   |   |   |   |   |   |   |   |   |--- class: 1
|   |   |   |   |   |   |   |   |--- response_to_stimulus >  0.82
|   |   |   |   |   |   |   |   |   |--- molecular_function_regulator <= 0.91
|   |   |   |   |   |   |   |   |   |   |--- growth <= 1.00
|   |   |   |   |   |   |   |   |   |   |   |--- class: 1
|   |   |   |   |   |   |   |   |   |   |--- growth >  1.00
|   |   |   |   |   |   |   |   |   |   |   |--- class: 0
|   |   |   |   |   |   |   |   |   |--- molecular_function_regulator >  0.91
|   |   |   |   |   |   |   |   |   |   |--- multi-organism_process <= 1.00
|   |   |   |   |   |   |   |   |   |   |   |--- truncated branch of depth 3
|   |   |   |   |   |   |   |   |   |   |--- multi-organism_process >  1.00
|   |   |   |   |   |   |   |   |   |   |   |--- class: 1
|   |   |   |   |   |   |   |--- developmental_process >  0.90
|   |   |   |   |   |   |   |   |--- cellular_process <= 0.72
|   |   |   |   |   |   |   |   |   |--- interspecies_interaction_between_organisms <= 1.00
|   |   |   |   |   |   |   |   |   |   |--- biological_regulation <= 0.74
|   |   |   |   |   |   |   |   |   |   |   |--- truncated branch of depth 3
|   |   |   |   |   |   |   |   |   |   |--- biological_regulation >  0.74
|   |   |   |   |   |   |   |   |   |   |   |--- truncated branch of depth 3
|   |   |   |   |   |   |   |   |   |--- interspecies_interaction_between_organisms >  1.00
|   |   |   |   |   |   |   |   |   |   |--- cargo_receptor_activity <= 1.00
|   |   |   |   |   |   |   |   |   |   |   |--- truncated branch of depth 2
|   |   |   |   |   |   |   |   |   |   |--- cargo_receptor_activity >  1.00
|   |   |   |   |   |   |   |   |   |   |   |--- truncated branch of depth 2
|   |   |   |   |   |   |   |   |--- cellular_process >  0.72
|   |   |   |   |   |   |   |   |   |--- multicellular_organismal_process <= 0.96
|   |   |   |   |   |   |   |   |   |   |--- reproductive_process <= 1.00
|   |   |   |   |   |   |   |   |   |   |   |--- truncated branch of depth 3
|   |   |   |   |   |   |   |   |   |   |--- reproductive_process >  1.00
|   |   |   |   |   |   |   |   |   |   |   |--- truncated branch of depth 4
|   |   |   |   |   |   |   |   |   |--- multicellular_organismal_process >  0.96
|   |   |   |   |   |   |   |   |   |   |--- molecular_transducer_activity <= 1.00
|   |   |   |   |   |   |   |   |   |   |   |--- truncated branch of depth 7
|   |   |   |   |   |   |   |   |   |   |--- molecular_transducer_activity >  1.00
|   |   |   |   |   |   |   |   |   |   |   |--- truncated branch of depth 15
|   |   |   |   |   |--- carbohydrate_utilization >  1.00
|   |   |   |   |   |   |--- small_molecule_sensor_activity <= 1.00
|   |   |   |   |   |   |   |--- immune_system_process <= 1.00
|   |   |   |   |   |   |   |   |--- class: 0
|   |   |   |   |   |   |   |--- immune_system_process >  1.00
|   |   |   |   |   |   |   |   |--- class: 1
|   |   |   |   |   |   |--- small_molecule_sensor_activity >  1.00
|   |   |   |   |   |   |   |--- signaling <= 1.00
|   |   |   |   |   |   |   |   |--- molecular_function_regulator <= 0.93
|   |   |   |   |   |   |   |   |   |--- translation_regulator_activity <= 1.00
|   |   |   |   |   |   |   |   |   |   |--- carbon_utilization <= 1.00
|   |   |   |   |   |   |   |   |   |   |   |--- class: 1
|   |   |   |   |   |   |   |   |   |   |--- carbon_utilization >  1.00
|   |   |   |   |   |   |   |   |   |   |   |--- class: 0
|   |   |   |   |   |   |   |   |   |--- translation_regulator_activity >  1.00
|   |   |   |   |   |   |   |   |   |   |--- molecular_function_regulator <= 0.92
|   |   |   |   |   |   |   |   |   |   |   |--- class: 1
|   |   |   |   |   |   |   |   |   |   |--- molecular_function_regulator >  0.92
|   |   |   |   |   |   |   |   |   |   |   |--- class: 0
|   |   |   |   |   |   |   |   |--- molecular_function_regulator >  0.93
|   |   |   |   |   |   |   |   |   |--- structural_molecule_activity <= 1.00
|   |   |   |   |   |   |   |   |   |   |--- immune_system_process <= 0.91
|   |   |   |   |   |   |   |   |   |   |   |--- class: 0
|   |   |   |   |   |   |   |   |   |   |--- immune_system_process >  0.91
|   |   |   |   |   |   |   |   |   |   |   |--- truncated branch of depth 6
|   |   |   |   |   |   |   |   |   |--- structural_molecule_activity >  1.00
|   |   |   |   |   |   |   |   |   |   |--- rhythmic_process <= 1.00
|   |   |   |   |   |   |   |   |   |   |   |--- class: 0
|   |   |   |   |   |   |   |   |   |   |--- rhythmic_process >  1.00
|   |   |   |   |   |   |   |   |   |   |   |--- truncated branch of depth 6
|   |   |   |   |   |   |   |--- signaling >  1.00
|   |   |   |   |   |   |   |   |--- interspecies_interaction_between_organisms <= 0.93
|   |   |   |   |   |   |   |   |   |--- class: 0
|   |   |   |   |   |   |   |   |--- interspecies_interaction_between_organisms >  0.93
|   |   |   |   |   |   |   |   |   |--- localization <= 1.00
|   |   |   |   |   |   |   |   |   |   |--- protein_folding_chaperone <= 1.00
|   |   |   |   |   |   |   |   |   |   |   |--- class: 0
|   |   |   |   |   |   |   |   |   |   |--- protein_folding_chaperone >  1.00
|   |   |   |   |   |   |   |   |   |   |   |--- class: 1
|   |   |   |   |   |   |   |   |   |--- localization >  1.00
|   |   |   |   |   |   |   |   |   |   |--- molecular_carrier_activity <= 1.00
|   |   |   |   |   |   |   |   |   |   |   |--- truncated branch of depth 2
|   |   |   |   |   |   |   |   |   |   |--- molecular_carrier_activity >  1.00
|   |   |   |   |   |   |   |   |   |   |   |--- truncated branch of depth 3
|   |   |   |   |--- binding >  0.89
|   |   |   |   |   |--- metabolic_process <= 0.98
|   |   |   |   |   |   |--- reproduction <= 1.00
|   |   |   |   |   |   |   |--- binding <= 0.91
|   |   |   |   |   |   |   |   |--- fusogenic_activity <= 1.00
|   |   |   |   |   |   |   |   |   |--- metabolic_process <= 0.92
|   |   |   |   |   |   |   |   |   |   |--- toxin_activity <= 0.99
|   |   |   |   |   |   |   |   |   |   |   |--- truncated branch of depth 2
|   |   |   |   |   |   |   |   |   |   |--- toxin_activity >  0.99
|   |   |   |   |   |   |   |   |   |   |   |--- class: 0
|   |   |   |   |   |   |   |   |   |--- metabolic_process >  0.92
|   |   |   |   |   |   |   |   |   |   |--- biological_phase <= 0.99
|   |   |   |   |   |   |   |   |   |   |   |--- class: 0
|   |   |   |   |   |   |   |   |   |   |--- biological_phase >  0.99
|   |   |   |   |   |   |   |   |   |   |   |--- class: 1
|   |   |   |   |   |   |   |   |--- fusogenic_activity >  1.00
|   |   |   |   |   |   |   |   |   |--- class: 1
|   |   |   |   |   |   |   |--- binding >  0.91
|   |   |   |   |   |   |   |   |--- immune_system_process <= 0.92
|   |   |   |   |   |   |   |   |   |--- response_to_stimulus <= 0.89
|   |   |   |   |   |   |   |   |   |   |--- interspecies_interaction_between_organisms <= 0.99
|   |   |   |   |   |   |   |   |   |   |   |--- class: 1
|   |   |   |   |   |   |   |   |   |   |--- interspecies_interaction_between_organisms >  0.99
|   |   |   |   |   |   |   |   |   |   |   |--- class: 0
|   |   |   |   |   |   |   |   |   |--- response_to_stimulus >  0.89
|   |   |   |   |   |   |   |   |   |   |--- class: 0
|   |   |   |   |   |   |   |   |--- immune_system_process >  0.92
|   |   |   |   |   |   |   |   |   |--- detoxification <= 1.00
|   |   |   |   |   |   |   |   |   |   |--- metabolic_process <= 0.97
|   |   |   |   |   |   |   |   |   |   |   |--- truncated branch of depth 2
|   |   |   |   |   |   |   |   |   |   |--- metabolic_process >  0.97
|   |   |   |   |   |   |   |   |   |   |   |--- truncated branch of depth 2
|   |   |   |   |   |   |   |   |   |--- detoxification >  1.00
|   |   |   |   |   |   |   |   |   |   |--- biological_phase <= 1.00
|   |   |   |   |   |   |   |   |   |   |   |--- truncated branch of depth 2
|   |   |   |   |   |   |   |   |   |   |--- biological_phase >  1.00
|   |   |   |   |   |   |   |   |   |   |   |--- class: 1
|   |   |   |   |   |   |--- reproduction >  1.00
|   |   |   |   |   |   |   |--- molecular_transducer_activity <= 0.93
|   |   |   |   |   |   |   |   |--- class: 0
|   |   |   |   |   |   |   |--- molecular_transducer_activity >  0.93
|   |   |   |   |   |   |   |   |--- multicellular_organismal_process <= 0.95
|   |   |   |   |   |   |   |   |   |--- phosphorus_utilization <= 1.00
|   |   |   |   |   |   |   |   |   |   |--- class: 0
|   |   |   |   |   |   |   |   |   |--- phosphorus_utilization >  1.00
|   |   |   |   |   |   |   |   |   |   |--- behavior <= 0.96
|   |   |   |   |   |   |   |   |   |   |   |--- class: 0
|   |   |   |   |   |   |   |   |   |   |--- behavior >  0.96
|   |   |   |   |   |   |   |   |   |   |   |--- truncated branch of depth 3
|   |   |   |   |   |   |   |   |--- multicellular_organismal_process >  0.95
|   |   |   |   |   |   |   |   |   |--- nitrogen_utilization <= 0.99
|   |   |   |   |   |   |   |   |   |   |--- class: 0
|   |   |   |   |   |   |   |   |   |--- nitrogen_utilization >  0.99
|   |   |   |   |   |   |   |   |   |   |--- carbon_utilization <= 1.00
|   |   |   |   |   |   |   |   |   |   |   |--- truncated branch of depth 3
|   |   |   |   |   |   |   |   |   |   |--- carbon_utilization >  1.00
|   |   |   |   |   |   |   |   |   |   |   |--- truncated branch of depth 15
|   |   |   |   |   |--- metabolic_process >  0.98
|   |   |   |   |   |   |--- biological_regulation <= 0.77
|   |   |   |   |   |   |   |--- nitrogen_utilization <= 1.00
|   |   |   |   |   |   |   |   |--- protein_folding_chaperone <= 1.00
|   |   |   |   |   |   |   |   |   |--- multicellular_organismal_process <= 0.92
|   |   |   |   |   |   |   |   |   |   |--- class: 1
|   |   |   |   |   |   |   |   |   |--- multicellular_organismal_process >  0.92
|   |   |   |   |   |   |   |   |   |   |--- carbohydrate_utilization <= 0.99
|   |   |   |   |   |   |   |   |   |   |   |--- class: 1
|   |   |   |   |   |   |   |   |   |   |--- carbohydrate_utilization >  0.99
|   |   |   |   |   |   |   |   |   |   |   |--- truncated branch of depth 9
|   |   |   |   |   |   |   |   |--- protein_folding_chaperone >  1.00
|   |   |   |   |   |   |   |   |   |--- class: 1
|   |   |   |   |   |   |   |--- nitrogen_utilization >  1.00
|   |   |   |   |   |   |   |   |--- biological_adhesion <= 1.00
|   |   |   |   |   |   |   |   |   |--- growth <= 1.00
|   |   |   |   |   |   |   |   |   |   |--- class: 0
|   |   |   |   |   |   |   |   |   |--- growth >  1.00
|   |   |   |   |   |   |   |   |   |   |--- class: 1
|   |   |   |   |   |   |   |   |--- biological_adhesion >  1.00
|   |   |   |   |   |   |   |   |   |--- virion <= 1.00
|   |   |   |   |   |   |   |   |   |   |--- class: 0
|   |   |   |   |   |   |   |   |   |--- virion >  1.00
|   |   |   |   |   |   |   |   |   |   |--- sulfur_utilization <= 1.00
|   |   |   |   |   |   |   |   |   |   |   |--- class: 1
|   |   |   |   |   |   |   |   |   |   |--- sulfur_utilization >  1.00
|   |   |   |   |   |   |   |   |   |   |   |--- class: 0
|   |   |   |   |   |   |--- biological_regulation >  0.77
|   |   |   |   |   |   |   |--- molecular_transducer_activity <= 0.95
|   |   |   |   |   |   |   |   |--- carbohydrate_utilization <= 1.00
|   |   |   |   |   |   |   |   |   |--- class: 0
|   |   |   |   |   |   |   |   |--- carbohydrate_utilization >  1.00
|   |   |   |   |   |   |   |   |   |--- class: 1
|   |   |   |   |   |   |   |--- molecular_transducer_activity >  0.95
|   |   |   |   |   |   |   |   |--- interspecies_interaction_between_organisms <= 0.95
|   |   |   |   |   |   |   |   |   |--- class: 0
|   |   |   |   |   |   |   |   |--- interspecies_interaction_between_organisms >  0.95
|   |   |   |   |   |   |   |   |   |--- cargo_receptor_activity <= 1.00
|   |   |   |   |   |   |   |   |   |   |--- immune_system_process <= 1.00
|   |   |   |   |   |   |   |   |   |   |   |--- truncated branch of depth 4
|   |   |   |   |   |   |   |   |   |   |--- immune_system_process >  1.00
|   |   |   |   |   |   |   |   |   |   |   |--- truncated branch of depth 2
|   |   |   |   |   |   |   |   |   |--- cargo_receptor_activity >  1.00
|   |   |   |   |   |   |   |   |   |   |--- class: 1
|--- cellular_process >  0.78
|   |--- cellular_process <= 0.86
|   |   |--- cellular_anatomical_entity <= 0.86
|   |   |   |--- metabolic_process <= 0.99
|   |   |   |   |--- cargo_receptor_activity <= 1.00
|   |   |   |   |   |--- binding <= 0.91
|   |   |   |   |   |   |--- response_to_stimulus <= 0.99
|   |   |   |   |   |   |   |--- biological_regulation <= 0.79
|   |   |   |   |   |   |   |   |--- fusogenic_activity <= 1.00
|   |   |   |   |   |   |   |   |   |--- fusogenic_activity <= 0.99
|   |   |   |   |   |   |   |   |   |   |--- multi-organism_process <= 0.99
|   |   |   |   |   |   |   |   |   |   |   |--- truncated branch of depth 5
|   |   |   |   |   |   |   |   |   |   |--- multi-organism_process >  0.99
|   |   |   |   |   |   |   |   |   |   |   |--- truncated branch of depth 2
|   |   |   |   |   |   |   |   |   |--- fusogenic_activity >  0.99
|   |   |   |   |   |   |   |   |   |   |--- growth <= 0.97
|   |   |   |   |   |   |   |   |   |   |   |--- class: 1
|   |   |   |   |   |   |   |   |   |   |--- growth >  0.97
|   |   |   |   |   |   |   |   |   |   |   |--- truncated branch of depth 9
|   |   |   |   |   |   |   |   |--- fusogenic_activity >  1.00
|   |   |   |   |   |   |   |   |   |--- biological_regulation <= 0.63
|   |   |   |   |   |   |   |   |   |   |--- toxin_activity <= 1.00
|   |   |   |   |   |   |   |   |   |   |   |--- truncated branch of depth 4
|   |   |   |   |   |   |   |   |   |   |--- toxin_activity >  1.00
|   |   |   |   |   |   |   |   |   |   |   |--- truncated branch of depth 4
|   |   |   |   |   |   |   |   |   |--- biological_regulation >  0.63
|   |   |   |   |   |   |   |   |   |   |--- nutrient_reservoir_activity <= 1.00
|   |   |   |   |   |   |   |   |   |   |   |--- truncated branch of depth 8
|   |   |   |   |   |   |   |   |   |   |--- nutrient_reservoir_activity >  1.00
|   |   |   |   |   |   |   |   |   |   |   |--- truncated branch of depth 6
|   |   |   |   |   |   |   |--- biological_regulation >  0.79
|   |   |   |   |   |   |   |   |--- binding <= 0.84
|   |   |   |   |   |   |   |   |   |--- protein_tag <= 1.00
|   |   |   |   |   |   |   |   |   |   |--- intraspecies_interaction_between_organisms <= 0.99
|   |   |   |   |   |   |   |   |   |   |   |--- truncated branch of depth 2
|   |   |   |   |   |   |   |   |   |   |--- intraspecies_interaction_between_organisms >  0.99
|   |   |   |   |   |   |   |   |   |   |   |--- truncated branch of depth 3
|   |   |   |   |   |   |   |   |   |--- protein_tag >  1.00
|   |   |   |   |   |   |   |   |   |   |--- multicellular_organismal_process <= 0.95
|   |   |   |   |   |   |   |   |   |   |   |--- class: 0
|   |   |   |   |   |   |   |   |   |   |--- multicellular_organismal_process >  0.95
|   |   |   |   |   |   |   |   |   |   |   |--- truncated branch of depth 4
|   |   |   |   |   |   |   |   |--- binding >  0.84
|   |   |   |   |   |   |   |   |   |--- biological_regulation <= 0.96
|   |   |   |   |   |   |   |   |   |   |--- cellular_anatomical_entity <= 0.70
|   |   |   |   |   |   |   |   |   |   |   |--- class: 0
|   |   |   |   |   |   |   |   |   |   |--- cellular_anatomical_entity >  0.70
|   |   |   |   |   |   |   |   |   |   |   |--- truncated branch of depth 8
|   |   |   |   |   |   |   |   |   |--- biological_regulation >  0.96
|   |   |   |   |   |   |   |   |   |   |--- reproduction <= 1.00
|   |   |   |   |   |   |   |   |   |   |   |--- class: 1
|   |   |   |   |   |   |   |   |   |   |--- reproduction >  1.00
|   |   |   |   |   |   |   |   |   |   |   |--- truncated branch of depth 2
|   |   |   |   |   |   |--- response_to_stimulus >  0.99
|   |   |   |   |   |   |   |--- localization <= 0.99
|   |   |   |   |   |   |   |   |--- cellular_process <= 0.84
|   |   |   |   |   |   |   |   |   |--- virion_part <= 1.00
|   |   |   |   |   |   |   |   |   |   |--- molecular_sequestering_activity <= 1.00
|   |   |   |   |   |   |   |   |   |   |   |--- truncated branch of depth 7
|   |   |   |   |   |   |   |   |   |   |--- molecular_sequestering_activity >  1.00
|   |   |   |   |   |   |   |   |   |   |   |--- truncated branch of depth 2
|   |   |   |   |   |   |   |   |   |--- virion_part >  1.00
|   |   |   |   |   |   |   |   |   |   |--- class: 1
|   |   |   |   |   |   |   |   |--- cellular_process >  0.84
|   |   |   |   |   |   |   |   |   |--- molecular_template_activity <= 1.00
|   |   |   |   |   |   |   |   |   |   |--- molecular_adaptor_activity <= 0.99
|   |   |   |   |   |   |   |   |   |   |   |--- class: 1
|   |   |   |   |   |   |   |   |   |   |--- molecular_adaptor_activity >  0.99
|   |   |   |   |   |   |   |   |   |   |   |--- class: 0
|   |   |   |   |   |   |   |   |   |--- molecular_template_activity >  1.00
|   |   |   |   |   |   |   |   |   |   |--- immune_system_process <= 0.95
|   |   |   |   |   |   |   |   |   |   |   |--- class: 0
|   |   |   |   |   |   |   |   |   |   |--- immune_system_process >  0.95
|   |   |   |   |   |   |   |   |   |   |   |--- truncated branch of depth 2
|   |   |   |   |   |   |   |--- localization >  0.99
|   |   |   |   |   |   |   |   |--- other_organism_part <= 1.00
|   |   |   |   |   |   |   |   |   |--- metabolic_process <= 0.92
|   |   |   |   |   |   |   |   |   |   |--- biomineralization <= 1.00
|   |   |   |   |   |   |   |   |   |   |   |--- truncated branch of depth 4
|   |   |   |   |   |   |   |   |   |   |--- biomineralization >  1.00
|   |   |   |   |   |   |   |   |   |   |   |--- class: 1
|   |   |   |   |   |   |   |   |   |--- metabolic_process >  0.92
|   |   |   |   |   |   |   |   |   |   |--- fusogenic_activity <= 1.00
|   |   |   |   |   |   |   |   |   |   |   |--- class: 1
|   |   |   |   |   |   |   |   |   |   |--- fusogenic_activity >  1.00
|   |   |   |   |   |   |   |   |   |   |   |--- truncated branch of depth 2
|   |   |   |   |   |   |   |   |--- other_organism_part >  1.00
|   |   |   |   |   |   |   |   |   |--- localization <= 1.00
|   |   |   |   |   |   |   |   |   |   |--- class: 1
|   |   |   |   |   |   |   |   |   |--- localization >  1.00
|   |   |   |   |   |   |   |   |   |   |--- class: 0
|   |   |   |   |   |--- binding >  0.91
|   |   |   |   |   |   |--- multicellular_organismal_process <= 0.99
|   |   |   |   |   |   |   |--- sulfur_utilization <= 1.00
|   |   |   |   |   |   |   |   |--- structural_molecule_activity <= 1.00
|   |   |   |   |   |   |   |   |   |--- intraspecies_interaction_between_organisms <= 0.99
|   |   |   |   |   |   |   |   |   |   |--- class: 1
|   |   |   |   |   |   |   |   |   |--- intraspecies_interaction_between_organisms >  0.99
|   |   |   |   |   |   |   |   |   |   |--- metabolic_process <= 0.90
|   |   |   |   |   |   |   |   |   |   |   |--- truncated branch of depth 3
|   |   |   |   |   |   |   |   |   |   |--- metabolic_process >  0.90
|   |   |   |   |   |   |   |   |   |   |   |--- truncated branch of depth 6
|   |   |   |   |   |   |   |   |--- structural_molecule_activity >  1.00
|   |   |   |   |   |   |   |   |   |--- class: 1
|   |   |   |   |   |   |   |--- sulfur_utilization >  1.00
|   |   |   |   |   |   |   |   |--- multicellular_organismal_process <= 0.94
|   |   |   |   |   |   |   |   |   |--- class: 0
|   |   |   |   |   |   |   |   |--- multicellular_organismal_process >  0.94
|   |   |   |   |   |   |   |   |   |--- class: 1
|   |   |   |   |   |   |--- multicellular_organismal_process >  0.99
|   |   |   |   |   |   |   |--- metabolic_process <= 0.81
|   |   |   |   |   |   |   |   |--- catalytic_activity <= 0.98
|   |   |   |   |   |   |   |   |   |--- reproduction <= 1.00
|   |   |   |   |   |   |   |   |   |   |--- molecular_adaptor_activity <= 0.99
|   |   |   |   |   |   |   |   |   |   |   |--- class: 1
|   |   |   |   |   |   |   |   |   |   |--- molecular_adaptor_activity >  0.99
|   |   |   |   |   |   |   |   |   |   |   |--- truncated branch of depth 2
|   |   |   |   |   |   |   |   |   |--- reproduction >  1.00
|   |   |   |   |   |   |   |   |   |   |--- class: 1
|   |   |   |   |   |   |   |   |--- catalytic_activity >  0.98
|   |   |   |   |   |   |   |   |   |--- interspecies_interaction_between_organisms <= 0.95
|   |   |   |   |   |   |   |   |   |   |--- class: 0
|   |   |   |   |   |   |   |   |   |--- interspecies_interaction_between_organisms >  0.95
|   |   |   |   |   |   |   |   |   |   |--- sulfur_utilization <= 1.00
|   |   |   |   |   |   |   |   |   |   |   |--- class: 1
|   |   |   |   |   |   |   |   |   |   |--- sulfur_utilization >  1.00
|   |   |   |   |   |   |   |   |   |   |   |--- class: 0
|   |   |   |   |   |   |   |--- metabolic_process >  0.81
|   |   |   |   |   |   |   |   |--- biological_regulation <= 0.98
|   |   |   |   |   |   |   |   |   |--- cellular_anatomical_entity <= 0.79
|   |   |   |   |   |   |   |   |   |   |--- locomotion <= 1.00
|   |   |   |   |   |   |   |   |   |   |   |--- truncated branch of depth 4
|   |   |   |   |   |   |   |   |   |   |--- locomotion >  1.00
|   |   |   |   |   |   |   |   |   |   |   |--- truncated branch of depth 2
|   |   |   |   |   |   |   |   |   |--- cellular_anatomical_entity >  0.79
|   |   |   |   |   |   |   |   |   |   |--- binding <= 0.94
|   |   |   |   |   |   |   |   |   |   |   |--- truncated branch of depth 3
|   |   |   |   |   |   |   |   |   |   |--- binding >  0.94
|   |   |   |   |   |   |   |   |   |   |   |--- truncated branch of depth 7
|   |   |   |   |   |   |   |   |--- biological_regulation >  0.98
|   |   |   |   |   |   |   |   |   |--- small_molecule_sensor_activity <= 1.00
|   |   |   |   |   |   |   |   |   |   |--- class: 0
|   |   |   |   |   |   |   |   |   |--- small_molecule_sensor_activity >  1.00
|   |   |   |   |   |   |   |   |   |   |--- class: 1
|   |   |   |   |--- cargo_receptor_activity >  1.00
|   |   |   |   |   |--- metabolic_process <= 0.86
|   |   |   |   |   |   |--- biological_adhesion <= 1.00
|   |   |   |   |   |   |   |--- molecular_adaptor_activity <= 1.00
|   |   |   |   |   |   |   |   |--- carbon_utilization <= 0.99
|   |   |   |   |   |   |   |   |   |--- protein_tag <= 1.00
|   |   |   |   |   |   |   |   |   |   |--- class: 1
|   |   |   |   |   |   |   |   |   |--- protein_tag >  1.00
|   |   |   |   |   |   |   |   |   |   |--- class: 0
|   |   |   |   |   |   |   |   |--- carbon_utilization >  0.99
|   |   |   |   |   |   |   |   |   |--- intraspecies_interaction_between_organisms <= 0.99
|   |   |   |   |   |   |   |   |   |   |--- class: 1
|   |   |   |   |   |   |   |   |   |--- intraspecies_interaction_between_organisms >  0.99
|   |   |   |   |   |   |   |   |   |   |--- virion_part <= 1.00
|   |   |   |   |   |   |   |   |   |   |   |--- truncated branch of depth 2
|   |   |   |   |   |   |   |   |   |   |--- virion_part >  1.00
|   |   |   |   |   |   |   |   |   |   |   |--- class: 1
|   |   |   |   |   |   |   |--- molecular_adaptor_activity >  1.00
|   |   |   |   |   |   |   |   |--- multicellular_organismal_process <= 0.94
|   |   |   |   |   |   |   |   |   |--- class: 0
|   |   |   |   |   |   |   |   |--- multicellular_organismal_process >  0.94
|   |   |   |   |   |   |   |   |   |--- small_molecule_sensor_activity <= 1.00
|   |   |   |   |   |   |   |   |   |   |--- virion_part <= 1.00
|   |   |   |   |   |   |   |   |   |   |   |--- truncated branch of depth 2
|   |   |   |   |   |   |   |   |   |   |--- virion_part >  1.00
|   |   |   |   |   |   |   |   |   |   |   |--- truncated branch of depth 3
|   |   |   |   |   |   |   |   |   |--- small_molecule_sensor_activity >  1.00
|   |   |   |   |   |   |   |   |   |   |--- locomotion <= 1.00
|   |   |   |   |   |   |   |   |   |   |   |--- truncated branch of depth 9
|   |   |   |   |   |   |   |   |   |   |--- locomotion >  1.00
|   |   |   |   |   |   |   |   |   |   |   |--- class: 0
|   |   |   |   |   |   |--- biological_adhesion >  1.00
|   |   |   |   |   |   |   |--- biological_regulation <= 0.74
|   |   |   |   |   |   |   |   |--- transporter_activity <= 1.00
|   |   |   |   |   |   |   |   |   |--- virion <= 1.00
|   |   |   |   |   |   |   |   |   |   |--- multi-organism_process <= 0.97
|   |   |   |   |   |   |   |   |   |   |   |--- class: 1
|   |   |   |   |   |   |   |   |   |   |--- multi-organism_process >  0.97
|   |   |   |   |   |   |   |   |   |   |   |--- truncated branch of depth 4
|   |   |   |   |   |   |   |   |   |--- virion >  1.00
|   |   |   |   |   |   |   |   |   |   |--- toxin_activity <= 1.00
|   |   |   |   |   |   |   |   |   |   |   |--- class: 0
|   |   |   |   |   |   |   |   |   |   |--- toxin_activity >  1.00
|   |   |   |   |   |   |   |   |   |   |   |--- truncated branch of depth 2
|   |   |   |   |   |   |   |   |--- transporter_activity >  1.00
|   |   |   |   |   |   |   |   |   |--- biomineralization <= 1.00
|   |   |   |   |   |   |   |   |   |   |--- rhythmic_process <= 1.00
|   |   |   |   |   |   |   |   |   |   |   |--- truncated branch of depth 2
|   |   |   |   |   |   |   |   |   |   |--- rhythmic_process >  1.00
|   |   |   |   |   |   |   |   |   |   |   |--- truncated branch of depth 5
|   |   |   |   |   |   |   |   |   |--- biomineralization >  1.00
|   |   |   |   |   |   |   |   |   |   |--- rhythmic_process <= 1.00
|   |   |   |   |   |   |   |   |   |   |   |--- class: 1
|   |   |   |   |   |   |   |   |   |   |--- rhythmic_process >  1.00
|   |   |   |   |   |   |   |   |   |   |   |--- class: 0
|   |   |   |   |   |   |   |--- biological_regulation >  0.74
|   |   |   |   |   |   |   |   |--- biological_regulation <= 0.99
|   |   |   |   |   |   |   |   |   |--- translation_regulator_activity <= 1.00
|   |   |   |   |   |   |   |   |   |   |--- catalytic_activity <= 0.88
|   |   |   |   |   |   |   |   |   |   |   |--- truncated branch of depth 2
|   |   |   |   |   |   |   |   |   |   |--- catalytic_activity >  0.88
|   |   |   |   |   |   |   |   |   |   |   |--- truncated branch of depth 5
|   |   |   |   |   |   |   |   |   |--- translation_regulator_activity >  1.00
|   |   |   |   |   |   |   |   |   |   |--- sulfur_utilization <= 1.00
|   |   |   |   |   |   |   |   |   |   |   |--- truncated branch of depth 2
|   |   |   |   |   |   |   |   |   |   |--- sulfur_utilization >  1.00
|   |   |   |   |   |   |   |   |   |   |   |--- truncated branch of depth 2
|   |   |   |   |   |   |   |   |--- biological_regulation >  0.99
|   |   |   |   |   |   |   |   |   |--- class: 0
|   |   |   |   |   |--- metabolic_process >  0.86
|   |   |   |   |   |   |--- multi-organism_process <= 1.00
|   |   |   |   |   |   |   |--- molecular_transducer_activity <= 0.99
|   |   |   |   |   |   |   |   |--- biological_regulation <= 0.73
|   |   |   |   |   |   |   |   |   |--- growth <= 0.99
|   |   |   |   |   |   |   |   |   |   |--- molecular_function_regulator <= 1.00
|   |   |   |   |   |   |   |   |   |   |   |--- class: 1
|   |   |   |   |   |   |   |   |   |   |--- molecular_function_regulator >  1.00
|   |   |   |   |   |   |   |   |   |   |   |--- class: 0
|   |   |   |   |   |   |   |   |   |--- growth >  0.99
|   |   |   |   |   |   |   |   |   |   |--- virion <= 1.00
|   |   |   |   |   |   |   |   |   |   |   |--- truncated branch of depth 2
|   |   |   |   |   |   |   |   |   |   |--- virion >  1.00
|   |   |   |   |   |   |   |   |   |   |   |--- truncated branch of depth 2
|   |   |   |   |   |   |   |   |--- biological_regulation >  0.73
|   |   |   |   |   |   |   |   |   |--- cellular_process <= 0.82
|   |   |   |   |   |   |   |   |   |   |--- biological_regulation <= 0.77
|   |   |   |   |   |   |   |   |   |   |   |--- truncated branch of depth 2
|   |   |   |   |   |   |   |   |   |   |--- biological_regulation >  0.77
|   |   |   |   |   |   |   |   |   |   |   |--- class: 0
|   |   |   |   |   |   |   |   |   |--- cellular_process >  0.82
|   |   |   |   |   |   |   |   |   |   |--- molecular_sequestering_activity <= 1.00
|   |   |   |   |   |   |   |   |   |   |   |--- class: 0
|   |   |   |   |   |   |   |   |   |   |--- molecular_sequestering_activity >  1.00
|   |   |   |   |   |   |   |   |   |   |   |--- truncated branch of depth 2
|   |   |   |   |   |   |   |--- molecular_transducer_activity >  0.99
|   |   |   |   |   |   |   |   |--- biological_regulation <= 0.98
|   |   |   |   |   |   |   |   |   |--- cellular_process <= 0.80
|   |   |   |   |   |   |   |   |   |   |--- molecular_adaptor_activity <= 1.00
|   |   |   |   |   |   |   |   |   |   |   |--- truncated branch of depth 4
|   |   |   |   |   |   |   |   |   |   |--- molecular_adaptor_activity >  1.00
|   |   |   |   |   |   |   |   |   |   |   |--- truncated branch of depth 2
|   |   |   |   |   |   |   |   |   |--- cellular_process >  0.80
